encog,BasicNetwork,java,3.3.0,1,63578034025130
[BASIC]
[BASIC:PARAMS]
[BASIC:NETWORK]
beginTraining=0
connectionLimit=0
contextTargetOffset=0,0,0
contextTargetSize=0,0,0
endTraining=2
hasContext=f
inputCount=36
layerCounts=1,151,37
layerFeedCounts=1,150,36
layerContextCount=0,0,0
layerIndex=0,1,152
output=0,0,0,0,0,0,0,0,0,0,0,0,0,0,0,0,0,0,0,0,0,0,0,0,0,0,0,0,0,0,0,0,0,0,0,0,0,0,0,0,0,0,0,0,0,0,0,0,0,0,0,0,0,0,0,0,0,0,0,0,0,0,0,0,0,0,0,0,0,0,0,0,0,0,0,0,0,0,0,0,0,0,0,0,0,0,0,0,0,0,0,0,0,0,0,0,0,0,0,0,0,0,0,0,0,0,0,0,0,0,0,0,0,0,0,0,0,0,0,0,0,0,0,0,0,0,0,0,0,0,0,0,0,0,0,0,0,0,0,0,0,0,0,0,0,0,0,0,0,0,0,1,0,0,0,0,0,0,0,0,0,0,0,0,0,0,0,0,0,0,0,0,0,0,0,0,0,0,0,0,0,0,0,0,0,0,0,0,1
outputCount=1
weightIndex=0,151,5701
weights=##0
##double#5701
   2.127043044,2.398472141,1.7864476539,-2.5076489856,2.2387509067,-2.1462810093,-3.0655649494,-0.7590808839,-0.7827470292,-2.5743338934,0.4730178431,-3.0431492386,-1.0668182189,-0.9472576817,2.2007757817,4.1410138604,0.5385532934,1.3555005492,0.2004923844,0.3425438861,0.0785753865,0.3254560249,0.5544504124,1.5695137088,1.0376396157,-3.7127389304,3.6090427246,-4.0970824204,-5.1485733918,0.9698925674,0.5840373113,1.0009504402,0.403958245,-4.4825402173,0.9528733422,1.3745238787,0.91034874,-1.0596227824,-0.4558407842,1.2159483636,0.8824513945,-0.5600879162,0.7933605502,-0.5364084678,-0.7896024373,-3.6724803587,-0.9771187458,-3.7608952194,3.7217620566,0.8054558925,-0.482011708,0.6262759365,1.840089141,0.2422903099,-0.7803914849,0.8680377799,0.5709649995,-1.2568404537,1.7434137916,-3.3351540245,8.575001684,2.7688589354,-0.9294398715,-1.5697729214,0.2383056231,-2.9273344957,-0.1127482957,-0.8574409916,-0.5656114283,-1.912275523,0.6900849729,1.0496965592,0.4239773537,0.7429722024,1.2951051922,-1.8688335876,2.4816119203,2.7913934233,-0.433962086,0.1132791042,-2.3215826231,-3.2918422265,1.0188196471,-0.6099530124,0.5363172753,4.4826237856,-0.9525037862,-0.8412801154,0.846850512,0.7671917004,2.9050982838,0.2587613284,1.3109753362,1.5578543743,-0.889186412,-0.5633455477,-1.9940463217,1.7946554242,2.4158935607,-0.6161780432,0.1737546655,0.8784528952,-0.63107832,-4.4842604025,-2.8285410595,2.1704045935,-2.5227811502,1.5619577253,0.780003324,0.5900995178,-1.0320909952,-0.4725475539,0.9804675027,0.9982520416,-1.0034684522,-2.5534617724,-0.8921934497,1.4655131536,-1.7852335395,1.8762422904,-0.9229331502,-2.7714887796,-0.7059046629,-0.3122310155,-35.9965720663,-0.9588745436,0.9221368093,0.8688189432,0.2542968038,3.5864495509,-3.2717492596,-0.7175622741,1.5614203834,-0.8259535868,0.9532845961,-0.6729979143,-3.0167728449,-1.6151813549,0.8884320739,-2.2838852729,2.1120718333,-0.2432741025,-0.6272545344,-2.4550498312,2.0923073653,2.3687733444,1.9816002685,0.4922570377,-0.2412504093,2.7496887607,-0.6694490308,-2.8511248247,-2.5108038402,0.3622427211,1.3305863294,-1.7106649021,0.0907468699,1.6332485837,3.5693645458,-0.5728388157,2.0815752289,-0.0587491145,0.7642916909,-0.1218845631,0.2534030369,-0.4204449223,3.5225186118,1.6279530354,-14.7405766247,-6.1123807673,2.7755529404,0.4718450613,0.9664975871,-6.9711270144,3.0191311856,-4.5516397189,0.5757750196,-6.9827944192,22.0961714292,18.864402763,0.2840164275,-0.801174078,-0.8466559848,-3.0932475927,-5.4210155893,-0.3990052374,-0.1863220144,-0.3029846232,2.9837043031,-0.0901426552,1.4096730101,0.1798723464,-6.1815659481,0.8450846843,-0.1636395676,-7.8874635551,-0.7109957263,-0.4623303026,-0.637765988,0.1508953896,0.2451463407,0.9835397032,-1.6268761499,3.4269310331,0.5847594617,-2.6680003168,10.0106789691,-1.039426235,-0.3982226753,8.5664499706,4.0604370283,-1.2791482633,-3.8341494313,0.0928323218,-5.8186559418,-0.087167,3.0360417577,0.7077881909,0.1335530119,1.8103164685,-6.5289998096,34.9651415498,-0.105407137,-0.0381490546,0.265898407,-2.0767477574,5.2628708532,-4.3951505419,1.8083362432,3.0305257491,-0.1828469466,2.4238586072,-4.7142045456,1.7993822429,3.0211857353,-0.3626316142,0.5994653857,0.0064360554,-0.7851108822,0.2795620843,-1.1380622167,0.6786770879,8.1236579072,-13.7804171441,2.640532282,-0.9658369822,-0.1737343528,-6.717479712,-0.380456985,-4.4970415938,-0.0719794142,-0.2409225156,-2.1848437323,-1.627952128,0.5095245885,-0.1208724394,13.7038187969,1.2612648361,-6.7657345378,-0.5719999054,0.7349578886,-0.8578785019,-1.3231694107,0.9688106525,2.5774294244,2.1207306956,1.6742055138,-3.3855209266,-1.9865679666,0.024648626,-2.3579752466,0.7735347031,1.8388559887,2.2300232081,1.4117448353,1.5415747609,0.8720549197,-0.2588915035,-4.8158320647,1.0595498395,-2.7956392917,121.7571255848,-0.3446325051,0.3957539827,0.8027620543,3.8464353373,3.8492411498,0.159880621,-5.0816495526,0.1137881733,11.3053190757,1.0077521612,-0.3996696991,3.4762504718,5.0184125738,-0.4883703219,5.1879196553,-0.856741866,-0.685853535,0.8392306449,-8.8546568717,-0.9373908735,0.114360231,-5.9645301371,-1.8928346685,5.2646214247,74.7712632496,3.363257077,0.3346710964,0.9686952416,-1.2272673676,-0.1491062181,0.8470467352,-1.3206372378,-9.5466558851,3.1392014179,16.0505174252,68.8631886688,0.1121909199,-0.766734911,-1.2269122118,-3.1650562978,2.4493506291,-4.0998085064,-0.7837449423,4.7931646191,41.3700764984,17.5986185268,-0.8472639124,-0.7845341748,2.2059259916,16.7663408233,1.5611886565,-0.2302467788,0.4323388792,0.7125216086,1.4505946824,1.8994206254,7.674454638,0.6550908919,0.9153808224,-7.0865178027,-0.6055649629,-6.5628772187,4.5651447004,0.8070923255,0.8318293803,0.6811774399,-0.685648911,-2.2645312908,2.246719244,-1.9630502689,0.6918716766,-0.8507414667,-4.7335755821,0.019335474,-0.7788813113,-3.5912688777,6.6714004277,0.5915619483,4.5992924493,0.2536868422,-0.3278668451,3.9810728666,-0.9844469973,0.1105803953,0.6473452401,1.1710490702,0.3180418854,2.1924134405,0.7319101597,-0.9049289375,-0.3194770761,-0.0639754399,-2.7420051927,-0.3177539115,-3.1929483331,2.5326405971,7.5353353904,-4.2126060878,-1.7378987382,1.0122934166,0.7460073173,-1.4872391286,0.5437440976,0.4230415249,0.466107501,0.0900767174,-1.9252516736,2.1017048577,0.0052770783,8.6603730977,3.7819270274,0.3027153971,-4.3095412782,1.2040936874,5.6945190057,4.2970557152,0.5510738043,7.3518705648,-3.7083633083,-0.5756053795,0.6383958716,-0.0557537875,9.5746268183,4.2804321921,-12.102248637,-0.1703138778,-0.2896787931,0.7401118858,-0.8790540106,-5.8293195169,-0.8480223586,-0.7434209547,-0.2466086544,0.9855767502,0.4140261678,0.8848553892,0.7758358594,-0.6278475955,-0.0757122753,0.0342128491,0.893039541,0.1308033008,1.0773263102,-0.8858037613,2.5684372208,-0.4400625189,-13.9708229953,0.2825702316,-0.1979729623,2.4400091782,8.2344472563,-8.3018238461,4.009388137,-0.7983145135,-1.0288264998,-4.7668654633,-13.1809267539,-0.1478059672,0.3516303931,-0.3502519092,-1.6750442876,-0.2665431235,25.700720114,0.1732800748,-0.5346156847,-0.4512807522,-4.0386031664,0.1661954388,0.7104193302,-0.2738545159,-6.696346651,1.0603067018,3.0196979242,-0.1835813205,-0.8254818708,-0.1432161958,-0.1280762194,-0.6311945185,0.2241508197,0.5014228923,2.0572881901,-0.2556092058,-0.7710918184,-22.457470931,0.1386048423,0.059682651,0.1080159053,0.7530474115,1.7449786652,3.6128923512,-0.6418665758,0.3871534173,0.4077805103,0.0720633213,-0.2559685194,-0.0919869044,-2.9178611977,0.5035816501,2.7270752286,0.1651605589,0.7903155171,-0.4963545678,-0.9778328993,-0.5365437739,-0.0917255663,0.8571438569,-12.8518902366,7.6073252463,-0.813290635,1.4515673905,-0.8378427367,0.6568345859,0.1715871726,-0.438450046,-0.5388911288,1.5218989749,1.0065905602,-0.2395561528,1.8228618139,1.7527710454,0.5276458904,0.1290724288,-0.1194036012,-2.538897113,-0.5590908329,-0.7671346463,3.8248830198,0.3097239227,0.2939280745,-0.1992386634,-2.1585334282,-0.3723927559,-0.211955859,3.8016707468,1.2173549231,18.4187475242,0.5172095015,-0.8941281754,0.2513993458,-7.4374120319,0.4681758016,0.9104311302,0.6107508202,0.2870470711,-0.314284886,0.9525045808,0.7830790961,0.9680933435,-0.6491818535,0.2624779438,-0.7966835308,0.3319733951,0.0375937303,0.6027384027,-0.7140708469,-0.5973182596,-8.2364103576,17.3382920498,0.829860426,-0.4897178279,0.4888996697,-0.1520317807,0.9672245527,-4.7871544548,0.6442957537,0.7806783525,0.0361305209,-24.9998215425,-0.7289924581,0.5853493258,0.5727509895,-0.8471392741,0.1649128969,-9.0113959945,0.817370397,-0.9105019845,-0.0642092114,-2.898942979,-0.6741903209,0.2936620483,-0.6305938394,1.1757511465,0.4470909241,-1.9351035667,-0.1446020934,-0.2265536746,-0.2389401928,-0.1764972206,0.1179965936,-0.9443259273,-0.2485067555,-0.7671886058,0.1309618612,-6.9765382994,1.9145679421,-0.2127065145,-0.8315092129,0.1199974495,0.1786024342,-0.5190211226,6.6282930818,-0.4945104092,-0.0555577883,-1.0164310014,10.8898441143,-0.1217553418,0.9929117225,-0.4342157505,1.919235524,-0.0510152946,-0.0021148107,-0.1427878743,-0.6956557376,0.2402295458,-0.5831426296,0.9108541805,0.9072003017,-0.4488872179,-1.5708828792,-1.815954932,-25.8053681845,-0.3867582678,0.3584033005,-0.8726229322,-0.8736580507,-0.3634501402,0.8381590801,0.1516289294,-0.8281539844,0.8263106539,6.0642540886,-18.8593035539,0.1745046103,0.4395159369,1.0837241726,0.5952638226,-0.9394684819,4.1040453719,-0.581457896,-0.7307534331,3.4232748298,-11.6836380318,0.4169633356,0.927721125,-1.6473111309,9.3099368795,-3.5464943768,-3.0281593671,-0.04224267,-0.3435848421,0.3887380596,-0.5881542183,0.200532431,-0.5800033636,2.2957151896,0.3780977559,-0.1505876295,-3.5585994619,0.558489552,0.9816180469,0.5045263614,0.1702992034,-0.9271855367,0.328560478,0.3764372442,0.016501452,0.5432382556,-0.0538654389,-0.8998163569,0.5750300882,-0.0026641418,-0.3225729033,2.9010182047,-0.8169496669,4.0525523753,-0.052562689,0.3737274933,-0.6109610101,0.1762800325,-0.5371633861,0.5897172725,-0.2094982175,0.7413439169,-0.3043895181,-0.2820721677,-0.8133205473,-0.6496133239,0.433198499,-0.881257421,-0.7376500207,0.8034615686,-1.3275821695,-1.0937208038,-4.6131662675,3.6140479254,0.3563601884,-0.7746503425,0.7409449149,-0.4717524381,0.926952032,0.6543728207,1.2292891715,-0.6657716073,1.3453294875,-5.0148606595,1.5937899236,-0.523214475,-0.6456060566,7.3584831917,-4.3739699901,2.7539593603,-6.5073496937,-0.2115395652,0.0766681379,3.1191561648,-8.9781151543,-0.1786659875,0.2481587591,-0.7280285658,-7.4034429078,-23.8202353609,0.2966167181,-0.3087573598,0.025298457,-0.8234684002,-2.6152547538,-1.2441306016,-1.5964314189,1.9996239188,5.588980575,0.2390754572,-3.1071499327,-1.4969887031,-0.693335224,0.4081381486,-0.4712363088,-4.9828235125,-0.7162795233,-1.9646304922,-0.8833986244,-2.3947382885,1.2544844137,-0.714541162,0.2746382963,-0.9262092318,-1.7209034229,-0.8769674143,-1.8891910909,1.3130745977,0.6824947119,-1.4469537472,1.4080277076,-5.296531965,1.0921607052,0.2662439129,0.2669656502,-0.7326310858,5.7838078343,0.5820874479,0.7117405905,0.2701240031,0.7765485023,0.2760669718,0.1974100536,-0.5951076171,0.0854194914,-0.8100202816,0.1920170443,-0.1506328375,-1.7641081668,0.3681790541,-0.854843883,0.212930495,0.9479342054,-0.213695502,-0.5342371966,0.3575600913,-0.4697556988,-0.6374852871,11.0108059299,-0.5432675736,0.9490089379,0.0206552164,0.8638632721,0.6797209625,-3.9038964,-0.0452024606,0.1743026846,-0.8243446655,1.0079986246,-0.1941221546,0.5946686992,0.1695048474,0.2156151209,0.1137050066,-8.1093185659,-0.7741351108,0.0774103758,1.0588817879,16.4396083819,-1.0145215833,9.7438488567,-0.7507841007,3.7808011717,0.1970489276,30.8707217175,10.8127019953,-1.1058495078,0.241907267,-0.4978254586,1.6667346673,0.3604084377,1.1074951146,1.6110208795,0.9977952256,3.5082848461,4.4378188207,-0.2337576085,-0.1229890292,0.1665945266,-10.2875293217,-5.5305095701,-5.3068029154,-0.9126319866,0.5290961513,3.597227735,-4.5010105389,-0.2218184866,0.7113614006,-2.3128745051,-2.3588316482,8.8175548174,0.4879195338,0.2490549959,-1.1160595283,0.9928633146,-1.3781455091,0.3620659234,0.5703486878,-0.9198860092,-0.262170487,-0.391970559,0.9823975063,-0.3546027828,-0.0930098495,-0.9573861903,-0.329689478,0.8157325281,0.7281923723,-0.8150739842,-0.1779489146,0.532986554,0.5843414723,-1.485302907,-0.3486859755,0.9519315297,0.3299389969,-0.4268469343,0.0353300701,-4.9957686786,-0.0971750147,0.5665557376,-0.8198942919,3.3002682119,0.2677828221,-0.495563396,0.9397411449,-0.6345399615,-0.8525078109,-0.4329146875,0.4912905095,0.2273256001,0.9256058348,0.2637649478,0.8506408463,1.051055399,0.4257387488,-0.0761302916,0.6065570044,-2.9726976459,0.6510197114,-0.2014613093,-0.256482425,0.5917115087,-0.901085191,-0.70121181,-0.3883966829,0.1673617567,0.6566886053,-0.2553880395,-0.4593699583,-39.6356093012,-0.4993798758,0.4905268984,-0.8387076627,0.453969154,-4.5975397946,0.2108532177,-0.1489712116,-0.865117403,0.9521776378,0.2316268253,0.5030134178,0.1982593742,-0.0150907401,-0.8506175414,-0.0326433488,0.8512604096,-0.1549152387,0.6577681302,-0.202253952,0.2842420662,0.280456347,0.9906427149,-1.6669303261,0.8603345719,0.5634265483,0.4360319353,-0.2793303198,-0.4240735431,0.7108028458,0.1708032704,0.7719196425,-0.0232673899,0.0976836747,0.0956784944,0.5900398587,1.9357450768,-0.0374753138,-0.8302945354,-0.5037746278,0.2906700636,0.5010119956,-4.6272616109,-0.7952332235,-0.3549127476,-0.9992033245,0.0658653235,-0.1859300363,-0.4359747439,0.0913303896,0.9163941995,28.6197869722,-0.0609140269,0.4839593915,-0.667970066,0.5008492076,-1.5877662625,-0.4866805721,0.0875044958,-0.5239598222,-0.7875446069,0.2271203006,0.8720887157,0.4983173911,-0.6453563697,0.017011042,0.5913681701,0.1941436403,-0.1684245321,-0.4982943661,0.0205611909,-0.6523106933,2.5527939157,-0.1615937754,-0.314572367,0.656223581,0.3965881036,-5.3424549478,-0.3691863192,-4.3352085304,-0.985380494,0.4489281047,-0.7842311649,-0.7001236033,-0.7732070495,0.2268154571,0.0088811871,0.6820877223,-1.7572453135,0.286506013,0.3477803848,0.0472734837,-0.1738001411,-0.5689471434,-2.2704001548,-3.2114443737,-0.2374684713,-0.255801098,0.1596832409,-4.955528438,0.8920482434,0.8484297328,-0.8286643915,0.7506803759,-0.9472856006,0.4355393926,-0.6873553124,-0.1794547081,0.3712573694,-2.5861236953,4.4423093026,-30.1523612618,0.2819047017,-0.659175524,-0.6144836641,-10.0447702621,-3.7475534372,-0.5998108217,-0.1117368684,0.9225426875,0.4288157201,0.9113078743,-0.7721137916,-1.1206657673,-0.6789052563,3.0583631836,-7.965368287,0.9519311441,-0.4597911215,-0.4895405863,37.1666023181,-1.2937814789,-0.718780697,0.9217157159,15.7862215373,-4.3777591232,0.0558860255,1.1826189297,1.438462939,2.8029329541,-0.0813955586,0.267847124,0.1753416708,1.0979398015,2.3493820073,4.3616283737,-10.5234600502,17.6754116262,0.4561142946,-0.5017526781,-2.0797388303,-4.1628223743,21.2170279434,-2.7234207301,-0.5000480914,-1.1773202555,2.2287621575,-2.5051292377,0.4527198849,-0.3125223673,-4.9156953448,0.2163414235,5.7640161407,-0.5731655507,-0.632599457,0.2485271055,1.7337780196,-13.4685156594,-1.6896123509,15.9168800743,-0.6775782101,-4.1129244935,-2.7338885543,25.2224591418,0.7820675897,-0.3210442569,2.9884741072,0.3251639354,0.4517561193,0.781741089,0.2361341836,-0.6096509853,-0.1797153866,0.9785993836,-2.2924819341,-0.1948604246,0.3371560682,-0.3755871772,-9.8746324821,-2.3601595775,-3.7174312683,-0.0943563297,1.7577044833,-9.1785285473,11.2531767366,0.6472019489,0.6794546329,-1.5119083524,7.48178851,8.7671992457,1.4589611039,-0.0924965698,-0.0340877138,0.8998206598,0.0958744984,-3.3514672395,5.5467589707,3.2644419178,-4.3299684166,0.1129032916,5.6007456445,-0.4898923701,0.2879430118,-0.0981162395,0.4598906225,-0.2743693305,-0.0940307719,0.2548018925,3.3063165584,-0.909477981,-1.806991788,8.4549201751,-0.6287022409,-0.2029171778,-1.3788993355,2.2956455068,-0.5638774638,3.5279935338,-0.9515062691,2.2918960046,-16.3375081208,-5.9985791498,0.6510960176,-0.0301651522,-3.3202262183,-3.7910884799,3.3411733015,14.3248169224,-0.9783723792,-0.2279185068,0.196091779,2.4286894945,-0.6244042789,1.2340793031,-8.2291501592,5.363104364,0.473163707,0.0493067496,-0.5293424471,-0.3799943017,0.0494967395,-1.0189608378,0.810438842,-1.4833489696,1.0915384674,0.7379971405,-1.351661371,-0.1500011233,3.1170985888,-0.0882208958,-0.3467656585,0.7764077229,0.8505852539,1.6451270928,-3.8905580218,-0.9499107515,-1.5648611915,-1.7890149899,-1.8695997324,0.578770225,0.4726437188,3.7406464733,-1.0172159457,-9.3581428356,0.7724897969,-0.147019222,-0.0220904262,0.3236845545,0.7020280754,0.7539296218,1.4467302797,-0.0069928346,-6.1056369981,0.0881483226,-5.266004105,-0.442767139,-0.8399416068,1.8640070888,1.8402361945,-0.3915588582,-1.1067723063,-1.5015281838,-2.0076167573,-2.3380443013,2.1184382182,-1.9162633772,-0.4578628603,0.1493717186,1.035247464,0.1315197111,16.671614317,1.3148918083,0.22208075,3.782360644,-5.2785006548,-2.9066483745,-0.8145125629,0.4912497408,0.3916250061,8.8520963818,-3.2620460982,-2.4093624154,0.6155704519,-0.0771723029,-4.4564469641,-2.3563717553,0.9571066537,1.7948620192,-1.1716783053,1.2936030966,0.6220372653,-10.6857007306,0.7589943178,-0.7767479493,-0.8110268522,-0.482138398,-0.6991927057,0.4668468746,-0.5288242161,-0.9360346696,-1.365693153,-4.9346424334,3.744671555,-0.7116714204,-0.8638105625,1.156560509,0.0732697768,-8.9463486433,15.9327730396,-0.9802855262,-0.1653078939,0.6857021052,-6.3314280736,0.8843820008,-0.9955767915,1.0934347206,0.944107007,2.4246203486,0.0162244543,-0.9964188822,0.6478738876,0.3545710172,-0.5127855558,-0.6724128035,0.3236264152,-0.5303274266,-0.5750546528,-0.3158439906,-0.7142285664,-0.7106190906,-0.5673418576,0.7156482708,0.3874205297,0.5621235396,0.2385809502,0.1132489635,0.739816289,-0.4637806948,0.4663010774,-0.3822634668,-528.2314833607,-0.2104801429,-0.6487752414,-0.4047216115,0.6359317248,-7.2848362418,-0.6742302085,0.1524958734,2.8773586785,-1.6348382323,0.8604022415,-0.7628423394,-0.8733998759,1.8625041676,11.7127311897,-0.4847669198,0.3634447117,0.3496190041,-2.0514135774,-6.0741323482,0.7092672772,-2.3946107295,-0.7928936205,-0.8496283407,1.3773553608,1.4624075028,0.3245223777,-0.7028528442,0.5252468033,-0.6215035905,-0.1805628928,0.6006235321,-0.6274477798,-1.1734567235,0.0418468335,0.4931275394,2.9663754818,-144.1624289519,0.8642943817,-0.2107314272,-3.8404452155,1.0673806969,-3.7473450141,0.9806765895,0.6652516491,-1.0411618817,-2.3785490311,0.1162290888,-0.4093300418,-0.6238072206,-0.2640320794,1.761550916,-0.4428596567,0.4129970965,0.0854007304,-5.2959439259,5.2782926789,-1.0614917927,1.8902765126,2.0806792978,2.8826217804,-1.7378191563,-4.2246852684,0.2236796893,1.0851324369,2.9359681157,0.7570687115,0.6220839283,-0.6384864064,1.2521183476,-0.8856800237,13.9838442109,2.1709814958,3.2693478733,0.7393801668,-0.3447038389,0.7751765467,5.9604212098,0.5968201042,-2.6965388928,0.3251404442,-8.6627303383,-2.8312716237,-2.6866407431,-0.5563653079,-0.0412598713,0.4133020214,-2.5053997476,-0.0928835235,-1.208026232,0.3674546729,0.8290427258,0.4510968089,-1.0350742074,0.6012646755,0.7380789032,0.979203271,4.8410544167,0.6890826124,-0.7584110538,0.0971930157,0.732796161,-0.6836336754,-0.4678685646,0.8386394774,-1.7352561131,0.3351038269,0.1830596892,-0.1646825921,-0.3711148142,4.1755771171,0.219800446,0.3318321907,0.2017054056,0.0320498454,-0.0410089287,-4.5975085767,0.8597715366,-0.1416048139,0.0599968055,0.4012620106,-0.3873278382,-0.7819169442,0.3573778676,-0.5095274985,0.7345439336,0.0399235262,0.5257422214,-0.7432745666,0.4089095689,1.0699821235,-1.0107061861,0.5636482515,-0.6091323679,0.3146818196,-1.1637500181,0.217165482,0.4344477669,-0.7871262191,-0.1684547528,-0.9881832564,-0.0700768872,-0.786439011,0.6008020456,-0.8568879772,0.8133249634,0.9212381251,-0.9020995199,0.0192253666,-0.5553524455,3.4752271895,1.51580828,-0.5121707159,9.8671232429,0.0495979148,-0.6070874297,3.5667246882,-2.1381704813,0.8917933793,-0.869358696,-4.3120413978,-0.2915105415,-2.4659083132,-0.004216236,0.2214728283,-0.8548048044,0.9988180269,4.1732577947,-0.7984727841,-0.1552277482,1.3856040462,-1.1923168949,-0.8187748057,1.5511041424,0.5094613491,-0.0148448633,0.0100522234,0.5205913351,-0.6864222208,-0.5464849946,-0.2967310316,-0.6898217283,-3.3313093868,1.5891340609,-1.8691539566,2.4280122619,0.1236886797,5.2493097336,1.2336463086,4.4957381459,-3.5525030364,0.8786056516,2.4031839949,-2.6519083207,2.9118966355,-0.4669999149,-0.8292970144,-1.3950767352,0.1055457649,-3.8276766272,-12.9546767762,-0.5098087813,-0.48255355,-3.7963897729,9.4369226685,-0.8790403978,1.4465432635,-0.7886936312,-2.4156308713,0.2844440189,-6.6844504801,0.0933723944,-3.4376114735,0.4784775708,-0.0498663709,0.5931630503,-0.666069712,0.4727983811,1.543214872,5.3266869874,3.0809540884,-6.3364870391,3.2704795249,0.9206927726,-0.9676319789,9.0831785385,30.0243462816,-4.3412683242,-0.9212119141,0.5782751545,-3.0216297313,83.4704998742,-0.4729282125,0.8582246983,4.6033328084,1.7806330294,13.8895070666,0.4835972951,0.1018277477,-0.0971766259,1.2791386793,3.3956596364,0.4059675056,0.7988502294,0.6643810779,2.2171246814,-5.4324289409,3.6687036559,0.8763475398,0.9494442804,0.214036119,-0.1934263917,-1.2544259772,-1.4879289533,-0.7648305446,1.0412232433,-0.7326249277,3.1984957096,12.7488523501,-0.4916968824,0.1114310683,-0.2488887523,2.5375320662,-0.8888459324,-4.7402993093,0.1978125485,-0.7904347989,-0.2958078815,-3.9460593083,0.8704280762,0.1365304138,-0.5153390565,1.3852364376,1.9472921969,0.0579727074,0.1320862552,0.962027298,1.030682829,1.1890188198,0.0502890517,0.456476807,-1.063765622,0.399817088,-2.4932614706,7.1947108243,-0.79489797,-0.3919822333,0.4014235492,-0.3638437139,0.2997881804,-0.0906048145,-0.6151194008,-0.5386501966,0.0153668144,3.4279220427,-5.2849182233,-1.5853092511,0.7640431858,0.1640443779,-0.77930241,-32.8098773035,4.8381481604,-0.3686132596,0.1993623963,-0.7744852437,0.3225099115,-0.4332179427,0.3369603731,-0.2447460163,2.986094524,0.0648282241,0.6199683553,0.1945934571,-0.4439881269,0.6089236279,-0.5490419524,-0.8691924255,0.232647631,-0.8350030051,1.482569401,0.439180544,1.9653573046,0.0183263674,0.3847583401,0.2685006142,-0.1041381069,-0.0724792655,-0.8448675298,-0.4892448468,-0.3905372011,-0.2183780828,1.7324585417,-3.1649093302,0.3577525046,-0.3183119098,0.0903154174,-1.5705067606,-79.4627812905,5.2342079883,0.9105310402,0.6238571199,0.9663897218,0.792921333,-0.0083580304,-0.2149328008,-0.3389524578,0.0527734757,-6.1370972746,0.6847877146,-0.4656211824,0.0991233266,1.7267706987,-1.3546755389,-1.1686012998,-0.0838073698,2.1884753186,-1.8087162626,-1.9524122754,-2.3979883946,0.0093569963,-0.7969704515,1.1613069346,-0.1811272938,0.0573264515,0.1672204888,-0.4640751087,-0.4657165749,-2.0044185383,-3.8074601533,3.9088078304,0.1258650962,0.7405303632,-0.1713956755,1.1067582364,0.7116783432,-3.6726080669,-0.487874218,-0.4280335765,-0.7278480328,0.2020721364,-0.0019461077,-0.0196738136,0.8786209182,-11.517883034,3.9292545437,-1.4170928304,0.0147494176,-0.2032917717,-3.0438104869,-0.1517627467,-0.1790439442,0.41003415,1.0377516438,-0.548730278,0.6996336589,-0.0465497914,-0.4985685214,0.3195316652,-0.7345920849,0.1714920243,0.3561077364,0.9008000694,-0.4665543481,-0.3953789988,0.6097776997,0.1259706433,9.5693171626,0.7004226968,0.2470751997,0.0610969571,-0.8363313947,0.7865631506,-4.2756265995,-0.1270675646,-0.2503161654,0.0645802245,0.5904553551,0.8264073265,-0.5472363017,-0.8421319652,-1.005835312,-2.5332373979,0.1928338196,-0.1376153422,0.2168273237,0.482314755,-1.0368454754,0.3088205807,-0.5067231669,0.742046166,0.3217885418,-1.0262850883,-0.381087808,-0.246400309,0.5197150485,0.6027589442,-0.2909677307,-0.6961722169,0.8880122775,-0.0824219928,0.8907212125,-0.2345918821,0.9472768204,-2.3146130335,-0.341880011,-0.8068707156,-0.6929170653,-0.0429148386,0.3037617668,4.7285977394,0.3068355877,-0.6964427725,-3.9555805704,5.5643422654,0.4909628895,0.261387156,0.2376035392,-0.0561559535,-0.4965465151,0.2637832194,-0.7535220961,-0.5750632003,-0.1555480093,-0.9943887701,-0.6056721202,-0.3922890643,-0.6433748425,-0.9305172843,-0.1275841808,-0.0055890975,0.0955434317,0.7259326028,-0.1338618975,-0.0527523497,-0.2034303801,-0.7131839755,-0.108917,0.1388969933,-0.0875077676,-0.2233652452,-0.7078488886,-0.8070752858,-0.8661021711,0.7872724463,-0.9002767636,1.0806266053,-4.6687675758,0.2002239438,0.7048746066,-0.0109414216,0.2492738064,-0.5485286392,-0.2979638834,-0.2323861905,-0.2181060455,-0.7432967557,0.517244265,0.8319851709,0.5158176276,-0.1295148464,7.2122523741,-0.1677301624,-0.2858943976,-0.3166012048,-0.8131809532,0.4639537792,-0.1978087714,0.2104695237,-0.2020803788,0.6754322065,0.4070724079,-0.5607127775,0.5696788293,0.3534419464,-0.5593408141,0.8441405229,-0.2251403526,0.4076372741,0.5288200201,0.1080328343,-0.652818721,1.159559004,-0.5789465922,4.9540892176,-0.1333944607,-0.4270253358,-1.1858746319,-10.5611185452,0.7746679267,-0.6902730016,-0.60061761,0.14243172,0.5873884872,-0.557865198,-0.1103297468,-0.9799240864,4.7964246666,-0.3790781522,-0.0989891384,-0.1695995924,0.2699528159,-0.4187878552,0.7881979914,-2.9371170953,-0.3367191538,-0.0955224089,0.5081601159,-0.0297222579,0.8826475323,-0.8705204099,-1.1768485708,0.5335050835,-0.8331257487,-0.7702229932,-0.9817918829,0.435525768,-0.8154121432,-0.4194539,-8.5578551282,0.0286627514,4.625109445,-0.222860417,-0.2113604493,-3.2742846026,-1.9858705759,-0.764309398,-0.3922909039,0.5755484463,0.8350252589,2.1960926963,-1.2740031267,0.0319865546,0.9193921258,-1.3949222177,4.3393570652,0.4655846986,-7.0508721813,0.6541538348,0.9562609488,0.9472350829,8.1863120465,-0.5507883023,0.1216642328,-0.4895107796,-0.9342853267,-0.985069632,0.0811794813,0.1465187065,-0.9704371831,3.4273398092,-1.6154517196,6.7691219638,0.1288994896,-0.4802962111,2.091787847,2.1580324165,5.9240147608,4.7337102431,0.9689823417,-6.5080456981,2.8067930067,-18.4556829676,-0.3254782417,-0.9454663871,1.8278813949,-1.2945961222,-7.4285492665,-2.1936681383,-0.618560423,-0.3188005634,-0.7800902918,-0.6892553078,-0.3587473264,0.3113471714,-0.1923844284,0.8638802709,0.2441102859,-0.5673952011,-0.4145664682,0.7512357537,-0.0531103608,0.3952219759,-0.474992232,-0.5360183003,-0.526467782,0.8391507511,0.1128167877,-0.6039306448,0.7961027141,0.6597679039,-0.1123735128,-0.2651336358,1.9508157552,-0.9930080506,4.1160668716,-0.9617764456,0.8336022287,0.8298881735,-1.3662632308,0.9215982805,0.2313554563,-0.1612127461,0.7626204291,2.7126984134,0.5881150106,-0.5947401959,0.4965120536,-0.810314137,-1.0602667548,-0.7912814486,1.2760435427,-1.2382004784,-2.4900165099,-0.0467838962,-1.773719987,-3.9212321794,0.1896611321,1.0696789315,0.7118124584,0.5050904457,-0.8754267311,0.1911613979,0.5533902816,0.7556992485,-2.5240423213,7.6620971793,0.6446338205,-0.7704994081,0.8778970425,2.9861175301,-3.8415024423,3.8459801579,-0.7935793771,-1.1105481098,-0.3279192666,-1.5363020985,0.4797648513,0.7631835284,-1.2190497931,-1.5380804095,2.8198212362,-0.1410784943,-0.169376344,0.0458795036,-5.1607179564,2.8396150139,0.4287560953,0.6153483874,-0.6489096769,0.1093874374,3.1458075039,0.651246592,-2.5527012296,-0.5708759309,-0.8649365602,0.9998979404,0.6264210907,-0.0432584863,0.8601038488,-0.7725939472,-0.0706978649,-0.1215652998,-2.7148663456,-2.3767616419,0.346898196,1.0468191167,0.6186637647,-8.9212097717,-4.7802952246,0.4263054335,-1.038039684,-7.5608803076,-0.2320631191,-0.3619349212,-0.351166886,-0.5591205005,0.9437692805,-1.8109150149,0.270667796,0.5913891669,-0.4191844598,0.6948130087,-0.9625478037,-0.3595221898,-0.5456804429,0.5033479179,0.0139491735,0.3836929599,-0.0545201388,-1.2703771102,0.0436323226,0.1554302515,-0.0506863849,0.5546270695,-0.4754163082,-0.2895589003,0.128345726,-0.3609535538,-0.1149732578,1.7045978646,-0.519743176,0.0292378017,-0.729143334,0.5094553795,-11.7567797264,-3.5325867777,-0.310441286,-0.494933881,-0.8494083304,-0.9641477647,-0.885653679,-0.0084286942,-0.1958148297,1.0588276324,-1.9763835591,0.7465595855,-0.348256746,0.2311675763,1.419263652,-3.1568669806,0.0633499897,0.6003869506,0.8260445384,0.653515173,-0.1186261357,0.5642388325,-0.5301470946,0.2049729197,-0.3431553426,-0.612010714,-0.4661072489,0.982188831,-0.5753602004,-0.3316804399,-0.4073295361,-0.2995450437,0.3487745839,-0.2914878361,0.4484295423,-0.5883919761,0.8334157461,0.7308752324,4.5377241705,-0.9613242103,0.0529194624,0.299219525,-0.6279567906,-0.8869289516,0.6679038963,-0.1604972857,0.4947197174,-31.1433283115,0.193216541,-0.8063413369,0.0673786616,-0.2034165247,-0.7406353708,0.902537136,0.1780767857,-1.5921729538,2.1573242725,-1.6104342768,-3.5592239361,0.1030532768,-0.7070505432
   -0.9836618607,0.6328235054,-0.9264788937,-0.0357460904,0.8011632127,0.1774538475,0.1496370618,0.8559769957,2.9357432791,0.4576900536,0.8548057619,0.1093196084,-0.3701146014,-2.2195620607,-3.6231873651,0.4121770297,-0.3213089453,-0.4093800629,1.8095933275,0.4596318975,0.4543080448,-0.177685607,1.1788085375,-24.5706313394,-0.4848631529,-0.3937152295,-0.5474795804,0.7244451672,2.7863867125,-1.3514096375,1.9057092826,2.5415129049,-13.0648052777,0.0893369987,-1.7567305679,-0.1242891222,0.5543333206,-0.9861202802,0.2284235303,0.0761798704,-0.2230278854,0.3879133327,-0.0047144599,-2.7227935775,-6.8575345511,1.0397099793,0.1462810789,-0.8682623775,-1.2252066568,0.1905307788,-4.0846116224,-4.2798229815,0.7831939476,1.4568187076,-2.712738409,-19.635809556,-0.2548267286,-0.3663722916,2.0779729977,-9.7307085392,3.3871854144,-1.9339534473,0.8423633593,-0.9769554997,0.6818227429,-0.3691279597,0.0725237551,0.8224645034,0.9137615733,1.0632707282,0.0114366462,0.028269431,-0.0560907365,-0.0081677441,-0.0317584486,0.6830294044,-0.4421257969,-0.0487572239,0.4628120822,0.7511534403,-0.412373161,-0.7037692034,1.315750265,-0.5655508,-0.9505997551,-0.8239191863,-0.5696473136,-3.8866318701,-4.1531844929,0.4669379934,-0.222839442,-0.8579344691,-0.8248925721,0.3005251809,0.8951436597,-0.1691483471,1.0738146293,-0.5667777348,-0.9181855427,-0.4398279094,-0.5176806556,-0.7547968216,-0.3493891215,0.1862678006,-0.6941004606,-0.3397300683,-0.4111950637,0.2481488605,0.491006998,-0.211547502,-0.2338504856,0.6321897276,0.7508731905,-0.3932843435,-0.6430094189,0.5956653376,0.1175334998,-0.5579297027,-0.5322428832,-0.2908174182,0.4093466629,-0.5887313008,0.9848397967,-0.2374016429,0.4781024039,4.3175053322,0.7522100349,0.2902872221,0.0880033311,0.4664397616,0.7548650369,0.9169971542,0.2343063461,-0.8105131527,0.7928651174,-0.1839596327,-0.5738812487,-0.777660151,0.0464310745,-0.1721544769,-0.2661471707,1.4454046266,-1.7308446845,-1.835726279,-3.1639150572,-3.0234424275,-0.0792687244,-0.5672337368,0.6968647563,-0.8574015383,0.6749773987,0.1031467582,-1.3094367253,-1.3243496416,5.3243326925,3.5912646335,-2.3305636374,0.4976762105,0.8156214803,1.4856318836,7.1212460849,-4.5094447245,-3.7328843085,0.5611555137,-0.3067736435,-0.8242158014,-4.7273579539,-0.0067170209,-0.0279895351,0.6317585079,8.1309767608,-1.8190714466,-2.4477134733,0.4658976008,0.6496128534,-0.2326089006,-0.6969517724,-0.2953295459,0.6979500552,-1.3912162154,-0.1656695469,0.3133475554,-0.7200806503,-0.6140097978,-0.2597051017,-0.8263606975,0.4044775211,0.1968904384,-0.4592558571,0.2318197369,0.0312497383,0.7716603382,0.4826959171,0.6808255495,0.2809765982,0.319872623,0.4240766566,-0.2961329301,1.7528484411,-4.4391246341,-0.3073568564,-0.4444345271,0.2363500183,-0.0574621674,0.7325398187,-0.0943331966,0.5265575744,1.9013587298,0.8605778866,0.7282793463,0.0099198013,-0.2806918266,0.9045274071,1.597601328,0.5903456228,-0.3174555041,-1.9081095684,2.504960854,-1.8752667743,6.3856283678,-0.7540444338,-0.5913619972,0.6741693099,-0.2991105021,0.7263463938,0.5350131815,0.7780179553,2.2106422221,-1.8381507346,1.5424658818,-2.8101726841,50.9934684712,0.5359156958,-0.836723255,2.2510426947,-0.1411631129,4.5789077763,-0.5719313228,-0.7742173674,3.9810184825,-0.670888954,-0.8792547986,-0.8083500722,-0.0194127293,-0.7276221387,-0.7876339252,7.8942543959,0.3675573456,-0.100859164,3.26351672,4.6846284665,-0.8336743248,2.6894541506,1.0472914579,-9.9079591339,2.0883058933,-1.5628947915,-0.45997621,0.0496182543,-0.7313442927,-0.4970442521,0.5272872863,-3.528890469,-0.1768141804,0.99755388,0.7130787673,2.2736862563,-3.6280242338,0.916442297,0.3182114266,-0.6720568992,1.8269305405,0.5274663537,-3.7882933419,-0.7457630493,0.357187619,-6.0504529897,-0.8089492539,-0.8312712812,-0.079124332,-0.663473763,4.2170788074,-14.557432638,2.8032200416,0.2357547037,0.3356727673,-0.9014338105,-8.5028737954,1.5044947696,-6.8976856912,0.3293874603,-6.7291007443,-1.054950608,-6.8185495529,0.1211436115,0.1668541259,1.7180103199,2.0964863815,1.0839513653,-1.320186484,-2.0612860171,-2.2857067315,-1.0477490225,-1.8020923055,0.1415323607,-3.4018519748,0.4361822668,-0.9251706923,-6.6843368417,5.4585578898,0.3897861197,-0.8322386732,-0.0660200766,0.3635471927,0.2185352148,-0.9047896378,0.2456309773,0.3768581534,-0.8850459647,-24.9820002444,0.1154730265,0.4107112584,-0.667160378,1.2286041828,1.2129941359,1.272950073,-1.5172418369,-0.9425271846,-3.6323194135,-1.9356665349,1.1984612321,0.1910448934,-0.829577724,-1.71241373,-1.1106488181,-1.4695992049,-1.8014229161,-2.943254298,-1.820392839,-3.2641254779,-1.586173307,-0.7652191764,-1.0319113186,0.5678843472,-0.537573913,-2.2717359867,-2.3999395752,-1.8722376889,0.2035975937,-2.0216607468,-1.8843272166,-3.7370241597,0.5540167752,-0.8252984787,-1.2861096793,-2.7260869754,0.0192699515,0.3249456172,0.2420902845,-0.3524403321,1.1988937252,-3.9186860856,2.5073672815,-1.7431679802,0.3248951399,42.909362206,-0.4956426056,1.9428929584,-5.5316589094,3.6404345592,0.6900915595,0.7867180288,-0.8883112559,-0.3703411477,0.2239316772,0.4961410286,-3.6576485077,2.9529245406,-22.2309128809,-0.1935321657,-0.8466563215,-0.4297475447,3.6128642161,1.2512651154,-4.7077423331,-0.6710069457,3.8223464009,-4.7156232496,-11.8136373449,-0.2092832647,0.4529964716,165.2061207788,-0.0005900841,7.2334648111,2.3637997405,0.094750755,-0.6470335515,2.979425123,0.7514347162,0.6252940647,5.7469890388,0.7352652766,-0.8987227494,-1.0168198257,0.0011635429,0.9603491277,-0.8414268422,-0.6355276716,-0.4933142465,0.556519219,-0.1251534102,0.449873291,0.945638476,1.1631930859,2.1968888491,0.1245439163,0.1980588363,-0.3341623998,-0.7965079103,-1.4164211711,-0.0073714575,5.0592467774,-0.8180289873,0.2091955569,-3.693433802,2.3094768266,0.0317525298,0.3472071846,-0.3318920632,0.8499297175,-0.321974752,0.3249134951,0.169698957,-0.1349151662,0.7075522956,-2.2264872658,0.1541311987,0.5812348063,-0.8706250641,2.2963254994,0.3160076695,0.5494424314,-1.2249910995,0.7156067663,-0.853280872,0.501832978,-0.1851111108,-1.0160578932,-0.4132447985,-1.0903045872,-2.2742074326,0.560728905,1.3044790965,-1.0679935739,-0.7298372061,-0.2010356251,-0.3970677886,-6.8080920227,4.5147308331,-0.9676363673,-0.3573724946,-1.0017891182,0.6572459826,-0.1803112587,-0.3291445651,-1.0427115365,0.0143199519,7.4774222246,-0.2375408144,-0.5731291946,0.1514171334,-0.8291362144,-13.3118248449,0.5020339141,0.4320560085,-0.1542889497,-0.1672243734,-0.3481571223,1.2444972096,-0.1533123913,0.3133581197,0.658661975,-0.8355661367,0.6464064756,-0.8356869642,0.768515106,-0.6841541082,-0.220448691,-0.7013599644,2.8332149109,-0.4810790293,0.016302017,0.6019912916,-0.1457445789,1.046081511,-4.2604951661,0.3290473331,-0.1671840206,1.8213708266,-0.251907572,0.3195566618,-0.8026258172,0.3372249408,0.8164966351,0.1032781715,-8.4597331259,-0.3071252719,-0.8266886696,-0.7809623073,0.7291673295,0.3822543942,-2.2943289643,-0.9842972186,-1.6758681671,-0.7618585489,0.4635830906,2.7447779229,-0.4198406445,-0.8875336408,-0.5584764923,0.673076783,-0.3700406475,0.1696933357,0.1953512869,0.282333649,-0.6423553842,-1.0788809373,0.9860062778,0.854986011,0.7962368647,-0.5329165575,-0.337283339,4.261913078,-0.6808446905,-0.1210570522,-0.3119886901,-3.9473058952,0.8913133477,-0.3733908028,-0.5373930003,0.920664164,1.1570909365,-0.0912523422,-0.5500842759,-0.7363293257,0.5434928384,-0.5745416221,-0.2889619954,0.130192671,-0.8048894568,-0.2875417492,0.7524860978,-2.7258224713,0.530977839,0.0342992826,-0.7526562852,-0.7427347595,0.2673249327,0.7543121333,0.5117156658,0.0910496453,0.2495548976,4.443334732,-2.9169416314,-0.2690165282,-0.1633414035,0.7992767476,-0.9805438809,35.9688107435,3.9177581385,-0.3542819458,0.910856954,1.0624759328,-135.2883007298,-0.7983680015,0.7748286667,1.2232336958,3.5654550434,-0.185388414,-0.5835626057,0.3314699043,-0.9705360924,0.9940047865,0.1176572334,-0.8487123676,-0.2199659779,-0.1464329446,0.7153924024,-0.2148915472,0.7791809293,0.0140763763,0.14672747,0.3012451863,-0.8788558331,0.7056395219,0.652170139,0.2293301531,-0.2113751597,-0.7739047182,1.8022425823,-4.179069133,59.3770589287,-0.0051316177,-0.0625153001,0.4354830654,-0.5190934612,5.128146449,0.3689441892,0.4855908445,1.8885096751,-34.9088471247,0.5891104541,0.797079821,-0.9837482353,-2.2272937574,-0.3938971749,-0.0132229228,0.7362845017,-0.4862374941,-0.8842124583,-1.6471012081,-0.1679650611,2.3557439606,-0.537761047,-0.9480492644,0.127063044,0.1817951679,-0.8036767365,0.0118209527,-0.8173538273,0.6137136517,0.7593686222,-0.2061252669,-0.2299253251,-0.3780004282,0.3177408151,-0.7537259609,-6.4978386762,-0.9735591959,0.8736471785,0.2490691929,-0.11714197,-3.111408775,4.0886022918,0.0688316594,0.5499303657,0.0877032134,-0.7435907983,0.865896031,0.4190142869,0.9168003127,-2.6405532468,1.2985136231,0.4944669064,0.6964882341,0.8281491718,-0.1357443821,0.8118364726,-0.516864109,0.1005668418,-0.4640005714,1.7211713547,-0.0299494743,3.9498152285,0.6311581369,0.0294912819,-0.7309870711,0.5793189891,-0.6387519404,0.3594563196,-1.6160504575,-0.1329161101,0.6120107628,0.5880504314,-16.9516681137,0.9163431415,-0.5662988292,0.5356089953,-2.7416806382,-22.2906042166,4.5752344705,-0.2903276511,0.5713797424,9.4850692212,-3.971518882,-0.6417972772,0.3899340608,1.0676116376,0.0105089992,-30.3679058622,0.540685203,0.5894148925,-0.8763913099,0.9699142956,-2.1412001527,-1.6934216725,2.2383178083,1.6004215845,0.4501406459,-1.5338582811,-1.4376223432,-0.1779326195,-0.2726521563,-0.9322979259,-0.7103823163,-0.8618952025,-0.6060309744,0.6437248128,0.7571188333,0.0801479213,0.2404473871,1.1895418024,0.0388860717,-0.0376403001,0.1269381395,1.3588953094,-1.1358822927,-3.964214253,-0.5153178366,-3.6440278441,1.5732967013,1.0985358699,0.5699627763,-0.870286501,0.3929628915,2.9971577695,-2.7046820965,-0.6405699855,-0.4203456647,0.8818526725,-3.179307476,-0.3878953687,-3.5887531151,1.5749868769,1.9133089187,-1.5007702389,0.0148787404,-2.1763788749,1.8464951626,-0.2027471737,-0.2264392818,-0.4226741807,-0.3653538196,0.9505536328,1.053610788,0.0790824585,0.4816830709,-0.4307019535,2.5411415565,0.6365403728,-0.8150342478,-0.9734481839,0.4665690109,0.2658229619,-3.7923191205,-0.6765892011,3.0243806803,3.4668078291,-0.3472631931,-0.6969637141,-0.7422916739,-0.5788675307,6.472994725,4.3136339015,-0.3771548336,0.0312714321,-0.4732969852,0.1292102812,-11.3607150406,-0.4511209264,0.7528526712,0.7104243085,1.1460600155,-0.8074476688,0.7553380803,0.0779355076,0.7020757885,0.4053591079,-0.9768708401,-0.5176621372,-0.3791488371,0.4960915628,-0.0960945652,0.3692203103,-0.4978729901,4.3199064322,0.4752831839,-0.8046771194,-0.9508804639,0.0028021993,-0.1722349388,-4.3079216237,-0.8231630269,0.8552248606,0.5525947993,-7.7963878734,0.8504800416,-0.0737057985,0.5777937679,0.9636904153,-1.1287269215,0.7243390218,-0.2853238216,-0.8141471892,-1.1929813136,2.1160827218,-0.579538007,-1.906116199,-0.2319094359,0.3369295421,-0.7452854865,2.8692167299,0.1224850255,-0.6166035903,-0.6002114487,0.86782521,-0.2065294801,0.025527586,0.7699815309,-0.7664785421,0.4166378056,-0.1670047618,2.4635694985,-0.2911992344,-0.7885988335,-0.5477975364,-1.7579545654,-4.2611803039,-4.8396137317,-0.6093007967,0.400345214,-0.283224925,1.6643779054,-0.794211568,0.5241104176,0.446855817,3.3588949295,0.5943989075,0.7883188838,-0.5234589081,-0.5594408941,1.2023762583,6.8214351936,-0.4647361549,2.6121296436,1.8410249369,0.4632186192,-0.8510375372,-3.8246609675,-1.898214186,0.4827694215,-0.51830885,-0.5897942287,-0.2494654986,-0.6897864229,-0.7879011862,0.8706082594,-3.4270756022,-9.0506949659,0.5739823633,3.1204463444,0.2535449244,-0.5277868914,4.7711436572,5.5396487924,-4.5550024751,-0.6620792177,0.1046610497,7.371349626,-2.508625554,0.3412790009,0.0502497196,-4.7947730482,-1.22230153,-18.4578364817,-3.5106894446,-0.0111242482,0.6336325219,0.2298734431,6.1122714333,-0.0316960428,0.4069589299,-3.9239268565,-3.0495584719,1.522716073,-1.0540702066,-0.7639559474,-0.5731277911,-0.5950487444,0.0099660765,-1.1642689747,0.6547397581,8.7586347143,-1.224362098,-1.5122854953,0.7026825058,22.9578536246,-0.9219352873,0.9765761802,1.0699735454,-3.9505349904,-3.4174096015,3.9991064097,-0.1020688112,-7.433833784,6.4588420903,12.084227119,0.5149285677,0.3026381001,1.8994080121,-0.3079301137,7.7894071508,3.3129433354,0.2374814876,0.8985006749,-2.5121097366,-8.2437827863,-0.8227869457,-3.9690623524,-0.7694753452,-2.8133616773,-0.4160517202,-2.1996505376,-0.9971143038,-0.4881878407,-0.860146541,-0.3516852119,-0.5969230528,-0.4434138432,1.722591206,1.8459161034,-0.2593913319,0.9256462006,0.5985503811,-59.1884972529,0.5223257521,1.7126398191,5.7328162654,-17.7948932227,-3.5412121546,-0.1856044378,1.5846819979,3.2718374604,0.4996303459,0.7113810918,-0.4752206595,2.0485786465,-8.6550798489,4.8922199517,2.1166664301,0.5157952139,0.5331862627,-0.261662259,-3.6584040115,-1.013487635,-11.1887753301,-1.2322024093,0.1355996961,0.7258067035,1.5835440586,-3.8352760391,0.0457520609,-0.5065958442,-0.647563296,1.7659649176,0.9949551999,-0.906266276,-0.5333908379,2.1671547694,-3.3317656406,2.4588812789,0.0483044069,-0.8261281326,3.2876779131,-0.7459454155,-0.2743824857,-4.0505156148,0.533583639,0.1013973947,-1.4239858313,3.4803600445,-0.7994195546,0.9181592101,2.6907424629,-2.8509561539,4.1852128346,0.6125532922,0.0622608909,-0.4845936758,0.0603104429,-0.4962500517,0.5096198691,-2.2469087384,0.0574342564,0.1647819928,0.2266691452,-0.8436649296,-0.4089726638,-0.456394316,-0.7221964041,0.9666846665,0.3810678575,-0.4814174647,0.4620896755,-0.2550418534,0.4150091151,0.9685284017,-0.3549739544,-0.6486442883,-0.6863405349,-0.6842917972,-0.9266651675,10.9386344426,4.3647536649,0.7228123256,-0.6360217369,0.4591740344,-1.0087934342,0.4088507765,-0.9202314634,0.7276505778,-2.8721440857,0.8359017101,-0.2185842909,0.3354139884,0.3362413054,0.7159225729,0.9818580651,-0.1719755859,0.2470233938,0.026527499,0.8179916742,-0.2040569327,-0.6737665332,0.270386074,0.5474736109,0.0829081162,0.2514842883,-0.7337711023,-0.322938894,0.2599807378,-0.2627874775,-0.5608106477,0.4737993672,0.2235438225,-1.0364030524,-0.1825477207,-0.0721017871,0.0359702625,-0.3135810766,-4.4569309513,-0.0633386714,-0.0932075396,-0.1848647966,-0.2996438148,0.0366206884,0.6249210199,-0.0111513106,-0.2460357502,0.1717451149,-7.0421123769,-0.4739361468,-0.6441899484,2.1271179405,0.47579804,1.029250166,-0.5735090946,-0.337108993,-14.9331225222,1.7872943671,-7.7329939295,-0.9308629617,1.1502723857,-0.6590488563,-0.9404299321,-0.9425746466,-0.7043113725,-0.4219677213,0.6631664888,0.3968663264,-0.7510129706,1.9808944058,-0.2161957987,0.909456335,-0.9639443075,-1.986978452,-0.4716748687,4.9283797823,-0.9897298235,-1.4185779252,-3.747613901,2.1662771724,0.793438235,0.7384793915,-0.9835540432,2.0966969313,-1.2351997951,-0.8540161307,0.6163678167,0.4122695793,-0.783693645,0.9085485795,0.9062051936,-0.2311494292,1.547544868,3.7314669258,-3.0365998522,-0.1692213185,-1.3093441523,-0.9333451875,0.5264449639,-0.5198392739,-0.6151781753,-0.9462488466,-0.7246078452,0.6464774674,-1.437605414,0.3126197297,-0.1747668135,-0.5457959565,-0.5762662504,-0.4846542635,-6.1437620791,-9.1858646492,5.7683360603,0.8436686256,0.4849037166,9.0496691612,-6.1289383299,-0.7091731328,0.7094601904,1.5456065263,-8.9504410234,-0.9238594894,5.1743078665,-0.9776428779,0.9279426338,-1.495467344,-1.7480200848,0.0032287175,1.6711813001,0.2022952957,-3.8637370431,0.7295431623,-7.9184413938,0.1170722366,0.1134559564,0.8477673749,0.5777708171,-0.2553756717,2.7384231817,4.1022828127,-0.7630081355,4.1131432704,-1.1925139586,3.1534733907,0.5386071855,0.8024735226,-4.3635215197,-1.7597597008,-5.687368444,-4.2807192071,0.7957753166,0.3378963348,22.9614445736,2.9141097522,-1.0461479339,-0.1575833732,6.1573222947,-7.159035529,-2.7172777695,-0.3585690264,-0.975818715,-0.2510859661,-0.2547326498,-0.0370395292,-0.6135183501,-0.8229941493,0.5316159495,7.5856514244,0.4551037229,3.8461988679,0.720964334,0.1546135799,0.6805600835,0.6650124184,-0.2006758069,0.2462143703,0.8576958805,0.0614389264,-0.3307899502,0.1949783281,-2.656654802,0.370184808,0.1069516358,0.3489543022,0.3105951558,-1.4340438431,4.4827281372,0.3301557597,-0.7915820172,0.7849788285,-3.8768603797,0.706095182,0.0128519028,-0.3561891299,0.6697891513,-2.189741896,5.3732354756,0.3518378638,-0.6366240472,-0.5308087921,-1.062943377,0.2684275883,-1.1611920907,0.038223352,-0.2051237465,0.907216914,0.5102160942,0.8196995819,0.2172247741,0.0548934803,0.0041632903,0.0278556677,0.238542814,-0.4609667168,0.06980431,0.7842035757,0.4569175541,2.3172670439,1.5045667916,0.3410903147,0.9260915965,-0.080484081,1.3042018886,-5.4395626523,-0.7129059982,-0.9678310672,0.5632525086,0.6476585903,0.8112716909,-0.4307462356,0.717614489,1.0082939717,13.8042904183,-0.0775616046,0.1697860487,-0.7110212826,0.96650684,3.0133532142,1.9690649231,1.3205688398,2.9857638461,1.0945578358,0.6996266089,-4.5938829194,-4.1312494307,-1.0116344183,0.3511747543,-0.2846635772,-0.2249293342,-1.2679546014,-0.6334259082,0.0335185626,-1.393181555,-4.2508060779,-91.6756448937,-0.2303775516,-0.9905113801,0.6872154514,1.4369037429,-0.2045287498,-3.998928849,-0.4315004402,1.6510779034,-1.7147333345,3.3264348268,0.5926566935,0.1363619134,1.6315734885,-3.8841800827,-3.0954233332,-3.5092874775,-0.193287674,-0.5471339817,-0.6597645753,-1.1905529909,-0.9237672718,0.6997386855,-0.7709316465,-0.1507315723,-0.4611398311,1.8334002423,-0.8121423907,-0.7827267353,0.1348623497,-0.4658326681,-0.4137518346,0.582281313,-0.5666873592,0.6419614075,0.8222099068,0.3713400672,-28.7516799386,0.2735794011,-0.4764414613,0.2348771523,0.7212291688,13.9078698308,5.3983356087,0.5419464966,0.3693518605,2.0202192889,-0.1640292979,0.7624019185,-0.6748875797,0.5531428203,0.3671328264,-0.227082672,0.4526536374,0.5250913135,0.8058882164,0.8358918863,-0.6395513283,-0.3299840104,0.5837694654,-0.9644070516,-4.1940262398,-0.3126563863,1.206147412,-0.6092505101,-0.2530195521,0.3725335572,-0.1385653725,0.2893345691,0.3438183776,0.7906722048,0.7245123308,-0.8136102068,-0.3812444641,-0.2104023694,41.3664215827,0.2824319458,0.1825904001,1.349672042,-0.9254143473,5.0721290362,-0.6071664568,-0.9337345295,0.8214539479,0.0290999856,0.3760874788,-0.6770606039,-0.4726231379,0.56616994,-0.2776144458,-0.4224480367,-0.0344298692,0.7826436544,0.2737764905,-0.3132362768,0.0399582711,0.1034897329,-0.7550394819,-0.3006978819,-0.4055232682,0.6583033783,-0.2395965911,0.449102203,0.1779041152,-0.7461998794,-0.6710195798,0.8703581002,-0.6654742189,0.1517383897,-0.0127864501,0.1234041807,-0.1597942051,-0.4897753874,-0.9666211447,0.0255238106,0.775448252,-0.7269529679,-5.3416064093,0.2973878799,0.8434595629,-0.8346829157,0.0522600375,-0.9270121555,-0.7863558502,0.1306351784,2.4942980191,-1.5679652244,0.2719275926,-0.204645923,0.9249155366,-0.4297261113,1.1290095001,0.5622801414,0.7543452822,0.1903580767,-0.4473469794,0.2891710844,0.51645044,-0.7443645785,-0.6141803779,0.6085899251,0.3957162566,-0.3585910657,0.4464531008,-0.3494170202,0.5638892478,-0.4280957293,0.5617829438,-3.2597292044,2.3475358675,0.3080671995,-0.9215774592,0.7159025835,0.7870769706,-5.3360718479,-0.682549862,0.6119669179,-0.630455989,-0.3979933037,0.4757766081,0.1986925207,-1.1598063575,0.1967029568,-2.4866550196,-0.0666267032,0.0242936178,-0.1270053431,0.4341607056,-1.1096047463,-0.0348008699,3.385031289,-2.5963896265,1.8803713926,1.8328744745,1.9711018033,-1.9719736966,-0.7888322992,0.2986103602,0.5394438658,-0.5739450847,0.8330271617,-0.5549078048,3.3422335973,0.0655738527,-7.9355652535,4.1818121382,2.2668805543,-0.3991798504,-0.5392678628,-0.5932410474,3.3591197812,-3.7769148901,0.3861449423,1.2604579751,3.3303046856,-19.7849642152,-0.269408529,-0.0474421052,-1.587832243,4.4580361851,-3.4357843428,2.7904573562,-0.9080920536,-0.8327973935,0.1476689856,2.9035176657,-0.6221536826,2.5870817096,0.2808783458,-0.4836213845,0.5669011709,-0.7374308407,0.0943116991,0.5480743129,0.5370008642,-0.894794813,-0.5422887971,-0.3129072334,-0.0115364889,0.7892773773,0.1165488806,0.6217463303,-0.5089214735,-0.5154327093,0.5755153725,-0.3919983204,-0.0676158776,-2.5138910758,-3.4444358856,-0.2302561287,0.9407972248,0.0052914653,-0.5758827953,0.8136233726,-0.055119514,0.5776170884,1.0502723535,1.0739523966,0.2553211567,0.7645289096,0.0599634686,-3.762731289,6.0580792177,0.6612317057,3.2000999386,-2.3573411749,19.2118184303,0.2602446274,-3.7611361707,9.9158149827,0.5523725677,0.09623854,-0.8873376866,0.7832581242,1.2809620012,0.5931425224,-2.3312249395,-2.3538026842,-4.381690403,4.4361319325,-1.3676022568,-0.5541682409,5.4202581061,-12.9671785654,-33.4419044683,-3.8034784976,-0.6228502102,0.0754730556,6.5074817385,-5.0930972304,-0.7937681551,-0.5839152949,-3.0868302879,0.7442442811,-13.7979624304,1.1916021181,0.9588387534,0.2047343583,-2.3561322224,-2.5149625393,3.0890269126,-6.0879741699,-0.2888467389,8.7810448776,-4.9145923922,10.373264373,4.1759721338,0.6588578765,1.0915670503,0.5240786565,-0.0282600039,0.8706289485,0.1063714093,-2.8605620211,4.7585663117,6.3147812545,-8.1446861529,0.5454537188,0.2455058234,-2.1730556432,-4.2931698913,15.6469204831,-5.2038024514,0.7427697134,-2.9030793125,-3.672581898,-9.5952038046,-0.7657600917,0.5394362218,2.6555604031,14.0617604171,2.0944632372,-0.9258201043,0.1236675592,-0.9248435999,0.264216582,0.2011227815,0.2972346731,-0.8276687836,0.1107295488,-0.5635155249,-0.2873038686,-28.0531200462,-2.795210934,0.3418777185,-0.0871405098,0.148514594,-0.5712002796,-0.5186592853,0.068439353,0.7394926343,0.1603016789,-3.2664735306,-0.0880328096,-0.5800767857,-0.827353984,2.7272572413,-0.3825364914,-1.2591204134,5.1867177821,0.3085281883,-0.5455207132,2.0465593166,-1.1817486299,0.7220057134,-0.1943753349,0.663888284,0.7827367781,-10.5509651423,-0.2052045189,0.7726591331,0.0825026287,-0.3618141188,0.0432943233,0.5880527377,-0.8313495297,2.894472141,2.7700304806,-0.3794423158,-2.0191585137,0.1983551341,0.4676844241,0.1504295224,0.2285491627,-0.7367190944,0.2211539738,0.7388515218,0.6989647989,-0.6664007372,3.4144786065,-3.5771136191,-0.5693184704,0.0937315212,0.5386088494,0.8165319305,-2.6455574361,4.6652050136,-0.4560606188,0.6354262294,3.6154682169,4.616970459,0.0996310891,-0.0002327734,-0.705004981,-5.63782496,60.1314708207,0.7580272886,0.7676339027,-0.1823891095,1.4920935162,1.4589388066,5.1299466419,4.9194382498,2.5895386657,32.9357452596,1.4571489226,4.4323346652,0.2902423271,0.4272499482,0.0404233372,-1.11343376,-0.5893715376,-0.1212917647,0.6185166712,1.0895521074,-1.2538976152,-0.9416570167,-1.8497088309,0.9274527018,0.5272916842,-0.9728520623,-5.9162854982,-33.3246883352,5.185804082,0.124864575,1.3946788725,-0.0112249075,-2.4259259537,-0.4768491425,0.9141799714,-3.489289169,-4.4933834537,-0.1333841986,8.9297803678,0.0767789469,0.5554235904,0.7354618077,1.638035294,3.8484635288,-3.8391293603,-2.2952531918,-7.224006654,-10.8101087579,4.5360004677,-0.5946120677,0.9061963873,0.5152584752,0.4245788854,0.9660582191,-0.7270906471,-0.8728566501,0.370336863,-2.6582826653,32.2183391486,20.0829730992,0.0949851267,0.863735035,2.0703496769,-0.3755625111,-6.7382865664,-3.3087272089,0.1678603111,1.120200374,10.0101828061,0.6943299566,0.6957231174,-0.9688193183,-0.1977272089,-2.4175240025,3.5159806073,4.1494605565,0.4051143655,-0.7207231414,0.9802619381,-2.4807350263,4.5675927304,16.8843803737,0.1190784254,-19.1248317779,-0.52293782,-5.2313263697,-4.3673970562,0.7425430889,-1.1392660973,0.110573098,-0.3321733431,1.0001502916,1.9274706616,-1.1851718635,1.2029876108,2.5014433525,-13.4847190766,4.747971792,-0.9082691827,-2.7664102392,1.8327620772,21.7703566624,-4.6181388162,0.5375582061,-1.1998708227,1.9064345791,18.1645317088,-0.7367102286,-0.8876471845,-0.9503223929,21.9948957061,3.1093673222,-0.7475920263,-0.8032044749,0.8473270258,0.2784852514,-0.141572212,0.4268362013,-0.7798181076,-0.8206706406,-3.4772308224,0.7772864404,-0.2483340658,0.9485586145,-0.6781078428,0.3942369867,-0.4684506407,-0.8314369291,0.4805144252,-0.2709239096,1.7882444664,-0.2609568789,-1.9452075932,-0.0794402087,-0.3290311596,-0.6703981541,0.1127230041,-1.9934459837,-0.7994844877,4.237967567,-0.5420157265,0.8873930683,-1.4880485147,-1.2283319219,-0.5916822479,0.9810998989,-0.1591203402,-0.1945597548,1.3471226063,-0.346188093,-0.4179291695,0.6606740267,0.0601677783,0.2642192293,0.0449050215,-4.438650622,-1.517581221,-0.0100248051,-0.1289510297,-1.7969316505,-0.9509774794,-1.3622456716,-0.4184412755,0.8115314702,-0.2537369201,1.5830495946,-0.7368739513,0.5638320763,0.2788581696,-1.1145701548,1.0557435497,-12.5096786676,0.6830451925,-0.864530603,3.741091132,-2.8517171863,-4.2227435755,0.3232642875,-0.4224202281,-0.3973717565,-0.3533546435,-0.591050738,-0.7202950538,0.6925506079,2.8880656512,-7.4465516156,0.9176247406,0.0499696727,-0.4323906798,-0.3298350337,0.2347644831,-0.5474819808,-4.2656489886,1.0287889021,-2.2867988714,-0.5033446699,0.6767891351,0.5683241861,-0.4026940692,0.6449346332,0.2772064257,-0.1771980096,-0.18222869,0.3354658506,0.0938323763,0.0504718586,-0.1159024377,-1.0938817043,-1.0040113723,0.8927581049,0.8246587789,0.7360933347,0.6989278854,-4.8868507774,-0.3307206348,-0.3282329906,0.7797724693,2.7093762709,-0.7314526715,0.4342756353,-0.1863253309,0.7631948658,0.5552496806,-0.4376065144,-0.3310246977,-0.0151459108,-0.7919822559,-0.6134537495,1.2450199412,-0.4815519976,0.8104527392,-1.0721764138,4.5200228211,4.1041757727,-0.762755299,0.5379128433,0.5978297078,-0.8949904926,0.7634031085,0.366723971,-0.6412987545,-0.1559423679,-0.5861893429,-1.2735627724,-2.0883502704,0.3958985042,-0.6441465866,-1.5510842267,-0.858716945,-0.2356424065,4.1099065061,0.1375889634,-0.650280097,0.5980926208,-2.2395087,0.6778093181,-0.6558307585,0.543930559,0.2300466278,-0.5287965746,1.625710764,0.1341354219,0.2194694794,-0.1499162595,-0.9554224784,0.1013895343,-22.9840033512,-0.4142959884,3.0839752357,-0.3854425786,1.0597606635,-1.5281306037,-0.291142131,0.6297683609,-0.8131779268,-0.214294402,-0.2584573566,0.1354810876,-1.2557443966,0.6596715681,-5.2745164385,-15.7290205609,-0.9919660564,-0.0868029748,-0.1713040032,1.4126901109,0.0859768614,2.3972965449,-0.2833669154,4.0309073532,0.5645199517,0.9362139453,-0.7641691327,0.2588990532,-0.2831381337,-1.1992456474,-7.417662288,1.6934220723,-0.9980257256,-0.7735976648,-2.3291933217,-0.4275204252,2.8124186823,0.5870028263,0.7566679846,26.5281862749,-0.8976108132,-8.1037971033,-1.1279812331,-0.693784382,0.1344947514,0.3125871564,0.5702924694,1.0782488347,0.491991641,2.6899723983,2.932970985,5.4473990964,3.8333920148,-6.2378328171,-0.9331218982,-2.0574411325,-5.9243052405,6.5503490009,3.9480805953,-0.7951234494,1.146474655,-6.2531149329,7.7326530687,-0.3916759574,-0.1381421933,-1.2949598536,-4.0221619384,2.7134849215,0.6441029252,-0.9279110813,0.3646552168,-3.8974478808,-2.729190944,-2.4318967228,-11.2795320437,3.1700885047,3.8773543372,11.29170988,1.1035715107,-0.1776381369,-0.4578587475,0.8812485928,0.8194532922,0.8931185366,1.0294769832,-0.6521011227,1.8801372966,-0.4705368549,1.3722406503,13.96826244,1.3406802036,0.2634637902,2.8766787034,-16.3669086549,-0.1400104293,-3.5026799091,0.7152649908,12.3165351302,-12.4456990001,-0.7253567436,0.618213269,0.4101955702,1.8059954691,-2.1265234926,-7.8009602358,-0.4640401915,0.162387231,-0.4632234957,0.7625417755,-4.0430410218,0.3506657215,-1.5819786623,0.9018665861,2.9692224229,-0.2346141775,2.0538200791,-0.7024658699,-0.4025036227,-0.3902825232,0.6120345374,0.5981837225,1.3969386211,-0.9148864681,-1.0362973752,0.486267999,-0.419626158,-4.6795724602,-1.0511917761,0.6594828813,-0.131455663,-0.8338136195
   0.2817000909,4.5595054585,0.2353400566,-1.3492230129,-1.5214807803,-1.2551683268,0.6730923537,-0.4719861566,0.2171150426,-0.0798576024,1.1350295225,-0.1961404582,0.8916085921,-0.7244168351,-0.2967083144,8.9713927968,4.6540461084,15.046848082,-3.7829469327,44.4917153015,-0.2371000596,-4.478024195,-3.4195062981,0.475137108,0.52498039,0.3465016938,-0.7655788674,-0.139007061,1.6004435742,-6.6556450925,1.7074299307,-5.3060869751,14.7386421107,-4.8460387573,0.920336456,1.8930934994,-4.4297476088,17.3367419493,-4.0913362898,0.3924947443,1.1808974369,9.1542000303,-3.1890123347,-0.5245556585,0.1095172908,1.1690797487,1.6743612756,1.8974583035,-0.387949075,0.3658222674,0.3789086314,0.8578725338,-1.3031869364,1.7085401123,11.9077559127,-0.5067184231,1.2357138133,-0.5829993875,-0.0542079366,0.9182930929,0.5800019543,-0.4854099885,0.2689786954,0.8269889487,-0.4118586218,0.3855393082,0.7914547771,-2.5204581633,-2.7891232847,13.0259829302,0.1681867553,-0.2041446796,0.7606332169,-0.0481993247,2.4869598212,-5.4729532177,0.1290172111,-0.4438414469,0.4418253073,0.8109720899,0.8953056822,-0.1551060598,-1.3128517788,-0.3818750792,34.6721459466,2.2070938952,0.5712963387,-0.1420856385,-0.9890905897,-8.9278229905,0.2482729648,0.8631179605,-0.7873813683,-0.3522898077,0.4090172931,0.0224881306,-0.885304302,0.5728421767,-0.3958666165,-0.268007635,0.7477193528,-0.5339060122,0.9237862779,0.8524390738,-0.3895370273,-0.4346084482,-4.6119152707,-2.1595240071,-0.565307481,0.124607992,-0.2784394277,-5.2876512032,-3.5563722775,-0.1457211539,-0.0486028206,3.5038942024,-0.0245807379,-0.8240040286,-0.3856409459,0.3761324506,0.5681337738,-2.4525630239,-0.2865718699,0.1886372637,-0.6866545594,-0.3068353601,-0.6128829674,-0.0210292951,4.0871000931,-1.1928848869,1.486014312,0.4266409141,-3.5775838069,-0.4020396737,0.9421418824,0.5979028316,0.6440156915,0.3126924984,-0.4495907279,-0.6000595219,-0.0460934382,-4.7458576455,0.9445247576,2.22101055,-0.3566580503,-0.7067042718,0.9372538454,4.2652283384,1.8591619775,5.3247809661,-0.2532400485,-0.018222165,-1.1063450229,1.5014070453,0.3458423851,-0.5527688756,2.7444458005,4.036412762,3.5767529372,-0.2872402974,0.950102387,-0.8857899886,-0.8827279811,2.3005012913,-0.327036126,0.5657002431,-0.8118960356,-0.1510096479,0.4610116702,-2.5862081896,0.7120892444,0.6966647644,0.68536172,0.0605710913,0.5883117641,-0.2764052766,-0.7545460231,-0.4067191989,-0.7746105944,-0.5196140171,-0.3552132049,-0.4660104177,0.1460007556,0.3227382097,0.6561131455,-0.9955452385,4.2625180208,0.1590595046,0.4434053015,-0.7688125138,0.2250595439,0.5958998711,-0.0124924067,0.67527033,-0.2945156146,-11.8544702488,-0.8413639659,0.9476589104,-0.7941913234,-2.1375798359,-2.0382694696,-2.1496889109,-0.1591313116,0.321156171,47.341319668,0.3454014386,-2.0354196546,0.7261201373,0.8808601746,0.3830561739,-0.5194693087,-0.6398644396,0.0823560171,-0.7179848404,-0.063612973,-2.2703561669,4.0532452664,-4.0568902943,0.6024544337,0.2222562308,3.6277121979,3.1651314431,-1.718357848,-5.3022990087,-0.2947436484,3.4817850406,3.2547731632,-1.436596005,-0.3520460729,-0.8881186088,1.4583366391,-3.7718558314,-0.3617217649,1.0118688985,-0.9678566428,0.5618702964,-0.9881196818,-1.255394634,0.3233282071,-0.4051084989,0.7366153323,-0.5635565024,-0.346702569,-0.0324174337,0.6502266036,0.5061479427,-0.130400572,0.1887607692,0.2466313008,0.4551892829,0.8719263463,0.2895447073,-0.1358597301,3.9995390494,-0.7882915622,0.8099883553,-0.4992408527,0.2035746988,-0.2734851592,40.1239510435,-20.9721291106,0.317575622,-0.5610042816,-1.1660250563,-1.9536358789,0.0681675326,0.2959546481,1.2024158574,-2.5656555279,5.5061548569,-0.4225388676,-0.2903091494,-0.0179631943,0.595113665,9.8374357024,-0.7154328372,1.0227335043,2.2060751759,32.3329102298,2.3283180689,7.9855583781,2.7377893999,0.9387822642,-0.6485377314,-0.0504492916,0.6881239647,1.2536342511,-0.7891572032,-1.1662803656,2.6451564604,2.5390049137,2.821811513,-211.6080052245,0.5267259318,-3.6521646787,0.7312688976,1.5136691696,4.7929944974,-0.8425088496,-1.6200012161,-1.3039959037,17.0147760918,-0.0360361736,0.5071515858,-5.2292175857,-5.7892670132,65.2560560959,1.3187020303,0.7943434416,0.6258818557,1.8412148953,0.5763790573,1.20517688,1.6269917584,-5.7810419541,4.9995555815,5.8356845204,8.4639910725,-2.6579177027,2.0725510854,0.4957699788,0.3838146195,-1.1613225594,-2.2581953235,-0.1889532404,1.0486384957,1.3458980833,0.1718182075,-4.9220627905,-1.2206469298,0.1441505976,-1.5759713896,3.8078528413,47.0633635549,4.8714228907,0.3599289681,6.5150777993,1.3707022709,2.9315206619,0.240983303,-0.5347586691,1.1024413164,30.7176489929,1.3215115935,0.5497275773,0.2197331624,0.7835958334,0.3834289359,-0.6575052966,0.3208500836,-0.0973386985,-0.788478556,0.0303322107,-0.3432633553,0.0523907428,-0.7584479283,-0.2582549602,0.4192781067,-0.6364224816,-0.6592728383,-0.2001998736,0.8889097062,1.0313691464,1.7188061993,5.8693277059,1.5351508615,-0.2748042838,-0.6491298441,0.8585970332,0.7115394718,3.0243268818,5.089429994,-0.4667822623,-0.3053877424,0.9548239472,0.496356793,-0.0991948329,-0.3894201552,-0.7064558445,0.3902758662,8.724301792,-0.0597388002,0.0705694701,0.6396159794,0.7107718871,1.3105422558,-0.7406260982,-14.172447762,-1.3419856795,-0.6736772219,1.8901150759,-0.6319955218,-0.9149478813,0.0218883282,1.5460635249,-0.0407656371,-0.1945394561,1.7164771582,1.144123981,-0.1015580344,-4.5346109302,-4.1651895052,1.4491818597,0.1454251686,0.5588859644,-2.9169404647,8.8864381061,26.3169769397,-4.9399344798,-0.148184747,-0.4964018998,-2.1039557974,-1.4231461562,0.26171685,-0.6656447182,7.1236703805,4.0072232181,1.1208347297,-1.3804242656,0.8178610931,-0.4975801992,1.168873259,-10.7871566012,0.3299986822,-1.8863262041,0.1736156524,2.0135118371,0.2664062563,-2.3651736698,-0.054959443,-0.4478833152,-1.0510971349,-0.4372056409,0.8070123342,-0.3784514761,-1.0671894535,0.5478333545,-0.8363223649,4.6257232995,2.6180879128,0.0176957016,-0.0709275208,-0.8004010318,13.1268435877,-8.4452397781,-2.8631951546,0.7452696309,4.8401043509,-2.2108522281,-4.5122120227,-0.0411264298,-0.8983983295,-0.6276916233,-157.4253044681,-0.7382358176,0.0098224511,0.2570847567,-0.1209852693,-3.9601394702,-0.9329368943,14.8956246704,-2.8113328358,0.1092454417,-3.3111170298,-0.8042013705,0.6072000494,1.8234388786,-1.4522587549,-0.8186086344,0.4274346025,-0.29353003,0.7937163697,0.1836889894,0.776185505,10.3457772759,14.9218282018,6.7953418123,0.1651515993,0.0068133972,-1.0496402945,-5.0527896979,19.018214009,-4.1363375172,-0.2394522267,2.8431844731,2.4986961086,3.8810082613,0.6629594705,0.0610122695,-1.8102639413,-0.5880195949,-2.132157373,-0.0232614725,0.8861624021,0.2649815276,0.9046460352,9.8901083044,2.268976349,0.8665494494,0.6204752548,-2.831477606,0.7083707154,-4.7519975522,-0.3314320036,-0.6508357556,-0.3076100589,0.9176568945,0.1187844162,0.0536743163,-0.3655969254,0.928111117,0.4514321412,2.5349397659,-0.8732482138,0.0782430567,0.3314274723,-0.3945118495,-0.3865903331,23.2318402893,4.0217125093,-0.2227911871,1.6699563081,-0.9405250001,1.0727772009,-0.807148073,-0.6985032231,0.2922738493,11.5944249654,-5.6085886451,0.4381107199,-0.0751755895,-0.5438424916,2.2595264929,5.7744714381,-3.767242366,-3.0350603621,-3.1872953986,-1.5125416879,0.0675026778,-6.5365237471,0.1272323189,0.4482357364,-0.1130320491,0.5147039179,0.9804895542,-0.5877777265,0.4976996768,4.4124576114,0.3359670038,-2.1904172018,-1.2511886102,1.3280877649,0.5542266506,0.0498225842,-11.1078313576,4.8552942017,4.3620822224,-0.747115489,0.8702754686,0.2700477585,-1.2367268137,-0.1105149824,0.4518892707,1.3632663649,0.5623159172,-3.3427197591,0.8885145206,-0.6341002265,-0.7396624828,-0.7282617271,-0.6172065544,0.1499339056,-2.9531545417,-0.3884061408,-0.6223925542,-0.6857287019,-0.8324313835,-0.6204255791,0.697401295,-0.878203925,0.8614761044,0.3785414542,0.7973260231,-0.0077355707,0.6673961369,0.4590984965,-0.9712456659,-4.5873469818,-0.0051403549,-0.038510473,0.8538295338,-1.0185499566,-0.6040438519,4.9532997383,-0.9284436907,0.3423742578,-2.8405514091,-0.8541989961,0.4521821118,0.5834356712,-0.1215138036,0.1304499519,-0.0699916856,8.8919839435,-0.0590695753,-0.4135818388,0.4982194008,-0.3427639003,0.4525412318,0.8682388334,0.3457354827,-0.7259820761,0.9209524518,-0.9848542817,0.9496825983,-0.375532661,-0.4250994976,-0.7842737578,0.1161550147,0.3493446212,-0.7965818674,0.0706176133,0.8366634196,-0.2510812436,-0.9246734237,0.4474810704,-0.434420021,0.119048029,0.8937866797,-2.5668271862,3.9082210197,-0.2486184785,-0.6677573498,-0.2068781462,0.8569027732,-0.673821075,-0.7796782338,-0.1649002502,-0.1466681456,0.2019180373,-0.0721054221,-0.3278053837,-0.0483276273,0.1174821912,-1.7869034316,-0.2480118125,-9.0627779961,-2.411296804,-3.4054568602,-1.4022366887,-1.4344250058,-1.0378516778,-1.5464424228,-1.1497007122,-2.0305835796,-0.0720257511,-0.2764294252,-2.3104425724,-1.7870626575,-4.0322848344,0.0405437627,-0.6170299722,-1.1728181513,0.8328810212,-1.1211959067,-1.7466343266,-2.5234693091,9.9442431206,0.3235274066,-1.5186289564,-0.3569350875,-4.4226326251,-0.3236341195,-0.562623834,-1.1236959004,-3.5427124343,0.6767558395,0.3090698856,0.4975069461,-0.1120671342,-0.5124767262,0.2918787021,-0.6904394714,0.1080775165,-0.5666242912,0.386732557,-0.0906868675,-1.5400148736,0.6852771877,0.1734248011,-0.4709478066,-0.807642233,0.6774342645,0.9056642514,-0.4354913221,0.8143207766,0.8249601542,-1.3223662427,-0.3488265339,0.0051748879,0.3868443274,0.3086085043,-1.0194241192,-1.6108247019,4.9966747526,0.7149382921,-0.1024248661,0.6695216051,0.4505438478,0.8202799015,0.1848330131,0.8081082532,-0.3503228357,-0.1193347345,7.4006427683,-0.1848745743,-0.1847697546,-0.0511105795,-0.9570144673,0.3332094865,0.63969291,0.2123110386,0.5219416833,-0.8241205955,-0.5895991602,-0.7891990866,0.2049653208,0.6751702576,-0.5326218972,-0.1222280137,0.0973665739,-0.5294094611,-0.3045285827,0.13681961,-0.1067215187,0.9896789253,-0.2922609183,0.739133993,0.4613198873,0.5011531189,-0.7061593538,-5.5052937428,0.9462610092,-0.9106543766,0.9695308595,-0.1527479723,-0.9671360568,0.841623621,-0.7220663107,-0.3503536231,-0.4597630348,1.2589002639,0.0724326787,0.3128730011,0.099643415,-2.0596493366,0.4215564583,-5.9709669902,0.0273322917,-1.1066032486,-1.6579017753,8.1445661924,0.5373030219,-0.9672347443,0.9229166125,-0.4993642235,0.5532962761,0.2349959655,-0.8908485702,-0.1624815541,0.5295830295,-0.2805022985,-1.0868736304,0.758030153,-0.0501829428,0.9721177342,2.9931401112,-0.8945305988,-4.9788903723,-0.5659327403,0.3260974219,-2.2689249123,4.6676041925,0.5522996355,0.3868579796,0.5976360705,5.1146157543,-3.2921262263,1.1861681778,0.5910086192,0.9872279162,-0.007999437,1.2056667524,0.0897524898,0.6106784652,0.6589123777,0.1928534713,0.6476085136,2.9453565487,0.7007104773,0.0395757312,0.4766081935,-0.2894901545,-0.6466881144,-0.4633343636,-0.4122879201,0.0120614563,0.8229700742,-0.2656111117,3.1651584335,-0.0690634609,-0.9612448495,-0.6244007659,6.121207948,-1.4466365747,-4.1515603138,0.082171015,-0.2874499175,-0.3600663164,-0.4672607982,-0.4522767835,-0.2815142475,0.7746581685,-0.7695550822,0.7774752531,0.1249618607,-0.2961180412,0.3559452923,4.8370653547,1.7651316107,1.3936534808,1.0106435614,-1.2180065297,-7.6178625338,1.2301796348,0.3823477666,4.4161884391,-0.9646118679,0.2941371044,0.0882276705,-0.5243858608,-0.0537732454,-1.1030015138,-0.297401317,2.3897427104,-8.2482332742,-6.1306498545,-0.1410684554,-0.8401865968,0.6342044054,5.6188890709,-3.9008693975,-2.9273985288,0.7939814012,-3.0825706571,2.3991475941,-1.8408070348,-0.6944115903,-0.9495175071,-11.1091817914,-4.3869935991,-2.2368414698,0.3502797537,0.2212418491,-0.1985249464,0.9033577216,-5.3034395251,-0.7267708266,1.0121836081,-0.7461023301,-6.0744095901,-8.0925774631,-29.4481259797,3.1975366926,0.7449490826,-0.74773577,-0.0827562893,-0.721640884,-0.1328416568,-0.6906835733,3.093800591,-2.9363570649,-1.0215518046,-8.559985806,-0.4144559696,-0.550715504,-3.0207880222,0.9659722266,-2.6460848426,7.5546181677,0.7730666137,0.0522234584,1.5245362737,-83.6340748412,0.055718208,0.3884581287,1.9313864534,0.7431968543,-12.161752674,2.9881396452,-0.8392974594,-0.6609179282,0.4999272277,-0.7614730749,-0.420926206,0.5875027101,0.9008624822,-0.7019962166,0.7859423942,0.9851110534,1.583138469,-0.3424994896,-0.5656795385,0.1854061805,-0.5812479552,-0.7368268931,0.3304476902,-0.1137903498,-0.1120259994,0.4032119578,-1.1816889411,0.2357685573,0.6585907171,-0.460883896,0.0134995696,0.7116946559,4.0006043342,0.6465352511,-0.6451480099,0.5748767074,2.6897951127,-0.9204015277,-0.5064013412,0.8694151658,0.7899955128,0.3722194033,-0.1300508169,-0.8893191516,0.1666707545,-0.966687597,5.3312156756,-0.3215853018,0.2757513029,-2.6986969834,-1.8866670153,-0.4039565598,-5.0745549999,-0.6864410161,0.552529945,-0.5395085439,0.1116150504,-0.1921926658,-0.6320554527,0.104681993,0.5416641112,1.8531873336,6.857646998,-6.4388059376,-53.6816889515,-0.9178589498,-3.1608415158,-6.8930246961,-1.5087965405,-3.7251857586,0.9960254328,3.0319525526,-1.8711262904,-1.9680449907,0.8733501762,0.8058063946,-0.2371867502,3.3126835348,8.7591145419,1.2479053442,-0.1345346342,-0.3259654557,0.8547350889,11.116180052,0.3588425536,0.3001644396,-0.1553242855,-0.2778757641,0.6613722559,0.5542172202,-0.3430177862,-0.7856774935,-0.1110807657,0.4473726198,0.2123064627,0.0310049208,-0.3792801554,-0.17059926,-0.4550061743,-0.4123040091,0.1082158995,0.1190740082,0.9840576192,0.5521240169,0.8079337846,-0.6700061488,3.6432392179,0.264828052,-0.5550368765,-0.8290206807,3.5581418917,0.0644735222,-0.9013313623,-0.3891837066,0.1129292061,-0.1100294853,1.9991611656,-0.2466568422,0.6833981699,-0.4006491773,0.0243974649,0.7646618016,-1.1839674331,0.7749367787,2.5000432701,-0.1690452384,0.1665624467,-0.548328059,0.4569085265,-0.9137735251,0.4211796448,0.5071760006,0.3529822049,0.031164528,0.7884807058,0.3144507228,-0.2167835859,5.3337100803,0.8391847352,0.1344070868,-1.2517272851,0.4671711014,1.7434880412,-14.5001828959,0.6133970412,-0.709980648,-0.7097046889,-1.0659216541,-0.4362690714,0.3452160737,0.3066821462,0.0544210243,-0.8435936048,-0.5053891207,0.4760941805,0.7816452194,0.3188374383,0.5721635395,0.2982235511,0.6531724998,-0.5544736578,0.4858256019,0.0002191026,0.5615314043,-0.3164034981,0.184488103,-0.2923800589,-0.2154882774,0.3736064815,0.4730475283,0.3126273754,-0.1795061011,-0.2704294134,-0.2059576492,-0.4350132755,-0.3986572239,-0.9833017699,-0.8228645261,-0.4659774688,-0.3652861607,3.9404593597,0.3409908113,-0.8725743544,0.5674453204,0.3176464705,0.4609504086,-0.6957962437,0.453285837,-1.0327408629,-0.3252816417,0.6415933213,-0.0526074856,-0.7176354617,-1.9094696004,1.9324949493,-1.2983975601,0.7204099735,1.5980309554,3.888330677,-1.4930578486,0.2671710474,0.9703643299,-0.47875292,0.7150485215,-0.7947326618,-0.4676931827,-0.054334262,0.7771443492,-0.1437957454,3.8156841516,-1.0505923042,-1.682287866,0.3334506266,-0.9321196638,2.2963207902,-11.3170167753,-11.7516830152,6.4582465142,-0.2939203378,-2.1128634407,0.463701532,1.6973656521,-0.3230419531,0.3652909488,1.2815536495,-1.1337202891,-0.1635038931,1.4675077126,-0.1117782998,-0.292100157,0.8188777436,4.9774579173,-3.1174029558,-2.199616044,-1.343400936,-4.3419601698,2.2497474831,-0.6098840164,0.8633680324,0.7238208827,0.8344860177,0.1710880589,0.5099077356,-0.6154836484,-0.109471114,0.6605277622,0.6503158776,-1.5566787295,-1.2293716605,0.2897061797,-0.1107235025,3.022261543,3.3526451696,-3.3543824666,5.074810488,0.079142232,-5.9370456089,1.9969761237,-0.7892462697,0.67398971,0.5835175736,-1.4148328798,1.8905683133,-4.8708043916,21.9909107411,-0.9777929895,-0.6977740056,0.8433806771,1.897082496,-0.5761137799,1.1817151186,0.8057078849,1.3838795687,-0.4774367821,-0.1825889857,-0.588256237,-0.1659448992,0.9636975836,-0.0942076272,0.3642134647,0.3855627537,0.4353174583,0.6666364978,-0.5673761982,-8.8846099531,-2.7231349389,0.9242986682,0.040073534,-0.9461133782,-1.5057367544,1.2529609039,-5.3401236581,0.1252792092,0.1218272322,-5.2481556757,0.3254473816,0.0338306416,-0.849005904,-0.6386200023,1.2269985861,9.419166565,-0.0339052958,0.2797489452,0.0058321597,-4.2560243543,1.2591676746,-1.6270910529,4.7779723977,0.5787243273,5.9264776664,-1.2065878342,-1.0438614345,-0.2378737445,-0.2433511961,0.1670564887,0.2171671497,0.1449853489,0.1297184502,1.5429114309,-0.0456815963,-0.6979312173,-20.1264534113,10.4026745615,-0.1466259298,-0.9223734755,0.0533658033,15.5583732166,-10.3238681278,5.7294788568,-0.428170989,-0.0982026224,2.2772435301,-0.3085182394,-0.7430010802,0.1590581942,0.5343336896,0.3100327425,0.8430944322,-1.8324948887,-0.9926011823,0.7573447036,1.662998312,0.5053036416,-1.1249006176,6.7664215252,-0.1991959652,-1.4296998506,-0.6834959937,-0.2829927877,2.9928498572,1.5643258563,0.5070698077,0.1201577821,0.3041292808,-0.4861378685,-2.6166159015,-0.6501556481,-0.4877690652,1.8781976327,-6.3028374247,-27.8423275968,-0.6499942614,-1.7117082462,3.1185613713,-0.4202219788,-4.6836631075,0.3331595032,-2.7783557485,1.106315443,-2.4460683839,-1.0164951624,-0.39165193,-0.7941827979,3.0511803924,1.748087164,0.3016910988,-0.084896266,-0.6358005777,-0.1602537408,0.0576115596,-0.8012214674,0.6126182973,-0.7313371085,-1.3708949121,0.8669955694,0.1025528607,0.1213815614,0.0614780065,0.5289229991,0.1769694961,-0.6464472179,0.8236348879,-0.075758263,-0.0821691977,0.2015458198,-0.7347606974,-0.2047945741,-0.2691492898,-0.3967779174,0.0650414372,-0.5371612816,0.0948905316,3.6149006984,-0.8505482477,0.3300329561,-0.1914741375,0.0715536646,0.2230170792,0.2155951295,0.8096867813,-0.4154574344,-0.7566714895,0.8487517162,-0.8407309539,-0.7644922018,3.2365775255,3.1461621405,-0.4168257678,-0.9435528389,0.6247658323,0.7841699554,-0.9685780774,2.0107863531,-0.4229062912,0.2463777098,-0.1518211056,0.5903655367,0.4753444287,-0.2281745143,-0.7403319537,0.6052881013,2.2217120368,0.7620666945,0.4517171961,37.426830465,-0.5134233746,0.9578702773,-0.2223010806,9.0990966017,4.6703110539,0.2638163321,0.3798545297,-5.6098219077,0.7455550814,0.4168412988,0.4780454559,-0.5535676007,-0.1755296515,-0.00186539,0.0637583466,0.3942737921,-0.0757325078,0.7485814091,0.3843784001,0.3378140778,-1.8767157855,1.7905178717,-3.8665646588,-0.0137458782,17.9655678505,-1.212553954,0.8673250046,-0.4836733197,0.5162035295,-0.4328334135,0.2348327242,-0.6943916372,0.2145123914,-2.2680596588,-3.394174989,0.4138887455,1.3100644328,0.5986863364,4.1410459415,0.0390172301,14.7559469198,3.7312189882,-0.5568909662,-4.0051899132,-3.7141109138,0.5594899863,0.960932371,0.5992850957,2.5429784111,4.9573101495,-0.0350445564,-1.247527833,0.6067168133,0.6047865153,4.8472203278,6.2117004542,-3.3217796857,-1.2077756492,3.4084047481,-0.5578282603,0.7687515484,-1.0058851616,0.7141970387,-1.5666014583,-1.1270140716,0.7672218777,0.349214986,-1.1259535076,0.1656985941,-0.4479043312,-0.9872671545,1.5781851826,-2.1772938193,3.0069398003,0.0147714713,-6.7239977739,-1.8173621682,6.788854059,-4.7860816141,0.5706901865,0.1412628998,-15.0763751529,6.6293475938,-0.8061252792,-0.2485386037,-0.6033314577,12.2517979499,-41.4573201724,-8.6503050234,0.0741912308,-0.2399491637,4.9317557479,-19.4502161773,0.031808149,-4.2747378118,1.0537235948,1.0335336986,-6.208335114,0.3803450486,0.3952644352,-0.1848676277,1.7813490671,-0.5222688374,-0.2239358713,-0.1058231455,-0.8733718306,-0.083773872,-0.4187905848,-0.0498088606,0.0387536313,-0.0768100535,0.454819394,2.0690167576,0.0322331307,1.3582007362,-4.1646617109,-0.7729145623,3.2269730493,-9.2938951373,39.3296072059,0.1986320977,0.9650503015,1.4593245812,0.9697315289,-5.7460386382,-8.6811207962,-0.855750964,0.9833918305,-1.8100260426,-2.380310116,-3.1232724786,3.344363362,3.9703324991,5.2645407583,-1.6086981109,-2.9546947743,2.0851224032,0.686335409,-0.8499064235,0.3541106214,-0.8863446666,0.8233161362,-1.1314923686,-0.5771175846,-2.1809399314,-6.6289702371,2.3237910558,0.0542789733,-0.6467408583,0.0932328215,0.7319155488,-8.6247490303,-3.6585899969,-0.9355124803,-0.2740090361,7.7275133144,-16.92322705,0.1017289477,-0.1670009052,0.2118858949,4.263498822,-1.8698473371,0.7969715572,0.7323855524,0.5030105536,0.0798288727,0.7529249024,0.5144049579,2.2186113528,1.899633875,0.0053397479,-4.2505263304,-9.4951308481,-0.3387143026,-0.9407543325,0.9186903098,-0.1453079289,-0.4624608125,0.3350964286,0.8375225121,1.369661511,0.1663440545,-2.9405208333,2.842826764,-1.0197982392,0.9450726118,0.1144188537,1.1686617776,-0.2192024081,-4.4721161071,0.0595741677,2.7926743277,-5.3164934571,1.9526271419,0.0741238145,0.120130057,-0.446527482,-3.2637189491,-2.8707835323,1.6162259401,0.2491479028,-0.7635702935,-0.5224420575,8.1697230671,0.2171943272,1.3548859005,-0.2044851996,-0.5564327994,-0.2984245818,-3.3624089514,1.4395255812,0.7200599339,0.3144550687,-0.3464827389,0.2486284685,0.8756489862,-0.2448805632,0.8986443943,-0.4501057172,0.0071925498,-1.5786445429,-0.4026365899,0.7187798916,1.078957838,5.7061630547,0.5029218761,3.8359262511,0.585278563,-0.7302015924,-0.312839722,-0.4313769957,0.4620975754,-0.9677153639,-0.6368712122,-4.3336112101,6.2895676879,-2.3070155586,0.3293241175,-0.4204393165,-0.5438441263,-0.6687650822,1.0220788986,-0.9883057607,-0.9781412023,1.8236167294,-0.2830638089,-14.5475392721,0.4811338912,-0.7823020615,0.4790993176,0.773556039,-0.8741020019,-0.5751514681,-0.6871575627,1.0849993589,-0.7747332433,4.0344637717,-3.1021911516,-0.4902098272,0.0284954184,-3.6714227537,-0.2661404888,0.5157655407,-3.5594763086,0.9485992202,1.8249209176,-1.4998839766,-6.0960868961,-0.5829180875,-0.6596166658,-2.1202881812,1.2090514971,4.3701313652,0.8479377004,-0.4470740293,0.2883456968
##end
biasActivation=0,1,1
[BASIC:ACTIVATION]
"ActivationSigmoid"
"ActivationSigmoid"
"ActivationLinear"
