encog,BasicNetwork,java,3.3.0,1,63578909329394
[BASIC]
[BASIC:PARAMS]
[BASIC:NETWORK]
beginTraining=0
connectionLimit=0
contextTargetOffset=0,0,0
contextTargetSize=0,0,0
endTraining=2
hasContext=f
inputCount=42
layerCounts=1,151,43
layerFeedCounts=1,150,42
layerContextCount=0,0,0
layerIndex=0,1,152
output=0,0,0,0,0,0,0,0,0,0,0,0,0,0,0,0,0,0,0,0,0,0,0,0,0,0,0,0,0,0,0,0,0,0,0,0,0,0,0,0,0,0,0,0,0,0,0,0,0,0,0,0,0,0,0,0,0,0,0,0,0,0,0,0,0,0,0,0,0,0,0,0,0,0,0,0,0,0,0,0,0,0,0,0,0,0,0,0,0,0,0,0,0,0,0,0,0,0,0,0,0,0,0,0,0,0,0,0,0,0,0,0,0,0,0,0,0,0,0,0,0,0,0,0,0,0,0,0,0,0,0,0,0,0,0,0,0,0,0,0,0,0,0,0,0,0,0,0,0,0,0,1,0,0,0,0,0,0,0,0,0,0,0,0,0,0,0,0,0,0,0,0,0,0,0,0,0,0,0,0,0,0,0,0,0,0,0,0,0,0,0,0,0,0,1
outputCount=1
weightIndex=0,151,6601
weights=##0
##double#6601
   1.8240289262,0.5311705194,0.2550910938,2.6985609554,-0.5649009074,-1.0151738903,-1.9643043506,-1.7331322022,-3.2775989988,-1.6296071169,-0.3585923654,-1.44727699,0.7919160178,-1.7751510889,-0.0765890196,-0.6521558557,-1.6212116617,1.0890826634,-1.5851005309,-1.2842483446,-0.4256470018,1.1554865293,0.8409433127,-0.796266431,0.6606814053,0.6205368734,-1.7543085417,-2.4867340922,0.8402958403,-0.3683209163,1.0944238258,2.8621889862,2.3605007725,-2.8005975335,1.4929326076,1.6497937255,-0.3131097991,0.3398722921,-1.938781562,3.7013112366,-0.4164346401,0.9363783103,-2703.9840731476,1.340289302,-1.2351295712,-7.8105050016,1.1525118109,0.4658715721,1.3782937026,-1.4259086421,-0.852243526,0.8180788646,-1.030393644,1.9202333745,-0.8005577123,2.9855563488,4.2823709944,5.35856358,0.4120391293,-0.216807431,0.6417133978,2.8634395727,-0.9583981221,0.9336505284,0.3799800228,-3.5262089097,1.7982464175,-1.4308801171,1.5220717031,0.0948291244,0.6385904424,2.3419773831,-2.0731435449,2.0546963248,-2.5569485895,-1.2086538129,-1.2240472558,-1.3124427975,0.9216123063,-0.1851766609,-0.9791162173,-0.1854145365,3.283715565,0.9829684788,-0.5846513586,0.5112277249,0.8277926967,0.6688001015,-3.5452973256,0.2968332959,1.4320632703,0.5972153316,5.0234872236,-1.1167288473,2.0166022233,-0.339133541,2.5885343217,-3.0866949685,-0.8748567567,2.2234692638,1.5366311868,-5.6683098081,-0.9391352157,-0.5301344395,-0.1438038372,-1.8190180089,0.4752682347,-0.6939411001,1.5680956608,1.4030818204,0.4600984593,1.1573275711,0.0956644255,-5.0371701326,-1.0834245789,-8.3577660414,-0.9623180546,1.2470474088,1.1059777937,0.8368287783,-3.2760394887,0.3577443716,-0.8244997286,-2.6376777358,1.4918261167,-1.0070478506,0.4593785709,2.1627770661,-1.2708540571,1.5346576027,4.0006736283,0.4021124515,0.9029120819,-0.5498800934,-5.7112653192,1.7676068355,-0.2634929438,-0.5327680653,-1.3217788195,1.3474303847,-1.016105642,1.5714163223,-1.9716228179,2.3358862691,0.8109113526,-0.8275835745,-2.2117913954,3.2962098228,3.1816460763,-2.5897783873,-0.9714967531,1.1913790848,-4.3286024008,-0.7506722254,-0.0226989389,-0.6855792209,-0.28919303,-0.3119800262,-1.1753809289,0.3899522091,-0.7497049796,0.1226443936,-0.1965756923,-6.5783695413,0.1463632083,2.6346992804,-0.796128572,0.2117745738,0.6823849583,2.5164428659,-0.6176021744,0.1792484282,-0.485955917,0.4947658504,-0.1734104306,6.7391660992,-8.366269396,0.4472318997,-5.351197292,1.474667867,3.6582821796,0.1092771333,-0.5293051636,-0.0660005029,0.4121835757,-5.1682539644,0.5120808663,-0.3293656434,0.378006092,-0.0243964788,-0.2696431015,-0.2972201019,0.7894488729,0.6233837108,-0.7193161251,0.5300284938,-0.3427618818,-0.3243922443,0.4979244944,0.0450037637,0.6308209645,-0.5211357434,0.5831801166,-0.6607441587,-0.2961059826,0.0592574547,0.8207282017,1.1789169598,-2.67729752,-0.1031553837,0.2278028185,0.2005059924,0.8617029331,3.4770959515,0.0439637494,0.5684458649,-0.2802905785,0.0015377418,-0.7778388353,-8.5295838969,-0.9806615552,-0.2245111247,-0.2369127479,0.6776156544,-0.1807753944,0.1031671693,-0.7933803935,-0.2724698635,-0.2666921945,-0.0213644104,-0.7278725727,0.590158679,0.3749619426,-1.1066144,0.7987086341,0.198461556,-0.9887439865,-0.9049181696,-0.403052161,0.6113939834,-0.9496262022,0.2688476327,-0.5643383851,-0.5952388384,0.6390504562,-0.9362149408,-0.8573309683,0.7358226674,0.3210017686,-0.0237711265,0.1562265822,-1.4716141276,-1.0179859485,-0.1640881299,-0.1568602509,0.291774987,-0.6667068055,-0.7653855851,0.0402985611,-0.0900904822,0.1406252217,0.9166261585,-6.9280104562,0.803381496,-0.2197184972,-0.7879095279,2.1829712689,0.5172734089,-0.1982478524,-0.5264214241,-0.3326092005,0.0932919209,-0.3788825111,-0.918877162,-0.2781032464,0.2969782822,-0.8804365465,0.2734363631,-0.0314009774,0.6440967681,0.7811600947,6.2321557971,0.6525745291,0.3586064323,0.1952526825,0.6629233875,0.9603727572,-1.2693930275,-5.5391595126,0.5695699997,-12.0892862663,-3.6342560742,0.6798606437,-2.0106012629,-6.939227683,1.4799352011,19.2046327061,0.2598285212,-0.1679221429,1.2513178459,45.1511634714,0.4966064568,-1.9236896274,-10.049811321,2.6873103736,-7.1100705654,-0.1077511083,3.9962149463,7.3299433496,-0.2733467627,-0.9987946173,-0.3414379271,0.0591636963,-8.7418367515,13.7608803911,0.5877550599,-0.385167157,-0.3690821838,-0.3875645663,0.6497011373,0.1155466942,0.8044044388,-0.5870984638,0.8212921256,-0.521995415,-0.0672867533,-0.4607963291,-0.4421157367,0.3190277836,-0.0175997306,0.685700992,0.6381307778,-0.764417691,2.1547398037,0.199229356,-0.7180452403,0.8242937084,-1.6625394887,0.3438995265,-2.4832235029,-2.1686502407,-5.4557738172,0.2881127259,-1.1491190145,0.4547641759,-1.5649091437,1.562538883,-8.1458572652,8.3488662935,0.3285063726,-0.2585718689,3.8034516372,8.4970335184,1.0132781446,-0.3668534911,0.6589489106,0.6568589834,0.587001917,7.3003729278,-0.5758756556,0.7555075516,0.62489942,-0.0546441608,-0.8697445429,-0.2444919155,-0.1758935315,0.6351578465,0.6337797205,0.399966794,1.8163215774,-0.12815609,0.7423035802,0.8145798262,-0.6767687168,-0.3453832994,-0.354605498,1.9873660541,-0.673389242,2.8815718146,0.0251805273,0.1790317639,-0.3882618059,-0.4638399658,0.5645631663,-2.4119510237,-7.8467281013,-1.0083887318,-0.89986974,-0.6693951597,1.602199147,-0.9045030343,10.2491829789,0.5739545317,-0.8360367174,1.2524404873,-4.1454540848,0.1653212092,-0.9171180054,-0.9300739661,-1.0842033572,0.7800478084,8.8725801268,0.9651827467,1.0493566161,-0.5146702967,-0.1245927089,0.1792511336,0.2843298505,0.1776834887,0.0890539566,0.6852533036,-0.7257228714,-1.0241659259,-0.6033632042,-0.7368539604,0.5948956422,-0.2242060449,2.0010232381,-1.0271626564,0.7234395889,1.2465204745,-0.5202300153,-0.5456498459,2.0609241955,1.3915000661,2.0467471932,-0.3053181582,8.3198943457,-3.9410437206,-0.3565500941,-0.934218646,0.8739833587,0.1216318936,-0.416301445,6.6611694884,0.2187144343,0.5957621153,-1.4037961468,-41.2161776534,0.0146364362,-0.535228906,0.7581210627,-1.7842530003,-0.8112605016,0.2045256308,-0.2100479385,0.1379263546,0.3021534479,-0.5879147247,-0.9456438498,-0.3923502146,0.0351181377,-0.1398103507,-3.1103107033,0.4430423984,0.440457997,-0.7576481944,2.0748955113,-0.0939515695,0.8612169585,-1.4678854102,-1.3035844739,-2.0268269646,3.0786643508,0.0750999619,-1.6183648948,-1.5348623528,2.1977713018,-1.2712667226,4.4412899263,2.1269919146,-22.0902339897,-12.5356182004,0.8171046543,-0.8963553841,1.4565133865,-8.2496551663,7.6545433665,-0.9862146741,-5.2424103996,10.1054339083,8.9832560077,-0.3983802912,0.325473597,-1.3047395414,5.6274264608,8.647103453,2.4838931821,-0.1409927109,-0.9221914222,0.9488617945,0.6102469657,0.8375851449,-0.0198313943,0.5465469656,0.3646910382,-0.7044261115,0.5324019203,0.8308905289,-0.6894499419,0.4222695336,-0.8886372326,1.3028360588,1.6255358356,-3.1560350132,1.6216793812,1.3452710863,1.5248721885,2.220861086,6.0280887263,4.574809471,-0.2191354884,-3.2834217622,-0.2733932095,-2.5904267734,0.5099198755,-0.5326112441,-7.1359143355,-5.1251194275,-6.0272028372,7.7017118322,-0.5747489722,1.8637296057,4.6142309794,2.7473763118,-0.2220958205,0.1899376126,3.0583293962,1.8515841569,1.6739006783,0.4187770463,-0.1967449613,-0.5997987213,-0.1942876585,0.1133789665,-0.1805512973,0.1573877571,0.140538853,-0.4588346991,-2.2971393216,0.3827520398,-0.8199364887,3.8621621547,1.0555034463,1.0021599481,2.2649452442,0.6579968288,-1.8800784819,-0.1549347558,0.8128524561,-5.2181831343,1.324642851,-4.0121501996,-1.8931290628,1.5830135184,-1.0376670525,2.7229760236,-5.1087713148,-0.5346182213,0.7667200089,-0.8950929926,-1.563491749,-0.1332343522,7.2673972771,0.9398454837,0.1907637001,-0.0994366927,4.586168173,-0.4761780916,-0.3366727574,0.2168700032,-6.7838115854,2.3807721964,14.0733335957,-0.1981842831,1.1958664594,0.5046293676,1.1768571869,0.67987923,-0.3839149381,-0.4094404046,0.4937677316,-0.1955883,0.0304028695,-0.4822177858,0.0158110534,0.7272251555,0.7823866855,-0.5386092086,0.9635152735,-1.0439538539,-6.4333566541,0.9455371516,-1.4243799424,-0.3189527964,0.393840154,0.5911178344,-0.2760675635,-0.9504503169,4.4773785541,-1.5599828345,0.4016859333,-0.558608989,0.9063516452,0.4674299314,2.3631156591,6.306176329,-0.7948420876,0.2608465016,-0.1752435481,0.6768161624,1.0906682864,0.8903104318,0.5011924683,-0.0785159447,-0.4135401665,-0.0560073173,0.1240244569,-0.0075755093,-0.0820612188,0.692105719,0.5763818179,-0.7901763768,-0.8310104079,0.3611243703,0.2589022501,0.7371445691,0.9452420512,-0.3565860614,0.7397293286,-0.740863352,0.4054280724,-1.3651185537,-0.6264686864,-3.3456383658,11.9547499498,-1.0501747231,-1.9940934548,1.3581996149,-0.4441697756,1.5582670004,-2.9934917355,-2.9868510976,10.1057348741,-1.0110773194,-0.2670340209,0.9884178827,-0.4286160839,0.0095928786,8.1261190193,0.4023285775,0.6601775317,-1.0930621011,-0.7609536668,1.030953319,0.7044311975,0.4935627353,0.0597957034,2.0262562886,-2.5576162641,0.2311013477,-0.0901083348,-0.6472614097,-0.0364820712,0.5695844043,0.6267046639,0.026904375,0.4837508721,-0.0923453956,-0.8473514472,0.4210305385,-0.2837505592,0.6204770278,-0.4338738462,-1.174505045,0.1973241819,0.2474141034,0.0651655035,-0.7174534616,0.9772386066,0.1455069752,-1.7505705732,-0.4838753886,0.3231011769,-1.7361411592,0.4276607915,1.6084995841,-0.9432649443,-0.0166650261,-0.4421570816,-0.6607395329,1.6353448371,-8.5144535993,0.3190436649,0.2482348562,-0.8673119267,0.8983928073,0.8926297275,0.5520933473,-0.1593107,0.0149231019,-3.545603361,0.1733337862,-0.7268570064,0.3681401629,-0.6885503033,-1.056026641,0.8763634895,-0.2704859994,-0.3454584492,0.3031500645,-2.1817569645,-0.4531881871,0.6735975575,0.218156147,-0.804998714,0.3875282489,-0.8214876935,0.4474421053,1.2409834985,1.6317118941,-0.1456838066,1.3763509048,-5.4110057429,4.6826714849,-0.3562673348,1.2271468596,-1.2200076617,1.8424801605,-25.6208458588,0.8326997687,0.3357334767,-0.1924692866,2.0078446514,-19.9267981776,8.1507142073,-0.3044447709,7.5782948906,-0.1059314798,1.4917503082,-0.624040798,0.3199930057,4.1165648332,1.0490597737,-2.4873875978,0.4290528753,0.6514875151,-0.0449496123,0.1706393818,-0.2603493387,-0.1453563266,0.6396627727,-0.4322405013,0.1444658393,-0.6521593185,-0.7386084586,0.0090976398,0.6540448664,-0.695043848,-0.0837379554,0.428741961,1.0102837991,1.1990332406,0.100820177,0.3014491576,0.6964727538,-0.8450257714,-0.513057828,-0.8913524409,0.364850688,-0.1047846124,-0.6451161745,0.7213837869,0.6927177126,0.6262204412,0.3534446178,-0.2214508945,-0.2130932723,5.306302014,0.1134594684,-0.2706890464,0.3654545045,-0.202232038,0.7967098132,-0.3754744154,0.1749347127,-0.4525118507,0.4251789715,1.2244172529,-0.740798015,-0.6507903332,-0.5279083488,-0.3774792769,0.0600926259,-0.2179116767,0.7505406908,0.6046536181,-0.0118003328,-1.0120270224,0.9190609556,0.4257638795,0.3866510445,0.6875906711,-0.221834501,-1.8518886408,-1.7195103644,2.3136215235,1.0552148375,2.4271276447,-0.3460876944,0.3760614782,0.4953721749,5.9746225552,0.8969499799,-3.8242963237,2.511740973,0.9396117953,0.1348826509,0.9222199403,1.1142722116,3.3778433135,8.8660131599,-0.2906064416,-0.400369039,0.3323635323,-1.0150779926,-0.0518430512,0.155955073,1.3603891592,-4.7358471794,0.4542617474,1.091004151,-0.721520611,0.8389815979,1.0034738811,-0.3324455082,-0.663451213,0.4889806873,0.4063360412,-0.9591075565,0.8534215432,-1.1094543468,-0.7216949261,0.1246784649,-0.8977942297,-2.2451436637,1.6454490911,0.375115375,5.0579743977,0.7672562572,-0.4219316559,-0.2312804449,0.9241345977,0.4178800872,6.9841416698,-0.1740530415,-3.4643516594,2.6032489331,-0.3645688771,17.4805688764,-0.7374525907,3.1339274334,-7.3637892733,3.1469381984,7.0157889276,0.0278424057,-1.2669663765,-1.3104225934,0.390122002,-0.4150808105,0.8148392932,-0.4781354871,-0.6025639343,-5.9157146519,-0.3265339477,-0.5559180703,1.4586767413,1.0237532244,0.4547296244,-0.1646913414,0.7580546581,-0.3644051638,0.5839998053,-1.569360198,-0.0503502806,0.9852543363,0.3857030636,0.3074399414,0.3653382143,0.4689667016,4.7093088416,5.213889292,-2.3432591975,-0.528024134,-8.9525104421,-0.7539896124,-3.3418150697,-2.0990525492,8.2991656307,-2.0348911082,-2.3424378615,0.3006976888,-1.5855869263,-0.0452952297,2.1624764971,7.6283060642,11.1551848821,-7.3922505939,-0.0846101507,1.1704583037,8.7820883092,0.7364348019,0.8818691157,0.7767819687,0.7821651878,0.0318166754,3.377018653,-1.1165435013,0.7758120949,-0.2769335525,-0.816729185,0.6541150247,-0.4154006039,-0.398541371,-0.1159540829,0.1246442146,-0.7385864219,-0.9552804009,0.1311732046,0.6322265207,0.3774561035,-0.9000386734,-0.3921226488,-0.0259123204,1.0133474677,1.4961399627,0.3777946191,-4.7418603408,-0.4802920275,0.2925018052,0.3965277574,-6.53671309,-1.3675719943,0.9901682914,0.5513093241,-0.1805798203,0.5675351087,-0.7617573886,-3.5405210249,-29.9790750591,6.3906897496,-0.9784449022,-0.6898030262,-3.0133510617,-1.0662688378,1.0108372869,0.2607585226,3.4598880589,1.6429967732,1.7042151067,-0.6400796913,0.6119990105,0.3353517486,-0.7931400256,0.3239469614,-0.1795696238,-0.1077022603,0.6390112312,1.0106658581,1.5000937755,0.3361282393,0.4057469077,0.2835560948,0.4550394331,-0.6496226637,1.0460583276,-3.094979075,3.6285883921,-1.7378478754,0.5661214008,1.2216271452,2.482603717,4.9536693791,5.907955915,-4.4161135704,-0.533328138,3.4300996779,-9.7314161564,1.0572855285,0.4762178406,4.4801425012,-6.9836985958,-0.4548337312,7.2578976565,0.5479011664,1.014000179,-0.1623564151,8.479553054,0.5592683497,-0.5998241248,-6.5879972388,-1.5921470118,-1.7824749949,-1.1681059007,0.3114177377,-0.9253344252,0.6535238219,0.3155371426,0.0068006202,-0.3753259144,0.47588894,0.6385052937,-1.0793054685,0.302296569,0.5797526182,-0.1893319218,-0.9082132266,-0.3641921142,0.8844341351,0.5741781065,1.2479106515,2.5416932805,0.2136154472,0.9749402643,-0.4354145963,-3.1809010692,0.0205509148,-2.2072357965,-0.4593265925,-2.0119546244,-3.324346442,0.3401488171,-0.8538694409,0.8250029235,0.95940311,0.6460261667,6.9770412997,-0.3055759898,-0.7594997278,-4.2567889387,0.1868230225,-0.3816716443,-0.5113780925,0.5654134384,2.4005123062,-0.7199247663,-0.3968338781,0.8923561172,0.0141644539,-0.9060727668,-0.0569251351,0.5886788834,-0.670948771,-0.3001751267,0.3961913983,-0.3631195096,-0.0269011147,0.3973034901,-0.3062912852,-0.9815973929,-0.8893242022,-0.5021088493,-0.9504322923,1.6184298597,-0.8513835955,-1.7304152309,1.6975344251,0.2966746008,0.5489485767,1.817862338,-0.7555633908,-0.9130374308,1.0584942897,-0.4901803252,0.3414528844,-0.3405215309,5.2585958232,-4.0660172816,0.6511648752,-8.2875128484,-0.7283524087,2.2861893135,-0.1665310324,3.2304314634,0.4614457801,0.857708157,0.1742382163,0.5536274436,0.5406249036,-0.0235191487,-0.7626576935,0.6391995123,-0.8793950408,0.5917916905,0.7696953616,0.4058022969,-0.3731956052,-0.0981799839,-0.7137619483,-0.4530269131,-0.7748630881,-0.6718539963,-0.8331558788,0.6305972601,-0.1032190689,0.3060965315,0.9828458906,-0.9922312216,-2.452878337,-1.6428819573,0.8320657869,1.0187251229,-0.7096889572,0.3692302443,0.5185486673,1.4053849544,16.1137963178,4.6516616263,0.7330384803,0.0983359544,-0.3431020502,-45.6561401942,-7.4447819015,0.0572083197,-0.14270471,-0.0399967455,-0.4411710186,-0.5327931372,-0.1400534535,0.5256593497,-0.1080313856,0.6152226624,3.0289438349,0.1637169529,0.6114253839,-0.0505490964,-0.1306776203,0.2587143656,0.1580511211,-0.7881719781,0.4697238383,-0.3061342355,-0.5032086568,-0.3996953215,-0.4699161729,0.5099551458,0.9630761755,-0.1494276638,-0.037137354,-0.2604633626,0.7844894171,-0.0285994139,0.7709921436,-0.0636383455,-0.0369521668,0.7044798902,-0.7874942553,0.3037104355,-1.3756905346,0.0899591808,0.6111324038,-0.9395807646,0.1133415204,-0.9223299955,0.3679323999,7.7611035459,0.7921753497,-0.6318014292,0.6479033878,-1.0561810566,-0.2032742579,-0.8175083016,-0.6788469782,0.6429166032,1.1733017061,15.9563154062,-0.9631718751,-0.4552455973,0.5657530947,0.0012619768,-0.9375903453,1.0152619519,-0.0152831231,0.394775153,-0.449359311,0.5418610233,-0.2681613244,-0.4552917957,-0.3824073721,-0.5019100581,0.0396356783,0.8910079464,-0.7830574038,3.4729374281,-0.5495837275,1.8479870874,0.055548379,-0.9080781508,0.0654689031,0.6798080839,-1.0909944849,0.5962708761,0.4703361796,-0.3063767203,-0.104381762,-0.8238052999,1.6427743471,0.6889342451,-8.7136951162,0.1590158125,-0.1819873309,1.9516982577,2.1412495505,0.6043742566,-0.8951227283,-1.9133078848,-0.8659824257,-0.0237002334,-1.03240776,-0.5529159426,0.5364265625,-0.1528762528,-0.1394574248,0.5528073725,0.8914873683,-0.4640253705,0.7843154323,-0.7803564447,0.3489526529,-0.6734322388,0.6279477103,0.7636088532,0.4925656305,0.7684989214,0.943376904,0.013042293,0.1018963944,0.4888374612,0.6536979708,0.3788624996,0.3925667532,-0.3403025297,-0.4307075563,-0.06872894,-0.626662835,-0.2196932116,-0.8600245933,-0.3640527396,-0.6007442437,0.146689185,-0.7234491551,-8.0210883072,0.560984561,-0.4831741759,-2.050256544,-0.3430446305,0.4281876511,-0.4322463765,0.270283568,2.126368127,1.1996250464,-0.3884850623,-0.0106893568,0.4113507629,-0.5395552497,0.2158372704,-0.573858164,-0.0647853024,-0.3887566486,-0.6540797163,0.7336133332,0.3263312773,-0.3166663398,0.3343480707,-0.9284079984,-0.2910065419,-0.0855556641,-1.6984381709,0.0026372236,0.6258303273,1.1401047054,0.9341661564,-0.3712916527,-1.1154973489,-0.5000864339,3.2630740342,0.2778201304,-0.5014623684,-5.4606759602,0.4771334643,0.7372482222,0.5829656438,0.8061564712,-12.7170000272,10.5308130049,0.1478880305,0.5979937198,1.7973231863,1.4165562064,1.0190270358,-0.1511521978,0.51948535,1.6799814637,-8.5768999667,0.7523574126,-0.7389934155,-0.4294919843,-0.3334061016,-0.0975418001,-0.9592453364,-0.5245837883,-0.1960749855,0.1439615836,0.1421195617,-0.8976407191,0.6938044496,0.8432559267,-0.0066841364,0.4672083197,-2.7195501648,9.5535469483,-0.5692809751,7.4050553607,-0.2503844309,0.9621544936,-1.2673302816,-38.4129112791,2.3424558205,-5.6769798335,0.2458451547,-10.281182879,18.9274087662,-0.7627680757,0.8245979929,2.8068733626,2.8735363918,13.494458962,4.2541737525,0.8986564353,3.9755486269,-1.5223957614,0.3377638079,0.9925523039,-0.3613092757,-2.0780803228,9.3170216153,-7.3118707828,6.3978903618,-0.0450170567,2.1923209529,0.1624056607,2.3862047883,0.0730233744,0.097755112,0.8955257718,-0.0077125297,-0.6130693156,0.823072346,0.8996943016,-1.3595332203,0.5608819128,0.4147932785,0.3190601963,0.7101619036,-0.222825242,3.1243285154,0.5154636921,-4.2336981099,-0.1910613103,1.2830071018,-0.8681208291,-0.7891616453,4.0790184686,0.9659642845,-3.6597216628,0.3410235739,0.9339280184,-0.0258922712,-1.2604219236,9.4224136113,-11.3850559681,0.7241886536,-0.713128818,-3.5372329083,-1.7444169887,-0.3694447445,-0.7972120707,0.0604775906,3.3139783732,-2.6494848454,-1.2590734114,-0.4428076853,-0.4832231912,0.0649694002,-1.1191643775,0.4116201072,0.8176765624,0.4133001775,0.538017711,-0.1675278406,0.4279913598,-0.8264752369,0.821450287,0.9226060155,-0.7996262284,1.0619624616,0.8079973713,0.0613270265,-0.2253651672,0.0129954143,0.9522231524,0.4938769006,-0.3793017684,-0.8573446514,0.692370762,-0.314856304,0.2756234892,-0.1330916202,-0.350147831,-0.8191449064,0.2642856727,-0.4594754369,-0.2593535395,7.2576790921,-0.405853356,-0.3411507079,-0.7044564782,-0.9960875669,-0.4798893757,0.5870845232,0.3608373071,0.4418343786,0.9310860676,0.9856195258,-0.8252069055,-0.4772607277,1.0138589704,-0.1237430545,0.7239195967,0.8186064624,0.5736840116,-0.1626624918,-0.2458767882,-0.5801005411,0.7129620578,-0.9275792971,-0.3575069113,-0.0125549207,0.5409256372,-0.4313975407,0.1318030495,-4.7200245375,-0.2169889753,-1.0288618667,-1.7804583882,1.6409383563,1.0859838266,-1.1600804651,-0.2201656257,3.5677335774,0.2847084268,-2.5891310917,-0.0412168722,0.4262162103,0.4962689488,3.6544171671,-7.0145733573,-0.4022982779,0.9699302988,-0.1714582674,0.8701557658,-1.0632338432,0.7930276654,0.4428645409,1.016880207,2.5236170287,-1.2346521472,-0.4411856828,-0.2259958019,-0.9905639544,-0.7003669411,-0.9490216682,-0.7583857589,-0.2122805638,-0.0217636162,-1.3978527513,1.6372670757,0.0270987634,-0.7695226265,0.8962123096,-0.2633655276,-0.6897515504,-1.2031546713,0.0616221867,5.2011754308,2.0230227782,-0.9250601231,-0.7431303176,-1.4765815242,0.7258605776,2.7504068409,-4.4497299798,-3.860429625,-3.5086854965,1.0242616388,0.02826055,2.1602351344,-3.8134193952,6.1906213487,-9.9187835698,0.5021967383,0.1962265997,5.5090394296,21.2648444716,-0.6147565711,0.6851133032,3.5712748823,-0.2978269817,-3.1426937627,0.4736583593,0.4968600681,-1.3320871925,-0.6200143532,-2.5063769523,-0.2336513762,0.5811191109,-0.9655794405,-0.9467785605,-0.2473186692,-0.9866788544,0.0569844613,0.004790059,-0.9184471036,-0.7694250547,-1.0391738493,0.4289196566,0.6874646533,7.7631447767,0.9757015204,2.0264432618,1.0949211633,2.0003995421,0.194687097,-1.0669991857,0.1526932933,-2.7576409133,-3.5482943495,0.1039074412,0.8979776026,-1.0789927427,-0.1921095266,5.8465843523,-5.4933164826,0.3060291984,-1.7415722588,-1.5718571723,-0.3991343615,0.395231688,-0.0224761176,-0.9791778841,2.4564794156,-0.2560016151,0.8713040667,0.090689316,0.6410928673,0.0768039375,0.5208403306,0.5096533485,-0.5222976211,-0.2858949865,0.3775224748,5.1670194343,0.8537410126,0.4603425342,0.3625460658,-0.7591343417,-1.7196084167,0.6520674949,-6.1420134011,-0.5827530933,2.7147472632,-1.5666965905,-2.3524406861,3.0745890899,3.8257882603,-2.4591703644,-1.379140671,0.0760416633,12.8778066929,1.2192403231,-4.8758321297,0.0219701394,1.0758694212,-1.8834562058,0.6917331185,5.8781805865,0.5073951974,-1.7806083207,-3.4853701828,-8.8116050423,0.6722336663,0.4108569359,3.5344756028,-5.4772625891,3.2758703096,-2.3630389666,0.7499878936,-0.6391624874,0.5764948422,-0.2516936137,-0.2372009576,0.828264249,-0.6946400825,0.6579208303,0.2561700339,5.1819309222,0.8510751459,0.7712147399,-0.0458866608,0.0572647219,-0.9677454208,10.6282128418,5.7509580545,0.8796228235,-3.4368556469,10.9451623273,-1.6135623225,-9.5085067151,-1.3177861017,-3.8030260651,-1.9141733844,2.298571571,21.6544969445,-3.2043158722,-0.7353161377,-0.8197632005,-2.6756747473,-1.1835638388,-7.5094888743,-0.4632169108,-0.9557864079,-2.836572966,23.4082004895,-0.9495729395,-0.228643648,0.0985534362,-0.4438108474,-1.8458367501,-0.957496311,0.7674451525,-0.4745726045,0.8268846114,-1.3325059092,-0.4552402829,0.8387067159,-0.6690779169,0.2919566003,-7.1163359383,1.0876399868,1.4790727638,1.0515378428,-0.0538557216,-0.6681659846,0.7052593142,-5.4623853981,-0.0071327044,15.3944959785,0.5850988502,-2.1860580324,0.9389569324,-2.1754225289,2.4875832154,9.2754148769,6.8534433309,13.3075936297,4.5968546181,-0.4631435924,-0.9164004447,1.0141743547,10.8077678377,17.2717625177,-12.3789108942,0.3360541311,-1.0132751573,-0.688928825,5.6866018512,-0.7784032589,-0.9081314448,-2.5031875925,-0.7138691251,-0.8202176045,-1.7443190608,0.2514700029,0.2622077792,-0.4239826723,-1.288741158,-0.5917357841,0.6918695845,0.9276915311,-0.3937006633,-0.8684864033,0.1867380013,0.980559439,-0.3135918051,-0.6817625422,-0.2320670526,0.9639987164,0.049969016,0.7805401354,1.4498667781,0.5723779173,0.8882550839,-0.8343601683,0.0088214242,0.2598770562,-0.4887804844,-0.4580874333,-0.4241542342,0.3167898631,-0.2335849196,0.9072847357,-0.4220140948,-0.6978942407,-0.53739392,7.7304649834,-0.6415171119,0.4052493256,0.9750803212,-0.3370780038,-0.3494755863,0.0941627347,-0.161848875,0.0217632632,0.6764624795,-0.2255814219,-0.6839082593,0.2423172994,0.3372541263,-0.6775025096,-0.791011225,-0.5605789597,0.6560658467,-0.033267414,0.7824070708,0.3192510744,-0.9864782414,-0.0080422013,-0.3681308379,0.0939353928,-0.6124309164,-0.1577269568,0.6524085841,0.1196517444,-0.2823601022,-3.8972775322,0.7716277675,-0.7818702581,0.2222178114,-1.9318937092,-0.3246246442,0.4060306803,-0.8269018552,0.7612292402,-0.7990495208,0.3742061838,-0.5770785841,1.0758624027,-6.6255570558,-0.7280798711,0.2903080165,-0.7500156721,1.0861959549,-0.0243514177,0.6471508349,0.2834293246,0.6045597319,-0.7757450076,0.2284161111,-0.860995274,0.4226441362,-0.0429365732,0.0739453301,-0.6486610206,0.4272034483,-0.1573559004,1.7855021149,-3.3431514016,-0.7640908768,-0.2520355206,0.1123503966,0.1041182669,-0.6348448231,0.8757981371,-1.2532064003,0.7411862121,-5.5652801195,-0.5810746831,-0.6990800133,-1.0921697809,-2.1745663675,0.791520738,1.6760059265,1.5933074709,-11.4059157381,7.1160945374,-0.2883210951,-0.2762609894,-0.338510233,-0.313890609,-2.7163012307,-6.4135252253,0.7594287348,0.826203244,1.0828338539,3.6264256989,-0.2799516702,-0.6087139834,-0.5529828678,1.0260148914,-20.8620968247,-0.5447796218,-0.9162954948,-0.1459724101,-0.1490057283,1.0006623209,-0.4774567417,-0.4424517403,-0.2402652656,-0.7488789862,0.462372656,0.1530620149,-2.5151859768,-0.5288945044,0.4788477553,-0.4929243082,-0.5330167472,-0.1513276263,1.3163934503,0.6629453828,-0.3127878275,4.5415905568,1.8670627965,-2.4238701162,0.8158623907,-2.0711327688,2.4583856409,-3.8170643174,0.7286412754,-1.5091242058,-0.5495924053,0.7167735056,0.2732164825,1.5200498926,-5.9184233103,0.7755318963,0.8815875247,0.7789676489,-2.5593669134,0.618310834,-0.7407401557,-0.3503227447,-9.8154014468,-0.8876708149,-0.9930771891,-0.164877771,-1.1566292733,0.0709114,0.6375762227,-0.2859667815,-0.339828552,-0.91331178,0.3638111139,7.0219522368,0.2428378144,0.1300947317,0.8850157152,0.2726151468,0.7804359351,-0.6823467103,-0.8813782887,0.4261890342,-6.3685843273,4.5277683502,0.6630926959,-2.0783562744,-1.520293265,1.1049670312,-4.1867159422,0.8105812224,2.6711330092,-0.8825907703,0.7772882146,0.0029017082,2.0276554705,-6.5965071989,-5.2459518157,7.6019563857,0.8191841784,0.0182001613,-5.8085653563,2.5504879128,-0.2841715091,-0.5031142335,-0.485587815,3.1211931333,-0.8580976719,4.3614025507,0.0066479719,0.8561943972,0.1027239084,0.800334715,0.1553827754,0.0798789679,0.923551865,0.8438255337,-0.3838333378,0.8700664422,0.8655211353,0.1399116639,0.1311091485,0.0717512178,-0.1813407591,0.0871777034,0.488894825,0.6084827822,0.2746697362,-0.5111516086,0.1781922743,0.821719925,-0.3598280413,-0.4049221865,-0.5753757517,-0.3801410851,-0.2344117776,-0.8409214159,-0.1881015185,-0.3391865865,0.7823595079,-0.3795669305,-10.2133417948,-0.6946669192,0.0944619684,-2.6170556498,10.5428704077,0.4662893215,-0.4823089472,0.7672418417,-0.4698556922,-0.3713640101,-0.403699444,0.2990675575,-0.1327712234,-0.7674914803,0.7939301644,-0.5498584321,0.6511359474,0.6364439873,-1.343848008,-2.9388817706,-0.8857361984,-1.0516845732,-1.0879507095,-2.1607082097,-2.1059833983,-1.2150147384,-2.4672141051,-2.5100441426,-0.8829387925,-1.3993307993,-1.7750577092,-1.2356540514,-0.4231702193,-1.3493455948,-2.3417749389,-1.0299169107,0.0893423671,-2.1689213302,-0.1633753333,0.731194957,0.0776704089,-0.9511742683,-0.2746969386,-11.7528461342,0.9577774592,-0.9900509604,0.211954568,-0.7105585699,-0.9935014516,-0.9169519357,-0.1747280754,0.5411702989,-0.2792401906,-7.6060291002,0.4471096571,-2.4505381959,-2.268156547,-2.7176651232,-0.5468082938,-0.7783198348,-2.4245437355,-0.3513662719,-4.0554050781,-0.9946938476,-0.3287556875,-0.0151598183,-0.6619776475,1.5326657896,1.4085148845,6.1931734613,-3.1750916755,4.9255850389,6.6975009191,13.9171156998,1.4219773248,0.1053546683,0.5957062615,-2.1527826077,0.7462162154,-3.5227668503,15.5166758902,0.4570297917,-0.8841430554,1.1335471342,-13.8760976315,-7.1957260689,-7.7379867838,0.7593670384,-1.6989036372,-4.3621905269,1.8670139633,-0.764258679,0.1458509747,-1.405763921,2.4744912622,12.4960275563,-0.0496330199,0.7506635207,1.3548084603,0.8659125934,0.2679440787,0.6661173365,0.0347088967,0.6778869158,-0.7545966182,-0.0442263747,-0.4355797828,-0.8098220332,0.4301688251
   0.1000522772,-0.4395845764,0.5753890306,0.731650298,1.8406344311,-4.281695564,-1.1560011444,-0.6092801836,-2.6053369244,1.018662837,-0.9071274571,-0.3489018309,5.6532416094,-5.0315159083,67.2282601446,-0.464025691,0.1047826256,0.6941778292,0.9267112403,-5.9810926585,8.6842563607,0.0874063676,0.5938663291,-2.5113925622,-0.1874116061,-0.3073188071,0.8254922376,1.1244428354,17.8691640116,4.3055046735,0.4604282098,0.4973748482,-1.6324243717,-0.4676258508,-1.5532398004,-0.2373870627,0.5109467251,0.6566620149,0.5745156982,-1.2657422543,0.7049826941,0.1577145863,-0.5032993658,-0.2596869028,-0.2416266673,-0.4281658784,-0.5291860589,0.1241318427,-0.763831481,1.1721070552,-14.0896349845,0.9115766714,-3.5157204272,-0.6853530333,0.6293506353,-1.2292747732,0.5100687892,2.6641774235,3.5730136973,-0.0810819311,-3.287587166,-0.2538339115,1.5726474193,7.6829713949,0.67544258,-0.4405749927,-4.0339073841,1.2347937738,-0.0048451315,0.4578820921,-0.3464137526,-0.3130238541,-7.1274774989,4.1869857242,0.3545635992,-3.8840071418,-0.1839570787,-3.3009866472,-0.1611553914,-0.1062360594,-0.1853238709,-0.4904503655,2.6920974678,-0.8700786571,-0.3219441661,0.726577518,0.9085884536,-0.8085570647,-1.5532790466,-1.2870375117,-0.3573126294,1.7721792477,-2.3224540016,-1.7042217715,2.2177131942,-1.521635339,-0.1750043371,-45.7993308737,-1.075478019,-2.2781576793,-3.9116038894,-0.4656529528,0.8972589634,-5.1478103676,7.3927099821,1.5491369482,-7.6059752888,0.3503957835,0.9175366291,-0.2211258574,-15.4151430494,-0.6103587299,-0.673381456,-0.7637884604,-2.3302639911,12.0272247892,-9.0359588187,-0.4484341375,1.4824374768,-0.2024453698,2.0663948325,-0.0264237274,0.4867164341,-0.2503169502,0.636239831,0.5314725711,0.2485820825,0.5759533307,-0.0882640824,-0.0553396949,0.9280050487,1.3996345628,1.2376672841,0.9125628236,8.1934071016,-0.3202820921,-0.947144663,3.8321264242,1.3183618039,9.5158152533,9.6012466801,-7.5676260552,-2.5995745734,28.8852754397,0.9089100997,0.288177556,-2.9939279719,-3.1998974022,2.9557749131,-8.2431176562,0.7457720217,-1.1052600614,-10.4591209858,1.6576990458,0.0198080431,-0.7999338767,0.4481553322,11.3885161727,3.2285317378,-1.2133780075,-0.4810617834,1.1928361972,0.1565950701,0.6283749573,0.8072406,0.4815485294,0.3011414737,-0.2234062041,0.0789095156,0.9131395622,0.2095802944,0.9272534784,0.4211271268,-0.3860517562,0.3512263684,-2.9424055022,0.95838115,0.4673151874,5.9390268904,6.2837761395,1.2397706942,7.0244770428,-0.5185883768,0.1693196381,0.131865729,4.4320619593,7.6585389548,-0.0601842416,-0.1126531452,-4.701127193,-2.2944250789,21.4832046966,-7.6842512491,-0.2538602731,1.7659869887,8.9405966943,-0.1263391858,-1.0835493712,-0.6510978824,-1.5608140866,0.2585969667,0.5408457061,-1.1412785104,-0.0321704666,-2.0335521284,0.2112015007,-1.7755388947,-0.6525304275,0.4055988861,0.9300692938,0.8950865145,0.3066311446,0.8045962935,-0.2953799526,0.5580418971,-0.423663292,0.6469535206,-2.8726973015,-1.7353882617,-1.1978782692,-3.347579266,2.3378941335,1.6341894629,3.3446966721,4.4157564218,-1.9545993892,3.7602916218,1.0094990746,8.0549910744,2.8998283627,-0.0858877083,-0.7505094715,-2.4780444762,-8.1859552806,4.8236187226,8.3200632672,-0.2016949957,4.1534579426,-1.1812635793,-3.9432508618,0.6980383191,-0.7128736329,-2.7004678304,2.2318323614,13.2403410035,0.8762623958,0.5336401228,-0.846204997,0.7512438642,0.6904810898,0.9852583751,0.3423816364,0.4624708256,-0.6561589114,-0.2348455449,-0.7903685889,1.0092561573,0.5791222798,-0.3468032498,-0.2403738419,-0.302687479,0.1637566253,0.7708229993,-0.8004401772,-1.0212522831,0.6555358216,-0.1165801545,-1.4473079597,-1.1300245792,0.6328713221,1.3241388808,0.4468829382,-15.6973727468,0.2801540843,-0.5824107824,0.0516953912,-0.7218118328,0.8916586276,9.6183127658,-0.8245667628,0.7673102374,0.1901054008,0.6746939615,-0.8393885631,-0.9734568074,-0.796893076,0.9458391657,0.6041521273,0.2871799107,0.4821324504,-0.2425670131,-0.6285133686,-0.8441009972,-0.7374506752,0.1716559032,0.1824058784,-0.2239959304,-1.0130318491,0.3385190205,0.0339606129,0.9629882146,-0.0960204782,0.2492181507,0.5587523897,0.7794551588,-0.2993753256,-1.3385930819,1.8519736182,10.5426751491,-0.2196234559,1.5841770743,0.8193334851,-2.2877865005,-0.1707053308,-1.46945922,23.9808786512,-0.4066992601,-0.4898848867,-0.8723711813,-0.1949773711,15.3532268707,-8.7303244457,0.9218892036,-0.8374253763,0.2867542059,2.2672355922,-0.1983876571,0.0749132191,-0.2968919647,1.2271427308,16.59821267,-1.8980264623,0.4218430339,0.9403111655,0.6497667637,-0.0305009629,-0.1627946057,-0.7377267859,0.893801137,0.5306771312,0.118859919,-0.8454853413,0.7768043511,-0.080197211,-0.5004785591,-0.7982627292,-0.6495711496,0.9202216414,0.8695539283,-2.4364521525,0.3369190269,-2.6284069013,-0.5999934363,-1.1330019127,0.8301435433,1.4896668552,0.1378099444,-0.2040246975,-0.2475819171,0.4738856199,-0.2770415448,-0.7520936283,-0.7623715432,-0.2242597302,9.9250697889,-0.6621809181,0.0676280842,-0.9553240872,-0.0609145362,0.4957068394,0.8075142604,0.4977448564,-1.0024326189,2.522536831,-0.0872555468,0.8773003006,0.86169619,-0.061948358,-0.4921506931,0.3106900219,0.1893857813,0.1020872353,-0.8219566122,0.3350010905,-2.1053618126,0.7258384089,-0.3481288026,0.7993468748,0.612829992,1.4272897676,0.8957499347,-1.0640332417,3.5405011425,1.4957596395,2.0670453999,-1.4283348166,-0.9021930031,-1.7660194461,0.5759278603,0.6188179396,-1.4272823063,-2.4140823886,-3.7246908225,-0.0193131999,-1.8141476906,2.577668495,-11.2232090988,-7.9041590393,-0.3382057954,7.9710480145,0.1283728118,0.232760645,0.3131283647,-0.1092904308,-0.1745050436,2.2476967251,27.0950827096,0.4012676342,-0.6559727339,-0.8703734773,-0.1687920247,-1.4501802618,0.093979334,-0.939986945,0.0200272432,0.8438566485,-0.7187763464,0.5562368698,-0.2083009419,0.9650960776,0.8426959575,-0.3148604581,0.1662227801,0.2200238416,-0.8316353147,-1.4776903432,-0.8375631266,-0.14754771,-0.9050271554,0.4350120054,-0.3413587821,0.9968666712,-0.2419025446,-0.5761891489,0.7433814087,-0.9682072335,0.1362188426,-0.5140922385,-0.6679584405,0.7601218938,8.1296195228,0.6049657285,-0.0028684213,0.4882508235,-0.7514820049,-0.120755345,0.7439638841,-0.1644819296,-0.0769824173,0.6672977832,0.5084524171,-0.6262951668,-0.5412463868,-0.3611069204,-0.7075692785,-0.1596896288,-0.6030647201,0.3822319955,-0.9214651423,0.4826654898,0.3802826654,0.5798660241,0.5852073951,-0.3425748857,-0.7529433119,0.3669762283,-1.0472439094,-0.8986925202,-4.7077325704,-0.3977739382,0.1695747277,-3.3966768582,0.3443459781,-0.500650068,0.1268788833,-0.6871154879,0.0157571711,-0.0746098479,0.8417982538,0.8545656138,0.1289333356,-0.3443272966,1.6073706109,-8.4683355556,0.1755843084,-0.6207629632,0.6241182962,-4.3684756012,0.5554756649,-0.3870133205,-0.6834029399,0.9671245424,3.3863966442,1.2492000908,-0.5667079499,1.6297565697,-0.1845007691,1.0295151979,-0.1013044346,-0.6558527552,-0.0429200151,0.3300950183,-1.3741712601,-1.3310623846,-0.6128762289,0.0899479919,-0.3458128181,-1.0216205098,-0.3363237926,-1.9520483642,-0.5382911241,-1.4405667693,0.1988761374,-0.7165082865,3.0247119509,-1.4324570321,-0.9938588143,-0.8719253475,-0.6880744598,4.2360715147,0.376621209,3.0230308645,0.8354073846,-0.249173857,-3.8646670536,-2.5833686625,-9.4743810034,-0.0378698749,1.6761547492,0.7066991363,-1.8105058783,-0.7403379455,-0.7567793772,0.0337753306,1.2201930539,2.0107666639,0.3779559647,0.1084104744,0.4594125084,-0.6241548791,-0.4952575664,-0.4977977428,-1.0092554833,0.7497620735,-0.6244597191,2.1302469556,0.1698000596,0.2191977293,-0.5009125307,-0.3141197682,-0.7954606352,-0.5508659711,-0.1483129887,0.4282013706,-6.6163687378,-1.4111416452,-0.7998791622,-1.248378228,-20.2196374271,-0.2196662588,3.3135201384,-0.1408265182,-1.6401329449,-6.4516558513,-0.6509387504,-0.0201206743,-0.1767996053,8.7368050458,-26.5301224683,-2.0904655541,-0.9887938537,-1.4886085175,1.5726038516,-0.5635035665,-0.5021516498,-0.3807395507,-0.8389081149,-0.9762256089,-12.3891872985,-1.9252469634,-0.9557052869,-0.9819708931,0.5123431602,-0.0408117673,-0.0228547426,-0.2655449566,-0.5595021362,-0.6422511709,0.0468568876,0.0776820447,-0.4466188248,-0.3823517606,-0.8663478336,0.0376621082,-0.0172395184,-0.1376801657,0.0315027105,2.1492291578,0.700214445,-1.0002991041,-0.7732598961,-0.752598553,0.1118361887,-0.7876041987,-0.1502843551,-0.8413925895,-0.6569475544,0.3671449551,-0.3990117812,-0.2987316038,0.6418626039,-0.3905287374,-6.7859544572,0.7332330792,0.2223414819,23.3191026252,9.7775506177,-0.6955245622,-0.4463151989,0.0107258843,0.1020892723,-3.4120136782,0.8199247397,-0.8322512143,-0.6048086945,0.7354223253,-0.910141386,0.3167633165,0.8830277091,0.8470375454,1.0216131697,-0.3520532096,0.9021758377,-0.8140064675,-0.0805869395,0.5322875521,0.4778996013,0.9422788429,0.676801644,0.2974355926,-1.4835595228,-0.7422796299,-0.4882045096,-0.5885579197,-0.9054290089,-0.2164966794,1.996766077,0.214235881,-0.1781136364,12.0409674595,-1.1948272121,-0.1811830845,-0.8176419047,-0.2142633722,-2.8696716123,6.4103572887,0.7675218115,-0.6988815233,0.0205234856,0.1978553433,-0.5072651949,-0.9346071146,-0.343048501,-0.0269743464,-0.8430008046,15.920863004,0.4348137013,-0.464875397,0.1412400036,0.9204863832,0.686115377,0.7970787207,-0.810351549,0.2487539547,0.2006767093,0.8793840597,0.2456473792,0.4811325232,0.6336799227,0.0726474259,0.3442164168,-0.227580159,0.7160908626,-0.8309486878,-0.191788566,0.2862465786,-0.8114405263,4.7094239957,-0.038845218,-0.069548749,-0.6185539085,1.4238612106,-0.198957105,-0.737730198,-0.6371179622,-0.3623858983,0.4373381486,-0.2475011277,-8.521300554,-0.5739334987,-0.5562479366,-1.2678083066,-0.6024904055,0.0539384851,0.2340341924,-0.4271754175,-0.3759184311,0.7183516127,0.1710619918,0.7041761622,-0.0208675834,0.7861083232,0.4732329074,0.1022989864,-0.2237138429,-0.6588690075,-0.8538390225,-1.2392102248,-0.8279757158,-0.510441336,0.4580333054,0.3202907101,-0.7381462695,0.9223697885,0.9523823745,-0.3367307368,-3.8892023528,0.0979471831,-1.8476522933,-0.882151836,-1.6337298883,-0.7047693575,-2.6053274759,0.2146166397,-0.0083229151,1.6025619634,-9.4359726992,-0.7588166388,0.0503197312,-2.5950782091,-2.4034124684,-8.6992194322,0.320057999,-0.3745819325,-1.4288052382,-0.3922928761,-0.070271556,0.8260803697,0.8450998001,1.4978932301,-6.1867297435,0.9076584085,0.8349691182,-1.7166571232,-0.8929475131,-2.6363820379,-0.0360709938,0.477199373,0.1068970655,0.8403241353,0.6727312657,0.6799196047,0.7476113124,0.6170188418,-0.6946282135,0.4610674484,-0.942665052,-2.1971830182,0.4546861266,-1.5439693614,0.8968608643,2.7894716739,-1.7000333245,-5.2035497188,0.4433182843,0.535627027,-0.4376827299,-0.210947982,0.5581674416,1.5652368102,0.8831766359,-0.6198708314,2.8806254453,2.202283879,8.5001118466,-0.7104033277,-0.5886159893,2.9749524477,0.249335706,0.878708765,0.1226856677,0.2012934553,-0.9485190867,-3.3394727751,0.1032522586,-0.6981850256,0.5378732565,-0.1505030278,0.7062528307,-0.6029780373,0.1280966211,-0.901148634,0.8011222381,-0.6629694957,-0.7123040492,0.0604098179,-0.5293211716,0.4798653018,-0.9423702427,0.8780134609,0.4036675839,-0.0148051253,0.2601756773,-0.5549564702,1.5346905611,-1.0062711124,0.5605449072,0.3909539297,-0.7051402055,-0.6543631165,0.4540905504,-0.9458207545,0.0326286846,-0.7134663377,-0.2095180586,0.7604442068,-2.2370390647,-9.9455462679,0.8311043837,0.0278642171,0.3171073765,1.396265356,-0.8345621331,0.6028530894,0.4678326506,0.300214729,1.0263777433,0.1787261465,-0.3715380558,-0.4751750235,-0.2322797068,-0.1155150088,0.0694099985,0.3146482168,0.5427217636,0.6177708006,0.1657956597,0.2465957952,-0.6831983256,0.1477328759,0.2339741461,-0.3039917094,0.8252732753,0.0409435092,-1.6523571594,0.0935998793,-0.1758515023,-0.5051228048,0.3905427121,-13.625849385,-0.4020842861,0.6171972395,0.5069806843,-0.5912497801,-1.9320187496,0.6973008637,-0.1920631189,-0.0935665732,11.7323076501,17.2869367131,-8.0070592535,0.3421437616,0.5903800321,-2.7456096914,0.5290837981,-0.6900113132,-0.1297004228,-2.0725010863,19.0225059071,-4.4967208153,0.271352169,-0.7569986003,-0.0160330331,0.3999088559,0.4393288335,0.5520749798,-0.7208136452,0.7075556931,-0.5245980231,-0.8273895824,0.4546211842,0.6671836699,-0.2378936906,0.8127906372,-0.1481475679,-0.6931295573,-0.7921916286,3.6536371508,1.5908307372,-5.1096603691,1.8249830589,-0.4239390518,-7.9170302332,0.6882456564,-2.0307203105,-0.6527794052,6.2775291755,-5.7799397104,0.666585774,0.413130461,-1.7125881438,2.8987616413,3.4303558628,6.2653625867,-0.2970388258,-0.2938789336,-1.0005659561,-0.3292707058,0.6130691692,-0.7948028714,-0.1478346133,-4.085689431,-0.2811036236,-3.3512851779,0.6271643888,1.138314953,-0.498388905,1.0122859411,-0.2190233245,-0.4076375271,-0.9017730068,-0.0756817274,-0.7080629656,0.4434951945,0.1703656277,0.226509816,-0.3566264249,0.5675989311,-0.1443406567,-1.8155640371,3.0139362459,-17.190043851,0.4811006444,-13.3690481659,3.4027458424,-0.7300114993,0.5612662714,-1.0396798908,-11.8774565843,-8.9303527825,0.721945389,1.3888798065,-0.1650116235,-9.7369154068,1.1001657159,-13.372253847,-1.8024472501,-0.9037006208,-3.466674233,-11.6597858861,13.1008356384,-0.9564004388,-0.2730926849,-1.926529912,17.6915002949,-44.1139810468,1.5324160647,-0.8595879683,0.4362053652,-0.1239628433,0.6100841654,0.6952050953,-0.250895211,-1.0870981346,-0.808799218,0.3207863464,-0.8016474544,-0.9772303598,0.4199657084,0.4137493382,0.8423565733,-0.4124757793,-0.1104580906,0.052388401,0.5303520404,0.3995132014,-0.5879223385,0.5767931599,0.9388094792,-1.6727562304,3.4013336135,0.3159139648,0.8884840033,-3.2032511747,-0.9852697999,0.9613648346,0.9801846137,-0.3338437515,0.1048948273,5.4664140063,0.8116484675,-7.4999443872,11.580559878,-41.7705358104,-0.5025368739,-0.8587635885,-0.0326634908,-1.4280506988,1.8116852351,0.4462605683,-0.4768449,0.204254778,-0.1649085046,0.3926191004,0.193933319,0.0013863925,-0.5506817258,1.6350282985,-2.9397271763,-0.0593103658,0.7925004488,0.5306803384,0.8593554443,0.8926134345,0.4451621176,-2.6823683857,-0.9151800914,2.9645388816,0.8688447851,-1.3855299972,-0.8465588178,4.2698400132,-2.4274984668,8.3402852664,-1.1250250701,-4.8939488122,-11.5804390355,-0.1937254594,0.0710496144,-0.5003073883,-6.0336366555,20.2793779517,-6.6288268064,-0.8412278601,-0.0809994619,10.3826712121,-0.1028812383,-0.9515349233,-0.4513633463,-0.1080744669,7.8455971727,-4.094217964,-0.4632652826,0.8840423626,2.9985057791,0.2639084793,3.6410393574,-0.7603154162,0.7211097658,-0.8430088755,0.7340858559,-0.7492025675,-0.7222592906,-0.5132365086,0.6490189136,0.2884283206,-0.5046599189,-1.0110391584,1.6437639584,-0.8876103156,1.0183843136,-0.3558700581,0.246501672,-0.0705544894,-0.2476236618,-0.8072319025,-0.1810251326,0.2316714069,0.391009908,-0.2016567098,0.5013281802,0.5426208859,0.7146205554,-0.6078704074,-0.1355290929,-6.1869977798,0.7774053373,0.2530839886,-0.9895382799,0.1495225627,0.2980460073,-0.4673429706,-0.1674811169,0.2020136843,-0.6450128495,-0.092655153,0.007731982,-0.8580284239,0.790523631,-1.0337684303,-0.4484448524,-0.0153319537,0.7172984671,-0.0288713287,-0.1770601674,-0.107417374,0.903701676,-0.2879456388,0.0431789756,-0.1025193138,-0.2915380058,0.7038514471,0.5763875017,-0.6614719149,-0.6397014586,-2.231256974,-0.5136766025,0.2133913024,-0.7548298328,-0.0625996417,0.473996673,3.7854387369,-0.8076791064,0.1454251862,0.2275979152,-0.1205121694,1.113887813,1.7241168457,-8.8240491355,-0.6490893297,0.330106977,0.2895032805,-0.1575552371,-0.7947231532,-0.9382076617,-0.2930165562,0.1364223537,0.1110781307,-0.0435502993,0.9623876484,-0.58386148,-0.3500525079,-0.8354687771,-0.8953884542,0.0332873844,0.7339979319,-0.0054452195,-2.5277182106,1.0018113805,-0.8150965061,-0.9098765054,0.666560386,0.1646023952,-0.0389333749,-0.6702458721,0.1155348704,-5.6766866691,-1.5851691821,-3.2439415769,-2.2735213778,-2.083442862,1.6333930065,5.8965548492,2.2627083941,-5.7875346358,4.7627026109,0.8760072729,-0.9384030699,0.5968989507,-26.172535805,4.2913794225,-6.6476839046,-0.2440777231,-0.0192827748,-5.8037294177,7.1443586233,0.3322035424,-0.8323115417,4.4884880375,0.2601734119,-0.0273367143,-7.5957704909,-0.6949227963,-2.23153384,-0.0159258377,-0.8867821507,-0.5890958041,-0.7517644254,0.7103351013,0.8301282244,0.1058158434,-0.2455882973,0.4502019711,-0.7175177163,-0.8293591091,0.3546528133,0.6110715132,0.8356179047,-0.4432993693,1.1138162514,-1.0807257773,-2.1880968127,0.4054702618,-1.0685138394,-0.3061449865,1.279396238,1.7991986097,-0.0403601095,0.7612296139,0.3177738301,-0.7690342403,-0.7297361741,2.9238671118,6.4758492261,7.8408353354,0.1559611145,-0.3460205819,-8.2815446085,-1.7286543701,0.0134831953,0.385495952,-1.1759783678,2.0791516583,1.1726691018,-1.866159458,0.6921075898,-0.8555605057,0.3854707305,0.9288533404,-0.8905528381,-0.9028954435,-0.8224946301,-0.2059305049,-0.6102599828,-0.0191757734,-0.0818705507,0.0954940486,0.8262550272,0.7722633342,-1.9246919061,0.8775658726,1.0248898956,4.02663151,-3.8189028977,1.2997307789,-0.6366962519,-2.1163252456,1.3280706221,5.0408375475,-1.9804817251,1.1194296971,-7.5600554367,0.0152962652,0.117127514,0.0041528383,2.3510639548,3.4051685831,-7.9799168282,-0.7539767985,-0.0201492979,-0.929434347,-3.4700167698,-0.884540612,0.0014986782,-2.3188288043,8.2566997298,-31.108615189,0.5275427777,-0.2231232185,0.030113831,0.0437981734,0.2245035478,-0.9643557303,-0.8600241093,0.4601726102,0.9557199366,-3.2422809504,0.0012250605,-0.555654193,0.4733241708,-0.0023115052,-2.1288634399,-0.5886072688,-3.2638960944,0.33491876,0.3547441012,0.6056251965,3.6053458968,9.160984148,-1.1153433372,3.4789833444,-0.0242159003,-0.6161052447,-2.0821974727,-2.8262462766,-0.95076012,-0.5266838677,-0.4341997108,1.2013360261,7.9807126204,8.0455202788,0.728716988,1.9497071171,8.9894606597,-5.6288820109,-0.0642044529,0.9032901087,1.5747645658,1.3266024165,2.1964351135,0.8116535834,-0.6952302343,-1.4758487072,-0.4117408349,-2.1791174571,0.8633330054,0.5822543692,0.5897963265,0.755355882,-1.906224601,0.3291342682,1.2694908132,0.6751323588,0.9523369866,0.5808829069,-0.0403059339,-1.3523522576,-0.6030240671,10.5476675204,1.2983888305,-4.4993604613,0.2656007964,-3.065951496,0.672242726,-3.6541258083,-7.0393878979,6.2523232338,-3.9536245304,27.8732225231,0.3342320776,0.9888772439,-1.53411768,14.1754490544,6.3708223905,-0.6109090706,-1.2469327818,-2.8934458062,8.0073758158,0.0596833459,0.9709308548,0.8406824619,0.2394947798,1.3356200664,3.3475130785,-0.4067114403,1.639577318,0.8296661182,0.6417863411,0.1118962412,-0.3538373136,0.0316282908,-1.2664050565,-0.7402398304,-0.5097531237,-0.8128957743,0.74832678,1.6329354058,4.2946258177,0.9197020423,1.3445072661,-3.428509858,1.0594043232,1.9304676428,-0.9767852341,5.7692855093,4.2985417975,-2.1575783175,-1.0029637754,0.7608594446,-8.1970255711,14.1885541223,0.8470006937,-0.0717164879,-2.8864020713,2.6720813294,-5.6080567062,7.7196377339,-0.6861298679,-0.3936548487,-3.7479015852,6.3506067157,-0.3116829139,0.7746600927,2.0639178828,-2.2345136417,-2.5876805228,15.180843523,-0.2097673506,-0.0596851477,0.931632266,0.1600339578,-0.9225655139,0.7269928916,-0.4057811099,-0.7490394366,0.6085324742,-0.713571381,0.1032909427,0.3496909988,0.8530822793,0.8138825293,-0.5550925556,0.5588494428,1.7460486644,-0.7064477731,-0.891837515,0.7661273923,-4.1726468806,2.0117976646,-0.2175272486,0.5194384922,0.0964847633,1.6211349735,0.1805690723,0.5979995942,0.6171815356,0.8498495005,-0.7181577748,-1.0334397816,8.2528021943,0.2978412813,-0.2786215888,-2.219795191,-0.4685636292,-0.6761787698,0.7140955719,-0.6126979037,1.0888746255,3.316808623,0.2841419842,0.4130534322,-0.6751870044,0.0852571593,-0.330425627,0.5222492705,-0.8749389264,-0.4643400446,0.1926671185,0.8041429556,-1.0123442189,-0.6144173953,0.0738562846,-0.6194263063,0.3392399146,0.1895624393,0.0864481305,-0.1283520985,0.6432112961,-0.0718748614,-3.3587161389,-0.2318079572,-0.1716540189,0.5178806933,0.0667979961,0.8194921647,0.1115563756,0.7385256299,0.3443531316,-0.0443633902,0.5878162196,-0.936511147,0.867363334,-9.7427135187,-0.2952310179,-0.2802764698,0.8264597886,-0.0560162888,-0.9883111391,-0.6430005392,0.3980431786,-0.5961086703,-0.1345203677,-0.468074474,-0.4605467233,0.5788001303,-0.0045903807,-1.043876867,0.2700261544,-0.5336540993,0.2900855359,0.9172021788,-0.6353868375,-0.9635843022,0.671138908,-0.8760855941,0.9617386404,0.8275516279,-0.3227142835,-0.339599811,-0.1760460886,1.9030489407,-0.1852247092,-1.6245559647,-0.6592964358,0.0727908515,-0.0459982884,-0.9101101851,0.3505523555,-0.8266426295,-2.9041334251,-0.1171672255,0.976700169,0.9421238658,-0.8138172802,0.3014207442,5.892363377,0.4835732325,-0.6538442896,-0.1105016163,0.0543758222,-0.113713547,-0.3530048203,0.0687403473,-0.8019741254,-0.7138128452,8.3345366252,0.0925204582,0.1224575957,-0.8757933241,0.8635531138,-0.2048023564,0.0908492777,0.8144243504,0.296347694,-1.0032531982,0.0333045214,0.7596182442,0.934583299,0.8815125358,0.3287189931,0.7208808803,0.2832968351,-1.5434741062,3.8834169788,0.4723455665,0.4739142884,0.8546992937,-3.957136806,1.7917093354,-1.8567245932,-0.4924201189,0.0366925828,-0.7832915716,0.3299084299,-0.261311703,-0.6442970425,-1.5971352001,-2.5923833545,8.8344293816,-0.7894112225,0.7099838831,0.2172092473,0.4298086467,0.1309020694,-0.7588649205,-3.2453284993,0.7164202571,-3.2959714313,18.7477099914,-0.5622552194,-1.1565618785,0.6802035684,0.0639672732,0.4790050259,0.4658117118,0.8788737499,-0.3049059438,-0.6587393409,0.0275320188,0.1376261774,-0.5703174318,0.1138462799,-0.2358663909,0.1904638348,-0.0613576853,-0.26244725,-1.3142085641,-0.96373733,-0.7897007671,0.204764683,-0.6347132518,-0.1302978058,-0.8911163571,0.0526229419,-0.5845499002,0.2117911689,0.6157691482,-0.5509293338,0.9025407713,-0.0269749967,0.8987622736,6.944498085,0.4021160088,0.6620344707,0.3178104211,0.671090574,-0.0931366956,-0.3512183211,-0.8373903089,-1.002627029,-0.3742006273,-2.0317219555,0.7420683679,0.034989712,0.4943915958,0.931401136,-0.7795953554,-0.0217395503,0.4871763083,-0.7099347565,-0.7872707299,-0.8216050505,-0.7419998983,0.8309842174,-0.8405964937,-0.2258022604,0.0480721124,0.5768225924,-0.5231811946,-0.9736139843,0.5847020437,1.9270341724,0.179208037,-1.2139882142,-0.6984583784,-5.7342940313,-3.2735144455,3.7154273888,1.0192863111,0.5299215956,-0.062748862,-1.9522454767,1.2437375002,-4.0547817012,-7.2039870304,0.1525167083,1.1861816846,2.3345795924,5.3578342748,0.7990346102,-0.7102113933,-1.544826654,2.8041785733,14.3368546874,-0.1146733735,0.98715341,-1.4175729787,0.8619817137,-1.4817023769,-0.3496982621,0.6029337797,0.8762340317,0.1392888776,1.2128870334,-0.8966114425,0.0191895611,0.0650968868,0.0135728245,-0.7146181091,0.1485992489,0.907947611,-0.703081415,3.4854449227,-0.8789445181,0.1490565562,-4.1505913346,2.8423898746,0.5008701364,-0.1233319598,-1.8257545767,-2.3372235556,1.753789588,-13.3631285411,0.6844374899,1.2817515533,4.1162855832,5.5711412939,-6.7356500512,-0.0741163507,-0.0051278047,-3.0731934434,5.2722708275,0.0248726246,0.9156615622,0.859354822,-2.5841749156,-18.6187471788,-0.2304606711,0.0235521919,-0.3105407015,0.3515384195,-0.4831679746,0.4677751542,-0.4868921905,-1.0113577646,0.2214146261,-0.9541599946,0.0884033827,-0.796086532,-0.7402012153,0.3017219529,0.4938501881,0.4165637883,-0.3434547667,0.2476005619,0.7783653264,-0.444318422,-0.7163278995,-0.1263405684,-2.1214242743,0.8749939185,-24.7982637925,-0.3330654813,-6.543603675,3.2906364763,0.1087975096,0.763265876,0.7970641814,-0.7655244869,0.4684947384,8.0289453344,-0.5812865931,-0.2812380358,0.7483150116,0.8402228035,-0.5481451243,0.5605413306,0.1123224876,1.3568561353,9.4917450853,-4.2420904045,-0.307339356,0.9426568662,0.671631751,-0.1022914766,0.4918949705,-0.3237900289,-0.5794624549,-0.9540356099,-0.611572539,0.3186504267,-0.3255094901,-0.895693227,0.7324024553,0.7468316268,-1.0556968876,0.2336395732,0.9760271306,0.4127876176,0.8699129052,-0.1738910015,0.348607361,-0.4231522924,-1.1434869846,0.1971755494,-0.6992253417,-0.2515270224,-0.0400921285,1.6462305606,-0.5513319855,0.1599769087,-0.2485611773,0.1361230564,-6.6738279196,-0.3241874815,-0.0262045815,-0.3827230772,0.1751706722,0.0427981255,-0.2818855537,-0.2926386505,0.2071396568,-0.6222652759,-6.1526621599,0.1369712833,-0.4609215477,-0.6646582573,0.0355194415,0.1941822497,0.9550134878,-0.13040924,0.4767942618,0.2002400909,0.2162279246,0.2546822858,0.332947691,0.4131143932,-0.2944941432,-0.8982099583,-0.1507200903,-0.0658559871,-0.5513722214,0.0516150174,-1.6859952358,0.8674251792,-1.6030826502,0.7576197852,-0.8640323958,-1.9451593168,0.1655009369,-0.6761342525,-0.6522717688,-0.6946979052,0.2168585378,6.3385706917,-0.399629992,-8.1643292626,0.1643776564,1.0608716832,-1.5938280087,1.0195741046,-0.0181077222,0.8775990428,-0.1876868778,0.3675140227,-1.4670571004,-0.1630183279,0.6195597675,0.5818472899,0.4685821947,0.7614044132,0.4776670393,-0.5816184804,-0.0410184858,0.8412353586,0.7484746859,0.7068905114,0.2961050934,-0.6503593779,-0.0794300187,-0.1053102543,-0.3277041396,0.8199342067,0.8296406201,-0.3288679583,0.3021649165,1.4904003225,-0.1051998091,-2.0768474899,-0.6819277516,-1.7548797975,-0.4002356981,0.8824345042,-1.1970178337,-0.0513778297,-0.0827091975,1.2292665886,-0.6504711602,0.1264543595,-7.9787364513,-0.3557650062,0.2586429827,-1.1489064749,0.2077090841,-1.0102523651,-0.9131856868,0.8362973001,-1.4850935119,0.7777203878,-1.0427176823,-0.2533379501,-0.8186898012,-0.7875501381,-0.3591355534,-0.610398216,-0.6154567764,0.66093167,0.5571161676,0.3792686356,-0.7509205407,-0.3141042403,0.4023379129,-0.555593712,-0.9853236426,-0.4687468291,0.1706195783,1.2957089335,1.6475868766,-2.7084605192,-8.0924022049,0.3039951763,-0.34868757,0.8770058559,-1.4490731373,-0.3867766461,-3.6964252703,0.622357284,0.6173946249,0.8857512967,-1.2832917068,-1.168907304,-0.8910180727,6.5681217677,0.9024294689,3.9320487903,-0.6489197972,-1.0601000824,-0.1146553004,0.6668930518,-0.5980480628,0.2714872929,-3.9025982768,0.5428859118,0.3762830605,-1.7763472947,-0.0339400532,-1.2225555293,0.9435857054,0.4597871533,-0.0484138938,0.5396468565,-0.2559225619,-0.2857942895,-0.7320197618,-0.9850565729,0.6020456193,0.2905055686,-0.1759979095,0.1994333124,0.6761118763,-3.2931235613,-0.5963046989,0.8041703897,0.4151282451,-9.7387329676,0.4707604401,0.7674467682,-0.1545188194,0.2658064405,3.0585371795,0.7210895819,-0.5898817515,-0.4713211854,-1.4894237677,11.9644154488,-7.4307323267,0.3611987808,-0.3181762104,-2.9605968787,0.6583217677,-0.5974042927,-0.8416303274,-0.9502361957,1.7037736851,-0.2506505202,-10.3202019376,0.3341531024,-0.8351719024,-0.0281777839,-1.0928638354,0.6162635783,0.4549963066,0.3342789338,0.9346927134,2.2652540718,0.8667880623,-1.3357275134,-0.2245643052,-1.0010300471,-0.672893707,1.0620392456,-0.6112378962,0.6354173685,2.8638569277,0.9760104866,0.7019826744,-0.9317243787,1.4700422166,-0.7551193136,-2.6234337757,-0.6653506045,-0.0057184267,0.1123785156,-0.1633156741,-0.7518078292,-0.2750715924,-1.7805757198,0.4548910732,-8.9942919388,-0.626075994,2.9572989543,-2.0680791699,0.5108405168,0.8695789983,0.8486479325,0.8813931565,0.7780509027,-0.4990976391,-0.082465384,-0.8569404715,0.8900812616,-0.8340453234,0.2938023992,0.8793081597,0.6669075376,-0.8562880725,0.854797595,-0.6762392635,-0.9178468959,-0.5661161579,0.8522591644,0.2874441071,-0.8089386998,-0.2064042454,0.7687050023,-0.4009621011,0.3751482665,-0.1284823198,0.7236231348,0.3478460665,1.4188569219,-0.1671250661,-0.6655237565,0.5623445104,0.2933614712,-0.7908868679,-0.2980274212,-0.0725945901,-0.252145885,0.2502902914,-1.6326816169,-8.2590299105,-0.6527232582,1.3062002255,-2.24905494,259.4436579839,0.5605539937,-0.5250977145
   -0.2360249141,-0.6464453064,2.662846052,0.2113258596,-0.7282029724,-0.5094736295,0.4641913236,-0.3704525644,-0.1159670416,0.3442463544,-0.1451516596,-0.4259018856,-3.77266126,-0.7891481419,0.4586700422,-0.6599067864,-0.5026304487,-0.9899658353,0.3752493839,2.6299490807,-0.2815010023,-6.5453641696,0.8682383632,1.2095787802,-9.2625465934,-3.2367653134,1.7835882568,1.956479163,-0.1840320842,1.2643331844,-5.9392150466,-16.9390506392,0.5999622604,-0.4748050786,-1.0759673767,-4.7090121095,-8.2291816065,-0.4613129503,3.4753994419,3.9613463617,-3.1915196013,-0.4211825438,0.0934660337,-0.6115035084,-5.3158326859,-0.0513694324,0.7123631062,0.9712559404,0.1141591518,0.1924838521,0.0707930371,-0.2045411969,0.5150184897,-0.0335506953,0.8468072702,0.907162537,-0.891982486,-0.5749006789,-0.7345205811,0.6413264507,-0.2761232789,-0.8178022719,-0.8442893348,-0.2648302413,-10.0346708166,-0.8208924287,0.2102347275,-0.018339347,-0.7356091158,-0.033003814,0.2641065161,0.9291012129,0.772017791,-6.2164219733,0.0398985573,0.9049220951,-0.4910187685,0.8132717167,-2.3797925398,7.89512907,0.9919069232,-0.012289095,1.5632039983,-3.3785017162,-0.2549261315,-0.6741068688,0.3907989791,0.6147528651,-2.0909952538,0.0556845053,-0.3511091961,-0.4261371757,0.7952467846,-0.6648642248,-0.0870683425,-0.1540379445,-0.3444212001,-0.0446998977,-1.7314764701,0.234683015,-0.1482075963,-0.135514391,0.3826384162,-0.2026939878,-0.0360335322,-2.9879339008,-1.4052596937,5.9073282442,-0.5108678205,-1.1890970718,10.0411697075,-10.2587219339,2.644630641,-6.7880353356,1.2848675644,2.7454311157,23.2265545982,-0.0761719013,-0.9124744432,0.0907937643,0.8548111615,14.158165457,-7.7867017643,0.349465395,-5.2815868183,5.7740868618,0.6700440218,-0.5279833394,0.0252256519,3.8113103281,5.0425723832,-19.1824902096,-0.8999302414,0.1309460668,-0.5168576702,0.2499434467,-1.216752665,0.5804995505,0.8490256608,0.7106975974,0.9037523243,-0.4604215637,-0.0000785686,-0.3997322781,-0.5993737979,0.9111620457,0.6583186998,-0.6826464555,-0.5520959593,-0.2353236443,0.2087836636,0.5702835508,0.2880232987,-0.8918524501,1.1309728526,0.5663364686,-1.4806808642,-0.6244308638,0.2226414474,0.4595701226,0.2509382914,-0.2382816529,0.0848351668,-0.728527085,0.5357697875,6.3415785059,-0.5008738206,-0.4265621524,0.8068202626,-0.6665652571,0.6937443586,-0.3291946032,0.176608609,-0.8644423423,0.5850997843,0.4294920045,0.1716788538,-0.6808861069,-0.0521182312,0.1829791256,-0.8359933472,0.5548899422,-0.2311348531,-0.9602779441,0.185150733,-2.0840029413,-0.8428261805,0.5504625193,-0.1468599408,0.6553553551,-0.3947367431,0.1135173689,4.9066831896,-3.4235562583,-3.0906367653,0.3260468732,-0.5051472525,1.5876523276,0.4979821799,0.1971191661,0.828739598,-2.8612692661,2.4022928572,0.320803211,-0.0712781544,-1.063323905,1.0733532548,-0.4508650611,-7.8938929374,-0.9842635915,-0.6322392061,0.7672662542,1.8342056944,0.6799362448,0.3950053851,-0.1824416229,1.2511071255,1.3074246336,0.7070077989,-0.002747417,0.656285147,0.4199104345,-0.5853930393,-0.9158077314,-0.4400617867,0.5744915083,0.0202858812,0.8408993587,0.0686593762,-1.0728147146,-0.5622163087,-0.6061178903,-1.2328474072,-0.5933809119,-0.4184633091,-0.5825406438,-3.6779750263,-0.6335971984,3.958286805,0.3384879119,1.7446945314,-0.2260848033,-1.6529361762,-0.7672785527,-1.3821021415,3.3548949283,-0.2885898508,0.4446612948,3.3252137114,2.2355337984,-9.6943223483,-1.5207588743,-0.8733269246,1.4913175942,0.4018529675,4.5858050433,-1.4894659345,-0.5198050251,-0.4471396903,2.3052167473,-4.1041919993,6.209923109,-0.1813522871,-3.0802818468,0.1587249767,-1.7070687887,-0.6499764627,-0.8983662347,-0.7726636822,0.0853231075,0.5024607321,0.0758490616,-0.1220698806,0.8915083718,0.1438612578,0.1754961,-0.2235400784,-0.0899962974,0.7316533125,3.5161130758,-0.0037856564,-0.3196617953,-0.8241757297,0.5654655059,-0.2859552437,1.043281366,-0.3629524423,-0.1219029056,12.9385089992,-0.9588354824,0.3079200635,-0.368370723,0.4715988577,10.5627864955,9.0886331738,-0.5827767232,-0.4839282047,0.2339359958,-0.2964606581,1.0181083224,-0.7244486025,0.7827810495,0.8402376643,-1.1311431085,0.9137303393,0.507662121,-0.2250500351,-0.4777237701,0.2327237166,-0.7704512592,-0.1882049657,1.026603715,0.7278381983,1.4851273413,0.1684963003,-0.3266716377,-1.7719170542,0.2135489148,1.9505410405,0.501329804,-1.1543473341,0.6873733207,1.9629022976,-7.2460016878,-2.7768028194,6.1976796331,3.53656669,-4.7372467306,-2.2591524152,-3.6634997933,3.702212572,0.7082559611,0.5036490878,0.6916521647,1.2217759414,1.4827039398,-8.8586872074,-6.6807401461,-0.6155548066,-0.5116775051,-1.4344042981,0.5028207246,-0.0127436646,0.6202951091,1.5285598964,3.2343807416,-11.6217082613,-1.0308777343,0.8702104594,1.8736688186,-1.0079872127,2.0788824018,0.9516278218,-0.1201660148,0.5196847547,-0.7506950713,3.9656764453,0.8658055574,-1.687011469,-0.1386599563,0.7343789801,0.0163189621,-0.444947504,-2.9601658497,1.7427217314,-2.8490273599,0.4189901566,1.4141712317,0.5914277226,-0.692478752,1.3250081399,-3.1259981644,-2.2601937563,-7.5605445505,0.9540486402,-0.4111796133,-0.9160703076,6.6035201958,4.2580283709,-8.2496956091,-8.366445803,0.5791432008,1.3045473483,9.455808064,4.2972134748,-0.6405667625,-0.269025223,-2.2806153951,-1.3506433207,2.0141203474,-0.4025234044,0.2141515674,2.6726315788,0.5371170001,3.0817732732,-1.5342760794,0.7417703872,-0.5011145008,-0.6048931373,-0.3188891991,0.8316675067,-0.3672143529,-0.6347319583,-0.4393065151,-0.5742303323,0.733446169,1.1414419085,-0.0340221604,-2.8595004471,-0.01542006,0.9705220813,-1.27617106,-4.4499542647,0.0095361033,-2.2879544845,-2.4441826961,-0.3080192565,4.1342832767,1.0770425932,0.9358941288,-0.5272071698,4.0970660739,3.0290178598,7.2166405929,0.538747316,2.2941892867,0.1645968702,3.928724147,-0.8307547912,-0.8146178675,-0.9988752127,0.9481137119,-0.8150373037,1.5471205075,-0.9715892374,-0.7480664433,-0.9487425824,-0.3524734099,0.8552735452,-0.4258756756,-0.6108409416,-0.8645601823,0.0974473388,0.7306457128,0.7908566124,0.4164084692,0.1383770969,-0.8348944239,-0.7774723642,0.1567408651,0.1118603119,1.8243894865,1.1200211724,0.9401676659,-1.1381290854,-0.9095908096,-0.7885371049,0.75586663,-0.9621870483,0.476973175,-2.4410253881,0.1243543318,-0.7828720584,0.6362579933,-0.9139953785,1.3215241637,9.6352515503,0.5869998818,-0.5896896554,-0.7876546432,-3.0291163748,0.0636986547,0.6514294695,0.4807983627,-0.4118074465,-0.9206537622,-3.4271768499,-0.365104146,0.1186726094,0.9673704241,0.9116777912,0.60130289,0.835122597,0.2188341825,0.0729069282,-0.231846782,0.6564497795,-0.2125664468,-0.7139442425,0.4922556781,-0.8438501775,0.6508288627,0.019024964,-0.0703439621,0.7261381467,-0.1444117385,0.6192597949,-0.9083528105,2.260946632,-0.5418204671,-4.216357931,-1.7137480165,-3.6810819934,0.1028391117,-1.1018329766,0.3447259689,-0.0300999278,0.1003739507,0.3836165625,7.3223072347,-0.0312656104,-0.2745230706,0.3556722542,-1.4271384184,-0.2892396902,0.8162450883,0.8698198001,0.7708202934,2.5653652793,0.1732613944,0.9600975513,0.2352798501,0.455646876,0.6690330902,0.8222125035,-0.5441001539,-0.752260167,-0.1252850067,0.9103590504,-0.1387943729,-0.2330602112,-0.1890730551,0.5042844804,-0.7608850449,0.616652966,-0.4352346131,0.0125746891,-0.9394524918,0.0620556214,0.2194357936,-0.7583810297,1.3204590988,-0.4484490515,-0.0809227323,0.0198305629,0.2683914641,-0.5140919653,-0.9296726929,0.0218926133,0.1629727227,-0.097143507,0.6564325666,6.7545333947,-0.552605666,-0.4572216086,-0.0999304536,0.2572229484,0.400405784,-0.7746659712,0.0645104802,-0.6830944275,0.3322158083,-0.1919305327,0.5712524744,0.5977632083,0.0733916436,0.3860565923,0.8393258833,-0.7188104765,0.7005681653,0.330577668,-1.6062797404,-0.7243969728,0.7951224029,0.4891066661,0.0469955514,0.6362265525,0.7120857312,-3.1759738959,0.7190758671,1.5089689366,-0.4542138821,-5.235818082,-3.1089158861,-6.8470761491,-1.6139195771,-0.4257518116,-0.3873690517,2.243716028,17.9526469968,0.7675649323,-0.6440077124,2.663988883,-1.703189984,6.0946361175,5.8764176624,0.4195109603,-0.3255634228,-5.9010693636,23.4929130212,-0.2639477937,0.8588547343,8.4640444248,0.2435366127,-7.672498827,-0.5953811743,0.1770552467,-0.5000687691,0.3741294606,-0.4463544425,0.8311057371,-0.0898626799,0.4587877686,-0.0369959067,0.2819601498,-0.6192229755,0.6011727398,0.6952047443,-0.2489673101,0.9067047858,-1.0165892843,0.587463234,0.0305667438,0.2628417017,-0.1387202434,0.119208046,0.3865176226,0.658271257,0.1125722322,7.141665011,-0.3482722117,0.913448235,0.2342836453,0.198220895,-0.7208506464,-0.7467703847,0.7061950293,-0.3952798231,-7.7515990771,-0.234071911,-0.3330026622,0.3720597373,0.0231355518,0.880484836,0.6894172671,-0.3758988952,0.2982923855,-4.0819823918,0.6956257311,0.7297354442,0.7418816113,-0.7108001436,-0.0133443632,-0.2508526149,-0.8099275192,0.7411995903,-0.2908571864,-0.2018217919,0.1957553672,-0.1724319545,0.8034265551,-0.3464502497,-0.4803654665,-0.7226015399,0.5489448564,-1.0582349452,-0.2744820755,-0.1042007383,1.5095087778,0.0017454619,-0.1503446874,-0.6036736961,0.891700458,-0.4260671486,-0.2255029928,0.7742673514,0.1671084842,0.6058309412,0.2502097378,-0.3053293007,2.0209466398,8.225462521,-0.9082041196,0.26544155,0.7269175896,-1.0447704389,0.2878917631,-0.1939844178,0.0070206054,-0.5863315402,0.4303724946,-0.4466981301,0.1004235191,-0.2929207182,0.8607823437,0.1588426819,0.2512658531,0.0159387658,0.6084435002,-0.7286273387,-0.7709957223,-0.7335808646,0.049549863,0.2166819592,0.6109979825,0.0267031394,-0.7962117171,0.5845328093,0.6922229534,0.0337738642,0.2058512787,3.6608862246,1.3781991228,1.5703216315,-1.6930440196,-14.4912684756,1.0965314869,3.0873930166,-2.0879636791,-35.7223161486,-0.4926293322,-2.6218111466,3.9023734351,-10.3348473656,-7.1301186141,-0.0669227834,2.9704991647,-0.2853812006,7.8661449346,-0.5303114941,-0.0125805396,-0.4590235642,-1.1000700528,-5.9095311136,-7.1189077927,-0.9607424997,-2.8163718401,-0.7107287797,-2.6929098745,0.2759388837,-0.4759189041,0.4765533268,-0.9371800276,-0.0404254396,-0.6545721558,0.0755664996,-0.6990526558,-0.1185206664,0.1505263616,-0.8808105258,-0.3031716082,0.7299604196,0.4724179773,-0.8300567109,-0.0121050714,0.1641842509,-0.8532966591,-0.6895862226,1.1196445788,-1.2572086672,0.3998628612,7.7613531399,40.2112218425,0.801986765,-1.2187076801,-0.7893736019,5.7054277931,-8.2008001797,0.2158747992,1.0422901421,-1.889911298,-0.855352809,0.7272056208,0.7730330293,0.0329732778,-0.1671699029,-1.1631776957,-5.3575776522,0.7804162734,-0.5784413634,-0.2218232463,0.2530267218,0.7021750642,0.7197223859,-0.6804465031,0.8368608369,-0.0651082179,0.9928635584,0.3380149456,-0.9048295024,-0.1950803686,-0.7511699966,0.7941827588,0.2562298278,-0.357020711,-4.7760805562,0.4148122938,-0.6368651633,-0.615681221,-3.2302810449,-0.6443347472,1.0932134439,0.713021645,-0.0133255644,0.0413476333,-1.3298512396,-0.0737178983,0.5570739551,2.0322041967,-1.1371058532,-7.7983942814,-0.1382858237,0.1113949217,0.9580364335,0.0123818632,-0.0404857329,-0.1616734132,-0.5986771682,-0.2637424181,0.8574562573,-0.6054476167,0.6430594007,-0.526767023,-0.0820363133,0.6532724998,-0.1517953516,-0.3487489249,-0.6030421833,0.131411779,2.4062489945,2.1001811695,0.3212922127,0.8040140225,0.0410139711,-0.6676586672,0.9746230637,0.1988456538,-6.2347703923,47.9034043632,-1.0444332887,-1.5392463342,2.3418291504,2.999511502,2.8579380221,3.4783793411,-2.1429619012,-1.3379523019,9.4247468934,0.7700968123,-0.781774151,-0.7612129089,-0.4513392474,3.0657203903,-9.3376041897,0.6642888438,-0.0180148552,-2.1688064275,65.635898671,-0.9718034874,-0.4708749491,-1.8158078457,-3.3963882807,0.9703969745,-0.073888583,0.6953570422,0.4816729103,0.33996667,-0.8177585419,0.016263978,0.9150621515,0.2634808265,0.4341762733,-0.7384441806,0.0655713805,0.06496072,0.6658344781,-0.4472300696,0.1049972246,0.5808542892,-0.9921293148,-0.4382344853,-0.4972176205,0.4069181731,-1.9955135069,0.7950383225,-1.0750760768,-0.2249677032,-0.4507049951,0.2005411397,-0.2864182341,0.424870447,0.326604904,-0.9757572841,-0.9534666267,-0.090601761,-0.239626225,-6.9464004834,0.3064371642,0.6735253369,-1.0101049099,0.0964918722,-0.2911411941,-0.7377390115,-0.3116493235,-0.1202582171,-0.2854497766,-0.9710295348,0.5048414364,-0.4170823445,-0.2624409015,0.1467537787,0.9420834128,-0.5112652997,0.3710378856,-0.4657539145,-1.2758297413,0.2099599938,-0.0321203376,-0.3798909273,-0.7304078886,0.2705144443,-0.7402868273,-0.9884881686,0.786610157,-0.847745153,-0.0435712833,1.5001810042,-2.8102343459,0.692938732,-1.8136085016,-2.2705152616,0.4630952918,4.2983387791,4.0504010929,-1.710491097,-0.3757119502,-0.3196799027,-0.5210875036,-6.5186092018,8.0406937498,-0.7503401533,-0.8489993199,4.801736668,-0.7444560863,0.6952560497,0.9066896215,-1.9584942499,-3.3415259155,2.9095677734,-2.4635367319,0.0752283275,0.2768937128,0.7159227854,-0.7695344969,-0.1757246079,-0.1031144327,-0.8626796691,-0.2482757615,-0.5417918673,-0.1524359452,-0.5616828946,0.0115556969,0.6778075783,-0.8366173757,-0.4161359177,-0.581619809,-0.2790590951,5.1127384559,-0.2058533616,-0.3046555329,-0.1994573762,0.1101165033,0.1998260654,3.2823406202,-0.5970217027,4.2915333605,-8.3290270153,-39.1256895743,-0.9198713814,0.9844899106,-4.1509401425,-15.5480671382,7.6854336991,0.556933034,0.629028247,2.8850236676,0.3306732639,0.4541884241,0.8242578059,0.2040550095,-7.130916112,2.0579692625,0.1893637854,-0.0029310794,1.0291322843,0.4895691209,-0.8060350873,-0.7703691832,-0.6402003055,-0.6606926133,-0.3519701041,0.342446843,-0.1104190148,-0.8049289135,0.1218152913,-0.3937026851,-0.5996131254,-0.5705878464,0.8052065254,-0.1034845676,-0.8525372363,-1.7876232107,-4.7400760575,0.1161706118,0.9675080144,-1.0846403569,-1.1275529075,-0.3204846766,-9.0541639203,0.1102689837,-0.3180077361,0.9138113716,-0.2185600278,-0.0309574771,0.9895273123,6.823231249,0.0239504925,-0.7710250021,0.3430783111,-0.0130219863,-0.5758577545,-0.4147474865,-2.3338233343,3.2446168721,0.2831626324,-0.5915577555,0.9621077943,-0.5620805784,-0.609257119,1.0356084884,-0.0333225841,0.897051861,-0.0470191622,0.9012951723,-2.0782939784,-0.973203274,-0.7278849944,0.6627978963,0.2074737534,0.3400896066,-0.0812606066,-0.8632741116,-0.8568229822,-3.494218134,-0.9897301488,-2.2476287162,0.0612474148,-0.2818801239,-0.844185761,4.0854897068,0.3150313154,-5.996585573,-0.7306526514,-0.3824579549,0.3039322231,-0.4245150435,3.4746298887,1.1563388784,6.8943466062,-0.8324587093,-0.6190457969,1.7479797268,0.0923666066,0.2230495222,0.536291763,0.2266223224,0.3592260006,-1.5866802534,-0.255821076,0.8478157082,0.8339228814,-0.7154545705,-0.0216726351,-0.6519870797,0.9137402497,0.27013769,-0.3906892751,-1.2398560209,1.0653337627,-0.3610256281,-0.5232987081,0.2018708212,0.0833436076,0.0265011721,-0.4178384037,-0.2694819436,-0.2476364184,1.151485536,1.4999932098,-1.6777811855,0.4893624166,-1.2481089195,1.5848102201,1.1334813575,-3.0781580789,3.567462052,1.4867991857,-0.801260854,1.081521869,0.5970152621,9.1232742688,-6.6232862942,0.363713023,-2.47161245,-4.3557374524,-4.172312898,-0.4232309245,0.2070241055,1.1433777959,-10.5018986126,-5.4132388728,0.4914691565,0.2782627825,-0.789743096,0.4041781843,-0.4487362487,-0.1487846046,-0.4787915569,-0.9835712378,-0.3769268404,-0.7485094374,0.2635705877,-0.1058741877,-0.7600425945,-0.7830065601,-1.2112987918,-0.4223583234,-0.2188022032,0.9940634341,-0.7213328922,0.935286399,0.5877593001,-2.3578170251,-1.3816056848,0.63958956,-0.2607507448,0.8602032311,-0.2776252221,0.1071491179,0.7507010842,-0.4767322137,0.6570478952,0.9847313102,0.8186550689,-7.1549308983,0.4123909769,-0.8218665545,0.7257784993,-4.6658695204,0.8059386795,-0.9576882412,-0.3487253225,3.161946371,1.0603830317,-0.6968286604,0.9358013002,-0.2475633512,0.1451678309,-0.8429549937,0.6128711515,-0.3124824657,0.1712635071,0.5527343355,-0.1721991751,0.8904348476,0.6214813481,0.0256583105,0.4843821401,-0.0921653735,0.8419431618,0.7752554216,-0.4024129237,0.559184896,-0.4519458974,0.0302013147,-1.012457522,-0.6256704369,-0.4779589089,-0.2907477596,0.3813545448,-3.6827783581,-0.6957493535,-0.3401859744,-0.6407311334,-0.9219141905,-0.7273027835,17.6694500094,-9.722810342,-0.3336687569,-0.305327878,0.3498809297,-0.2025230183,0.174834873,-0.8478148691,-0.428111869,-0.5316592962,-0.9817442795,-0.7457139663,0.1060301164,0.8064026413,0.039070763,0.7653235187,-0.6679766098,-0.7013234832,-0.187531417,0.1323623681,0.4694035872,-0.5570481394,-0.811466874,0.4114684672,-0.6242985914,-0.716802425,1.6284600077,0.4784111892,-0.1438468957,1.9329320841,0.6413479005,3.8811666645,-2.821138348,-6.9085965804,-0.9633352653,-0.1701863538,1.2938291837,-20.4565769545,-0.4406758003,-0.3486309391,0.1078283662,1.3861518462,-0.7227901959,1.3555809384,5.6101311454,0.5385835178,1.5555657907,2.0237635557,10.1261725572,-0.4611787969,-0.6724019142,-5.0043112503,-15.2528414436,-1.7321424017,-1.2240204092,-0.9923953786,1.2277474816,0.0149948043,0.9221613464,0.2883940559,-0.8440531427,0.121211383,0.332567328,-0.4188312602,0.9179343919,0.4470854366,0.1662948571,0.9486393226,-0.2852456362,-0.5480603319,0.2777173185,0.794940212,0.5379411107,-0.4468842748,-0.1173731032,0.2727251173,-0.7407579394,-0.0367741343,-1.0891111637,-0.9206056182,-0.0657757915,5.6788957931,-0.6356018804,0.917697574,0.4323682507,0.1009623387,0.146129509,-6.6504552468,0.4520643854,0.7854894159,-0.2719593538,0.3410171935,-0.7234487571,-0.3599069982,-0.7260331987,0.7837282207,0.875678893,-15.6128872184,0.3937499818,-0.1828915839,-0.0908237664,-0.4685670315,0.5412875011,-0.3898494958,-0.5024408659,-0.3283231132,-0.7731236486,0.8366633089,0.3633765507,-0.9389151323,0.0022635898,0.737513837,-0.9035332078,0.4739865654,0.1158118892,4.2986453492,-0.6679980071,0.1622335868,-0.5848993018,1.8070081104,-0.9444465549,0.5236395488,-0.2573971993,-0.5422962749,1.0811725949,-0.7425112539,-0.9243864622,0.3638474678,1.5711440024,5.3835385965,9.7178529426,0.9092189986,-0.3365964676,1.2832671159,-0.5875728532,0.7044741148,-0.5256566403,-0.2777277683,-0.0193205085,-2.2800128612,-0.5545747516,0.1468720395,-0.0405966037,0.90546562,-0.4060240467,0.281466783,0.5780333106,0.5341662394,-0.9503409622,0.9682501548,-0.7012156531,0.5630292401,0.5382829267,-0.7391095977,-0.4427545549,-0.3184624401,-0.5298854623,-0.1722498956,1.5938319366,0.5260678731,1.3595599449,1.0052284909,-0.7255237364,-0.8798709905,0.0795364195,0.3718401161,1.0608811554,-7.9136315686,0.2331940089,-0.3390686341,-1.2458000451,4.6115559929,-7.7632608827,10.9114113123,-0.2024266409,-1.4853838664,-6.34906955,-0.1899912537,0.7382250577,-0.6097330188,0.4951687591,2.534213068,2.1822068728,-0.3371745926,-0.4501107398,0.0322808371,-0.6862966104,0.9325063483,-0.3529255232,-0.7122694145,-0.1556706829,1.6335768392,-0.7243015522,-0.6686882946,-0.5559677618,-0.1594583238,0.1809336684,-2.5111894808,-1.0131645604,-0.5206586571,4.6365724608,-5.8826677634,-2.1792319538,-0.6416481941,0.9671689028,-0.802521715,0.4814229264,0.6467016785,-0.3984395216,-2.1964780438,0.3664058448,-0.1328441237,0.2944287152,0.2559771266,1.2996980754,5.6005580654,-5.582284849,0.4034813314,-0.7035124005,1.3473803815,1.5840521974,0.3361113207,-0.3159909031,-0.4778907129,1.0755646606,0.0422838796,-15.9432712017,-0.1353275465,-1.2252234459,0.5774970638,-0.80468459,-0.3642377216,0.2706886181,0.5265146491,0.138550859,-0.6221321149,-0.458352829,0.4851939679,-0.1222641275,0.7876630542,-0.2849681068,1.0203049186,0.9546368104,-0.1609176214,-0.0971154835,0.2400154661,1.9199698225,0.0350235217,-2.4341146465,0.3885066372,0.5430544915,0.443023189,-0.9525852476,-0.0754776507,-0.6124819049,-0.6998074947,-0.9739376049,-1.1024633609,-2.2054307501,10.254541479,-0.9963660715,-1.4255222052,2.0097741898,-1.2597996671,-0.2629214586,0.5868900528,0.8878747207,-2.1701099009,0.4184742145,4.7330851455,0.6905906208,1.271714774,0.202874622,0.8810864117,0.2406641039,0.7061594835,-0.1037319549,-0.6597520998,0.6116389256,2.382186548,-0.2636023599,0.7114708975,0.1539513915,0.1266431755,0.5870182066,-0.5048977937,-0.9840964253,-3.7753745197,1.4146764277,0.4016843171,-0.0708468325,3.0895946395,5.7678792579,0.78852337,1.8672880888,5.3047015285,-0.7469275543,0.3307283552,-0.5383653303,0.976142374,1.6260479231,-1.022735282,-7.2380630021,-0.7827647728,8.7334999522,0.7394916862,0.8097422521,-0.3389696021,0.0742224246,0.6279337161,-5.939046889,61.389921001,-0.2951979596,-0.6661787367,1.2054595395,0.7392896239,0.5935773434,-1.3072691038,-0.3190836015,-0.3084148898,1.6260791563,-1.9041881442,-0.3339992929,0.8256340751,-1.0026903812,-0.4979131991,0.2189694028,0.3488475479,1.731000925,-1.5267905142,7.4703909335,-2.0380908825,6.3361321492,-2.9041611595,1.376266038,-1.1652882405,6.6047058301,15.1907091649,-0.9098937205,-8.2497102606,2.1676662521,-0.6739563354,2.7198454023,8.120005656,16.9951515375,-10.1637995267,0.1640541913,-2.9485730212,1.0859558036,-0.54552606,-0.8239463615,0.0596028208,0.0640873937,5.0508073251,-3.3084141216,-11.6943677441,0.0432167859,0.4407537697,0.5602342164,0.4638946649,0.1756981941,0.2211527715,0.4919368404,0.864073036,-0.3593644361,0.580240363,-0.917636409,-0.8348792044,-0.945924723,-0.5413478317,0.0616821909,-0.9460916609,1.7168268289,2.324558998,0.316265793,0.1978191149,-0.9908829828,2.6033853313,-0.2201337069,2.1893676262,-0.0790126165,-0.2667827656,0.5140005128,-0.9779341106,0.0296019572,0.9154474378,-8.7340214643,-12.8175670368,9.7663822481,-0.1034421935,0.0349189963,-0.3319318535,-0.0249492859,0.7357984158,0.9762730263,-0.1473967965,0.3996931431,4.2155897286,0.3223612896,0.6459307147,-0.7019028332,0.8246029355,0.1923818785,-0.5095600084,-0.6783015614,0.7802232215,-0.9865098423,-0.8803191568,-0.1867071008,0.9663788426,1.2193769771,-0.7321966699,-0.6401515476,-0.2526551021,4.9338170866,-3.6800804635,-0.0483228177,0.7472941569,-29.4282937616,0.5460133666,3.9632930781,-0.4727579177,-13.0655395577,0.6707780554,-0.3494698157,2.5741692602,-1.1562466976,0.7115977852,-2.2687832482,-1.6314051412,-5.1529426987,-6.6856372351,0.2295908086,-0.5777231047,1.4513781,5.5973423737,0.1496955002,0.2324847119,-4.0853748374,-3.5699026792,1.1667060162,-0.8407090284,0.133090912,-0.4664951122,0.5994181765,-0.0336290947,0.6613190326,-1.0135947928,-0.2200280402,1.1429192832,0.9576507789,0.248879744,0.3070753559,-1.0121031705,-1.7733217984,-0.0370261027,-1.392340052,0.8771794233,2.5840353179,4.228044535,0.8828055776,-2.9457126164,-1.0451815529,4.2320757732,0.0865150723,1.1459236422,2.8945025465,5.6759808121,9.2960861616,-687.1392516546,-0.594489768,-8.409198724,-4.6919705437,3.0687611107,-5.2360147841,-0.6266454792,-0.3990955077,-8.6420023137,-3.0217641845,0.1026800362,-0.4240745303,-1.4775468489,0.5764178316,-1.6565686533,-3.8995904024,0.5960359767,-5.7024708233,-0.6722601442,-5.4585836138,-0.0378242682,-0.9957913548,0.3751209546,-0.1259056776,-0.1187360607,-0.9760721929,0.9376579665,-0.2563482121,0.1530203635,0.5840826464,0.0453608738,1.3260217897,-0.9463209197,0.3352179321,-0.3020693882,0.8223854181,0.4961254003,1.8593677127,-0.3494234569,0.2319514537,0.5195501245,0.0741911445,-0.8063741516,-29.2381268888,0.4836222173,0.3860753055,-1.7728467967,-1.0395119662,-8.0778061438,-0.8128029433,0.7592083498,0.5142219217,-0.675484989,0.8035591941,0.2944651178,-0.7765713841,-0.7818755325,0.2493919244,-5.2700543276,0.9715849366,-0.596823245,-0.5825757141,0.2496828025,0.3847096512,0.269876123,-0.9886004311,0.1256669905,-0.8755522223,0.3726912003,-0.8012279588,0.4505279208,-0.3079253841,-0.3542176601,0.6435813091,-0.3124779913,-0.9488017964,-0.2823494559,0.2975234333,-0.5850270706,-0.8465810931,-3.6753947782,-0.4048168542,1.1985761332,-0.4119300787,3.3156248712,0.268810297,15.1439050237,-0.6907385279,-0.0521104882,-0.0497714011,0.8029184299,-9.2254099874,-0.1193819955,-0.0494475342,-0.7086847205,0.9203763858,-0.7866427806,0.4385441744,-0.0655394769,1.0820710456,1.8043853099,0.2079439671,0.9053913112,0.6069083083,-0.4608465806,0.4938959338,0.276011023,0.2894385292,-0.5147712697,0.4973857957,0.1729424925,0.0978378932,0.7120527451,-0.5610538399,0.1378453526,0.6633084815,0.858033869,-0.4186841137,0.9361686186,-2.7628909093,-0.0288305369,0.3305523818,0.1529993583,0.3435131551,0.0559036069,0.3476938806,0.6331548609,-0.2929151124,-0.046070405,-0.9790582679,0.2639844451,-0.6383411882,0.789276011,-0.1010777208,7.7575873313,-0.6796762113,-0.9449139893,-0.5781317237,2.2947492229,0.1167882138,-0.2632956483,0.391857179,-1.2398509045,-2.8684557623,-0.2130564146,-0.3307571827,-0.370934825,0.0422380477,-0.1988254055,0.3466721138,0.6253531311,0.8092419968,0.0593325841,-1.1928313269,-1.3823223365,-0.141735277,-0.2755472161,-1.3816713321,-0.7889440309,0.0960589909,-1.5643150334,-0.5051803057,0.3529485342,-0.6975629552,2.0903679219,0.0516279041,-0.5837965441,0.104872068,3.7666996528,-1.107736441,-0.1621988915,-1.4626735144,-0.727314433,0.8927704766,0.4375434661,-0.1942437286,-0.2516423009,6.863486428,0.9044300317,0.7614136396,1.3012371864,-0.3294679825,-1.9986281629,0.9160204026,-0.732996492,-0.1218741476,-0.9503594904,-2.1726262347,0.8783688908,-0.5634982518,-1.03812023,-0.2315444281,0.474762943,-0.2761310152,-0.3096710545,-0.1756465561,1.1718955691,0.1626123277,0.0962965028,0.1647150251,0.259661896,-0.2387715449,1.6168611262,0.7554345426,1.5163245999,2.2605864149,-0.4742857742,-0.6063791335,12.5827465823,-0.8911142221,-1.3844881303,12.6268617488,-3.4650144845,17.0534792957,10.3631937346,0.0641682119,-0.1972058319,-1.4018916553,-12.5098073311,0.2501108379,-7.6317536113,-0.3281585385,8.4882433679,0.7648534532,4.7399758845,-0.1306988278,-0.944247053,-0.9528520792,-1.2393831865,-1.0173083821,1.9314980668,-0.5906659819,-1.3851909731,0.5972421024,-0.5602548547,0.6003452989,-0.140016661,0.4580106431,-0.3705106708,0.3108159171,0.3319634041,0.3913766201,0.0467966091,0.9993250872,-0.3994378102,-0.1282943746,0.8366384406,-0.2100168028,1.2464249056,-0.6910240358,-0.4640475537,-0.2434761186,-0.5318191234,0.349792712,-0.6319964762,0.0205289431,0.0277242636,-0.4750646155,-0.7540063139,-0.7680572755,-0.173206949,1.0287753752,-0.0320551614,6.1288072388,0.8151161269,-0.5928043881,1.3174444585,-1.2885747416,0.935520338,-0.0026477906,-0.5719517961,0.566886764,-0.4513824601,-0.5574757622,0.1071725139,-0.7005462154,0.5990243392,-0.5971399732,-0.3423238782,0.2151410202,-0.6596547067,0.3078462465,-0.2601490927,-0.453367472,0.5397959475,0.6138112293,-0.2522358332,-0.2804703908,0.656201485,-0.4818629441,0.6589040204,-0.3450427896,-0.2084507935,0.9766802612,-1.9350591257,-3.9793480847,0.9149680794,0.687505035,1.5770317688,-0.0721273744,15.9167037309,-22.9374427386,0.5925251691,-0.6423214407,6.3293527014,-0.9988618105,6.1927173189,-0.8162176813,-2.647516827,2.3101102289,-4.4089251257,0.3653413652,-0.5264564816,-1.4539080845,5.0949135523,0.6214402702,-0.4516899364,-0.9729441414,-1.6002945252,-0.4938879107,-2.0981771636,-0.0954689995,0.2468111853,0.7282714504,-0.6484066229,0.5044116923,-0.4006034136,-0.6746330574,-0.6816945105,0.5916866954,-0.8675083691,0.7074690933,-0.1500237707,0.128019421,-1.0362453194,-0.7656580694,-6.8573425805,1.138243157,5.1333421891,-0.1454069233,-4.8805123626,0.2199734981,6.4427752988,0.5454973081,0.6699049427,-0.3374551234,1.8376635745,2.2902555658,-0.1619969382,8.7988464421,-0.5215106846,0.6209133059,0.4376075919,-3.0049027273,0.9015339055,0.6903275334,-2.220817393,1.5538588682,0.696429358,-0.2529605164,0.4522997176,0.5628483571,-0.6223064045,0.6019277001,0.7064451821,-0.6685348943,-0.6123791102,0.8555698852,1.5972882583,-1.1811579768,-0.6154862831,-0.2413079114,-0.7130078978,0.8645263987,0.6924541665,-1.2479874298,1.76087174,8.7685080527,-1.5707527167,-8.5717524369,3.2826258776,6.6143718694,-0.5471808691
   -3.1031990308,1.6681098828,20.8981175092,-0.9790918677,-0.0771306071,0.4072735884,0.7764204818,-7.7478937458,-1.349432868,-8.237051336,-0.0007975535,-1.9854857459,2.908297409,-0.3513844912,0.6234469811,0.7016865964,-3.2976490105,10.3607011629,0.9824502211,-0.6584533218,0.5156053973,0.2965691268,-0.7325692245,-0.8020935425,0.63155802,0.7360011361,-0.0683217384,0.1043157093,0.0897371216,-0.2187841912,0.0959291522,-0.5709833117,0.0040098872,0.8458931115,1.0068439769,0.6751449692,-0.108046496,0.4696478318,0.0854484848,0.1881656065,0.9423747322,-0.169254515,0.0429570571,-0.0258658248,0.4323299142,-0.1873968807,-0.5364289026,0.5412633869,-0.8304813392,0.1633637033,0.6356474319,-1.7961146428,10.7572952535,0.9098844295,-0.7200012172,2.6340353773,-1.1502287734,0.2546689778,0.0286971792,-0.9427937752,0.6947525341,0.5727767351,-0.1045513923,0.4072358391,0.1494991405,-0.9293970287,-0.5988338959,-0.5317027091,0.7894020919,0.1528522547,-0.2007885327,-1.8901652386,-0.9591197423,-0.5463500363,0.5542293595,-0.3476645019,-0.7946278435,1.3491996887,1.3809684415,-0.1155735313,-1.3222866585,0.7685424587,-0.6460266896,0.13213187,5.6604159611,2.6794032089,-8.1445026765,0.5708429106,2.2819016429,-8.792751412,-0.0065890207,-0.3005288464,-1.3623891155,3.8845964364,-55.7543681392,-8.0002127756,0.072581776,-6.5811465647,-8.2045968424,-2.6172648652,0.786356203,0.0715834606,0.8032735044,-2.8517657088,-3.080040423,-0.4472722626,-0.4808637516,1.5176423752,0.6406235727,1.2454360984,-0.7851191555,0.4352664755,0.3833617357,0.6034483713,-0.478621714,-0.2033084952,-0.8707728205,0.1715456062,0.3329671883,0.923359086,-0.8567934753,-0.4577629515,0.5439230119,-4.2873141098,-4.8307299645,-1.1870009813,2.2439703575,0.8897928435,1.3648576208,7.1077773569,1.7544200586,12.9584114345,-4.9179325222,-19.517851966,-0.5900798652,4.297242123,-0.1547873921,-2.4227482455,7.5409611708,0.7111577772,0.3172978857,-5.2172301326,28.5430628883,0.6124148173,0.0993948528,4.7438620338,-2.4499309635,20.5663400048,-0.6268834195,-0.2925954504,-0.3723284523,0.9657510732,-0.03623617,0.149306254,0.9030345593,-0.7730492251,0.4087571502,-0.7086347677,-1.5729490402,0.5974536353,0.0520841531,0.5080434961,0.9926472346,-0.8227021733,-2.6053845839,-10.2266486955,6.3351878585,-0.1217467044,-2.8811950856,1.5998760803,-14.4297607907,0.9789864893,-1.6316139471,2.3095641401,-0.2321291635,-8.2247581995,-5.0597654716,-0.9162354683,1.907744465,-0.7316439662,-17.3774099753,-4.3734900846,-0.3134453303,0.2053411428,-46.2054163167,-7.7543993729,-0.1189279861,0.8938600225,-1.6517302945,3.7812395396,-7.1467116421,-0.7822284865,0.5958667871,2.3878071145,-0.908776046,2.1101307946,-1.3236135196,0.6434055284,-0.4646266298,0.6723740402,0.8514873817,-0.4524392578,-0.0957548876,0.891614805,-0.2337741229,-0.01732627,-0.055829022,0.8921962102,0.0144723868,0.2311555043,-0.0803560042,1.084978998,0.0955778913,-0.911336857,0.3458922579,-2.2564822602,0.2010321171,-0.2611484003,-1.9556207997,0.5032537137,0.4838361468,-0.0721531305,2.6355643973,0.1540203365,-8.4518987493,-0.5005153955,0.6422444518,-1.3813381139,-0.3296989125,0.3507257519,0.3200430858,0.7135509523,0.0439981828,11.8520037479,0.5283510023,0.6910937017,0.5592436751,-0.9798394066,-0.8784877806,-0.260574109,-0.2299527044,-0.0963768188,-0.1541949577,0.5804696369,-0.7473576126,-0.294133309,-0.0017745637,0.0767663458,-0.7956405924,-0.3408199571,0.8347620826,-0.5130357178,0.3351692016,0.0436389895,-0.3005235492,0.5086361204,0.4470246125,0.4058244289,0.752536872,0.7680754398,-0.6195842497,-0.2451407547,2.2389795971,-0.9700336782,-0.1177908182,-0.0717953785,-0.0670498526,9.1628729549,-0.2903648379,-0.0918677461,0.4253270887,-0.5220630622,0.933738174,0.3195228816,0.4871703894,0.2079521349,0.388367112,1.1804460718,-0.5522975137,-0.4946867917,-0.1235354702,0.2084657982,-0.0929736568,0.8023219094,-0.0692923758,-0.545671866,-0.9207131039,0.0483434017,0.3978262249,-0.7912037212,-0.232081743,0.1246652158,0.3759316854,0.7751300776,-3.2337544826,2.6596166722,-1.3957962076,0.2096494793,0.6704619235,-1.8108637469,-0.9844300563,0.8353687139,-0.4130830664,-0.8464275958,1.7262287194,-217.8931590153,-0.096837306,-0.3728533701,-0.4984439023,1.6700029687,7.9369129729,0.0408395776,0.4508536687,-4.1924364683,-0.4367670284,-0.0559491239,-0.787358703,-0.9273648923,1.7105695015,2.847131911,-0.352783157,-0.2330444088,1.0490077083,-0.2341628314,0.6241926504,-0.027346108,-0.1052834025,0.5230153983,-0.9331340887,-1.386771945,-0.0382363467,-1.0782847271,0.7901602895,-0.7765029454,-0.2418414122,-0.1541336787,-0.0307859266,-0.6586882579,-5.4788492624,-5.0313785731,-2.6250132582,2.1609584846,3.4090755263,2.8153959833,1.2196228775,-4.2748399629,-1.2894347713,-4.5975225807,-0.7107307697,-0.0243257894,3.6967569385,0.861651335,-0.8299015416,-7.4503146523,-0.710972797,0.6142392335,1.697762356,5.0398832862,-0.0240829053,0.1867764123,-1.8613358073,7.1886282686,0.0452727399,0.2316353208,-0.1039723871,-0.0531015073,0.4956839341,-1.0500394123,-1.016578469,-0.3627442102,-0.1517481587,0.0734608416,0.9406188161,1.2170077458,0.9491596269,0.2226925973,0.9360984519,-0.7339428048,0.924506778,-2.928714097,-0.5859383866,-1.6985489932,2.8095582664,-0.1998714345,-2.2416180094,-0.4445118466,0.7135663441,1.1465562126,0.7252923719,-3.1371372007,0.6375338759,-55.6572105887,0.8247934765,-1.7601468346,0.3110074237,3.1570798604,-8.889938549,-0.5650261108,1.8514772871,-0.9025722304,-2.2729835398,0.1985297561,-0.4983646746,2.7327005373,-8.5325696072,-2.5223341303,0.3890877404,0.6518218832,-0.6540692779,-0.7153231394,-1.0576289554,-0.3481160571,-0.5348384421,-0.7047293898,-0.8765276718,-0.2358423866,-0.6597436695,-0.2450532459,0.9273306366,0.2844751135,0.3428807722,-0.2076233472,-0.8061521296,0.0961994489,-4.6067170963,-0.1720041597,-0.7282945954,1.7420630564,-16.8929278746,2.604163647,5.6192439502,-0.8862037784,-1.1422448838,3.5533069357,-0.2501234716,-0.8262858148,-0.6879226525,0.1549064703,2.2596648703,6.9690419627,-0.6744850975,0.092016432,-2.582745907,6.8909531801,-0.6750585201,-0.5600268615,-6.0020597481,-2.8015582938,-3.0563997535,0.2988779764,0.1688382724,0.2484935867,-0.0442160946,-0.0490904749,-0.3062182645,-0.9514428605,-0.1456999007
##end
biasActivation=0,1,1
[BASIC:ACTIVATION]
"ActivationSigmoid"
"ActivationSigmoid"
"ActivationLinear"
