encog,BasicNetwork,java,3.3.0,1,63578038021720
[BASIC]
[BASIC:PARAMS]
[BASIC:NETWORK]
beginTraining=0
connectionLimit=0
contextTargetOffset=0,0,0
contextTargetSize=0,0,0
endTraining=2
hasContext=f
inputCount=39
layerCounts=1,151,40
layerFeedCounts=1,150,39
layerContextCount=0,0,0
layerIndex=0,1,152
output=0,0,0,0,0,0,0,0,0,0,0,0,0,0,0,0,0,0,0,0,0,0,0,0,0,0,0,0,0,0,0,0,0,0,0,0,0,0,0,0,0,0,0,0,0,0,0,0,0,0,0,0,0,0,0,0,0,0,0,0,0,0,0,0,0,0,0,0,0,0,0,0,0,0,0,0,0,0,0,0,0,0,0,0,0,0,0,0,0,0,0,0,0,0,0,0,0,0,0,0,0,0,0,0,0,0,0,0,0,0,0,0,0,0,0,0,0,0,0,0,0,0,0,0,0,0,0,0,0,0,0,0,0,0,0,0,0,0,0,0,0,0,0,0,0,0,0,0,0,0,0,1,0,0,0,0,0,0,0,0,0,0,0,0,0,0,0,0,0,0,0,0,0,0,0,0,0,0,0,0,0,0,0,0,0,0,0,0,0,0,0,1
outputCount=1
weightIndex=0,151,6151
weights=##0
##double#6151
   3.341225843,-0.0737527638,-0.8781728504,0.4272444574,-2.1273824684,1.415797373,1.0880637228,-0.6776028647,1.0703845189,-0.8985390023,-0.5790470166,-1.9410623209,-2.2110925817,0.4664535562,0.5398292059,-0.498223007,2.4405650557,-0.4946418756,-0.2769238542,0.9242752735,0.5235267409,-1.881118749,0.6033111261,-1.7475816029,-0.9691282978,-0.8292900343,0.7571081547,-1.672946227,-2.1942396754,0.9780228637,0.3069158771,1.0119871534,1.0576747363,-1.3089669374,-0.3564183286,-0.5257571847,1.1224707206,-1.6497372791,2.7088197384,0.9711910505,-2.1953392301,0.9800405095,-0.9077454303,-2.376635071,0.6999529149,0.3347807685,-0.5775234941,0.9546190668,-0.4866680782,-1.8538056857,-0.9798804845,-0.2171012882,-1.5994828211,-2.414666291,0.7446622022,-0.7047085329,1.4793488252,-0.5342551427,1.2645215375,-0.635736466,0.6529425817,0.4345126009,-1.6005811238,0.1879279499,-1.9155167191,2.5594546228,0.538040144,1.0391135456,-0.8361536155,1.6534326017,1.2336208377,-2.4583099047,-1.7806559505,-2.2385805328,1.4407097388,0.3577635278,-2.048481994,0.4505564968,-1.6114608263,-2.1057710019,0.7454526129,-1.6194103665,0.8528350676,0.5989088111,0.9504597527,-2.4809342158,-0.3492604855,-1.3603420207,2.2033037709,-1.173679056,0.1503335477,-1.5303356402,1.6184501546,1.7625533304,-1.6705332397,1.3561033378,0.6702427661,-0.1036211189,2.2149556044,-0.4714256976,0.7806243153,-5.1329374485,-0.5829020043,3.1593865632,1.2699299002,3.0915618531,4.0729353159,0.8459649909,3.2769355571,-3.4123747495,0.6329971441,0.8304062071,0.7497881071,-2.7862855215,-0.3869698412,1.1277276327,4.8349060326,-0.3225757039,0.4997810757,-0.7359497711,-1.0333377035,-0.2801877799,-0.3912665248,-0.5419011491,0.9003454641,-0.536062965,0.2217311118,0.6461239542,-1.7019320681,3.608078365,0.6625027764,1.7291079489,-3.1412517692,-1.8953452747,-1.3386885357,5.9431642114,-0.9200034386,-0.6080406003,-1.1890466851,-4.0735210776,-0.3093090282,-2.1059731775,0.961160097,-8.4765999811,-0.2990065529,2.2777642821,4.3059159508,-0.3237098703,-3.1533650004,3.8858937635,0.7026283349,-0.3612250194,-4.498045046,-0.383279153,0.5947744477,-1.0600675722,-0.5245029395,-1.3138580462,0.3933125977,-1.0794121409,0.0863294601,-1.1053505456,0.3563091387,0.7383425433,-0.1248394887,-0.4788896259,-0.1765982122,-0.4967391921,-0.1995646322,1.3699046327,0.0765356533,-0.0223882399,-1.1755523532,1.2314604404,-2.6237208368,-1.9848824503,-0.9114367887,0.729277463,-1.2425141797,-2.6145913222,-0.8638509414,-0.57222955,1.1982921011,0.4454824213,-1.2095282894,0.0392138765,-0.2735692976,-0.6719738956,-0.5732847881,0.2791497661,-0.0709040305,-0.0574059236,-0.2885216947,-0.4705914932,-0.0362574551,-0.2903886624,6.7511432784,-0.8146702219,0.6584338402,0.1995500264,-0.3506016227,-0.1396858378,-0.0680120542,-0.4902138445,0.7170528594,-0.527617885,0.3226198665,0.8760087379,0.1473153061,11.9492253604,-0.4787313847,0.856779348,-0.1794692874,0.7643957173,-0.0271019836,5.4284361043,0.0964237326,-0.6191351637,-0.4876333219,0.7048554097,0.3826767532,-0.9053322346,-0.0213853786,0.556599269,0.041172294,-0.6896020711,0.4528022378,0.0264751965,-0.5222283533,0.4210869667,0.8845413385,0.0076367904,-4.4400719865,-1.3928806909,-1.7220616874,-2.4009566312,0.3876934254,0.750118043,0.9943687744,-1.6439693175,-0.733379421,0.8678819099,-0.7662448173,1.0379909563,-0.0710168591,0.6769772036,-0.9854091447,1.2427312727,22.0862583472,-11.0943571008,4.3218742806,0.9950323179,1.0721019389,2.9559501062,-7.2661826876,5.9663952444,0.0303549986,-1.5435760617,3.9456700199,32.0167198112,0.7962032279,0.8118803528,-2.263654994,-0.6899304659,6.5053045236,0.1434081488,0.975621487,0.1898929791,-1.042427533,1.1620388031,0.4482287307,0.651851504,0.1294890404,-0.7638956327,0.6634451976,0.2944705964,-0.6479492361,0.6716941806,2.1604032015,-0.7003388513,-0.1823392316,0.1706212036,-0.2462532428,0.1537689775,-0.5343480181,0.4789453968,0.7942861795,0.6844419025,0.6687789695,-1.0743669597,-0.2513505415,-0.1885994855,-0.3344170741,0.7956674969,-1.7653565394,-7.9647042576,0.3425799214,0.2815870301,0.2635006275,0.6383003667,0.9053554084,0.0852977564,0.8570790675,-0.3137529449,5.7896924182,0.4662907379,-0.6676213768,0.6945812202,0.167664783,-1.0058546356,0.3226809866,-1.4493810787,-2.0303923434,-1.9130893119,2.1688261483,-7.5347813017,1.7013614897,1.9142551295,0.3529222945,-0.2252568335,-0.6585583764,0.0505702262,-0.1172095394,-0.7964231376,0.2013297249,0.2788025515,3.2182046523,3.070199793,0.8325339901,7.143439673,-0.0935631104,-0.2506746711,-0.2757970265,-0.0552452132,-1.8728852,6.8114019358,-0.9327548882,1.1443568436,4.0116825566,1.2489864232,0.0617521963,-0.492655847,3.5443675481,-5.0365301155,4.8979717989,-0.7960421121,0.0313558248,0.6591878405,-0.4594795727,-0.653896055,0.9625965928,-0.189847919,0.7475943205,1.4342641347,1.5527350907,14.4210520587,9.5336864107,2.4282809565,-6.45383823,-5.1455674082,-1.0431608667,0.9628633549,0.6307150094,0.5106436141,0.4163462356,0.5303091749,-0.9515551897,2.0400036401,-0.7170857933,38.5738331656,-4.1111748192,-0.1587249279,-0.5996275756,-1.8840690557,0.5831679777,-7.1368096915,-0.3646399041,-3.9679610615,4.8612637312,2.5408170907,0.5651904283,-0.4810308141,0.3982321269,3.7404754541,0.0024767685,-0.7312867903,0.0775077162,-0.0443354335,0.2702473649,-0.3286946505,0.2479151403,0.7312925722,-0.3738400532,-0.1775983185,0.5208913364,-0.2633166919,-2.0232037801,-0.610748569,6.6334944488,-0.7002624761,-0.0177865922,0.2959804208,-0.816410093,-0.5883366126,0.1859080222,0.2742606719,-0.8511520258,-0.1121180456,-2.3102268095,7.7145531027,0.8596515295,-0.0100684692,0.4883157618,0.0059644568,2.8965718643,-8.0297017433,0.0679666451,-0.6565236697,-1.1352093537,0.8962291807,0.4465236826,-0.2053105287,1.5023480049,-0.0067639933,0.555348127,-0.2790806483,0.5997819293,-0.9747076327,-0.4509691883,-0.7739987992,0.3768712191,-1.1872137183,6.1797843828,1.4564040916,0.9816358733,-1.2105543671,-0.7174769437,0.2015848632,0.345616009,-2.3887342922,2.7612473291,0.0597727998,0.3214715853,0.0970466536,1.0234087993,0.6712928494,-2.0505759815,-0.9211794422,-1.9761380184,-3.5950165438,-1.1789200982,0.6038153533,1.8434848359,3.7326846364,-12.6774247856,5.8531099477,0.3858988031,0.8872670104,-5.4799617702,7.4035197054,-0.4239286514,0.1828607596,0.6287457341,3.003449985,-4.7663706411,0.1451604803,-0.7536707883,0.2028000086,-11.3978104115,0.2996167765,1.0063298732,1.1042459875,1.9511316475,-1.278659592,-13.0827253264,-1.4453926172,-6.4894709534,-1.9988419079,1.0771567694,2.6864449645,0.8546739412,0.4462422435,0.8231434701,0.1034190781,-0.0209625793,1.1099857664,1.1138208422,-0.8814243652,-3.4158118261,-2.9791163611,-0.0017309411,0.0735987076,2.8747115386,1.9088763054,-1.0479662751,-5.4808233972,0.4140165883,-3.1848590976,1.620555593,-2.0056045801,-0.4403201063,-0.3645607165,10.6179315457,27.4213317925,-2.088383754,0.3261460859,-0.9404609613,-0.8886198286,0.9116581871,0.2668303445,-0.8972111378,1.1350062071,0.2181509932,-0.3859138384,0.6907887854,-0.0859882433,0.8570848069,0.688699578,-2.6386185371,-0.5274800835,-0.899448039,-0.3573071843,0.6648016054,0.9547044761,0.282706866,-0.7574451644,0.6150935879,-0.3953858197,-0.789313972,-1.6179296363,-0.8592640236,0.0801542174,0.9438587828,-0.9293379815,-7.8726994471,8.6348853313,0.8255705432,-0.4280461796,-1.3097811456,-1.63962132,-0.6183870728,-0.8266144906,-0.4778947339,0.8746122419,0.704673751,0.3445250118,0.6000650635,0.2515578751,1.0046127459,0.2216535747,-0.7305842208,-0.0018704807,-1.0072678346,0.3084079378,-1.0296633439,-0.8800865195,0.2171447157,-0.9966078937,-2.0725364798,0.8904863027,-0.6716858497,0.9988331872,0.4719022157,0.3668631768,-0.7728827978,-0.3852740061,-2.5212453949,-1.6791166954,0.6462043939,12.2823193362,-0.2487030694,-0.2526256951,2.2696952249,0.1905298547,18.3774927762,7.2844044825,-0.8404014818,1.1222375383,-0.1798846858,0.3202628379,-0.7223763098,-0.3172329903,0.1399875383,0.3594880648,6.4902446825,-1.8346286287,-0.849450387,0.0725497479,-0.8233486579,-0.9165162475,0.781955312,-3.0596000646,-2.3470279868,-0.4241481249,-1.0712168643,0.6341768759,-12.6002748749,0.5538319274,0.2614412054,-0.3085861945,0.8770198833,0.1419690467,-0.2113015405,-0.9421973719,-0.862110296,-0.6274351528,1.7170029329,6.5432737178,7.7872436445,6.902223985,0.0496244125,0.0193534629,0.7606366424,7.7132402353,4.6616405516,5.7150358657,-0.9263128247,-1.3634949203,-7.1317867158,9.4588683804,-0.0634808794,-0.0094268923,0.3318673454,1.255348242,-26.2647922325,-0.8014871508,-0.3620018956,-0.9305902998,3.8790831289,0.8171762362,-0.6364330395,0.2680327516,-1.4539161067,-0.4280635143,0.6330202362,-1.3746777358,-1.1156839837,-4.2880912599,-17.2789562421,0.4266482251,0.3274085316,0.1677269477,-0.913938523,-0.9693701375,-0.8474078589,1.0521681181,0.1094847313,-3.4097471666,-3.8590929883,-3.7273768966,-0.7060592517,-0.0543621979,5.0846854878,-3.7371205831,2.1410735485,8.5187526061,0.0751564405,-1.1180398455,-1.085850204,-1.3894147294,0.9594198133,0.633839012,-0.3336485286,1.8231674692,7.4207584496,1.0371545614,-0.3738743045,-0.7738953846,0.5213668839,-0.2568130747,0.7271639834,0.9081603237,-0.6479744343,0.2355803925,1.738360053,0.8647270625,-0.5498501025,-0.2864271124,-0.3812100742,0.8028989205,-0.4012331223,-0.6163361049,-0.3305262174,0.3880279696,0.2326647359,-0.5005247956,0.619140517,-0.0528372034,0.4296820955,0.0522544901,-0.1496699271,0.3702390331,0.2402331413,-0.0245116378,0.637215377,-8.2361100235,-0.0532384557,-0.2407847127,0.5580073023,0.0291625257,0.368811305,0.3957947033,0.7451663675,-0.72801699,1.9002974001,2.4675889818,0.3338159618,0.5355599001,-0.4222835251,0.5946740334,-0.370674618,-0.2862852872,1.6041643385,0.2198371221,-0.31327604,0.5399761292,0.4945118084,0.2372264758,3.3263477023,-0.5888170071,0.0623790723,-0.8579996731,0.5272733671,0.731399248,-0.1104735873,-0.1225325788,-0.3108021302,-0.9163768895,0.6712342663,0.1328883695,0.6931543045,-0.5472324116,-0.2307332815,0.9456739571,-0.6207722108,-6.9515724321,-0.5385573709,0.1799235883,0.8163875959,-0.2477782977,-0.6420736184,0.3819661566,0.7094879738,0.2210656783,0.2433369322,-1.0141803638,0.2516161377,-0.9104540421,-0.345812988,-0.3291281164,0.5547270858,0.0489067688,-2.1085494463,0.456284943,-0.0396113947,-1.7584729021,2.1340760131,-0.4837991312,-1.4290917593,0.205065233,-0.4243460124,0.796575164,-0.0197416828,0.390385481,-0.2922008369,0.368094243,-1.7840777099,-0.4350183187,0.142312598,-22.4162397542,0.3705797519,0.3010772259,2.1610234849,0.8028099066,14.1796218656,7.7450036083,0.8889910466,0.8513672341,-0.7467747075,-0.5481709345,-0.2849604527,-0.7005667666,-0.2389104682,-0.7192239863,8.0319901623,-0.5618234484,-0.2322598767,0.6765457735,0.7843998477,-0.5558407958,-0.6933786113,-1.0845558522,-7.0065889904,1.4652658013,0.9590433879,0.0857272804,-1.3807651513,0.8768916075,-0.5860015268,0.0522981683,0.2158462162,0.5519878275,-0.7864051522,-0.7061066042,-0.8888661963,0.7565788952,1.2151321014,1.4293790501,-0.6236798584,-10.2247955884,-24.1406169235,0.1062277924,0.2968706071,-0.8246690992,-9.4937063471,-5.8998570176,-0.2663224588,-3.9608690922,5.8992761255,6.8347938898,0.0784292847,0.571669258,1.3404716198,-19.4638298542,10.4878569565,-0.3757718447,0.5412769865,-0.6077199621,0.1560105008,0.1617522076,0.2070870286,1.8495559629,-3.3786748035,-5.967978195,-20.635101586,-1.5412602016,0.0549042701,0.3839698137,-0.2299399718,0.2396717948,0.8680620894,-0.3239948781,-0.5280795255,0.8012613429,-0.5623284595,-0.2957191711,4.5003524627,2.00396687,-1.7307428766,-8.1934221671,1.9071234953,0.2362202821,0.550983579,1.2059740076,0.0469148983,7.0065989593,0.3679495358,0.2731732057,12.6379285387,-2.5496487846,-0.4066429961,0.3770067931,-0.5649068851,-4.3447396992,14.1442566731,-1.0583822969,-0.3142247756,0.7782091231,-10.1332326575,0.6576416492,-0.3677311533,-2.3378845203,0.6818474014,0.6528437413,-2.9734920086,-0.3095154863,-0.0495029767,-0.5428098919,-1.556511244,-1.0204924276,0.0585688901,0.2757764561,0.099474072,0.7586769294,-0.5063893711,-0.4281394419,0.7268357525,-0.4284002643,-1.0279688784,0.7802486479,-0.4495096357,0.4234798492,0.0982546518,2.4027193092,-0.7677265254,5.0158208043,-0.4635677326,-0.4011637687,0.2876734633,-1.0223523861,-0.7528476217,0.2244736539,-0.4964615099,-0.0172969266,-0.9466590687,-0.0234581846,-0.6739808767,0.6220457391,0.5502700545,0.2244349808,0.0533375752,0.9149347129,-0.7594705588,-1.7332740426,-0.1333420517,0.9995404627,1.0522708039,0.0819366072,0.3530345087,0.2948547864,-0.5292486622,0.6131105356,-0.6798303969,0.6108130437,-0.0984010605,-0.1478077358,0.5950630869,1.0888314899,-1.6224545163,-3.2854857664,-0.4924438648,0.3224891821,0.6431613231,-0.947674413,-0.9608759873,-10.7301167838,0.5333791531,0.7695032744,-0.9900442641,-0.1038822698,-0.3487927914,-0.1275842251,0.1789679636,0.9115845047,0.8887618753,-1.1588125092,-0.2638736606,0.2973876858,0.6411434024,-0.6902317888,0.9571873756,0.2364440363,2.8343623848,-0.5236951479,0.1749871175,-2.9976760556,0.2983889952,-0.4144571335,1.6130343144,-0.8180298241,0.4450177897,0.3028476404,-0.5348950709,-0.8441009603,0.2077784269,-1.1429746705,-0.7222595987,0.2193546199,1.1948012326,-10.0838786681,0.4637973944,0.7205165214,0.7654132202,0.3992322116,1.3674136907,-6.5058318706,-0.1766222348,-0.4234345832,-0.7851334498,2.3252051365,-0.9705729637,0.4770332042,-0.8899670259,0.9163511905,-0.5159050889,0.966292447,-0.4445067278,0.4559780106,-0.8567805288,0.1329390522,0.8924586158,-0.2903845505,0.0483955019,0.407771723,0.1329270325,-0.0181540337,-0.0507068023,-0.3638791726,-0.1009315409,-0.1443331423,-0.3632555468,-0.4519667241,-0.7289542577,-0.0921276674,0.3242255245,-0.8420062203,-0.6214697112,-0.3437115866,-0.8494511247,-9.3595294839,-0.5958199491,-0.8272513001,0.1198821103,-0.6418420842,-3.9886209073,11.6145657632,0.2941335259,-0.2040877734,2.7333757057,-0.4902622192,-0.7390369629,0.9502783818,0.4952672401,0.0155128399,-4.352553759,0.3330714291,-0.9262478053,-0.4246927358,-0.1851304354,0.6719103364,-0.1191518824,0.3816173353,-2.2653466256,-0.0976436765,1.4130732424,-0.1943298704,0.4791483272,1.0143174079,1.5195323586,0.0520494993,0.9524306341,0.6495777658,0.560592042,-0.4058756407,-0.2595000928,0.2743315724,-0.4269998615,1.0510369452,-0.3765646014,39.5484230156,0.3464716862,0.1976082275,0.0407398258,3.4491378717,-0.4542498628,-7.5582554061,0.9276787992,-1.5943675091,-0.9295242245,43.0234343372,0.0096149651,-0.910281904,0.0790114415,-0.2859101609,-4.9880003842,-0.5922647584,0.7348684099,-0.7250073432,0.027981888,0.5193678094,-0.7418140016,6.9782257363,1.0001686333,-1.4239874833,-0.3211643939,1.8178146532,-23.5074849269,-1.8925768826,-2.7165931642,-0.4423622123,-0.74087812,-0.9065936675,-0.8693718129,-0.6243061551,0.8440780913,-0.5397603234,-0.9431222144,-0.2182525434,3.6203750559,-8.0046206377,-0.8846092938,-0.7062768041,-1.1557908212,-8.8836016903,-57.6194380614,8.537477896,-0.0639172537,2.9175541006,14.6470231594,20.6122127516,-0.1982090997,0.5338364083,0.5463120379,4.6302085249,-32.8426407221,-0.427350673,-0.4428794326,0.9998010022,6.6484859699,-0.4630439247,-0.4290035423,-0.6187884071,-0.6124670698,-0.8498751114,-3.1402797177,-0.3983326216,-4.6918442108,1.1422985567,5.2301035652,0.1362393805,1.452733259,0.7420290998,-0.6605170516,0.8580908826,0.8376713459,0.8596424819,-1.0459587481,-1.5211465216,-3.9291529887,2.2166316762,0.3096515167,0.0729635251,1.6721489207,4.1073439046,-3.0415720196,9.5026242505,-0.5084226595,-3.2428562747,1.2082068923,3.064125274,-0.0023431351,0.4947092894,-0.1310626309,-1.4188555529,5.4703993749,3.2685149963,-0.1770314412,-0.4915360873,-1.0029350268,-0.8499743957,0.7708642889,0.6608825193,-0.7066717121,-0.0431835932,0.6253665782,0.4837217131,7.6416644705,0.4253421138,0.2186356354,-0.1055125695,-0.9354464389,0.7742947168,-0.0001285376,-0.8639946033,0.8102923201,-0.0944935161,-0.5719059287,0.4514375591,-1.6821512769,-155.0216286455,-0.4055960279,-0.3177846825,0.2811723051,-0.6571628457,-0.6333303628,9.394923384,0.8055789954,-0.7896667249,-0.2400416665,-0.5679030658,-0.2009120623,-0.7526239062,0.2252718127,0.5872033967,0.8603461982,-0.7308876711,-0.9138663401,0.0001944934,0.1287401984,0.5958693206,-0.3563273759,0.1742912408,0.6048700252,0.4205804536,-0.0308299088,-0.7392762441,2.5984698659,0.4826215023,3.0579404,-0.7203356781,0.0303683646,-0.893082373,0.5906905481,-0.2331879752,0.16985305,-0.5206954791,0.3941033622,0.4963397445,-0.9001740399,-1.0539889613,0.9866099808,0.2692714973,0.1496346777,-0.1581599436,-0.0043952321,-8.8306941692,-0.3250327666,-0.4917536392,0.9469934558,0.3245599249,0.6777168163,-0.8988064508,-0.6253502254,0.371403805,-2.5839828583,0.6124596142,-0.3102029931,-0.1261390486,-0.8475814345,-0.1602699627,0.8084502102,-1.6912466926,1.8963466005,0.8884738813,1.558842413,-0.3660606014,4.9061035644,1.8854444917,0.6545135328,-0.4994720105,-0.8925735368,-0.1014112621,-0.3698697647,-0.4066913612,0.4866705464,-0.7055452051,-0.7653005752,-1.2906956752,-2.9689024254,4.3565545265,5.0248222315,0.4546967621,0.3895995202,3.0738705367,-39.4184175109,9.1453724915,0.378069,0.472842319,0.8549931004,3.6218113398,0.6017968991,-0.9308826755,-0.451734114,-3.2933961774,-6.4848540219,0.7478183947,-0.6936857401,-0.3818279606,-18.1355666949,0.8693693048,0.3881819924,-1.2067896847,-1.0081920965,-0.0833483274,-1.620807482,-1.1201180708,-7.0431211628,0.7753654547,-6.7595249018,1.5385505715,-0.6178982547,0.6383973467,-0.7043336649,-0.9733917946,-0.0792705321,0.1741740467,1.5542729409,-4.3176102695,-14.8684563181,-3.355658024,0.8372369091,0.7738924119,-0.4112129132,-2.3640164067,5.3602835287,10.5345793374,-0.7968256137,1.9133169533,-5.4438162262,-0.7904659657,-0.0178478231,-0.1387970388,3.9856958092,2.6488538576,-0.9601208677,0.3434342004,0.6596988121,-0.5620876775,18.2970183874,-0.5540841055,0.0702575857,0.0479964524,-0.0550418309,0.227529148,0.918443818,-0.392098772,0.2984591374,-0.44982739,-0.303388157,0.3608444044,-0.3046667658,0.7313884455,0.2310968018,-0.4905236027,0.9420458747,-0.2500979941,-0.4349713946,0.6823692567,-1.3678045576,0.8904687693,0.0433034307,0.0314011402,-0.5263386029,0.7478027824,0.1099835403,-11.1650445338,-0.3023344741,-0.6866945648,0.0876713822,0.2062809698,-0.9294402304,0.8839556295,-0.6362647551,-1.3972870156,1.225633355,0.8184471889,0.8774697016,0.0417405097,0.7509385088,-0.0577053812,-0.6538728581,-0.1797823158,-0.0209822024,0.8024513701,1.763719296,0.1525722011,0.9233191561,-0.3709187298,-0.1556780372,0.8931786377,0.1405183135,-0.395141567,0.0461968779,0.2532535364,-0.1594652077,-0.0299674134,-0.6880296325,0.2416628681,-0.3341888725,-0.760646639,-1.0973636326,0.473086396,-0.6394614463,-1.3082368955,-0.0149089107,-5.4130675335,-0.0195591538,0.9189081378,0.8231305649,0.8258935374,-0.3221938172,-0.8626201841,1.1096951473,0.3008182386,-1.2180253203,1.4768984093,-0.2746738751,-0.8106280363,8.3312330254,0.7167939598,0.475332891,1.6384451245,2.0112039694,-0.2731230796,1.0293056837,-1.6594497634,2.087289201,-2.2431121371,0.6743760188,-0.1794871902,-0.55842571,-0.3958114422,-0.6051011579,-0.6398556203,1.0790037719,-0.3527162209,0.9343863038,0.4538791117,-1.7098942677,1.9349542832,0.3195384115,-0.900165135,-1.7438159271,-0.2574889723,-0.7311823143,-5.8927451584,-0.9836527314,-1.023278304,1.2288726947,0.6271693264,-0.1942954109,0.6985335106,-0.1009810559,5.148246302,0.7690377933,-0.3579337019,-0.2274544394,0.833000905,-0.7640151831,0.4072853401,-0.0461279622,-1.1841698727,7.4446865574,0.6029200891,-2.7178079784,3.6307183005,-4.946336592,2.1078399697,129.1607411991,-2.6138334818,0.5932360337,0.9507145122,0.4993635069,0.2113868392,-0.5304225322,0.873141882,-2.8548304279,5.5703848405,0.1499685688,6.3767652542,0.6827030106,-0.6818434203,1.8127777425,-3.0655826129,39.6829806749,-5.8230013776,0.8471197495,-6.8390297646,5.1744612034,-8.5860618851,-0.0361746558,0.3544327325,-1.6899484822,-0.5725284266,21.8227232911,-1.6531428318,-0.9818035941,0.7787430915,-28.182594406,0.1941211314,0.9388083812,1.6937731827,-5.487211608,0.7861612093,-2.2075158102,-0.3521934641,-1.4749949219,-0.7820460054,2.2565795656,0.2854692265,0.6122986863,0.9938477368,0.4956962055,-0.139597194,-0.4003162879,-0.8228416725,0.0640687367,5.1060533179,-168.5181625548,-7.1132721129,-0.6501885078,0.4616222686,-5.0536456222,0.3669723456,4.2889699537,6.153720588,-0.2705715426,-2.5270214245,-0.9332333428,14.5718235816,0.3383345185,-0.0220158161,1.4179930191,-12.1164231009,-22.636260779,0.5702965607,0.8140109488,-0.1843659662,6.240612176,0.0466014448,-0.7798672124,0.0948283309,-0.7761838884,1.2425706264,0.442915757,0.9925319409,4.8234037347,-0.2800649773,-0.3390223023,0.0491352275,-0.2167331323,-0.2831935014,-0.3265891968,-0.0305934031,0.7506708444,0.5413128938,-0.9498142323,0.5922188986,-0.7777345314,-0.3068151781,0.4086539018,-0.2816178972,0.7607259848,-0.7521268133,-0.9328297194,6.3404275805,0.6174736925,0.314894907,-1.5197184718,-0.3367802849,-0.4990366506,-0.0829712809,-0.562649167,0.2070752539,0.3080089395,7.933383442,0.9683125075,-0.0101601299,-4.856829481,0.098249609,0.9645832648,0.4010163727,-1.0256136784,0.4430587928,-1.0997005162,0.0149450164,-0.7024274751,0.6459268084,-0.3400005311,0.304157573,0.7587879932,0.0138159565,-0.1830883638,-0.9102891727,0.4719945955,-0.1515271514,-0.0393486773,-0.0725427184,0.6877371589,-3.0221836792,-0.0780907692,-0.581234345,-0.1480421198,-0.5676637878,0.2815729179,7.3733214644,-0.6916610104,0.5515566457,2.3560059108,-1.2722930192,1.0253991721,-0.7563806948,-1.5824394765,-0.530586947,5.6277776244,1.0029701692,0.9874188174,0.7817488032,-0.6629403152,0.9180896746,-0.1518667141,0.7658415298,3.3955892618,-0.5025441973,-2.0260673386,-3.8562611412,6.2702077132,0.0334062996,1.3380600357,1.069775742,-0.2582142779,-0.7452156202,0.654584345,0.4481248533,-0.522856764,-0.5113184381,2.4813560129,0.7697085991,4.4038635789,7.2974999565,-0.1089525432,0.3121917422,-3.1778264969,-2.9896962655,-0.9850743582,-5.9229371098,0.6426879781,-0.609869891,2.0380741364,0.5429226135,-0.0098394601,-0.2781321925,-0.4688237655,-0.2775913986,-3.356399772,-0.8240632092,-0.1511597126,-0.1565425558,-0.0471611958,0.1723920363,0.1968229653,-0.2528061032,1.4763728789,-0.3227944787,0.0915848791,-1.8161899715,2.1438779488,1.8589206553,-2.5242698401,-0.0433429569,-1.1193344171,-0.9205736045,-0.2738903745,0.2395441633,-0.9289515519,0.1657087048,-1.1505053209,-0.1697964845,-4.2925651251,5.7036266373,0.1971647123,-0.4713704705,-0.9465050554,6.0096626301,-10.0488388754,6.8725761221,0.0315911542,0.5862495926,-9.8367571923,3.2640004281,0.2569004763,-0.8008638266,-0.0217189764,1.3300439753,4.196158998,0.2095250008,-0.2683045768,-0.7694043575,-0.3794572884,-0.1408223891,0.1054542645,-0.5070415751,4.5868585961,0.8249374956,2.1481445274,-7.5289659928,1.3911254965,0.5716976182,2.9427510536,0.8829176641,0.0208754692,-0.4873821665,0.0995220856,-0.0076915172,0.2930395737,-1.0794911073,-1.8155116677,1.2691529196,3.196462499,-3.6809036946,-39.5717662389,-0.7583145675,2.2333748556,-7.3471473491,-0.9850585504,-9.0505696853,0.3606520776,-1.5883171298,-3.4794502027,1.7227661483,0.3128107072,-0.226825113,3.4528238,8.7478493743,3.3917465299,-0.3182046379,-0.0786209102,0.7239881395,4.8987345506,2.4992996941,-0.8490692082,0.0215768876,2.5174074572,-0.6130913547,-0.0039627101,-0.8425651998,-1.104863586,0.0134641903,-0.9667550438,-0.373216726,0.4415761213,-0.0824302528,0.7435274557,-0.5204985355,-0.2182587239,0.7165173983,0.8293364681,-0.1539684576,1.0125513906,8.0928866745,-0.0035408113,0.9016139823,0.8533601892,0.7641030168,0.3600181874,-10.2147708439,-0.5124863812,0.9909026736,0.8626506918,-3.4327763006,-0.4580828697,-0.6750914723,0.2675945113,-0.1361960576,-0.0242011994,-0.6796736389,0.5347208239,-0.1165011683,-1.8991963812,0.2799445162,-0.7562094827,0.4726432007,0.5579913223,-2.0035044712,-0.9125342879,-2.7864994041,22.6486767068,2.2393883415,-3.8024359935,-1.2294665894,-0.713789346,0.8171961902,0.5214026298,-0.0104313301,0.3669119459,-1.7291609212,1.8007269332,0.1965096333,13.1720930588,34.8708941128,-0.1001794265,-0.2585965466,-3.8685648695,-7.6348246569,2.7995255317,5.0835074469,-0.3666992315,7.9369584659,6.4863264924,16.3838997543,-0.2659772134,-0.2393973131,0.9320950538,6.5858383999,-3.2510898516,4.6267955912,0.2370287791,-0.3405642358,-14.5158417764,5.2210433587,0.1615665466,-0.527898806,0.2294640076,1.9997715414,4.504230482,-0.7809777792,-0.3805825378,-0.9045956576,-0.3789304578,0.2737040592,-0.7122350823,-0.513498935,0.4743966605,0.0208541487,0.5838254319,-0.9434505339,-0.1027389614,-0.2802694503,-1.2170286787,0.2600392707,-0.8126021817,-0.0420246073,0.8798722359,-0.042237028,-4.3855734337,-9.9208031913,-0.9595624981,-0.5449166534,0.3723288017,0.3418443585,0.6108384938,-0.8247293913,-0.0946622359,-0.0785106369,0.1473735146,1.1873337878,-0.8230032473,0.6404176333,4.0192562073,0.6365394202,0.6981307592,0.7352917952,-0.9148651076,-0.2742734017,-0.7107106318,-0.8422885155,-0.3519024307,-0.6909302874,-2.2175944337,-0.3766872488,0.8464968116,0.8689589621,0.7287092946,-0.9577287535,0.0873979115,-0.2015637149,0.3860671799,-0.90108684,0.2055366192,-0.2727627663,45.7354633762,0.1177821127,0.331000677,0.0553718113,0.6641255331,9.3687950848,0.452911684,-0.240758683,-0.0320745742,0.5197119752,0.1398585755,0.6856614378,0.0284196011,-0.6157318377,-0.4657628002,-0.5382587169,0.1148724859,-0.3054106632,0.8681978546,-0.3166180018,0.2426533762,-0.0322021024,2.3680699405,-0.4473342489,-0.1130425494,0.7916087343,0.835942997,0.3843463774,0.1838577968,-0.3949031886,0.8349030515,-1.0236649837,-0.1655245085,0.3778399885,-0.7501641961,-0.6867784892,-1.9481891845,-2.1521383801,0.8016891154,5.6283767119,-0.8717157183,-0.4815542221,-1.8759194474,1.7671977951,1.6834373504,9.92948131,0.2047039202,-1.2171116217,0.2196032375,0.3159429551,0.7461849649,0.7225301013,-0.0097879378,0.9414034447,-6.2362836293,0.4694724186,-0.6571012659,0.0589351148,0.1214283445,0.3250537387,-0.5942007421,-0.8364764648,2.9613124964,-0.8574825881,0.6698338517,-0.4172248535,-3.4623902213,0.0304650645,-0.7194734204,0.0490178551,-0.667376955,-0.2510315366,0.0178860121,0.538375095,-0.5299668002,-0.4463382856,-0.534839538,0.1937979179,-0.0392266508,6.0298760434,-0.3921876601,-0.7852341914,-0.0618576317,0.0214911765,3.2596270523,-7.3268166375,0.6407683155,0.6056432322,-2.3315071785,5.2348981803,-0.6618598943,-0.4411274695,0.5929516707,0.2100315014,-7.0590157485,-4.5972692572,-0.7200059079,-0.2929747247,0.4208450188,-0.261516996,-0.4467847388,-0.8305411835,2.6119501422,-0.9474480415,-0.1719159687,0.6102098507,0.0161427693,-0.6759980165,0.9057337904,-0.0776098318,0.0217752793,-0.1934687673,0.971265145,0.2244593255,-0.6847177523,-1.0487536107,0.405183486,-0.0560544421,3.2685497248,18.6641757512,0.9888157995,-0.2584625693,-0.7802589333,-0.7025421487,-0.1830946208,-6.1353464945,-0.6785649265,-0.6974957038,1.0652606043,1.2123078251,0.9047810888,-0.4648197831,0.3880027624,0.6847212575,20.6764662465,-7.586745327,-0.2099121293,0.19361275,0.8537717193,-0.1914079332,-0.6493698304,-0.060382822,0.4722793472,-0.2311603168,-2.7056836146,0.8889576887,1.7546045767,-0.4065450701,0.9111213249,-0.1936082847,-0.6658311661,-0.3825121406,0.4323633574,0.6016192975,0.6299974377,-0.7112671022,0.1298274029,-1.1189618392,-0.2769535442,-13.5600472516,-0.5157775687,-0.8623035903,-0.9544479159,-0.1937903173,-0.1418741753,7.773237831,-0.5069022949,0.5090606837,0.6281875479,0.0434537273,-0.0358683878,-0.3321918041,0.8211961344,1.5363021585,-0.2538192881,-0.502251337,0.1149862758,-0.939906042,-0.1532563527,0.3391777321,0.8097703503,0.9846002975,1.411129656,-0.6925471966,0.1927446699,-0.8149840705,-0.9255483651,-0.5579850623,-5.7585306012,-0.3997244598,-0.3465028744,0.5430289547,1.3140996446,-0.1899167129,-0.4622031933,-0.4564808351,0.8966378257,1.0599879206
   -3.7227390429,0.8201219714,-0.5366488484,0.1391249137,0.17390079,1.4139426888,-13.0557826868,-6.4050293127,0.7786671006,-0.2880166937,0.7486783,-5.7366756614,-0.3745922232,-0.8937236759,0.0983279078,-0.7382142354,-8.6506292478,-2.6387727813,-0.3929541863,-0.2385829145,-0.6930214177,0.8396458353,-0.9323727489,-0.8745659923,2.1986472564,0.2425119496,-0.5316065922,-0.1567873311,-0.7175948754,0.2899600826,-0.2018238935,-0.0188038335,-0.6084857001,-0.7320149872,0.1099263587,-0.8878768179,-0.7955788118,0.8008342693,0.62889147,0.5744090365,-0.5068795052,0.1036413938,0.9257081994,0.4983925547,0.1133550278,-0.6106090387,-0.6328952732,6.9062992573,0.9809837947,-0.4749144651,0.0915469681,0.8035509397,0.9016849187,-0.966108785,0.7544249799,-3.1447270084,1.2838553372,0.4678596104,-0.6183616508,0.5749240479,0.3039860949,0.6395515068,0.4208281932,0.7946260515,-5.6979978015,5.2346473702,1.5597346567,0.3165165302,-2.6707922123,-2.3995178439,-5.40027419,-0.2123640238,2.1351817699,-0.683364004,0.0027567461,0.2064875748,0.2186181938,0.0739546257,0.8588796599,-3.8213423406,-6.9378612987,-1.7073786135,14.301099011,-0.7369612268,-1.7868526402,9.0900938992,-16.9108934285,6.0903461049,0.5078137962,-1.4800477206,4.6706981891,-0.3730146207,0.3738667118,0.350680717,-0.5630842094,-3.7856326935,7.8114753537,5.4577652097,0.6463318167,0.9685622742,5.9580927133,-2.0987382128,0.9762142766,-0.3723429065,4.2340287581,0.3339566023,-2.7210148891,1.1023644725,2.6982093907,-0.1862006067,0.5373304406,0.5937128883,-0.6311758995,0.2530731643,0.9618458931,-0.5456572701,0.4430456405,-0.3343448571,1.480904404,-1.330529845,-0.2800012612,8.2031887047,0.5851670759,-0.66401338,0.6483926793,1.4030662507,-1.6813899065,10.9440746872,-0.9891927289,-0.1879800315,-2.028392474,0.015800789,-0.516320106,0.2879470881,0.9188319238,0.8980326626,-3.1713025861,6.5752952254,0.4554318839,0.604595837,0.2357444872,0.6810529443,0.2312129499,-0.5190767103,-0.0130109715,-0.1913779162,5.3770319113,-2.3083599323,-0.8314488556,-0.6832070795,-4.9907169537,-0.7052918352,0.9536656558,0.949513819,0.5759767203,-0.1901868053,-0.2250291502,0.1975567766,-0.6192386681,0.8498725476,0.7477754086,5.133272925,-0.6408774846,0.3390807516,-0.1215922634,5.0307592436,-1.2029840082,5.4384015719,0.1981699016,0.8850953525,-0.4068834121,-0.4602043442,-0.7520093476,-0.9754022639,0.3503951551,0.2156441978,-3.9720992879,-0.6879979686,0.6124626936,-0.4675703496,-7.6151305081,-0.2765177803,-0.0876329344,1.3594618294,1.5807113509,6.331727012,1.0202431679,0.8731651226,9.591012162,1.1108142356,-3.5488469384,-0.6587327192,-2.320330948,1.6064004146,0.0997882223,-0.0030267972,-0.5890980009,0.788352073,0.9878442106,1.568461499,0.5612155087,-0.5288812806,0.1493462845,-0.8926783828,-1.0101044426,-2.887672644,5.2593175646,6.3387449209,-0.9507866306,-1.1833439173,-1.1853764596,-0.6496799031,-0.8636626104,-0.1337695388,0.1073259666,0.0712476307,-2.5513968727,-0.3064390782,-0.3498663098,-0.8556015369,-11.7793259079,-2.204930643,0.3761501207,-0.7827761037,-2.2820889358,0.0786533138,-1.202047132,-0.70407147,1.9256414164,-0.3789256015,4.4357964932,-0.0792757895,0.4551400147,-0.3900222293,0.0394252156,0.3655472567,-0.5050888084,-0.7085530984,-1.3617342385,1.1558693849,-0.2380876796,-5.0471342015,-2.1133958546,0.2282503709,-0.609361793,0.6339187327,-0.986806385,8.5680576734,0.6286551438,-0.6531985701,-0.8999266249,0.7144938457,-0.1520752555,0.8134048906,-0.3927474323,-7.1608481582,-1.3375662453,-0.3768868546,-0.3999859725,-0.2939140642,0.7699835091,-0.693082474,-0.9619608602,0.4310641692,-0.0819497885,-0.3563403087,-0.0549001664,-0.3116945277,-0.8174726613,-0.5806031604,-0.0189633376,-0.6041225318,0.168597754,-0.909388183,0.332143706,0.1961100033,0.721424313,-0.1119926459,-0.6889092657,-0.1731887009,1.0646140993,2.0366567638,-2.9436828606,0.1898303112,0.0587264871,-0.6265299667,-0.145493884,-7.9462815295,0.901725688,-0.1707739859,0.4289715568,0.4818389952,-0.9245403803,-0.5943721084,0.4841245239,-0.4806535302,-1.0210488918,0.0818411112,0.2660220905,0.3678084213,-0.3010467121,0.7767707403,0.1517661689,-0.8938538183,1.0168340299,0.9719634881,-1.179949693,1.7679809472,-4.5497489275,0.6084255456,0.3002077983,0.9160169178,-0.2084589111,0.5930041383,0.3192696984,-0.0035132748,0.7829529101,-0.0876730674,-0.8699872839,0.2289285055,-0.0461391422,-1.3596686388,0.1434826128,-0.1951369397,-0.3285541203,-0.8151328054,0.4910618592,8.2735081769,-0.2055703146,3.537140679,-4.3409268068,-0.4294868439,1.0176680054,-0.5225079318,1.4825456475,0.4343291813,6.5370817425,0.4824350955,-0.3473214923,-0.9773995617,-0.8347164108,0.9027704878,-0.68187055,-3.9316426032,-2.0847699718,3.2297449779,12.2286598024,18.0667271628,-3.0195593977,4.3935104889,-0.1616969215,-5.2318810878,-1.207941188,0.2280603243,0.3264417794,0.8886501672,2.297159992,-1.2230025646,-0.4892878371,-0.7829774208,-2.923840183,4.6768883253,-45.7558938594,-0.3408288794,5.0446811215,-3.93751733,-12.8087869882,-6.0983896288,0.1687449334,3.0827220702,0.129268192,4.4534567717,-0.8170846619,-0.9950503306,23.3139874063,1.0177543915,1.7510473016,2.0878328532,0.7179338279,-0.2802486396,-14.5987394146,1.0740055981,0.5946241608,-0.0905029531,-0.4288881189,-0.7384174786,-0.4700523117,-0.6650266607,1.0028115886,-1.6508070867,0.8110555088,-0.3444035179,0.9970169019,0.7691548372,-0.9017384175,0.5632750501,0.0852923572,-0.5743890473,0.9944517479,-0.0242099489,0.1716403103,0.5886221275,0.7725516573,0.701309122,0.3414557924,-0.6325983349,-1.7481934069,7.4745109996,-0.9057277478,0.0667283926,-0.1025383629,0.7793511749,0.0577944777,-0.7219560555,0.2282010317,-0.6870192161,0.316781337,0.6436880734,0.4185009196,0.1977883503,-0.4356208378,-0.0612092061,-0.1150713536,3.8673032398,6.0360940151,1.7101353354,-8.4360704681,-0.0171392199,-1.856052286,0.6636387424,8.1611971204,0.1220466831,-0.0421689903,0.4183087694,-0.7255498331,0.304404146,-0.2695012048,4.7700576911,2.2752633178,-2.2150311401,0.6609347888,-28.1382709221,1.0901510026,0.7384369894,1.2365614016,8.1294831517,5.534921076,-7.4217348569,-0.1489974191,-2.58658943,-7.6623086257,-2.6895816722,-0.0289193065,0.590588467,-4.9711645254,1.3624550203,12.5269767312,-0.6749038863,0.5094100644,0.199370646,-0.6841552364,4.1811068317,0.5650700361,-0.4438553433,-4.5158760135,0.8744958243,-0.6403348417,-0.295908018,0.7565823487,-0.7030408217,-1.7878485336,0.6471423399,-0.653690624,0.1601778181,0.8702614637,-0.9227936065,0.1983466459,-0.7106765396,0.4689297605,-0.9178852802,0.3245416704,5.5414218205,0.1570730417,-0.9328899886,0.7024176373,0.7251152212,1.3589203734,8.5800246126,-0.7383338836,0.122609157,-0.6037998781,0.2456176741,-0.6739535914,-0.7400319407,-0.8557857884,0.8368755789,-0.6821543076,1.1326192673,-0.0547778351,-0.3353506095,-0.321590725,-0.244524152,0.3245800121,1.0882095152,0.4308442775,0.7002369889,0.8191903986,0.3912838815,-10.8640786777,-0.6791915005,0.2872401869,-0.1187799742,0.2148521121,0.8665491964,-0.9019245071,-0.2591275528,-0.7695745327,-0.5731598299,0.0541109791,0.1164228095,0.2458006424,-6.9158834231,2.9840537947,0.5720035748,0.2324847856,2.5148929,0.1572117721,-7.1477604248,0.9603928625,0.5516803682,2.136170634,8.2507842182,0.824091462,-0.5822243633,-1.0740515325,0.9738498347,-0.0403814206,-6.4806600564,-0.6122892907,-0.9258931275,-3.3997723086,-0.3939852027,0.4317681874,1.3170040959,1.2622315163,-0.8893879172,0.5487436837,-0.7092805542,4.0449160086,0.334376231,0.6481723581,1.0976721923,-0.1015534739,-0.5812679132,0.569315649,0.8379004285,0.8919745355,0.7174813006,-0.9423400011,-0.1290676421,1.4823518456,24.3566234387,-0.8888075112,0.5352347687,-3.0465338268,-0.2510536342,-8.7506220936,-5.4955501387,0.6898976451,1.6414796343,1.3455008352,0.577258371,0.9081089335,-0.2744278532,0.338794394,1.3592220105,-0.4578768261,0.0806920982,0.2934676694,0.4244928542,-0.5371032254,-0.5958472065,-0.9939382469,-1.5108849752,-0.3078847127,2.796453237,4.232446859,0.318550121,-2.2320660623,2.0531328712,-3.2074091755,-0.4202480841,0.0411717274,0.4400819353,0.0365927393,0.117618482,0.4091844941,0.4167237674,-1.0245104199,2.4118888541,-4.48945142,6.9168389679,0.1295934941,0.8299229414,1.0540302964,-9.1315237228,12.7710849058,8.6319851511,0.1827244168,-0.0590229932,-0.2535641702,-1.625964233,0.6573013218,-0.6783422016,2.0666741776,-9.9214527453,54.3362725198,-5.577357343,-0.4133696004,-0.2287436276,-6.5744034338,-0.1538035862,-0.0575590263,-0.0844394061,-0.2433019489,0.1653178101,0.861314801,0.867406568,0.2094681805,0.7033636436,-0.4454270413,0.5592690391,0.1497539298,0.0696106349,-0.4169370433,-0.4124532666,0.0032166973,-0.0901895277,-0.3216862595,-0.1472667126,0.4609090125,-0.3031990941,-0.3991557027,-0.9578024326,-0.3221529495,-0.5838767442,0.286349012,-5.6513176026,-0.2836489376,-0.5073176977,0.1749207125,0.3508643931,-0.5742620259,-0.248516346,0.7708584074,0.5105495196,-1.6746275969,0.2213351605,-0.8179306629,0.061829562,-0.9992211093,-0.6493628622,0.7488516206,-0.1740399156,-2.3872500809,1.0246679894,3.3751930209,0.51462982,-1.9324379214,-0.5836779179,-1.1705546928,0.8467555632,-0.0542982526,-1.0607759978,-0.3838090482,-0.3105199563,-0.6108786608,-0.4318244803,0.2878614895,-0.6317619986,6.685463404,-8.9634975117,1.7713149603,0.6070678214,1.7229602239,1.0585934473,1.589119929,5.3143885,-0.154870303,-2.3735422548,-5.7385802003,-21.225973165,0.6404245944,-0.9639943065,-2.7613474851,3.9844808119,-11.6276499972,0.3111228605,-0.1252610614,0.049448715,-0.4422336427,0.5054588653,-0.2186543082,1.6924697134,26.9042074963,4.4380649083,-3.3410783235,-5.0462561342,-0.2221597896,-1.8901496898,1.8449956579,1.1110097476,0.8934167159,0.5737175719,0.1794268745,-0.0086679717,-0.2502320916,1.0588034703,-2.4331968641,2.9796252687,-0.1467691446,17.0243472576,-0.7118151765,-0.3524605601,0.5704875188,-3.1655156339,-12.0151212248,-5.4779498023,-0.8567487504,5.9176679756,8.2309622071,16.0489579985,0.2817726511,-0.015766501,-4.0007654208,-4.4721020071,-2.5147180099,-0.4593909662,0.3780040524,0.2055746154,-11.3565974573,1.6678010139,-0.2058909532,0.554895655,0.1272993497,-0.5665853197,0.3536414188,0.6635993197,0.2774537213,-0.6130159687,-0.8804252637,-0.6571954113,0.0807344146,0.2423763933,0.4478280578,-0.1694963282,0.6465959347,-0.4351766795,0.0844976031,0.3822939269,-0.4836044604,1.1087524485,0.5985548141,-0.2988031168,0.3220424349,0.662255822,0.0881777363,-7.9770255919,-0.7734325741,0.5152851237,0.871568425,-0.9385595718,0.7825473263,0.6361403752,0.1431117128,-0.6281333986,0.1704197546,-0.2878933918,-0.3801983015,-0.7354804088,0.9250374498,0.0177042697,-0.6013884382,-3.3364140373,2.2708936294,-0.8765948219,32.7437222903,3.8780936329,1.4854810065,7.4960539511,4.0987957868,-0.4307777677,0.8145147985,0.1748023086,1.1374143997,0.8270275072,0.5624846336,3.0544889042,1.2215260132,-4.4076631242,-1.1789305928,11.1842881757,-0.7323032212,0.4840155335,-6.8919244341,-4.7732299625,13.7689675404,-9.1424993995,-0.6542720169,0.1102241826,-7.2415156422,3.300391992,-0.4422968552,-0.344145172,3.0053910869,6.3477588769,0.3088734218,-0.5372658439,-0.1878852533,0.4062975792,-10.657154829,0.5896471949,0.5028581935,-1.2153993499,1.4315032888,-1.3269985383,-0.2176224485,-7.3863949401,4.2708077009,0.8080319373,2.9282037558,11.0752294388,2.7927188115,0.8448904657,2.7000033694,-0.5642440925,0.510084692,-0.4305785046,-0.3078146364,0.0804177552,-0.9567274553,9.017329568,0.4749946056,-0.3481430697,-0.3628081757,-1.1158809164,-2.0736895544,6.5085435352,0.3292878518,1.5147179821,1.0941288292,-1.1972121925,0.0579944056,-0.5212340157,-0.2248659597,-0.340204974,5.3332095416,-0.736070683,0.3655034543,-0.4059826092,1.0357712118,-0.4156342414,-0.286960522,-2.7187534004,4.2959078049,-0.4710053079,-0.6442201344,-0.7521380693,-1.5707140056,0.5140822271,-1.0931578145,0.1435779824,0.0971552677,-0.1210508253,-0.4752208295,0.4230576116,0.1823115823,-1.1899991082,-2.1362843042,1.735386213,5.3679058005,-3.7271902609,-45.0246800188,-0.9659980666,0.6970432021,0.6050122688,-14.224903337,-1.5457050325,-0.8468963606,-2.0839293155,-0.7150798102,2.04950458,-1.0686213186,0.1383468514,-0.4399823251,-3.884486887,5.6340616895,-5.3862735035,0.2641973203,-0.9177821593,-61.2674696301,-0.4778813779,-0.5189855141,-0.9359409768,7.3831389229,-5.4024181491,-3.6417953765,0.71960699,6.8424884335,2.2357519361,-3.2860196211,5.9788921049,0.8895301106,0.5637296979,0.4646790872,1.7847954877,-0.8389917531,-0.4302861529,-4.7603112228,7.2987812321,-1.3850885214,44.0104862206,-0.1418712252,0.9888854837,1.6923590687,8.5650464014,3.122080513,-6.4711806898,-0.7536969314,-1.1756655777,-0.0510827204,-0.5037309871,0.5347325573,0.5775654258,9.925613108,3.8011771981,-2.9569506837,0.2669409066,0.918899836,-0.2168646567,3.019323122,-0.1116301013,0.0598454374,-0.8419092234,0.0117866614,-2.2769626913,-7.4452428114,2.4307431422,0.5955838458,-0.3405430871,-3.068955199,0.3929530985,-0.2566024914,0.2084672667,0.4235092566,0.1183405601,-0.9433883453,-0.3763038817,0.4911037707,0.075094447,2.8825423834,4.7188470524,0.3220209451,-0.4224017372,2.156264425,-8.5211112949,-7.5583650203,7.0866150524,0.7020863871,-2.5719562091,-1.3916477413,0.4868408465,1.0116752585,0.3725330845,-2.9493275,1.993607952,-1.9146171657,1.4902981798,-0.1904184367,-0.8038196182,-2.2760565751,-0.6500023388,-0.8638712494,-0.3647111518,-3.8368200556,-0.7364764417,-5.1747581847,-2.9543835965,2.7961440412,-0.8909805509,0.5410135461,-0.7598391496,-0.2603401327,-1.0865085971,-0.143455412,-0.3861773238,0.1532408165,-1.2199663946,-1.0038551762,-0.711944224,8.2856790525,-273.1202625083,-0.5390854868,-0.0054651503,0.5460117655,-8.6013366954,-1.0155307803,5.2806061102,-0.9927025419,1.7016191757,4.0800233532,-0.3512181393,0.2171641467,-0.3961680938,1.1854447987,6.327938979,-10.0283829603,-0.4727675102,0.7643961347,-0.9539409103,1.0844757909,-0.585436365,-0.526823839,2.0351854874,4.0594510459,-5.0221716528,5.5130267452,-3.699055063,0.6644882668,-1.7015908185,3.9476900381,2.2536760595,0.6388950158,-0.6571298638,0.3392998146,0.2754860922,-0.2472119657,-0.2594225747,6.7502542509,-2.7777772003,2.9891660339,25.4167709155,0.49061713,0.5218658669,-0.4249360172,-1.7710129623,-3.6742431594,5.3790748738,-0.9510813514,-2.3719691798,2.8412604111,8.3635953707,0.641853098,-0.1004348738,0.1346243655,-0.6439363421,-4.3030215372,-0.32579373,-0.2087017005,-0.2721826484,-6.5934383353,0.9777252254,-0.2011824979,0.0543404781,2.8898244447,-1.0505044176,-0.9136369559,-1.3420991013,3.886324759,0.5258135197,2.1281751691,0.7962498701,-0.8016886793,0.6738209915,-0.2098772528,0.2741594402,0.645563392,-0.9751824344,1.3135849148,-2.5337310023,0.7308043012,-0.1116959971,0.0494831239,-0.4189142712,0.1586236858,2.5436581366,-0.955524069,-4.9940635266,-0.0999216154,-2.2949087113,-7.3035974205,2.6624042392,-1.0194334279,-0.888186912,1.5160062417,0.664761587,-0.468942173,-0.5132189526,0.4990975603,-0.3331880879,0.8019307865,-0.4879610351,-0.1755191806,-0.0807596152,-1.9065514797,-0.1014013672,0.5891243674,0.1197558751,-0.55235784,-0.3747031315,1.0525183154,-0.063260851,0.1446479263,-0.1884671728,0.0129437411,0.1281888866,0.5590426967,0.851206434,0.4067179186,1.0663688674,0.6683116708,-0.1824355392,-0.0563887699,-0.2374588713,0.9020564512,0.8344776449,6.0719170505,-7.2105125065,-0.2170597367,-0.8999906322,0.1639883303,0.3993619402,-0.6447936074,0.3017625954,-0.507400237,-0.5720382452,14.4040730294,-0.746011004,-0.6215034805,0.8032851809,0.1642722431,0.4846088933,-0.8179473397,-0.0704313969,-1.971047597,-2.2387713075,-0.0896471604,0.4433659305,0.8450210249,-0.7565337873,0.0002333744,-2.5944145446,-0.204421766,-0.3128607355,-0.4333762356,-0.1238358973,-1.2175316574,0.5135108255,0.0207448972,-1.0890654023,-6.5816544171,-6.438442184,-0.5930851559,0.0549665871,0.5434644276,8.5093944474,1.625181894,5.8195546912,0.8412218419,-1.4139789385,-1.0540022782,0.3984543645,0.1844866117,-0.735383056,-1.7106007684,1.6820445723,-9.0089739138,0.8459418556,-0.0411202912,0.8908524387,0.4515235149,-0.0304860331,0.6483292527,-0.7270432727,-0.7052028179,-0.5143540655,0.6654218906,-0.0458753457,-0.4248807637,-0.7924160793,-0.3752437872,-0.9512482528,-0.8750780509,0.535811176,-0.331245554,0.2243102621,-0.496797596,-0.1482326322,-0.11564675,0.3885688632,0.6925200556,1.8477297011,0.0227498575,-0.3208375505,0.7135317489,-0.3919017397,0.9558552056,-7.2062382456,-0.2770251209,-0.824657388,-0.8518460979,1.6325359703,0.3268121503,-0.6328120053,1.023088559,-0.3099001756,3.82426629,1.0685848871,0.3919696758,0.2311302878,0.7113201052,-0.7736644277,0.8674594864,1.0648736548,-1.1317327965,11.2335351765,0.1193907437,0.8105789916,-3.5943832051,4.0029948189,7.5449537942,-1.4563441508,3.2708150076,0.5512843903,0.0181932822,-0.1641856158,0.376827838,-0.2679470341,2.0593537041,-5.197601094,-3.1116417721,-4.6108431979,0.6691396477,-0.9210426127,-1.1137702105,5.4742402911,-3.1951558609,5.8187008823,0.2953144309,-8.5332412777,-1.1891005828,-13.3648054427,-0.5997313554,-0.0250361222,0.0700963561,7.2957018706,10.258760807,-0.0933932073,-0.7228735246,0.3067690571,-7.7640210239,-3.5907674261,1.0317745267,-0.2223988258,-2.033947053,1.0515542205,-3.0331137855,0.2160826854,3.6262444832,-1.4360210611,1.6550588646,-2.1552399157,-0.631364722,-0.0665862517,-0.4890967505,-0.3901916642,0.4342387435,0.8431587182,0.4752350169,-1.6564039659,-1.0985137882,-16.7323308431,0.6233682843,-0.6685739056,2.4479315415,2.7120744239,6.5263533221,6.108355129,-0.829857733,-0.8327627864,-1.3420847582,1.6603064653,0.0294936261,-0.0404709275,8.0152945253,-1.1465172852,3.1171995854,-0.5211073385,-0.9671193119,0.3042252883,-2.9483701418,0.3243244498,0.4096082449,-0.172819471,0.2477043494,-0.6495486157,5.24874657,0.5506515275,2.3728885067,-0.1166240567,1.2358453667,0.951005159,0.7204219923,0.179020195,0.5855027397,-0.4691896924,-0.8285484522,-0.4120712962,0.276548914,0.5619096117,0.5875060727,-0.70986941,-0.9365707211,-0.4554810922,0.186305533,0.5966539606,0.9253785384,-8.6818971158,0.3124812903,-0.5319224307,-1.6798611525,-1.7399481206,0.7715741755,0.5795678979,0.4637977899,1.0097784363,-0.701793118,0.3269270956,-0.028852616,-0.0687718164,-0.54646172,-0.754282801,-0.1749700779,2.7130200593,3.3981541935,0.5958652972,-2.3393998132,-4.5502223503,9.4915891652,4.2947857031,-0.4012519078,-5.4093645778,-0.6148061316,0.1323936801,1.576664422,1.0183515881,-2.1586476701,4.4065669839,5.8148437921,0.2373985315,1.7289675765,-12.9684903295,0.4793442946,-0.8698534164,1.0246235133,13.6049009183,-3.2236062566,6.2219031691,-0.1036998672,2.2279524365,0.6344954571,-16.3686806445,0.1156911896,0.9949172251,-6.3353176215,10.2806766494,22.0929181597,-0.2375438635,-0.9172488069,-0.8742417305,-0.3202802434,0.0663331722,0.7541373628,-0.5594462976,0.3155442557,0.486758031,1.5492636667,0.2988141333,-0.9079654081,-0.5449931273,2.544826043,0.5210573436,0.705911596,-0.3771048659,0.5218751655,-0.525244168,0.2955413375,-0.7632266486,-0.5373418016,-0.355362779,-0.6720557891,0.584483327,0.7062790535,0.9563042074,-0.7160285555,0.7294244609,1.3383096816,-8.0645094346,0.3970852054,0.2519666581,-0.9081608431,-0.8987833707,0.6367298304,-0.9647738905,-0.1325066966,0.5123940491,-0.5553544952,-0.8256050743,0.9246759107,0.0320402432,-0.8149157767,-0.8104280674,0.9561460508,0.0732781059,1.7939467212,0.8405644545,1.6138521556,0.6725202866,-0.5229684032,0.4545933429,1.3311520645,-0.1194925884,-0.4015013787,0.3028402643,0.1031424122,-0.2064029078,0.438766578,-0.9888553081,0.8660340114,-0.1476144064,-0.8649669983,-0.2261472559,-0.3315000647,0.5108536386,-0.8361737967,-0.0722062644,0.337574051,-8.3532432731,-0.3046394099,-0.3837170798,0.495913608,0.6366986709,0.5449033151,0.5105222443,-0.4155574866,0.3825501101,-3.2145369966,-0.5928274581,-0.9866330046,-0.535364997,0.779890057,0.9102835457,0.0893282638,0.3679541776,0.1407399942,0.7882206025,0.5415656294,0.4570667258,1.1291314645,0.3135828295,-4.5058513102,-0.3432194801,-0.6712773148,-0.5101380605,0.3102296042,-0.9408412237,-0.4485351412,-0.5445835098,-0.3398044141,-0.1476778254,0.854027147,-0.7827062229,0.3694790949,-0.3045854798,-0.1025099713,-1.2867103824,3.8540369122,-8.9676573586,-0.3131417452,0.7077322454,-0.7431686406,1.0201584363,0.6502620256,-0.4039914587,0.3177532258,-0.143904288,-1.3295313495,-5.315693611,-0.5779621823,0.5012329548,-0.3445160843,0.462282283,0.179002474,-3.4332045896,3.3889228524,0.5440933907,0.9306944497,-2.2990688514,3.2934898879,2.6297127013,0.7955891317,-0.3303285666,0.868198498,-0.3289889308,0.4452818518,-0.5324989978,-1.6332448998,0.9039257774,1.2887381259,3.706634484,3.1375357067,-2.091119636,0.5058086763,-0.8659943556,2.6152381394,-0.6338747288,-5.5941820248,7.2876523026,0.7822709446,-1.7165154871,-13.2680016306,0.1857178188,-0.3800380196,-0.8872179202,-2.3565347975,7.8510542548,0.7879032825,11.4218803114,0.1128634313,0.6909032548,2.1561449415,0.0121397158,-0.4030732331,0.759043896,-0.788677394,0.3637691368,0.4872762349,-0.7808305322,-0.4066922487,-0.3003450914,-3.5067797846,0.192194257,-0.6786142389,-0.1165630691,0.3304885394,0.4395252127,0.2230684731,0.1484799373,-0.6449543359,-0.6825556054,0.1859627808,-0.6044027348,-0.573524297,0.9925132478,-0.8360149764,4.8585881919,-2.139687097,6.3376130247,0.9671338992,0.1196707824,-0.1026824734,-0.8693773083,-0.1404863505,-0.1676969506,0.3086913304,-2.4712716977,-0.3778549502,-1.6000435374,-0.8775881295,0.7203069818,-0.2146467672,-0.4923329083,0.6094264569,-2.0051807727,1.1537558145,-2.2346490965,-12.490632297,2.2771594287,-3.9334803781,-2.3620236146,11.5569288486,2.7607898615,1.6885367149,0.5548320072,-0.6781059748,0.8178716441,1.6809058794,0.7244293583,-3.5897363509,-3.1249412346,-5.7224426756,16.8084079064,908.7224087366,0.0899062087,5.5822870765,12.8246452315,5.6188660577,6.327952533,-0.7815353944,-8.4370224243,6.1261198666,5.4011707803,-0.6939529502,0.5410278419,7.6114107679,12.8512006132,8.362431173,1.262444444,0.4181823784,0.0950060957,54.9164770095,-0.5275242929,0.9231181814,0.7711882501,-0.4025979489,-0.0853135081,1.1956812756,-3.0987202504,-3.3936833893,-5.6787815107,-2.3260415173,0.5507383658,-1.6659469483,0.906538065,-0.8029206999,0.1270229697,-0.0127427329,0.2633459069,2.0995449619,0.7862342702,-0.7365568359,1.1837606843,-0.2775972441,-0.7282080426,6.5440397421,7.3501867356,2.5281074865,-6.2111119689,-0.1722972305,-0.8273237744,-2.5321144703,12.0644886796,0.0727284487,-0.4276437077,-1.0312855188,-2.3334486176,-46.1914942011,-0.8657305944,-0.4520111417,0.4126266334,-0.6805761657,0.2386840213,0.0331676396,-2.3240897079,14.3111418857,-0.3094838544,2.7507467005,-0.9519911887,7.9407081424,1.2806275708,7.4157760295,0.4410299667,-1.5261146378,0.1433406759,0.4491898937,1.0720962505,1.5692428015,-1.6055971772,0.3577339829,-1.3552597194,0.3226725671,-0.0696090871,-2.2277528962,0.9135190425,2.9069611759,7.3352697697,4.047423022,7.7685276981,-0.1769559929,6.9559604032,-2.8354740672,-3.9922241637,-0.4533225059,-0.5604633491,-2.171579643,11.8774569297,-14.5929052472,-3.0332795997,0.3156339998,-0.0236090022,2.5151438217,0.2864701437,0.6556053807,0.8564192379,0.5841130614,-0.6511572035,5.8054157235,0.0738188494,0.797861326,0.3703944126,1.4755873305,0.1438133197,0.0598454665,0.7959926954,0.4475499608,-0.8245342519,-0.5033438407,0.7131523537,-0.7809884281,-0.2983216652,0.4676878455,6.4791806266,-2.2471628564,0.7595945344,0.0711721276,0.3598347502,-0.2707242607,-5.0973920108,0.1395940562,-0.7729897271,-0.4545044623,2.2422767186,0.6523373839,-0.7613303642,-0.4431875074,0.0405193081,-0.7412294414,0.4429453262,-0.7305150105,0.0315826817,-0.2350230238,-0.9786852446,0.223094364,2.2398746354,8.086264629,-3.1361944089,0.6046070414,2.5126257193,0.6121778509,-0.7400435219,0.0918506217,-1.7153376379,-0.308869822,-0.5284935417,0.56025687,0.9131316598,1.3768021091,-2.12756711,4.9219102577,0.5730593034,0.4049771942,-164.8032190589,-0.2085572585,0.6108826201,1.0431691014,-6.7982577147,20.4002939415,6.3116916026,0.5484157258,-1.6243910708,-0.8394417086,8.2970120072,-0.8774874877,-0.556176137,-1.4640258878,-1.1521155821,0.4496458116,0.1970984799,0.4303393678,0.7579195365,-1.7373607802,1.3064274326,-0.5758552384,-1.4272457828,-2.9325533172,-5.0281304309,0.8454238771,4.9584434315,11.9029330565,-0.7967288667,-0.4631766636,1.4574915355,0.5698381615,-0.3396545835,-0.543933215,0.9181672054,0.3438852824,0.3530644016,-0.2239047306,-2.2497784167,2.0445558994,7.9600355564,36.843907723,-0.2098074598,-0.9326241547,-0.5523625165,-12.984052457,-7.1347555171,-0.8194114267,-3.213137509,0.3173283041,-11.0784313694,-0.9043266674,-0.3914522936,0.0827147435,0.774614754,-1.9918352242,0.7594412984,0.2222853588,0.0133087279,-3.1330437867,2.7391477743,0.5224679597,0.8630633401,3.3799153029,0.7288745352,2.4625508723,0.4436042522,9.7276303524,1.7714855138,-1.7200253661,1.4502618759,-0.3146886375,0.3210662246,-0.0674232676,-0.091117603,-2.8688749358,0.7735681589,-0.5991687074,-2.111805091,0.3403772347,-3.1414617722,0.6336919619,-0.8254245789,5.2300176034,12.0580503563,-0.6026221609,-6.5530445762,0.0989859612,0.9050602846,-1.4755885565,-0.2640637759,0.0501464486,-0.4867931723,1.2432468997,-1.718511449,-4.7082644377,1.2079835926,0.9761569248,0.0603220188,0.0259646527,-0.5321583593,-0.1726659505,2.239378056,3.7101945413,-1.0493537085,12.9491568815,-0.10392472,1.0793604394,-1.8140891686,-8.9233946809,0.2820993181,-0.7676972293,0.048906985,0.5740267834,0.7474837334,-0.43280027,0.2923546994,-0.226400899,-0.3161245649,0.5489260059,10.6369963434,-1.7477470761,-0.6703895925,-0.3683991032,-13.1816732656,-13.1711372399,8.7624221569,-0.4728792438,2.3440208441,0.3253313117,-45.6463333319,-0.2187921817,0.907132891,-3.1292801214,-0.0696095728,1.8683613341,-0.4066553097,0.1470101146,-0.1843331838,-0.0561436019,-0.8826471905,-0.1817028132,2.8311633819,2.889288201,-4.3788711799,17.3711890574,-0.9742384958,-0.2549803266,-1.6929121749,16.7436500788,0.6440284666,0.7675387374,0.4026524149,0.9367783452,-0.5598999642,0.3958914494,1.6426916708,9.5244458327,-5.3697077362,10.9432598512,93.4635043459,0.3891407841,0.2061686847,0.1814395747,1.5854151095,-0.6424371218,-7.1300821264,-0.0565968766,1.4367357303,-3.325961297,-9.1662949672,-0.364232597,-0.9649694599,1.3284847354,-2.1792252415,97.1786085275,2.1043619984,0.9435611097,0.1827598684,-6.8579071093,0.370463044,0.103321752,-0.7010402231,-0.3381195602,0.8079217352,-0.5455515155,0.1184458594,0.0167360415,-0.8090410879,0.5364433409,-0.4950683638,0.2667998972,0.0544147612,-0.5763534131,0.9584945458,-0.6859841604,0.6235671508,-0.5040972735,-0.2805487733,0.0551124618,1.5239585797,-0.3404634229,0.1280524512,-0.3135904874,0.5015142277,0.0428891965,-8.1852935328,-0.1422869149,0.1693973751,-1.160799904,0.5041025206,-0.983080678,0.8536128103,0.0597923035,0.1274893584,0.6789538644,-0.0273129357,0.5903663531,-0.1235266971,0.4564623672,-0.2137882297,-0.2369981726,-0.0539446466,0.5326477318,0.6181322082,-0.4657860886,-0.7098970833,0.3550343629,-0.3313272163,-2.6643837208,0.0964572483,-0.3102500918,-0.1885369447,0.1797250124,0.4522263352,-0.9186173537,0.8886031452,-0.242603181,0.486798779,-0.6629239188,-0.8552669088,0.2495388339,0.0755845453,-0.359464133,-0.3497270894,-0.3386814379,6.2865483226,-0.2634393784,-0.7239181737,0.9146289817,0.0101435174,-0.3492615487,-0.0658222162,0.3854395103,-0.0608143069,-0.3364555968,0.1612653487,-0.0671968512,0.6261957457,0.6211567841,-0.6723315108,0.4872377265,4.4281226135,-0.5816359233,1.8235472158,10.8378721859,-0.4406497744,6.1543131179,0.3814271491,-0.0205656657,3.8080486239,-0.2340331624,-0.8880174395,0.2028512493,-0.2590909725,1.1018079304,-0.1285423981,0.0982843336,0.0355097265,-6.4250069738,1.7663233397,98.9690869097,-0.0886220434,2.4948872247,1.0249623098,-3.9491411212,-6.7204459292
   -0.6404257769,-5.3268046086,-1.218033296,7.2649896196,-0.9576217796,0.6865244078,-9.5177953584,-4.631990351,-6.6050047733,-0.5627339401,0.4681597955,-1.0055923323,1.9296502748,0.8731118339,0.6093748339,-0.5471837085,-0.1859391495,-0.7086997835,-1.6410336684,-0.4389971956,-1.5285040968,0.2563270156,-2.3410699183,-0.9408713798,-0.5143026023,0.3661321245,0.9385915978,-0.4488649677,-0.7849078997,-0.2616570629,0.9560694774,-0.2782322058,0.3501157823,6.41522102,0.7796776838,0.5672263687,0.4170248071,1.500490776,0.5497728233,7.2507670848,0.4975170658,-0.1683380509,0.4284886265,-0.6919691861,0.1197496046,0.5746390315,0.0424007006,-0.0608361409,0.979293651,-0.2058490085,-0.0980099603,0.5104847247,0.7689560072,-0.8916697223,0.7681402793,-0.5213434089,0.9115396474,0.8380672682,2.010004579,3.0593385654,-2.9222084714,-0.9264116426,-0.2565903966,-0.3827495211,0.9394815204,0.8406487087,-0.4993444804,-0.6139349489,-0.3406704101,0.3807373839,-0.3425590427,1.1197753939,-1.4738517186,1.5646341739,-0.3739731725,-0.9596594525,-2.8229176028,-1.6552049194,13.560634864,-9.7518486593,-0.9051323523,-1.0348622167,-3.9855290531,0.8454227705,-0.9411483876,-0.1009601583,-1.5876567612,19.7059361717,0.5033626966,0.0059055014,-0.8297138279,-0.0759959496,-0.1872060443,0.7982928355,0.9469294994,0.5035577721,2.8438370267,-2.3147513291,-9.1777164853,-0.1774740111,-12.5754197168,-0.1711014374,7.5259999653,-0.2312979236,-0.3708504735,0.4579343269,-0.7600898748,0.8661737343,-1.0740074007,-0.3181179762,-0.5484904987,0.6711682109,-3.2259853223,2.158260744,-0.3528899585,-0.3463191238,-0.0484823742,1.2462103485,6.1979758589,6.2681692049,-0.852630278,3.8111483221,-1.828580419,3.3803371919,-0.6569536826,-0.9880466321,-9.5460015669,-3.497943005,0.0468148349,-1.0451588007,-0.6971284708,-0.345068811,1.2296720606,0.7495329016,-0.6919530329,-0.5572009513,-3.2273273756,0.6743099084,2.4193280265,-0.6592538864,3.6781082204,-0.6684503746,-1.05314019,-1.0089557026,-0.1603486307,0.8325998756,0.705691457,-0.6087632996,0.0531351962,0.6635557392,-0.665881786,-1.0588954313,4.2973764806,-3.2236865911,0.074771633,-0.5127320166,0.6773132695,1.4508873902,-1.2734527472,6.7955668642,-0.5506207512,0.2574673497,-0.995261101,-0.2013692155,0.7575598212,0.6275103398,0.5489748358,-0.9043743015,6.8322392402,-4.5888150736,0.2415423595,-0.7835644632,-0.7081764561,0.3242594333,0.403623615,-0.4282184508,-2.1009110165,-0.7413125218,-1.8608602687,-8.1107110827,1.2038307864,0.6182873429,-3.9383105808,0.8469662969,0.0496813466,0.1169956184,-0.6292610732,-0.5813800864,-0.3708912743,0.6003654041,2.7581345104,-0.6296450772,1.9480861892,4.8386508854,0.5738535575,0.4643906213,2.9957132031,4.4470928144,2.9183608764,-6.5235402094,0.8278801552,-2.9255485584,0.2473270064,2.9146638254,0.3156291091,-0.1044556364,1.5567524339,-2.3193149887,2.282230604,-1.0517418315,0.1174410289,0.2207896116,-0.5752028011,-0.1613537498,-0.3321028883,0.9347120749,4.2737030055,0.5951994849,12.2032437835,-1.2405442903,0.6297906268,-0.754785269,0.6623993205,0.1995783269,0.8408958304,-0.2173265433,2.5005098368,0.2838249682,-0.0457464443,-0.8013042173,-1.3634230565,0.1839300588,0.6723352801,2.5699943735,-2.7619889535,-0.7258467105,-0.1949828262,5.7725111403,-4.7530298719,-5.5775946132,0.2615107276,-8.6137088199,4.8334533218,13.0088170485,0.6489877044,0.7731152912,1.1673782635,0.5183735085,-2.6410223103,0.6765863498,0.7274319808,0.1267730275,0.2912694076,1.2066273557,-0.1422850642,-4.4390997246,-2.9072850476,-1.135598372,-6.7525373715,-0.3763727332,0.6711827113,2.3075933133,-6.0401014284,4.763185576,0.5949722585,-0.9859365771,-0.5938930583,0.3718803196,0.3150797845,1.0035006418,-1.5040393348,-2.3852926179,0.1854756822,0.7017124024,0.8208913744,0.7583883571,-0.5643694975,-1.5384936213,-1.5917517962,-6.6181157123,-0.6912791159,4.0337949785,0.1602650061,-0.0264848432,-0.5913775145,0.9154140036,0.7156372542,-4.3314732573,3.332942088,0.7157599696,-0.3541496794,0.3508420261,4.1444569925,0.1311308012,0.0375107703,0.9524448927,-4.242505998,-0.0446840927,-2.9474136778,0.7714435241,2.3649757475,-0.3628218671,-5.4466083252,-0.8904732957,0.0752630326,0.7702712703,-0.7951339914,-1.0064407495,0.1733398516,-0.5356169391,0.6988765917,-6.7344854735,1.5800738073,-0.4228806937,2.9173858036,-0.6554540981,0.267672984,-6.0991118823,-2.043740702,-8.7047634119,0.1908724435,-0.9155448129,-3.7444259085,-2.8673561215,-0.0325556443,0.4207658299,-0.7675048094,7.2121472904,-0.0861765945,2.6287545535,0.848066559,-0.5259329201,0.2613921307,-0.7234294292,-0.5731125762,-0.7283002957,-2.1000676121,-0.929673424,-2.0458965246,0.4385126258,0.7537246538,0.9671707411,2.7630743463,0.5949923485,-0.4731442196,0.3712212914,0.7159803848,0.6597017304,0.0223033496,-0.3137201348,1.434001175,0.527726759,0.6183675616,9.0112966358,0.5907752059,-0.4145442496,0.0443168881,-6.4369307563,2.8531483132,-9.2579162825,-0.9997052792,-0.3372749118,-0.4968022706,3.2858647417,-0.5688978584,0.966665335,-0.8074318017,-0.7297302065,-0.9365413068,-0.8978432001,0.8588353907,0.4008720388,-0.3218793679,-0.0277215367,-0.438376454,1.0396661261,-4.6303353263,-0.0375495405,2.9433631808,-5.7116888122,1.9468785093,0.7825508962,-2.0432258388,-0.158541236,0.0255704896,-0.0424787238,-0.7548188728,-0.9269954848,-0.1756889178,-0.6391405388,-0.8703884522,-4.0652033657,0.2793400245,-3.8701103402,0.086613997,-0.3528353578,1.7116015677,-0.9277895459,2.993282006,-6.2969269919,-0.2714232408,-0.013013507,17.9633387755,-31.6812110406,-0.3227882776,0.7015918026,-0.0711298413,2.1224037487,4.9642767604,-5.4002534258,0.1009164672,-0.986236694,-0.681171043,0.7749309138,0.1880476027,-2.8670216883,3.2568509321,-0.4770746074,9.7274902787,0.9539155609,4.0949344203,1.0183930166,0.2066784479,2.9301760153,-0.9713414124,0.2661529177,-0.7055826895,-0.9240267106,-0.8229740499,-0.0428536619,0.7148399135,-0.1106918021,0.3876448471,-0.4244462419,0.8811307841,-0.5727108175,2.2193413613,-3.8946409427,-3.0575851389,9.1378319498,0.1187854247,-3.02171482,-0.4671238732,-3.2849291635,0.7836353772,0.1038652962,-2.8744884588,-0.1191509045,0.3797113397,-0.0748638033,-0.112474429,0.5808111086,6.0526698261,-0.7088161557,-0.0139986231,1.0620109684,0.0441574209,0.5779879314,5.052771844,-0.9947957817,-0.0754769035,0.4340556896,-0.9320173867,0.5033714455,0.9084385431,-0.0879648,0.9250742008,-0.8840219623,0.5195239053,0.4880389989,0.0896144314,-0.6895417072,-0.5872587045,9.269833444,-0.3600308423,0.7498964731,-0.2152312188,-0.4323351662,-5.999949053,-7.2476548087,-0.0467921566,0.947802144,-3.0606168181,40.0463770263,-0.2302007563,-0.7871248758,0.4711758947,-0.411995448,3.7384146638,4.0025758343,0.6937987989,-0.8748416775,0.5233914245,-0.0713961146,-0.3367894797,0.2237576512,0.3540168356,0.3716159103,1.3432505993,-0.0589561629,-7.8182925315,-0.7685115588,1.2822047973,0.8927730662,-0.4706612984,0.6735815014,-0.3020958819,-0.342410493,-0.5670626299,0.9095146433,-0.6793059529,0.0807707576,0.1876543594,-6.6946964418,-0.5666731579,0.9800086711,2.8204241882,6.2037806571,-2.7993683843,-9.195734052,-0.5542299457,0.3768792664,-0.2447507334,-0.2494878778,-0.2072789622,0.6377616747,1.0520651694,-1.9634090031,1.383286278,1.1659893698,-0.674035848,0.478552684,-0.8460771766,0.6367024654,0.7170962858,0.0780845493,0.0372539564,-0.8374124936,-0.5998489007,0.9229093806,-0.5766189267,0.1082006835,0.5513706185,0.200315446,-0.926147293,-0.5697541276,-0.0348648176,-0.2822056682,0.6986861228,0.7873400933,-0.1064717286,-0.362245821,0.7011933261,1.1366105539,-0.7707550921,0.6223517347,0.8433418859,-0.5356833011,-4.0493792268,-8.4757798731,-0.2010421786,-1.4199792446,0.4047187158,-0.0489154296,-0.405856317,0.3030800667,-0.3623244895,-0.4111847125,-0.9870109197,1.5985809093,0.1413744442,0.9114776555,1.6049566373,-0.2850192433,-0.1263875181,0.0459420652,-0.1194283557,0.0941771582,3.83186776,-12.4498266265,2.384028121,-0.9253744974,1.7458467487,-0.3784313393,-0.8326213583,-0.5051570554,0.4662484512,-0.2865057839,0.5654414805,-1.9632014636,0.0095181841,3.2921523703,2.33115127,-4.3095598213,0.1731354177,0.4070108949,-0.6366177753,-0.3951714291,1.7886967561,7.0390131181,-0.3191396861,-2.709776214,5.8690288158,-0.9738378825,-0.8682664825,-0.3689406055,-2.2887828017,-1.768455332,0.3146741273,0.5130336334,0.4765293763,0.9326857377,-1.4896765686,-0.1309831909,-0.8069978288,0.7859159055,0.1947511667,0.7367423901,0.4277942178,0.1628410695,1.8882247314,0.4273664772,-0.7490047,0.7579419124,-0.3340038626,-0.997727751,-0.7010673014,0.5395139041,0.0155198066,0.674364993,-0.7779567664,-0.3437122119,0.7840910871,0.6006892415,0.0531794728,0.5225911036,-0.5000730279,-0.0105793945,0.6770595042,7.4743170948,-0.0508151739,-0.5886628808,2.6626455366,-0.179729203,-0.5089099169,-0.3195998386,-0.3748399551,-0.4691014208,-1.0770128915,0.6255789212,0.9740747809,0.7241696968,-0.7348820829,-0.5013621435,-0.5097014201,-5.2259792092,8.3948396207,-1.3781819864,0.8573046552,-1.4999541972,-0.6361865259,0.4806044172,6.6820214534,1.4035822766,0.006133004,0.2558035833,0.3633960585,-0.2159224109,0.6102165292,-1.1135970438,7.4039767648,7.2222547636,-5.0398501732,3.9370519256,-0.623412032,0.4418569912,0.4203279034,4.6870983577,-0.7586827641,-6.7000113699,0.0640927297,0.2611191483,2.6763526983,0.2208313307,-0.2282175775,-0.5771415884,-0.0760415771,0.4922629355,-9.5235991275,-0.1414652812,-0.6950404838,0.9612026992,-5.8190468674,0.608119015,0.6904849209,-0.3719055548,1.5630278328,-0.2775756789,2.2231728606,0.5829680863,5.6970686166,0.9656657374,1.0773777511,-0.6717391161,0.2041255133,0.7954717345,-0.9606457958,0.351985418,-0.4533351916,-0.3356579602,0.4018410981,-0.8512675003,1.3869381227,-12.6118133533,-0.6424773649,0.5789305612,1.2274722594,0.3118256518,0.041468173,-7.6486270337,-0.7071875603,-4.6998881421,-1.149005772,3.7996184265,-0.7920030469,-0.3096539626,-1.1982969695,-4.53821804,-6.3478046246,-0.0678065294,0.3687917587,-0.6162480608,0.6255106305,-0.8004022905,-0.9587849696,0.2842550255,-1.0243009489,-0.9221117974,0.4785784192,0.409289157,4.9920605832,-0.6107357698,-0.7906862606,0.8545372696,-0.5829230051,-0.8747095588,0.9268980906,-0.7346552409,0.8813378894,-0.6009085082,-0.5359138737,0.0192428194,0.7087014425,0.3310470073,-0.1751310828,-0.6809306972,0.0198272651,-0.5747671136,-7.5310229876,6.3376603986,-0.5126361733,-0.3006016597,0.0019654615,-0.0470950152,1.0490158567,-0.1888644459,0.2442111674,0.5838676815,3.2951958635,0.7504084285,-0.4267365958,-0.7004879982,-0.8767534828,-0.0717204772,0.8460033423,0.4977953192,0.8674059554,0.7308223312,0.0245703671,0.3076686409,-5.2999196231,-0.5563275468,-8.2598687348,-0.0935536864,-0.1874400753,-0.4238654374,0.2402331467,-0.4827826712,-0.5828703538,-0.8010037854,-1.7810524057,-1.3374038879,1.9732457114,-2.3476618984,1.1839847961,0.3467830472,0.1026411401,2.8508974137,4.1458019486,-6.2132758599,-0.9705071924,3.4805015712,-2.688857631,-4.5757768909,-0.2879062015,-0.8445248873,-0.7531906954,1.9248043537,1.7954401968,-5.9763570337,0.7600315193,0.5487843104,0.7946575691,-0.1384335152,-0.4419631502,-0.1577706953,0.5632834476,0.9601167654,-3.2649681125,-0.6095604953,3.988824156,-0.5701632377,-1.4967262892,-0.8119274425,0.7370823334,0.123243523,0.11975735,-0.7753290197,-0.6974161945,0.351302476,0.3302883139,0.3332912816,2.6745399161,-3.6446921216,-0.1610779244,0.4730621769,1.4679590374,2.3369207039,0.3077503916,8.1583261878,0.0628587525,-0.5603965383,0.9633911729,0.661595624,0.0838447641,0.9232236137,0.892778044,1.49021028,-0.8621322085,-0.5668573455,0.7618755073,0.3700688893,1.0555807486,-0.5160526333,-0.804057646,1.585894638,9.078100728,0.4596780452,8.507241037,2.1421033142,-7.5743842191,-0.3072968112,0.5426661141,1.4305161305,0.6748635013,-2.4983403158,0.7421448135,0.5733660295,0.064273234,-0.1979399895,-0.8983984912,1.7756885225,-7.1060962906,2.3727264733,199.5555280489,-0.3449738078,3.0033937091,3.7199355815,-10.4632701469,7.183521973,-0.8238826496,0.3275712762,-12.1074632017,1.5417702624,-0.3875945484,-0.8480695504,0.1177028408,2.2462895124,-0.6564073185,1.0084454006,0.2555921819,0.5188346543,-8.2093345937,-0.8364898739,0.2182496105,-0.3904543262,-0.1348567785,0.8196078514,3.6492336791,0.6913503513,-0.4569563566,0.4007042799,-0.4156694834,-0.6896343155,0.9833018139,0.9204320611,-0.0160847021,-0.0198093325,0.6701337023,0.0662343561,-0.125939787,-0.6117319774,-0.8511435164,-1.7435959027,0.7810437228,0.6112906745,-0.7516222431,0.0947073139,-2.6892692081,6.3501213183,-0.9918971797,0.1418585242,6.011136814,0.869715356,0.6666467266,-0.9048874666,-0.4914772297,-0.5418149237,5.8053979184,-0.2361220619,0.2016193202,0.1921417552,-0.3661471914,-0.4810823579,-0.50187836,-0.6148384951,0.0370501718,-0.029923181,-0.009183443,0.5995435596,-0.0388791302,0.6771832688,0.7147415241,0.5196826089,0.3002603111,0.245933312,-0.5851752979,-0.4550198238,-0.2726659657,-0.5679825949,0.8461127757,0.2989206198,1.2676599375,-1.7287758764,0.2879518716,0.212223576,0.8963641541,-0.775165128,-0.1494256322,7.2002025598,0.5180252136,0.2176477154,-0.5929547243,0.5644277911,0.5483568461,-0.9165014643,0.3094314636,-1.7648896645,7.2193354015,1.121682373,-0.7358741116,0.9968985062,-0.8959239657,-0.6477822293,-0.5270818857,0.8249807961,-2.4205475626,-0.7654670798,-0.290503065,-0.0006473355,0.0273419363,-0.4076573498,0.3537722525,-0.3411082751,0.78476725,-0.4812735446,-0.370881315,-0.5348871827,0.5494079495,-0.7335257575,0.6647338836,-0.3354298716,0.3301446287,-5.8868173654,0.3053886963,-0.2616621122,-0.6524666984,-0.1874365575,-0.1545461949,8.3556277923,-0.4937561552,-0.9056769151,0.9858803895,2.1255518895,-0.4253009384,-0.9607706666,0.8916446257,-0.1184045148,-0.8469064318,-0.7321146392,-0.9501305455,0.6096090278,0.3943077137,0.3300926968,0.0494167322,0.3877861009,-0.8827316494,-0.1175399521,3.8761567132,0.4951540969,0.4753630968,-0.7433493465,-0.5380588054,0.9873374432,-0.7544322885,0.3372335745,0.2634595546,0.4656162509,-0.0893488644,-0.6562312601,0.5143754068,-0.5132276583,-0.4659301163,-1.027546795,-0.5230025617,-0.725592601,-0.1678593559,0.0763443839,-0.1569719183,-8.8614323305,0.0135095832,0.3437820209,-1.538853475,0.7260901236,-0.3198101744,-0.1003227844,-0.0567072079,-0.3314675216,-0.6624397687,2.126887668,-0.0052876691,0.2755900569,0.242767276,-0.2717421423,0.4828750198,-0.398413521,-0.812342028,1.8272652126,-0.4440858428,0.853180304,0.662730541,0.7032318915,-1.5609232241,-0.1771019381,0.2297676883,0.0825586646,0.8207848155,-0.9667554653,-0.2422181311,-0.3240351745,-1.4850769794,-1.3790855283,-3.3505050944,2.2482437591,0.5253959181,-0.6219971364,-0.0478720232,1.8670492115,-0.2743499631,8.3022088467,-0.3021126573,-1.3266033266,-0.1384359465,0.4221572413,0.6023664951,0.1337415628,0.0847706628,6.4804441288,-0.1400529992,0.1836615057,-0.5114395318,0.1623312711,-1.0446194099,0.0217025318,-0.2271838599,-1.5107279588,-0.0631598842,5.7431026605,1.5246703198,0.3772403997,0.7145956508,1.1128498184,2.8362403371,0.8625823467,0.6040887282,-0.4436389172,0.0570750014,0.1614965527,-0.2796399339,0.0994061611,0.7845306964,0.0105065492,-0.6993211972,0.3263432631,0.6620125771,0.7874057227,0.2878851435,2.533225259,2.3292252104,-6.3477325346,0.5214978138,-0.2349532897,-1.0606040724,0.4675333729,0.7258554758,-0.2360146219,0.9115110095,-0.2330764214,-0.7515971043,0.5661416248,0.5872962044,0.1662860094,0.5623667908,0.3684281314,-0.4029248536,-0.3292667836,0.1256143972,-0.4139742841,-20.8479638339,1.2275359889,-3.4873349882,-1.5680729327,-0.5837401841,-0.4766039863,-0.976686306,0.3275574164,-0.6875609385,0.9819756286,0.026154939,-0.2318441935,0.6067143031,2.3336310108,1.5034127654,-1.5933774347,-0.1978339436,-0.1800405715,0.4956347689,-0.4428165772,-28.9094479152,-8.262472552,-0.0916885031,0.0726420996,-0.9761646027,1.6775521431,-1.023128752,-0.9093749215,-0.7868867643,1.1938013436,5.0259302713,0.8517575159,0.7882392098,-0.0443918932,0.4164207179,0.9332133709,0.6157131474,-5.1326777831,-1.198542845,-0.300865029,-1.908175207,1.3686764462,-0.2360786972,0.0717410707,-4.0067051145,-0.8060556309,0.3866359827,0.3022206575,0.6901117615,0.5348551315,1.9527616561,0.5431712663,-0.0283496573,-6.3188563136,11.5406363026,-7.7237643088,-0.6754551772,0.1922554593,-1.6706048514,-4.650392701,-0.4209863557,7.2642207426,0.5217978924,-1.413457844,-0.8392227562,7.9184409538,-0.0759725703,-0.0075677647,1.5795282337,-2.6866559085,2.1151604826,4.0079176669,0.6442881849,0.9191177416,13.1578796314,0.2798450791,0.9874875214,-1.5670061451,-2.8634863136,0.615499369,-2.4568678717,1.3747841819,1.6939071924,0.2449466695,0.2718189763,-3.4224564326,-0.1833420398,-0.7310937837,-0.1539208457,-0.1808494664,-0.7154045831,-1.0636696316,1.1871812824,0.8704680301,1.1106823962,-1.3498947971,-19.3323833993,0.374917044,0.779589448,-0.4294557336,0.1422273309,-9.1135238002,0.9566752612,4.3138077191,-0.4792555007,1.7872892782,0.281417019,-0.9232174521,0.7315922882,1.2131640411,0.0531495971,-7.8511998602,0.5555364506,0.4726412189,-1.8222318839,0.1249110578,0.7097482426,-0.1416097708,1.4753724079,-0.1770779326,0.5663986684,0.5056301321,3.0698648689,-0.5339087859,-2.2420303357,-0.5930393407,0.8659292481,0.7438335883,-0.4212422978,0.1604623048,0.2334649605,-0.775233879,-0.514432365,0.3626633993,1.0263644376,18.8023752096,-0.7140246525,0.6344886774,0.0538405974,-0.7285964773,-0.5030452684,-7.8668638761,0.9252271782,-0.305317775,-0.0859818368,0.337136271,-0.7250950795,0.4481497851,-0.6624883464,-0.8474207739,-1.0031971687,0.2480599113,-0.2118698336,-0.0825969684,-0.5455806536,-0.3074722219,0.4096419865,-0.9736961536,2.4835963819,0.9858624476,0.8609461214,0.2412338262,0.0000785964,0.6213631748,2.3766039219,-0.0055094043,-0.9055195829,0.8728606514,0.3787786371,0.4160035985,-0.8350523295,0.3377975387,-0.6907928993,0.1238532904,-0.1687253574,-1.7948954693,0.3772322407,0.9793820418,0.5427780037,-3.0982635754,0.8857553119,-7.5666275514,0.1046612203,0.9819569383,-6.6801347257,5.5383593866,-0.5296339897,0.3304391603,0.3020430511,2.2567998481,-1.0992864075,-0.3900303624,-0.9739234401,-0.7462279542,-0.5624451468,-0.3709431536,-0.849793121,-0.5758243611,-0.1765054887,-0.3324057109,-1.2567822862,-1.4412264577,-6.0623167463,-0.1403462538,-1.1042801848,-0.0785059403,0.2533861032,0.4477170962,-0.6217815113,-0.4592468595,-0.3047122511,-0.852654745,0.881061552,-1.3070406271,0.5727798349,-1.0246609685,2.8741563767,0.7677844929,1.2028773715,0.3399236265,-4.4080574954,8.6777537444,-0.636599344,0.9589674774,0.7064779923,0.1581980897,0.3478160799,-0.3193364131,0.3594233596,0.7749301276,-0.3111262208,1.5753786988,0.9238098804,0.2421682588,-15.0258667555,-0.5620344954,-0.7364697089,0.3462765538,-8.5814841935,4.5975886467,1.659942528,0.9131681556,7.3790180401,-3.3870977388,-0.9565292955,0.7956045294,0.4319984512,0.9774703045,0.1953263804,-0.7006765195,0.1608901486,4.0516256448,0.0024726588,1.0762360914,1.8049720895,-5.2748221762,-0.0453045289,-0.4882689814,-3.8298305517,-1.6954188933,-3.2528366899,9.2155018231,0.797797365,1.0490302194,-3.0288190012,2.7862895546,0.34390119,0.4003248463,3.8984781263,-1.4904884192,-6.180647528,5.353473482,0.3751364357,0.7761826029,-6.9943366384,-0.8916142271,-0.7564674821,0.3829670099,2.5488643868,-0.015721795,0.6874633724,2.2107460402,0.5059627392,-1.6525241382,0.4834659369,0.7944757279,-0.1091671106,0.3866284458,-0.9940920909,-0.7778325955,-0.2335164923,-1.0165630635,-0.6740611931,0.0288019545,0.0045027434,-0.5358933063,-0.1130904029,-0.708914453,-0.4638421205,0.0226117689,-6.2999166982,5.6426174587,-0.9247253807,0.3859356668,0.497886715,1.188289703,-0.0927401364,-0.9395107692,2.0735309148,-2.7200919118,0.5149855771,0.8643006518,0.862594516,-0.625285402,-0.3653500048,0.6218299034,0.4571721055,-0.4900325194,2.0548663077,0.5019072286,-0.4141781054,1.4074360075,-3.5132136378,1.5830166516,1.2140153298,0.1786164269,-0.4724163283,0.4591296618,-0.7739156779,-0.9693770911,-1.4856908647,-1.7010337146,-1.0561305129,-0.8409289925,-0.0533846201,-3.3250214192,0.3775302067,0.8908380316,-3.9868724396,-0.1864898042,0.5730637029,-3.9689325863,0.1651115684,-0.3388104698,-0.9542342911,-1.2361920136,-0.9031866457,0.56761453,-0.0402207603,3.0418240282,0.3378448184,-2.3253671331,-0.3317241451,-1.3087476707,1.0246339545,-1.0981423775,-1.0680617103,-0.8467686407,0.3367759875,0.3868067091,-3.4757873407,0.1559687579,0.2274843864,-1.0116597323,0.0911968697,0.6317810194,0.5561529057,-0.2205255296,-0.8850950854,0.5809506254,0.5968191026,-0.6972720647,0.1682912022,0.3845449235,0.1582979598,-3.766040346,-0.3184857059,0.6428786002,-0.6141528031,0.2356435088,0.4914880338,10.2458970089,-0.553079116,-0.4391608267,-0.0570484743,-0.9749237422,0.4215135184,-0.6325931147,-0.4106317252,0.4927807548,-0.1797015636,-0.4157790143,-0.1587911663,0.9116424226,-0.1761626941,0.7088725876,-0.6471665624,0.5079866276,-1.3878539818,0.4897523338,-0.8208255731,0.2079262334,-0.290932696,-0.462389344,-1.9774098663,0.6866019863,-0.3226143506,0.5154770284,0.1488016871,-0.9481450236,-0.4123757447,-0.3265852734,-0.3843378112,0.8860976619,0.2097239183,4.3599774592,-0.8891829393,-0.5080864138,0.2585518264,-0.6331548682,-0.4578099264,7.6225768356,0.5692050502,-0.5603960702,-0.0650691266,0.5949707925,-0.6155171287,0.1396817459,-0.8202450282,0.3881766806,3.1135315364,0.3521753772,-0.1927651182,0.8197623462,1.0070696882,0.3497290725,0.2967606537,0.1465953354,2.6115775881,-0.9605539598,-5.4093410323,2.7834609813,9.998909418,-0.4984263144,-1.9144870317,2.4949698109,-0.2330524986,-0.4487518587,0.3211707655,0.5225258815,-0.4699884943,0.8753177375,-1.7243261256,3.7756564965,-1.7611777013,4.3551921279,0.5254455522,0.2367003491,0.7874398232,7.0082709454,-3.2382654694,7.7859230266,0.4338498625,-4.0716497706,-1.7773855184,-40.6061527985,0.9592977607,0.7374069531,0.9659871751,-2.3843095356,-1.0510357633,9.6537936301,-0.7140649854,0.346176313,-0.5610973113,-0.3387067722,-0.7600723345,-0.1178354716,-3.012927748,0.6428976016,-2.1223582421,-1.791167961,3.6633019943,0.7932498498,-14.3988226269,-0.4077296391,-0.2560302219,-0.5414849047,-0.1088467162,-0.3024613818,0.3982449698,-0.1328319044,-0.5110460952,3.3587700179,-0.5625540998,1.5333094351,-0.1268936875,-0.0629738369,1.2929780349,-0.7197964405,-2.4191278178,8.5560153969,-0.6218626293,-4.0383860212,4.8391930626,-20.901098519,0.3050216902,-0.3194054623,-0.2588961775,-1.482992429,-2.9567672875,-3.5568666163,0.7761874971,-0.8410658472,-0.3681055639,-0.6680890669,-0.8499650722,-0.617612676,-2.1203037889,-0.6724376848,0.6700958501,0.2613017554,-4.5412364264,0.3029022489,0.5485046832,-0.3445277784,0.9936068899,-0.1041885307,0.2885919026,-0.534988152,-0.4432944933,0.2615426755,0.751615049,0.1276799426,-0.1812891554,-0.1277418776,0.7700804881,0.7894597425,-0.8420222786,0.2778845332,0.6825648698,5.7748293849,-0.4086014989,-0.0213004288,-2.6430699278,7.4731252887,0.5891354747,-0.3079837502,0.3769364611,0.4613406039,0.712482019,0.4864548919,0.2647968723,0.2015610563,-0.5053690264,-0.270710839,-0.8452357755,0.9744210533,1.0871718526,2.2753975737,-13.3208698077,-2.2209472287,-17.9334328056,-0.3672323165,-1.1021783493,0.6882959456,0.8410278039,0.5574545553,1.1316162806,1.9388533049,-0.8137674987,-0.86704813,-2.7795479554,6.151246323,-1.0805025185,0.5224878668,-0.1643212335,0.4070574974,0.3654344933,-1.9906564813,6.820292094,6.5179795856,0.9668391784,-2.6696225099,23.6902702773,0.4289287872,-0.6349706421,-0.1343622856,2.8676601627,-8.8258934133,-0.160716668,0.8788282185,-0.7364235202,-0.6850801528,3.2822144651,0.539197754,0.0432878151,0.3198257448,-2.4747073013,1.2299051686,0.0639415149,0.8968238217,0.5369807624,0.5645398159,-3.0711034363,0.3047907139,0.8645335559,-0.6195181663,-0.7642003294,0.7927860055,0.1520422761,0.4900659432,0.852751886,-0.5448764351,-1.2127197471,19.2215496129,-0.4757693399,-0.5572584335,1.4771006845,-0.8852805866,-5.4757269999,-8.0302199183,0.4898878464,0.2182361446,-3.5561251118,-0.4600475541,0.4386888774,0.8394360393,-3.5954823004,3.6769795562,2.2235819556,0.6518375678,-0.6827340888,0.0575717477,36.4992319599,-0.2941255456,-0.2886004632,-0.762028675,-6.3022230109,0.7134934054,-9.3453056127,-0.0226537547,-5.622374246,-0.8303832458,-1.2503745672,-0.9341741857,0.5652455405,-0.3685892922,0.8330601119,0.0751736069,-0.3072808873,-0.6549854389,1.2491131948,-8.3130713947,0.556682181,4.2581244389,0.2982368953,0.8445027749,-3.5329984384,-5.2935369588,-5.8554081562,14.4217674797,0.7089173448,-0.3952098951,-3.1095698336,-0.5624933563,0.4792395216,0.4684909962,-1.1518309032,1.0154398901,-0.3801700635,3.7105654121,0.6604632873,0.8720812989,-21.1310759499,-0.0000751824,-0.9125679632,0.4457815819,3.2032366042,0.2948727452,-1.8042077149,-0.185881231,1.4589190031,0.7903598401,0.4561197232,-0.7075559372,-0.8469434535,-0.766621999,-0.3856419656,0.864062178,-0.5511175658,0.282365522,-0.223145241,0.907213259,1.7927324075,1.6309721406,58.3395564364,-0.8363774306,-0.5023672941,2.6678395626,-10.0796034815,6.7765119788,0.8698361636,1.1266548622,0.6893329533,1.2383563176,0.7134961003,-0.7733384733,0.8383415239,-4.1422988623,2.7074396395,-1.0699062989,0.6218352009,-0.156858047,1.658534666,-0.7310430346,-0.0156958619,1.6910332139,-5.4171211875,-0.0342260711,-3.4253740839,-0.3513790738,8.172496704,0.0245763435,-0.7798335276,-0.8718797474,-0.4754781729,-1.1374174547,-1.2265073199,0.4261833708,-0.9565392799,0.7580328207,7.1633306113,3.8108858934,-0.795050094,-14.8349263196,-22.3577119413,0.7795858634,-0.9223619022,-2.8599587397,30.2674424715,-6.6352223236,-0.3061759981,1.2474158053,3.3465637956,4.5305516269,-0.2037658039,-0.3990920388,-7.2053560824,5.0312857427,-3.7259106023,1.3027664198,0.9435208374,0.53701544,3.6275059492,-0.6363354781,0.4899835205,0.007538893,-1.9585505227,-2.0925367681,0.103215296,1.5540809327,-5.0652179992,-2.4352580201,-0.8031035494,-1.0976375044,-1.2022002936,-1.7896830294,-1.2502312133,-0.6038244395,-0.0356843553,-0.7067755608,-0.7138882018,-3.8138405726,-3.3585799256,-1.5664729897,-2.0645774339,0.9885308854,-0.2799691061,0.7049535877,-2.3133491795,1.6536194374,-0.2505420955,-1.3640907908,-2.0480442102,-2.8616432263,3.2685210786,0.1407437963,-1.6322148071,-3.8791168916,-0.2839537538,3.050538057,-0.7110350764,-0.0201769283,7.9639628336,-0.4292482802,-0.3160865297,0.0748102275,0.515483602,-0.124849293,-0.3223281089,0.0907817803,4.7796402845,-0.9620488962,-2.4371317786,-0.3565780129,0.0145473023,-0.8313144005,-0.3109123635,0.2239853687,-0.9361121952,0.3319077724,0.6416134311,-4.4459618409,1.1837726936,0.6826473595,0.4839533153,0.3831816452,-0.7457157572,1.3797787115,2.1580754443,5.9653527728,0.4997282594,0.5990826924,1.5241657991,-0.7860297402,-0.8459137348,0.9774883119,0.6579888056,1.7070347175,-2.2878701088,0.6318174046,0.7457559825,0.0994281689,-0.7844449907,-0.579865698,0.3482709672,-1.2253359397,3.8398805583,-2.4094510141,5.20217336,-1.6049807471,6.9793641681,-0.3456807535,6.3064220327,3.549327679,-0.9149579461,0.3334533219,-0.4525239955,0.3839680435,-0.1326111175,-0.9776922369,-0.8104243711,-1.2522877853,-1.7190367599,-1.8030294224,-0.386368788,-0.3480156825,3.5292746496,-15.637687745,-17.0016231116,6.971723129,-0.8501988649,0.7211743087,2.1599636125,-0.2448129451,-0.2507971844,0.8328066663,-3.1697363516,0.1187896393,1.7571736596,0.137715137,-0.9979178561,0.3765765525,-2.144262633,1.0064745108,-0.6225402999,-0.1443454525,1.4964074961,0.5357619386,-0.247938215,0.4805954645,-0.8730918836,-1.4637553057,1.7683960662,-0.4921028309,0.2500405499,0.6346535072,0.1400348667,-0.2919303056,-0.2984220541,-2.6226378276,-0.3434212222,0.4564285509,1.0699654261,-4.9855505266,-0.2855762239,-0.1122465837,0.2400857824,-4.5035848535,3.8975083928,-2.1150853469,0.4630280265,1.3771504176,0.2533946709,-3.974538514,0.3547482676,0.4842744793,-2.3543247694,-4.4109435385
   0.2454084877,3.7040774251,-0.1579494016,-0.4102453208,0.5330882154,-0.2557464284,-0.1368971717
##end
biasActivation=0,1,1
[BASIC:ACTIVATION]
"ActivationSigmoid"
"ActivationSigmoid"
"ActivationLinear"
