encog,BasicNetwork,java,3.3.0,1,63578901615454
[BASIC]
[BASIC:PARAMS]
[BASIC:NETWORK]
beginTraining=0
connectionLimit=0
contextTargetOffset=0,0,0
contextTargetSize=0,0,0
endTraining=2
hasContext=f
inputCount=38
layerCounts=1,151,39
layerFeedCounts=1,150,38
layerContextCount=0,0,0
layerIndex=0,1,152
output=0,0,0,0,0,0,0,0,0,0,0,0,0,0,0,0,0,0,0,0,0,0,0,0,0,0,0,0,0,0,0,0,0,0,0,0,0,0,0,0,0,0,0,0,0,0,0,0,0,0,0,0,0,0,0,0,0,0,0,0,0,0,0,0,0,0,0,0,0,0,0,0,0,0,0,0,0,0,0,0,0,0,0,0,0,0,0,0,0,0,0,0,0,0,0,0,0,0,0,0,0,0,0,0,0,0,0,0,0,0,0,0,0,0,0,0,0,0,0,0,0,0,0,0,0,0,0,0,0,0,0,0,0,0,0,0,0,0,0,0,0,0,0,0,0,0,0,0,0,0,0,1,0,0,0,0,0,0,0,0,0,0,0,0,0,0,0,0,0,0,0,0,0,0,0,0,0,0,0,0,0,0,0,0,0,0,0,0,0,0,1
outputCount=1
weightIndex=0,151,6001
weights=##0
##double#6001
   -4.2789539876,0.8623108352,3.8960929452,-2.3448985367,1.554129313,-2.3420950784,0.7512737886,1.8027847469,-1.0036781295,0.8346429658,-1.3645547649,0.9748001429,1.6928804005,-0.5861084475,1.9848840396,0.8578223033,0.9448500251,0.8660955167,-1.0751186252,-1.5824748765,-3.2373716006,-0.7548090261,-0.8082271569,0.9811396442,0.7457800588,-1.6723087178,-0.9418552728,-2.9679206498,5.5368118569,-0.9023758971,0.8548518427,-0.066396533,-0.7956270029,0.8590126841,0.5531118715,-6.4410662708,-0.7651661469,-1.309400762,-0.7157241156,-0.755113612,-1.005497327,1.6018776115,2.6501788299,-2.2806838603,302206.245842611,1.2971342885,-2.2450212131,1.7468514131,1.4287848586,-1.2899227661,-3.2218904442,4.0639389256,2.616916529,0.81440799,-2.2791935948,-0.4474171743,0.3727734134,1.732079463,-0.4360706089,1.4378908454,-0.7967173569,2.348011574,-1.5936952912,0.8903758504,1.711732356,0.4667034238,1.5184536167,0.3765260509,-0.1505068158,0.5496383402,0.606513477,-0.0408125813,1.5002381857,-0.8884793595,-0.5959229061,-2.0634499302,-1.4668653005,2.0166185916,-1.0604145416,0.6917867137,0.8887688628,-0.9608574322,-2.4787010055,3.5268183342,3.3794532958,-0.2205200461,2.130786691,-0.59570725,1.8596838323,3.2779091566,-0.3387422425,0.7323616712,-0.6186781651,2.5352859698,-4.2113993651,-0.2683983769,0.0636244052,0.9408032129,-0.4335793422,0.5602720789,-1.1524681383,0.2601514055,-1.341466689,-1.6926540168,-3.1609802467,2.0787367069,0.6907705217,2.2693640603,0.3799324743,0.9957625867,-0.8571303641,1.2311213219,-0.8534845352,-1.9135421071,0.5292358443,2.2813639954,-0.7188020751,2.2697812347,-0.9395937871,1.3531292074,-0.9378493405,-1.9353561123,-0.8739350561,0.8403442085,-2.4422795393,-0.3647653982,-0.4093609706,-0.9253883714,-3.4600472104,0.6683274776,0.9121699389,-2.1898780648,2.6939542157,0.4397149461,2.1211709527,-1.5379384269,0.9148638275,-2.088137857,-0.8193693774,-1.261009455,1.7431251669,0.9844216039,2.9898998222,0.4718268076,-0.1519212436,-0.05912942,-1.2509938785,0.5057320967,1.0035226109,-0.6195348292,-0.6304653557,-0.785311268,-0.178593922,0.3957191827,-0.7133754364,-0.8612762901,-0.7047359776,-0.2056619817,-0.5621881232,-0.322455941,-0.4378277629,-0.8071968937,0.8479775095,-0.0657087756,-1.821636862,-3.8262538323,-1.1774403552,-3.2731271861,0.6560419917,0.5132461067,11.2859361513,0.20289715,-0.0080115157,-0.9205756126,5.4672276501,-10.4986906077,3.8607056901,0.8322958461,1.2092476359,-10.5317391433,4.185600396,-0.1098166087,0.3746041904,-2.022973726,-3.9770675116,-4.4037791367,0.2590366559,0.6445606414,1.496315344,-0.610019084,-0.7855836581,0.9744042327,0.9340253595,0.8594509028,0.3757173946,-1.119541536,-1.0653851258,0.094537701,-0.0237138477,-0.0645595969,0.6462636866,2.23226072,5.1413565903,0.1369846513,0.5559407651,-1.2530813789,2.9140963348,0.5933990854,-0.4700640206,14.6368078447,0.5304916432,0.587224216,0.7528774407,4.4685133561,-2.4218069094,-4.9258932613,0.470316339,-1.5870041734,-0.0305331097,-0.0430297943,-0.9029395466,0.4729421928,-1.122202237,0.4776799849,16.0839866695,-0.4849712409,0.9682061439,-0.0217175087,-0.7475675732,0.3658472795,-1.247259613,-0.8315445964,-0.0553515256,-0.3427703436,-0.7585284359,-0.5927480553,0.8612451488,-1.9729924861,-0.760521072,-106.1518082535,-1.4199072934,-7.4629768634,0.4363278455,-57.9089527256,1.4747887542,-2.7927158089,-2.1207871345,-12.3322514594,-12.0665956267,1.48330268,-0.795766239,6.9533276216,-6.3389801752,-1.8697212782,-3.3029417607,-0.4789532262,-5.6166564346,6.773477606,-4.5955139604,-0.5783840135,-0.9384191911,-0.2801447812,-2.303053102,-1.3018627932,6.5526273676,-0.7324458238,-1.6595159984,-0.955618844,-0.6429641971,-1.3040619668,-0.8140786019,-0.6335387974,0.3970838399,-0.2317148256,-0.6039500869,0.1108781707,0.4816355406,-0.7807455654,-5.9468211588,-0.8705325998,-1.074610678,0.2239933768,-0.89645239,0.9032618919,3.1011994667,1.4848297318,-2.0317822362,-10.7057841803,2.112524237,0.7991685354,1.3576704612,4.198161601,1.9872210628,4.9247819858,0.9602421447,-5.1040874855,-0.2325773905,2.4333226889,-0.2451753177,0.0673915618,0.435530983,2.2214781312,1.9128675991,-0.666999191,-0.5073527924,-0.8760257756,0.3786498563,-0.81517556,-0.5124505491,-0.7222834773,-0.8152095814,0.3720026911,-0.1926636386,-0.4995439489,-0.3698110552,0.9015558243,-0.6213437649,6.8503826518,-0.2563946492,-0.1402742447,0.7857052912,0.1568679792,0.0367860887,-1.3108892112,-0.2554604073,-5.1364985301,-1.1165501176,-0.118748193,-0.0923862844,-0.3348045834,2.8513993323,2.4505025581,-3.1953215313,0.2289334644,0.3226972014,-0.2247161984,-8.6885761613,0.8332463951,-0.6593173769,0.3223288442,1.3439258871,-51.3829766383,0.2745244736,0.2692104435,-0.1325108952,-0.9037321562,-1.0720180748,-0.4235121407,-0.9313409927,0.3770778111,-0.5077055146,0.899956724,-0.9484738335,-0.1007893341,1.9528386931,1.3610349583,-0.2576449637,1.9827722665,-2.6983101699,-0.7377857159,-0.0382101457,-0.9615546067,-0.9938216857,-0.729644608,0.9099230165,0.6443739946,-0.0630341722,0.1570535671,0.0963141014,0.2438621746,6.8005463175,5.5098320878,0.8582053957,-1.7929059408,-0.6270219805,-0.9901778605,0.808291624,-0.3320046204,-0.3674876481,-12.7253886492,2.0226135423,1.1696168221,0.2193030227,0.0357396532,0.1927849104,0.7577511076,-0.8685740539,-0.6439082117,-0.8781354406,0.429114406,0.0821320508,0.1402149538,-0.1022318613,-0.7754820159,-0.1141347682,-0.5464293648,0.3000319978,-0.5606726188,0.2413882752,-0.9583793973,-0.8348046508,0.8518467801,0.0698166267,-0.6683528097,2.5851010246,1.375831758,-0.0425873636,0.0944601412,-0.8505651377,3.7451450683,-5.1576766962,-0.714203949,1.0765515005,-1.9522021933,1.5001559544,0.5124494209,-0.044656633,0.868941638,0.3514228963,-0.2308650235,0.8120838175,-0.4309152409,0.7935139064,-0.7009817536,0.9336599322,0.1658391378,-0.614985904,0.6044451316,-0.710397937,-0.6620022317,-0.5559722785,0.7239250402,0.5448933193,0.6076880826,2.5456173649,0.540599645,-3.3903274321,1.9494153831,-2.0955278213,0.77656757,0.4485693805,-2.5204318128,-0.2361233162,-5.8896749358,1.0839332906,0.100281972,-1.8802443574,9.3144571453,3.2733051745,-5.4561473397,0.8309489674,-0.101165543,-2.6785545114,1.119168019,0.6457191482,0.5443990005,1.3294831094,0.9181012736,3.3482093121,-0.0291608454,-0.9294982431,-2.3658598925,0.6898859315,0.3111601744,-0.9798657566,0.7220286074,3.1453211187,-0.0105575339,0.8762823298,-0.0794774939,0.506366118,0.177642007,-0.3545869876,1.1953488424,2.1170441244,0.9100971631,-1.3914348927,5.987663448,0.5529522871,-1.2862092754,-1.5544521467,0.5283665545,-13.1664481208,2.180874598,-0.8836424043,-1.7271629454,0.7582196459,-3.0122984121,3.8369414878,-0.9998414693,-0.6871283285,2.7666446599,-2.8901456629,0.3120549447,-0.8552597667,-1.9092486393,-0.0901142787,-0.4062407656,-0.9079672099,0.7778232711,0.0616621105,0.6008091875,-0.4265775503,0.0284668124,-0.1394785119,-0.3480454867,0.8279503681,0.0732137603,0.379890571,-0.9550335619,-0.5952423665,-0.2691576177,0.0669875787,-0.7267111449,-0.7466025695,-0.3811543056,0.9019582605,-0.1401166471,-0.5726666717,-0.1107825976,0.475955612,0.3920856462,0.8614410342,-0.2426457923,-0.0751591071,0.4912143954,1.9955051179,-3.5979312598,-0.0483502238,0.7956099674,0.6181169437,-1.8731410764,0.7107136697,0.7384872426,-1.1715561089,-0.0389597761,1.3202165447,-9.01456651,0.115030739,-0.720572262,-0.7089218157,0.1362280414,-1.6441330565,-0.3203934187,0.6054645021,1.0514412382,0.590099506,0.7988869949,0.1170474983,3.5492371626,0.5664249951,6.4855673265,-1.2511796322,-0.6919526194,-0.5556103556,7.4289329679,1.7946723402,4.1943896707,-2.109229658,1.5069167126,-3.9503461347,0.216221062,-0.2365714103,-0.4297511535,4.0801985083,-3.8869941044,5.1374396443,-0.9336742256,-3.1941483922,6.0031280948,-1.3391944211,-0.2223175604,0.1699374994,-3.0629297204,-5.6317695527,1.3430941216,-0.1956675116,-0.3948050939,0.0329713523,-0.5503158733,0.2451566293,5.9857289526,1.5291139118,-0.1907254871,0.9899398723,0.9629660637,-0.0698865789,0.5272830456,2.2258263521,2.561716572,11.4895468006,-1.6430290966,9.5448239559,-2.0528993635,-7.4343678198,2.3816039382,8.9801568955,-4.6625205357,2.315200323,6.8414708468,-0.0123339178,-0.8748087249,-6.4855117538,-1.4718569658,6.2967175194,-9.2519125989,0.3731708933,2.8825840693,-7.6846423145,1.390859606,0.0775186985,-0.6198447187,-0.2882945623,-8.4699521815,2.4476787268,-1.0265493614,-0.4672781124,-0.1976658133,0.4376195458,0.3594327838,0.8123748477,0.1051248146,-0.4449413573,0.302711611,-0.3115907036,0.0061121452,-2.788787526,-3.1105333572,-3.1334354787,2.4382580934,-2.49559159,8.4640108381,-3.4235939199,-3.7537968854,1.3462772273,-2.2418354931,-6.774153738,2.8818055231,0.4137762151,1.2577431098,0.8513959124,0.6785538755,2.9690960334,3.6194690032,-4.6436777892,0.5462738404,-0.4615114823,-18.6890768934,-8.1801884914,-0.9014521435,-0.0069915396,0.2437385538,5.3421258873,1.2389249064,-4.0754262022,-0.6346708339,3.5155494426,0.1383541043,-0.6925373561,1.0004400024,-0.0348943996,1.0544433282,-0.9562052123,-0.9238670297,-0.7948478639,0.1698409624,0.8312062135,-0.3848043917,0.5315339412,0.0076329508,0.3820119266,0.6229145777,0.9621299553,-0.0345401114,0.5913390883,0.6315504799,-0.8515091044,-0.6647672108,1.0989195987,-0.333240464,-0.1620303362,-0.4629824524,-9.9719780764,4.7786156918,-0.1339015007,0.8842896113,0.5460991849,0.9350532218,0.9207347816,-0.3025291922,0.1946350946,0.079066475,2.0478705678,-0.1687993653,-0.6700436602,-0.0107754985,0.4200113184,-2.6134298083,2.3701215568,1.1951913216,-2.3605632131,0.5569253281,-0.3689529944,-0.3492796735,0.9125238617,1.0345177289,1.1102694596,4.2764664982,2.140691373,13.9377097144,0.5340979075,-7.1082339251,4.4123029088,-4.2155985972,0.9294470983,14.3019002229,10.0784386096,0.3836315359,0.8911824682,1.3453570954,1.468235276,3.9840138498,-9.451114248,0.3423017624,-1.9344184785,-6.2519893579,0.0904374166,-0.9829904445,0.1395199313,-1.1136740086,-1.1800731252,18.4643171618,10.5522530609,0.3511373183,6.5036130737,0.8295156465,0.9679660166,-0.6333393621,0.2288948032,0.4151539915,-0.4953008757,0.6934358318,0.7852009685,-1.1495134217,-0.5593350346,-0.917303565,-0.0068868217,0.1725963849,-1.7185613326,0.2714059935,0.2359820071,-0.6621452769,2.5509846399,1.0825381509,-0.1087748172,-0.1608632831,-0.3642703074,-0.3658156168,0.1858512805,0.0902205382,-0.2600798894,-5.5173951898,-0.0090323133,0.1967173865,4.6280131867,1.6045685997,0.7902026624,0.7310666375,-0.170424654,0.9022243509,-0.9195646331,-0.3017254631,0.7970926323,0.0802749344,0.0532628809,-0.7935673506,-0.2546902361,-0.5028393556,0.3184143029,-0.4343210752,-0.0599081754,0.6471032402,-0.4514928664,0.9118951686,0.022847988,1.4090671185,-0.4688716741,-1.0620442254,-0.9203033478,0.9003942079,-1.1096335331,0.7980269352,-1.599576706,-3.5103204108,2.5370816283,0.3577790213,-0.8086685621,-0.3157413569,1.7405704485,1.1957575143,-4.6010026606,0.6487324469,0.8257554716,1.4412339251,0.9490065411,0.4543711291,0.6388849866,-0.4070299788,-1.1615434381,1.209196835,-1.1830403873,-0.6454271803,0.5822717673,-0.8811786888,0.2128539133,1.0172086641,0.6354805623,-0.3694116057,0.4713075186,0.7776380219,-0.3347739854,-0.1541723412,-3.4910649941,0.665590558,-0.7225524915,0.8796750495,-1.5967266243,4.9274283055,-0.8440060284,1.0020004121,-0.5628321512,1.0120488781,-16.0960693045,32.048438576,59.419919036,-0.60033211,-1.4390348313,23.3025049775,10.4525826578,-7.5358966715,-0.3537653793,1.4828356513,30.2835164351,6.1075832763,-0.613285421,-0.9342662766,0.9147279806,-0.4603214618,-2.0673880598,-0.8573276493,-0.7377200051,0.7873355793,-0.1712057854,0.6632124561,-1.8258940316,0.7627187265,0.3624572026,-0.2935276774,-0.7994700955,0.5473256744,0.6516119375,3.9073454449,0.4906620516,-0.6512082078,-8.7079455684,-0.7044355464,-0.0440281836,-3.2794272227,3.5201593171,0.1354774163,7.2213806012,7.1025461622,17.2863817359,-1.3557406611,0.3758702331,0.6854589849,-0.8802381539,16.6161761278,5.2037636138,-0.5255792064,0.4753026508,1.1504793951,-2.6307559337,-0.0202096242,-0.6548936496,0.5202243073,-6.8898363487,25.3946813674,0.8119782321,-0.203492438,-0.820436032,0.0956128952,0.9543273832,-2.6608770029,0.9184683526,-0.0228162485,2.9526594558,0.6182373752,1.2126656302,-4.0485921842,-0.2929184814,0.5304231232,-5.3197164782,-0.5289757832,3.7448475302,8.9520947028,-6.0430064492,0.3609986139,-1.7041818752,-4.9552435535,0.855485669,1.2729206487,342.0752899033,-0.4893097409,-1.4382224853,7.8606429991,9.065530085,4.8366691266,-0.921861303,0.1890331264,-1.4137016237,4.9265009483,-0.3938443855,-0.4190712811,-0.2882251649,3.5667301979,41.8511236465,5.2668057965,-0.8979843435,0.9451226924,-0.565505568,-0.6354006502,-0.7488357676,-0.0208245352,-0.1646038356,-0.3574953288,0.9195581575,-0.3544291202,-0.5754213554,0.2599476914,0.8951282497,2.437663783,-1.1050880666,-2.5043433972,-1.0253844328,1.223183861,0.4876815829,-2.8575962584,1.866749255,-0.76296553,0.7761334326,-0.4688614493,0.9855504902,1.3310067343,1.219110517,-2.7540054466,4.5237654578,-0.8320845672,-0.2933173524,-0.5421414811,-0.0670838141,0.1260087652,-0.9990950292,-10.8041880615,-3.5646189307,0.3139867791,-0.3997897874,0.526261241,-0.4587375759,0.1953710088,-0.4918149598,0.3055453812,-0.0404933237,0.2900709618,0.4980987008,0.6460730458,0.146878911,-0.6769071561,-0.4057488562,0.5535403713,0.1431601461,-0.0217599759,0.0612880272,0.0384526731,-0.8255394101,0.1674863827,-2.4435820553,-0.1673660835,0.4958304774,-0.0433624351,-0.3770168689,0.9529975001,-0.4012110485,1.5071581701,6.3510265547,5.1949436146,-0.6141032184,0.6728809511,0.1438863368,0.2380991509,0.0485781891,-0.1804402765,0.1302383544,0.6107191416,-0.8940865339,-0.2955941494,0.3824907231,-0.3332961411,-0.1240749925,-0.2955394796,0.7138390908,0.8381733003,0.4676026141,-0.3546543676,-0.8919264334,0.3088228225,0.5686971906,-0.224337352,0.5698569166,-0.0673592935,0.2060544895,1.8719407318,0.051341612,0.4575365764,0.2008086018,1.1557909443,-0.769552846,0.4718377321,-0.3742045266,0.1018638286,-0.0642688987,-0.9072433149,-0.6425755901,0.1795302535,5.4135028613,-0.5472377984,0.7132746004,0.048837876,-0.4132988813,-0.1657275909,-0.1640360119,-0.6438821309,-1.4762016713,-0.9185421629,-0.3441021715,0.1046365588,1.1472038646,0.1983817225,0.3758318907,-0.5114496221,-0.7551585443,0.4658489802,0.9928673553,0.1863919072,0.4544090141,0.1749807278,-0.0695542039,0.322444195,0.0165295499,0.8020430887,-0.776676759,0.6132680019,0.622733659,-0.5915537927,0.8273192514,0.6577954341,0.3172779682,-0.2940363896,-0.1519591649,-0.5424969585,0.3638257137,0.7251442729,27.2587874104,-7.4159543618,0.3092926514,-0.8577168506,1.2204765976,1.2533353467,0.9095950426,0.475546668,-0.9797493541,-0.9672004302,-0.0188848703,-0.3925537038,0.4424109009,-0.3122351606,-0.5517469567,0.663326566,-0.1661530071,1.2340072735,0.4679872034,0.9086766225,-0.1373763155,-0.4690055505,-0.2760421354,-0.6568734329,-0.412464293,-3.1711015934,2.5960068811,-3.4662521111,-0.5199415503,-9.5392048857,0.1343919566,0.2410298282,-0.9415505549,0.338236219,-2.4326267316,0.0448556116,0.012640839,-2.9908299379,-3.164218779,-11.4091453999,-4.8886949701,-0.0243992587,0.1299973787,-2.1499483953,10.483948147,0.0708523697,0.34970892,1.9739293414,1.0972884915,0.9645239657,-0.1072338022,0.1810478462,-3.9509471255,0.6866991028,0.1544035553,-0.6523951974,-0.3662092875,-0.1837824897,0.7868294906,-0.0058795452,-0.8497877873,-0.722743064,0.000385059,0.1122955157,0.4031544848,-0.8517257162,-1.55162853,0.7201856384,-12.3157818526,-1.5865418146,-1.8310379285,-1.0105499474,1.0629357042,-1.1711150624,-0.9197766168,0.7160233975,0.9984261603,1.1255472793,-0.963097095,5.2833230527,0.9373338017,-0.5400608503,2.4604063385,-0.4075665456,-0.6177275656,-0.9925445979,3.0189203673,8.2769260786,1.1744801366,0.6578280112,0.9301793743,0.4263900955,-0.3623164923,-0.4186035905,0.318673085,-0.5965330287,0.3240618389,-0.4307343801,0.8496670352,0.58170002,-0.8099657228,-0.9094611335,1.0865665781,0.8496339056,0.1035371409,-9.8283540895,-0.3091694671,-0.3311582561,0.274084155,-1.9237489855,-0.5363719377,2.3969507306,-15.7386334389,0.1233329544,-0.3218552942,-0.456747033,2.0859785356,1.3067040154,5.9067664696,-0.0469166306,0.3964773911,0.9475449987,-21.6265340776,0.4056458813,0.7181508503,0.7711366686,-0.6349247021,-2.9001673997,-0.6020025183,-0.4362065091,-0.0842311765,-0.3500463909,-0.8329434507,6.9952718266,-0.9725744991,-0.9697156374,0.5841028283,0.1073252094,0.6232294235,3.7127229201,-1.5355430288,-0.6485549089,-8.824329306,0.7861406347,3.7931499319,1.7219767131,4.6756900097,-1.732001791,-4.9528733234,-4.3657877854,-13.4142908424,-4.5969967996,1.0446489045,0.9482884044,1.2847894217,-12.3610472208,-36.1562698232,9.007412546,0.9829846211,-3.8109958827,0.6717508003,2.7818702118,0.6674533287,-0.8373326519,-0.9998889946,-2.9112963989,13.6472006828,0.3941933131,-0.549000168,-1.0921098372,-0.9523466694,-0.3598965654,-0.3801358978,-1.2737051156,-0.8726211398,-0.621607098,0.9707316869,-0.2152476429,0.2475390279,1.1225051479,0.5093748061,0.345170173,-0.1542295662,-0.7689667218,-0.275438362,2.4252646569,0.8927870539,-6.5714553687,0.9860435769,1.8171275998,6.8299677955,-0.502344319,0.7339869876,-0.2503364589,-0.8483473797,0.3215797613,-4.9942460574,0.4913769707,0.6229989469,0.6201721443,0.8906562612,-0.398267902,-0.5736140085,-1.0998380939,1.0747206532,-15.4134178527,0.5950138617,0.0018472304,-1.7554826957,-0.6842921517,-0.602986577,-0.216906735,0.6987098338,-0.843216236,-0.2565617561,-0.4351569244,0.485475662,-0.0150470691,0.6697291223,0.8403489842,-4.0973910528,-0.3856755688,-0.0286617956,0.2065474169,-0.2674605322,-0.4298250108,1.8250934542,-1.3443320745,-0.3025649869,-0.008968716,0.1969526939,0.2043706827,0.7401538884,1.9281548536,-0.8645465672,4.7551763211,0.6053230314,0.689753542,-0.5016769872,0.0359277947,0.2817539288,0.9724307749,0.1444306549,-2.6297500816,-28.3511838976,-0.2693301848,0.9820121322,0.3595379236,0.5507377139,0.1695626333,0.1314136529,-0.6761325902,0.5716222713,-0.0218305931,0.473179186,0.0199365515,-0.8964338483,-0.2987204888,0.4558314742,-0.5313796109,0.592753723,-0.7606350244,0.3584270163,0.8265966912,0.4154969263,-0.0985126567,-0.4872437987,0.5075024672,-0.5266527329,0.0953542026,0.437924748,0.4117015515,0.0434113867,0.752968981,-5.5322908699,-0.370183014,0.9400038781,-0.6438412564,-0.4471355462,-0.0363951831,-0.6669271568,-1.7532898202,-0.078516208,0.628977488,-8.5586555578,-0.7266607078,0.3375049958,-0.8736225034,-0.4932295639,-0.9214437982,-0.0284647124,0.4846571413,-0.6702623253,-0.2650703469,0.555653505,0.1693660945,-0.1903379841,-0.6539096267,-0.0203156167,-0.5430527452,3.6846065217,-0.0495953136,0.6075881197,-0.448496805,-0.6234871233,0.258363007,0.3392285567,-0.5525362871,0.1768118293,0.7893837494,0.6339630241,-0.6002143775,0.2195048636,4.1057248536,0.2001621291,-0.2209891082,0.0518279152,-0.4833213262,0.7634192861,-0.7855412065,-0.5179819553,0.5745843425,0.8848895529,0.2058155613,0.8218103069,-0.0392027156,0.9767240096,0.1420593989,-0.27528226,-0.8393130283,-0.2682417078,0.6380366337,0.8137650371,0.1616244306,-0.9568211964,0.5844932718,-0.0900242847,0.7788699735,-0.1607898017,0.9321931502,-0.2924577206,0.3445240959,-0.1960433737,0.9737532956,-0.3799162475,1.226343954,-1.8473687831,-1.1316480895,0.2327573883,-0.8434880541,0.576209689,0.9544903318,4.4077942008,0.2933138913,-0.986150858,0.4676359068,-0.931477691,-0.3923633694,-0.5948306637,0.3852906227,0.9048293724,0.9389049187,0.5427401462,-0.0582888196,0.2647857541,-0.2345908556,-0.7733556276,-0.6530179354,-0.1848429752,0.9073675098,0.5198720171,-0.8288167909,-0.960570473,0.5422267833,0.0194465251,0.7432566057,-5.0389457487,0.6886426645,0.4998297907,-0.6773113069,0.8465642644,-1.8256486496,1.8029765835,-0.6308966814,-0.3569097865,0.96036264,0.1060009372,-0.5410204397,-0.2258277718,-1.0649479994,0.0106569791,-3.8191189269,-0.670643621,0.96756121,0.1882495871,-7.2388742463,-0.4955244973,0.5571119299,0.7806334216,2.9311265952,0.4988903055,-0.3356799276,-0.7256544538,0.959246137,0.1740885897,0.0219724137,-1.0164892448,-0.3108830779,0.2688946191,0.711018729,-0.7800066349,-0.0501860162,-0.3215912172,0.878388041,-1.2155536751,0.8885575302,-0.4455654236,-1.7108762438,-0.793978488,0.5293322797,0.0356490154,0.9099396211,-0.3947447725,-0.8442896015,-1.530222922,-30.1647691211,0.2158085654,0.430353028,0.7749891626,0.4632124241,-4.8609819638,0.1919243379,-0.5167346593,0.2577659424,0.5981296428,-0.4234580728,0.0110746953,0.5525703895,-0.6045506253,0.7873966834,-10.0844140577,-0.4962996503,-0.6932959911,-0.2149796822,-0.9973524304,-0.4528941981,1.1030359289,-0.6050101064,0.3544137407,-0.6893780108,0.2355322873,-0.7867631096,-0.0027740955,0.1541720667,-1.3391747901,0.3433148205,-2.564715937,0.723777771,-1.3337717731,0.2342835158,-2.8298175645,-0.0408048047,-1.8918240173,1.6814403536,0.6517886919,-0.2020867454,-0.6299294886,-1.6291912035,0.9599514267,7.9816063886,0.1541045015,-1.2569101466,-2.2964078753,-0.0200724494,-0.8068728634,-0.9032601537,0.4523068157,2.203185473,-46.7149841185,0.478753478,0.138100673,-0.8673641883,-0.7035311443,-0.4469076356,0.5383850132,0.5749738829,0.3246231228,0.1303069348,-0.9721875786,0.582001681,-0.197538819,0.7128585021,0.1430553725,-0.2432548918,0.6173617255,0.2808424034,-0.6927866297,3.1438859864,-0.9353010181,0.7044079968,0.0439976903,-0.2823890638,-5.3442112263,-0.3824374142,0.3914005865,0.6554645506,-0.0253805101,-1.0696580782,4.7117271527,-0.0778924399,0.8524943715,0.8232047656,1.9000216459,-0.0691378943,0.0284373616,-0.2197941314,0.3677108342,-0.5788705379,-0.0881354594,-0.24772579,-0.2505071735,-0.9796574909,-0.6603220659,-0.4598600983,0.7523059714,-0.7737929903,-0.549670031,0.8323740396,0.6906678579,0.6082311768,-0.6220359661,0.599183562,0.2291339053,-1.4002396563,4.1953670482,-0.3477747291,-4.5036917973,-0.6049567709,-3.5577443406,0.5156093352,9.0761259693,5.5684333223,-0.6353748249,0.6111006018,1.2583780712,0.3554718015,-1.865769933,4.7170686652,0.4436549626,-4.1111398734,4.3931655849,0.1220596318,-0.6962346789,-0.23508645,-1.4791211479,7.0774440061,2.0711254813,18.7609992717,0.2533190582,2.4237832122,-0.5169217116,-0.3309603471,-0.7751401335,0.3121958998,-0.463239304,0.4946780664,-0.8445262384,-0.8109428684,0.649010332,-0.100565551,0.7877270866,-2.8707873724,0.6014300143,7.881004725,0.6515102632,-2.5309952292,-0.6924719956,1.9719501429,0.7795759725,7.2705080295,-2.708335867,283.9325663748,-0.9183080382,-1.2949952805,-2.3349110347,-0.5822434538,4.5170714744,0.7117311627,-0.9275695305,5.6638034267,-3.2900499147,0.2550597949,0.6359800425,-3.2272415154,1.5025344195,36.7356098877,17.8269889471,0.5373303758,0.9185236266,0.9324948653,-0.6821896133,-0.8096373465,0.757722681,0.2694585559,0.1530706526,-0.5905037972,-0.3650348177,0.4672064353,0.5102536161,0.1345316704,-0.5882357732,0.7736732015,0.8686381773,0.334410961,1.1424671118,-0.2530891603,-0.1113626958,0.644121815,1.6659766274,-1.0377508289,-0.2299495216,0.4647602613,0.6633673956,-0.9322184569,-0.9537375346,4.0085974138,0.074326172,0.4257384096,-0.6916105789,-0.7881268929,-0.1372304445,0.2903372726,0.7580993471,1.983155212,4.5184238238,-0.8392114974,-0.3781555963,-0.4663770102,0.3668397114,-0.8460025141,0.2076280686,-0.7788155508,1.2154830395,-0.5937364543,-0.0874823956,-0.9195711881,0.8069201521,-2.3971560672,1.1522067614,0.1885351999,-0.5374878373,0.9748874228,-0.0058077409,1.8352468778,-1.9204397953,0.7215214694,0.6773263211,3.1651038973,-6.4386202994,-1.1105409818,-0.0213765954,0.8321024343,0.7197489316,0.6483219714,5.8639899943,-0.8810629621,0.5976469983,1.8014519706,0.3864621062,0.1336182434,-0.1926223073,0.5155423342,0.8314449286,1.4753960358,-0.3066500166,-0.7011430597,0.2087724224,0.1707219712,1.2357480271,-0.3988705153,0.4706096033,-0.2427943038,0.0395974253,0.2707586013,0.6556412636,0.3195907044,-0.8841673976,0.9067994494,-1.4722360219,-3.0533536895,5.0088433216,1.2891597423,1.6690296211,1.2365555335,0.5122062166,-5.1033227604,0.6986485288,12.2506544504,-2.0510436277,-0.4247174232,-1.3142435218,13.8095139667,1.5972450355,-7.2400529885,-0.3731713339,-0.7605869267,-1.400858511,-0.8448530523,-0.8007249448,-0.3194743466,-1.2136818192,2.6634833116,2.4475520803,-0.9632064527,-0.3071178139,2.5358270658,0.4929110552,-0.8678720922,-0.7563279251,-0.7428111325,-0.5534806607,-2.3876027534,-0.4969469087,-0.9655822935,-0.7424700145,-0.1292909729,0.9931959901,-6.9899561128,-0.1582887089,4.5634727959,1.2611390106,1.8571122066,-1.8138750899,3.2911489492,-0.8311949657,-0.8026349965,-0.2525346056,1.4368772197,0.0018002796,-2.3790885109,1.1521766342,-0.9603466307,-4.3562571443,-0.618338418,-1.3223076523,-2.8408246828,-5.7132686394,0.8935486843,-0.2520456618,-0.8863545834,-1.8034037174,4.1174827649,-0.5061932829,0.7956128939,1.4608161234,-0.3007065917,-0.3172192965,9.8305824661,0.9212713145,0.3928236207,1.2319110029,0.2553313526,-2.5603181146,0.8088935786,-1.208923455,6.3439899968,14.1894227809,-2.3267818432,25.4976204319,4.0421553877,4.1257043815,-5.8137916086,-0.6868873872,-3.6344468029,-0.2582514822,17.9773030432,-22.1952309338,0.1619854966,-2.9812718129,5.648105571,27.636261657,4.404432346,0.2251818009,8.0062604714,4.9135453214,0.8446599668,-0.0918346473,0.1751491368,13.2748992231,6.4795635129,-12.2075652093,0.117975214,0.9237430961,-0.2216216065,0.1479783917,-4.3094491723,-0.5327615049,-13.2995514552,-6.2661827782,-5.6382573495,-4.2506889476,-4.3962216409,-5.5899290881,-12.3922062621,-7.066789195,-7.8873100015,-5.3201799435,-2.7716291506,-1.3038908789,-1.1060847039,-1.6653226398,-0.3175553629,-1.6822830741,-0.5812237074,-12.4192745204,-1.2374632932,-0.7641983311,-6.7224634956,-4.75856404,-3.6106015317,-76.7176168351,0.3934658335,-2.9798897867,-2.5683123106,0.0544294664,-4.661092497,0.2234372474,-6.3252952618,-3.7095693151,-11.1810882099,-1.1233890642,-0.2318142835,-4.4097874473,-3.9506372565,-0.5415892171,-0.2711683741,0.5763704384,0.0017903045,-0.0260112323,0.1171434931,0.8055461857,0.9197462185,2.4651290765,0.1393421177,-1.3009141225,4.6707761483,-0.5202203764,-1.1472124161,-1.9167384133,0.8417160878,2.046651342,0.2553918796,-6.5534283683,-1.2835695162,-0.314317681,-0.1007280578,5.171378855,0.6815094713,-0.3514390344,-6.5555490368,0.5045692285,2.3376658925,-0.4352568516,0.3424524415,0.8248281703,0.2965461813,-0.7509830031,1.1850590318,-0.8307040425,-0.3727477533,0.6062548317,-1.2087984456,-0.1416427143,0.5080509387,-1.0469811644,0.7467259915,-0.3804866456,1.3262679586,-0.8190017139,2.5902997477,0.6466429272,-0.17335541,-3.5248064976,-0.1467455796,-0.8518174173,-2.5120469317,0.2498879258,0.3346251629,-0.4884430648,0.7213958642,-0.1596972214,2.4985070188,0.4560991982,286.7861498512,-0.8897870276,-7.2748707135,-4.5639711083,3.5284633283,4.9252787187,-0.4269093403,-0.4089897642,-1.1376357396,0.6769188304,0.1404391419,0.1518154038,2.8736749457,-3.9638477511,-15.4410225096,18.6302413207,0.5166880663,2.2479736406,0.4079812814,-2.8710175249,0.6121307002,-0.346295059,0.3472203168,0.8334385804,-0.2056517688,0.165413858,2.6688513861,0.3927907546,-1.2506634124,5.5115138836,-0.8173233016,-3.5920526001,1.2897271695,-7.2692095845,-4.4109376917,1.4994792674,-0.1988339809,1.125777047,0.388931328,-4.2704777166,0.0844552066,-0.5227490494,-1.6105099491,22.6573110311,-11.6998556182,-0.5229549415,1.3324040788,3.97384644,-3.7238749609,0.0943206528,-0.7959254905,0.6788265791,3.1123175212,-3.7746546871,-1.0958769115,0.5880990017,3.5562959931,0.9158777035,-0.976062702,-0.8830928792,0.3153065063,0.1197836593,0.6833388202,0.2133251677,-0.3654154532,-0.7751463416,-1.4169168425,1.1111606434,-1.1015409812,2.6925027413,9.5936626663,-1.6585125678,-1.50638489,1.3635594671,-2.3456070222,3.4973328862,3.3215284731,-3.1660710304,-6.3641344022,-0.154728728,1.3063739974,3.093432334,-5.1213377782
   -5.2985366456,0.8405834985,-7.6755888716,3.6572356125,-4.0970395239,0.2656933105,0.2215815863,1.9048919101,-0.8234314139,6.5768292446,-1.2152993514,0.2194163749,3.3434588721,0.8627360793,0.6678467171,-0.9904396321,4.6527562415,-0.3957540626,0.9360770167,0.5317434754,1.5024551116,-0.7175676061,0.830093361,-2.5350855034,-0.7549531653,-1.8076562867,-5.5137514003,0.5967721444,2.6788175753,-5.1872224752,2.3812321389,3.319201477,-0.6781821901,-1.9901671619,-1.5314315178,0.8012922247,2.5601289017,5.4004104847,-15.5261559766,3.9118737715,-0.7936987066,2.5455025712,6.3684732479,-1.7532442495,0.4418545259,-0.7499601654,0.0705656149,-1.6717105159,11.1218605109,-0.1751394669,-0.4248883172,-0.7405976359,0.5144707401,0.4257741776,-0.6317517138,0.1347911835,-0.4443892533,-0.1420117978,-0.8889030823,-0.5051388224,-0.458151188,0.5772965671,0.1765486777,-0.0665846515,-0.5580312703,0.0851702605,0.8862869667,-45.5373976286,-0.9144096599,0.2686471135,-1.3073697989,-2.0892984607,2.8293760679,-0.8033892656,0.1574517056,-0.9127854265,-3.5983526943,1.9407872047,5.5825320217,0.050537406,-0.1394131881,-6.2262121023,1.7000187806,0.1203743279,0.6185003415,0.3546441672,1.0906433569,0.3688219805,0.9051346727,0.3204145941,-0.0010311455,-0.1041787319,-0.4531619607,-1.0009150384,0.6706598144,0.188915586,0.758362994,0.5393604661,-0.1575980464,-0.7159788481,-3.306151089,-2.0001408301,-1.3854666513,-4.1230093418,-2.0275664998,-1.1082946009,5.8843752325,-2.1325138622,-1.6764796884,1.3394730212,0.6384735491,1.1906439417,-11.1523271654,0.9767643195,0.9281135336,-0.6503201314,-0.5879188777,-1.6948759528,0.0056172912,0.4104009021,-1.0530549868,-1.5913791399,-0.0351521405,-0.7565435058,1.3296295176,-0.6750376035,2.9547479259,-9.9549646638,-0.60156502,-2.8810760766,-0.3782897756,-0.9729769854,0.1743526153,-0.4801180471,-1.1341132357,-0.4841366428,-0.8087719338,-1.3526562737,0.1854501401,-0.9446325016,-0.3971554157,-5.2411195068,-0.5715812288,5.35561484,1.1735263572,-9.943183413,1.6144990784,-0.2023636365,1.4828384412,0.3645228834,-10.2811449803,-660.5935102661,0.484962505,3.9704576408,-0.8525855817,-0.9228434139,-3.9672802432,0.5419622984,1.5469446653,3.3933564198,-5.3928915411,-0.2330737118,-0.9614977892,-0.7381125524,4.9100805378,1.2286188085,-8.8398474426,-0.8431015582,-1.9002579698,0.8939892508,-0.2118054738,-0.8773225666,0.3627452129,-0.0343464218,0.9741725609,-0.3216333359,0.89768608,0.6983681739,0.4837262896,-2.3994000714,-0.0316380388,-0.2946661847,-35.4838775543,1.4824467454,0.1676267654,-0.6405562621,-1.2500682885,0.7554641875,-6.3561190217,0.8561861354,0.3376608282,0.8698377311,-0.3921881796,-1.4148362966,-5.6387933193,-5.0051921363,0.9570098314,0.204587811,0.3032534868,2.070747257,-0.5115674907,-0.3222563292,0.4231085623,-1.3769447628,0.4366015742,0.0090624024,-0.6635000397,0.3268291277,-0.9518696665,0.285810064,-2.7894077228,-0.5756235382,-0.6281306295,-0.3292801692,-0.8183013556,-0.7062978657,0.5047598725,0.0744285771,0.3701778145,6.1674848197,-1.0452082165,-0.2393601804,2.6385512873,1.9739992485,-1.2227402497,0.0145500903,-0.8353305414,-1.6609104169,-0.6734468653,-1.9354432678,-0.3253449124,2.9042867361,-4.5766830488,-1.1912563553,3.8491886013,0.9521429445,0.5520608282,4.677960592,-10.8340214943,0.5686811252,-0.8338653379,-0.3440911667,0.1109687227,-1.8334546119,0.5832891782,0.8166678798,1.5369880228,-0.1260208841,0.7132729956,1.0818110154,-0.5818577308,0.031955019,-0.3878411853,-0.1584200267,0.6817765271,-0.8783803923,-0.4727267113,-0.2674413227,-0.4090907052,-0.0501505828,-0.0415585221,-0.8698282902,-0.2916864349,0.6737454242,-3.5901842734,0.0054408001,1.5666164377,18.1647291847,-0.4171917469,0.0389909842,0.2562234458,1.2218302083,17.2577159885,4.3255424275,0.4463990645,0.9798152413,0.0386219203,0.3490932875,0.9088597575,-0.4449555331,-0.3556691183,0.6776796115,8.5725367169,-2.4631292297,-0.7379300817,-0.360914444,0.5226917419,0.5219779416,-0.5576549872,1.0248272313,-0.4736585228,-0.2574458269,-0.9635915011,0.3620745645,0.918273328,-0.7727371745,0.3934753411,10.373268475,-0.235388799,-1.8920295591,-0.878427627,-0.2178420391,0.3444919183,-2.6754039942,0.2750401584,1.172813068,1.0525332094,-0.0501629566,-0.3485068853,1.8897203098,-0.5767036567,-11.1575530866,-4.8880253706,0.0175541374,0.3925868555,1.8799847413,-6.1897878506,0.3300425996,-0.3630217953,-0.802102577,-1.5971788031,0.8047510303,0.4295268165,-0.1364304149,0.2255614783,0.0626064748,-0.7883692844,0.4561776958,-1.0101905408,0.4705475784,-0.3069101367,-0.0200621609,-0.0753755382,-0.4832249804,0.1005713102,-0.4252360499,3.3892263622,0.3315736414,-0.392705554,-1.2662998535,3.8054482164,0.3738520528,-1.8291484062,0.3463078022,0.2782943302,35.4408561537,-288.4582816547,0.7467307196,0.8769226984,-0.1891536708,-16.0613190648,-3.3449393989,0.2117541224,-2.6653965142,9.8781955473,4.7313894635,-0.5552336113,-0.4139658592,-0.5648025509,2.7936571832,-0.3804116207,-0.2626289532,-0.1748567248,-1.1036239333,0.5959404751,-0.3106523951,0.2591137215,-0.6907261535,-0.2297766665,0.488331899,0.9497286806,1.0116766709,-0.3943353629,-0.0254799292,0.2350682102,4.0466032866,-0.5695513285,-9.9155936778,-0.3621204856,-62.3833438114,-0.825481358,-0.4243346907,-0.4369011015,0.030987707,1.0915894684,-1.1255883685,-0.2134723036,0.4906661357,18.1780188905,-7.5562470601,3.6520512919,-0.0153585966,-1.2861882118,1.9285869294,-0.8382203625,0.6167177573,0.7176826418,-0.24001665,0.5461996717,-0.1824458173,-0.7813532933,0.3115993614,0.384019091,0.6808256306,0.0380381909,-0.552030228,1.6965566641,0.5040655932,0.6370896947,0.8441788098,-0.8041254899,-0.8924956912,4.458024648,2.8860195563,-1.239444113,-1.5021248475,11.5757925604,-0.6015014264,0.1358861724,0.3066291767,-2.6486386973,-3.6061955588,10.9293099852,-2.7343655365,-0.8398463372,0.1915903181,-1.1319412445,-0.4239296524,-10.8579351897,-4.460546152,0.2915996626,1.3165104394,-3.527772658,-0.6834132735,0.5182285159,-0.6667727789,3.9231747496,-11.6150990365,2.1348077225,0.4105654398,0.3390310692,0.4413137857,0.4565488509,-1.0350453935,0.953316313,0.4249856129,1.0071638094,0.8946789803,-0.9589031176,-0.7477322966,0.9582009871,0.4364609567,0.1152853809,-0.6149812174,-0.4209063134,0.9761696902,0.889198569,0.012166574,-0.4611867717,0.3164180258,0.2796796454,-0.6597908437,0.3236923992,-0.4523836298,-0.5210911387,0.9875383304,-0.8809257145,-0.7660690119,4.7612006581,-0.0948779737,0.270513178,2.1381410568,0.408908603,-0.530099702,-0.0501554706,0.7127688151,1.5950700849,-0.8043971212,-0.3552937477,-0.3444904682,-0.8857253239,-0.4539070842,0.5132814915,-3.0021381437,-1.4585859206,-1.4033981124,0.7455465719,0.7336296936,0.5986935904,1.4394260763,3.4835634992,0.141862649,-2.0817562749,3.8391448697,0.5558441201,0.0654719588,-3.4418551093,1.2651396103,16.1010999659,7.9017725019,-3.2411022112,-28.9098909103,19.6359294553,0.009124232,-2.1486465958,4.237758332,18.9286893315,-3.7038466181,-0.69718857,1.9249156848,0.8753655577,-7.419280018,0.9122506475,-0.2073239811,-2.2709557078,3.602180387,-2.579370866,-1.0316904311,-0.8819150729,0.8200269889,-0.7405514342,0.29186062,-0.5066186319,0.3959994828,0.4774246068,1.096867977,-0.6437782067,3.0239280064,-2.0816465385,-3.8706809424,-0.2590626867,-0.792311101,-0.1028774699,-4.1080135723,0.0094765852,2.6568359587,-1.6871817406,0.5449437949,-1.3003436343,-2.3435761253,2.1805726145,0.2948494102,0.3662949844,4.0092885502,1.8076975167,6.652991673,3.6995243818,-0.6604280032,6.5630988178,1.1726867736,-3.0344075324,0.1112416055,0.118013009,-4.1280890028,0.7760875884,9.6660696543,0.1647203465,0.0686545265,-0.8337888783,0.3805180257,-0.0904865174,0.2930246388,-0.9060061149,0.7500216874,-0.7632480094,0.3046915154,0.4353163966,-0.6449149225,0.7564104384,-0.3793657511,0.5302840642,-0.1208850021,-3.0668940357,0.8613158596,-0.3451358424,-0.0340457507,0.5261958206,-0.3955289341,0.6839927926,0.2857255548,1.2043514925,-0.088013087,0.0697257089,0.600281492,0.0618592415,-4.1480334893,-0.6051645007,0.9077605461,-0.1426437901,-0.2019100465,-1.0369535394,-0.8276905417,0.4522691033,-0.201410726,0.1125181461,0.7135627692,0.795811139,0.714490121,-0.955537989,0.3948356397,1.0124963046,-0.6682822504,0.0494231227,-0.1716125957,0.5809306654,-0.8324340464,1.3594714282,0.595901436,0.1893259094,-10.6493991713,-0.132560661,-4.028260365,-0.7042677713,-2.9845697583,1.4518154195,-3.7419330592,-0.6486038428,-1.4251879307,-1.1053960145,-0.1095068856,0.3194294597,4.1421683749,-0.7332758863,-10.3649267024,-4.2270660539,-0.6781672098,0.5433493819,-1.5353528933,2.4939431036,-0.3201457024,0.4054143994,0.0956228572,6.3155053478,-1.5509394666,0.3869744283,-0.1583085531,0.0596943759,-0.8504967534,-0.3755880335,0.0909407948,0.9175458431,-0.9038477511,0.6006504312,-0.1799675873,-0.7770188251,0.8179140101,-0.4653637045,0.4232888154,0.3937566015,0.6524117441,0.1997512159,-0.3033288055,0.584095848,0.069813458,6.084432625,0.8238005576,-0.4862543747,-9.6749416092,-0.5255000886,-0.0259551597,0.1955977062,1.620428262,-0.0115814305,-4.9863836413,-0.1338363547,-0.6947325842,-0.6845240041,-3.0044662139,-0.0529914017,-0.0445212941,-0.5554076108,0.0593583142,-71.2755058926,0.4850162746,-0.2166154008,-0.9044990313,-0.5379075877,-0.9068444272,-2.0913815647,0.6059338099,-0.8828364096,-0.6495319835,-0.907565605,-0.7325108413,1.0159506048,3.7378879081,0.4546707482,-0.5037832704,-0.7013455499,-4.6669869728,1.1468897309,-0.5065212792,3.5146473408,-1.2193130763,-1.6323344408,-0.3579895889,-1.739170863,0.8114048,-0.1075661132,-0.7551233149,-15.4975407614,14.7341168706,-3.2701277917,-0.920142998,0.3994910649,4.6447506469,0.8934421585,-0.4628633769,0.974985945,-2.8365228806,6.1734624693,-0.3972428131,2.5186363052,0.5910107072,1.4071341362,-0.3363609413,0.1477742503,-0.0524265544,0.8377201532,-0.6428903788,0.7786646845,-0.4956876538,-0.0998630698,0.038315693,-0.0222396677,-0.1274517724,0.7204618015,2.2599388766,-3.399868463,0.9024272062,3.3723453414,0.4883060552,0.4019402122,0.6861106131,2.1934154496,7.5717975742,-0.1351690425,0.3924163521,0.7171674697,-5.0298145301,25.4821796742,-4.8426572942,0.2169174614,0.4259808061,5.3795204656,-6.8136082602,0.5268177986,0.4358965305,-0.5753421653,-1.188090072,-2.3146552063,-1.1763775091,-0.90901638,0.8477822776,0.963524464,0.2587176457,0.6808835432,-0.6851844411,-0.3207558758,-0.6848848001,0.851729753,0.2352513973,-0.5322115891,0.9351085897,-0.5049083244,0.1855504969,-0.7163103621,0.1591364139,0.3994066597,-0.5512445342,1.2288724011,-0.9161565333,-0.0759426255,0.2252652774,-0.4633981012,1.680388862,0.4509509706,0.305921809,-0.2732483941,0.9570490986,3.1198539116,0.6741741615,0.3627059602,0.226883587,-2.2069372026,0.2769382991,0.6863961125,0.5825199027,-0.357551085,-0.6422331075,-0.1870451322,0.8262559901,-0.416913295,-0.3782471738,-0.7914728659,0.4896580097,0.9661249077,0.9883558517,-0.7912279262,-0.0443146889,0.0140520641,0.7288889781,2.1747227181,4.0049299871,-3.9507168627,0.0233459335,0.2630018702,0.6779210464,-0.1108199451,0.6634484833,-2.7385166917,-4.2628221614,0.2573465633,0.3025840819,16.4458158943,0.0932692136,-0.4012201198,0.3836262479,2.5436814065,-5.6032880606,-0.8118027392,0.3735754098,-0.8180599094,-0.5778901998,0.8911369742,0.042780085,1.015115544,-0.4756004272,-2.6864582683,0.1985895353,-0.7869633547,2.1150600724,0.5418188916,0.43727126,0.0302094107,0.5607168133,-0.7192589509,0.3911598153,0.6723616436,-0.7860731979,0.2201705941,-0.2082581785,0.0991714791,-0.7251646475,0.739264683,-0.2269600756,0.0828750923,0.5151211356,-0.7546827721,0.4901668078,-0.2430487928,-0.6571094783,-0.0839152674,0.7124987912,0.2427837966,1.3684300563,1.8412438203,-1.8581809965,-4.1393602945,-0.9311398733,1.8831979052,0.6768080979,-0.8168599035,-0.073404888,-0.2973707241,-0.7872942099,-0.4518863483,0.3908827899,-0.5545986313,0.0448184223,-0.6372626108,0.0435627563,0.8743153761,-0.7554971923,-0.519020767,0.0624964991,-0.8631903657,0.1066260897,0.898040883,0.0920175037,0.6285926758,-0.3504508932,-0.6574041387,-0.8718485453,54.9782370237,0.1853819622,-2.6100422228,-0.8540014295,-0.0984513179,-1.0852493735,-0.4922639834,0.5542324574,274.9557073411,-0.4197691639,0.0237641321,-0.8134638707,-0.1800807686,3.4396976343,-0.7949225157,0.3385691746,0.6235691542,-0.6006041636,0.3523694738,-0.1260285634,0.6704015811,0.2064846329,-1.8292740902,-0.5953710368,0.1012537615,0.6033291983,0.6495554389,-0.4235940898,-0.0972222393,-0.4600201667,-0.7748718641,0.9886730568,0.3829528673,-0.5813727418,0.0765633522,4.5558560532,2.7827034515,1.3652987951,-1.2012181188,-0.8973070016,-0.7499308439,0.9034991387,0.230070337,2.0289439459,-1.0966503928,-8.7377075454,-2.0534118777,-0.3714685653,-0.6820240718,-4.5546699834,-1.5295600455,-1.9154414311,-3.3116523059,-0.0654965421,1.2886185636,2.1014420878,1.4207895167,0.1989093393,-0.5702463191,0.7388720478,-4.1989317966,-4.4704508945,-0.428204259,-0.2750503809,2.9723225891,-0.1017657574,0.4338487701,-0.4073851946,0.3298801077,-0.8836894554,0.5661694903,0.8235796577,-0.0337867895,-0.7248736102,0.0987679877,-0.5559780357,-4.3382610151,0.2767313524,3.5425092752,0.8955198742,-0.403815485,-0.261004752,-4.8990922098,-0.8201356309,0.7647113603,-0.0091610153,274.5712566025,0.9111099718,-0.0329629255,-3.4434421583,0.9671912411,4.854946552,0.4000946215,-1.4620803473,0.4796700132,0.718888305,-0.8157246244,0.0547690778,0.3028564202,-0.901205341,-0.8157361848,0.5861159865,-0.8253368418,0.9656435466,0.7358162622,0.8042869887,0.1028585,0.6163095639,0.1631868188,0.212972566,-0.2999899841,0.6657743303,0.031257053,-0.1287912852,0.5708179702,-1.6452065429,0.5826441228,-0.4854745075,-0.1306030118,-0.7874237805,0.26332422,-0.8999818544,-0.5270573629,0.5138856895,-1.8241286581,-0.9089436965,0.5320668544,-0.1774534141,0.6782242947,-2.4200449302,4.7823679644,0.9592016591,-0.5836023178,0.1531957656,-0.5141845646,0.5397919264,0.7735510263,-0.0880562098,-0.8006035267,0.1551313353,-0.3147355739,0.8031587162,-0.2568855045,0.2707081626,-0.2788403812,0.796046228,0.8940862421,-2.212683744,0.5990379005,-0.1647590908,0.2232879122,0.9247806203,2.5767109782,-2.5479484627,-0.7717743588,0.9162365558,10.2294297844,-6.6316674089,6.6007991112,-0.0337716792,-2.4097114422,0.2972478116,5.7163638621,-35.6557692937,-494.2608179487,0.4102679134,5.0308525679,19.2579653887,0.6837209874,3.5241479183,0.5410867667,1.0766319886,0.2574533034,4.5097064574,-0.1405208453,0.3203793174,0.650478737,2.2565283385,6.4112434108,0.3215023522,-0.1666209452,0.563345846,0.7037448724,0.5935456733,-0.0963250586,-0.8620591953,-0.2777421049,-0.2771151514,0.1304866156,0.12758536,1.5709349202,2.0644222912,-3.965368549,2.6978184312,-0.8726744526,0.1913195888,0.4126449202,1.0282760492,-0.4716827972,-2.9265115204,-0.5251249546,-1.7727105498,-11.9009857517,-0.0947050665,-0.0488027795,-0.9400037504,0.7167403493,5.1227139047,4.3930657189,-0.9957648003,-0.1982374962,-15.0783596734,1.3988777805,0.0877749495,-0.9283946147,-1.0161926667,2.6784406838,0.0497184828,-2.0405584235,0.5868778292,0.5089507101,-0.8343492515,-0.9779226113,2.2154204389,-0.8623906871,-1.0352468038,0.1317528309,-0.7085283399,1.2342735916,-0.8716274034,0.9058209092,1.4415842937,4.2079728289,2.1502531335,-3.8581083721,1.3925108255,1.8372154707,-0.5315074256,-2.0319084065,0.0744149664,-9.0018722314,5.4833379292,0.964742224,0.7737456047,-1.4491820473,-3.2540044489,0.7196723954,-3.9406549248,0.2275804008,-1.1347796239,-2.2588814535,1.3868974134,0.8588525011,0.6608148514,0.0280098957,1.9587747498,-25.7833950775,1.0660709944,0.1808934627,0.2641903951,-0.9531457714,0.8455352397,-4.6740793596,-1.5144500432,0.615865102,1.5857245374,0.5902834591,1.4654589534,-0.4276334155,2.9278455689,-2.8404276761,13.8186904905,4.8304466971,4.1548720791,0.9917044226,5.0629974423,-1.5937028926,-0.6152333177,-2.4476022115,3.6482974396,2.5125550151,0.8215677326,-0.7782986275,3.6939052969,-0.5915142416,3.8219599064,2.3094771933,0.9158268179,9.5922860929,-7.0967505799,-2.7571655639,-0.4631208898,-0.7478905794,1.0945586093,-4.3427670628,-7.4204193361,1.7552844963,-0.3257748156,0.3186598052,0.9667458125,0.1586493804,-0.8757330659,-0.4412954675,-0.5560109514,-0.0786592801,0.7015604274,-0.2329215214,-0.1238077144,0.1156672352,0.200287851,0.2290038222,-0.5821979966,1.4910768885,0.2105039444,0.4477655545,0.3381181206,-0.1387816853,-0.4937748861,-0.6941530129,0.0486429673,0.0856268848,-0.8866311032,-0.5142300065,0.436639854,-0.0775326162,-4.0711711494,0.4710315128,0.1555967784,-0.8183017414,-0.0045491909,0.1787696441,-0.9468372613,0.4166134705,-0.432354063,-1.9218516252,1.801788496,0.5747930145,0.7079203614,-0.2313262704,0.6454664677,0.8107688034,0.3698710684,-0.9384362698,0.9811994706,-0.1514908093,-0.0473285014,-0.1263568195,-0.7661216354,-0.4469802156,-0.1901584529,-0.5051769062,5.9453872156,-0.572244943,0.0465170611,0.7248940403,-1.0922298079,-0.2749372862,0.3102708036,0.0617990634,0.777785997,0.6058104251,0.8088748542,0.7013255704,-9.0851497088,-4.663344722,0.364243142,0.1275842867,-0.5465686277,0.0206289469,0.1745787373,-0.1443600017,-0.381596931,-0.2590132215,0.8891766426,-0.4666556167,-0.586508692,0.522363471,0.2256707377,-0.5942964199,2.6702763347,-0.7772499174,1.0147630519,-0.2552320451,0.0618647086,-0.154038896,-0.6308710612,-1.8182693217,1.4668130827,0.067797898,-0.696296971,1.5945367003,-0.0349500692,-1.3404485462,-0.041414758,-1.7775564996,-0.7578634424,2.8945169918,-9.5479512741,-1.0052938246,0.5936894992,-0.6500165927,3.0349636957,-17.7636087936,6.2854160718,-0.5239616891,0.9290108725,-0.0673173818,0.5291544049,-0.7559293267,0.5140763407,0.8034586985,-0.4112994845,2.8880099987,-0.4910633945,-0.0243055108,0.7523423863,-0.2640150476,-0.8513066268,-0.6131491696,-0.639874744,-0.1089544009,0.8705461977,0.5812904671,-1.4016233448,-0.3691069163,-7.6577627835,-0.3637414325,-3.4368616736,1.4213394594,-0.8975773867,-1.2156993662,1.6429417161,3.284303472,2.4992594433,4.0736088444,1.9295307455,5.7922574051,0.6136224197,0.1030171323,2.7380809022,-0.3170176274,14.476305149,3.4863884876,-0.8575988774,-0.6321245047,13.6897009655,-11.6369111965,-0.665494537,-0.0589142381,-1.110771874,-6.7045610492,-0.0061465668,0.0132390658,0.2315834571,-0.3078138238,-0.8182810589,-0.3711367193,-0.7769881839,-0.6945731991,0.085223937,-0.1327279105,-0.6160542997,-0.0631217669,0.0431046846,2.3478369646,0.0613718762,-7.9764415186,-3.5696931185,1.8720227948,1.1007384118,-4.6257347375,-2.5303867251,-6.4364268462,-0.2347344872,5.622328951,1.8469322546,0.2049970228,0.9326947629,-1.1274854455,1.6197601894,-1.198335898,-3.7479847889,0.2850756772,-1.3488196696,-0.5629048691,-9.7199536478,0.2271321274,-0.8236538432,-3.1215405485,-3.566127233,3.0396842267,5.5416920197,-0.5732644524,0.8911795505,-0.1889631165,-0.0234160213,-0.9392404465,-0.5423584498,0.6128622356,0.8874004261,-0.5041767293,1.0528382726,-0.8336893012,-2.5476043695,-0.8071828204,-1.6211239138,0.8180134005,-0.2607714651,3.649495059,-3.7454994841,-3.0397179143,0.9000115395,0.4866025376,-1.8767598417,-2.4395285314,-22.139830738,-0.9530810229,-0.8025221132,0.4848946786,-0.7022115883,-4.9171177486,-0.4452143747,-0.0437180105,-1.219739457,-0.4601040282,-0.9058749543,-0.6460695666,-0.1193659053,-0.6989627659,-8.8115734623,-8.0409148972,-0.3384024619,-1.3642177945,-0.3518394083,-0.612906757,-0.2610453468,-0.1100903924,-0.7761370443,0.0153372332,0.7349493331,-0.9036608671,0.6274360633,-0.2155540028,-0.3613735102,-0.7917449003,0.6363154693,1.1069307802,-0.0935528517,0.1776922208,0.2835204566,-0.3671590065,-0.4567212961,-5.0122453394,-0.5934873945,-0.3677351224,0.4611604286,0.9348511154,-0.9260279892,-1.1534253534,4.7375084749,0.6241996948,0.434061933,-0.3544706521,0.7796537839,0.7879530254,-0.910383651,0.0771736682,1.4273092537,0.7937794031,-0.4990499306,0.8749043121,0.0350828899,0.2951055634,-0.5356473982,-0.6170311298,-0.6490693447,0.2262600309,0.7868077766,-0.2625696484,0.8411189066,0.995003332,1.1006884863,-1.2812560277,0.3698985282,-0.7808481011,-2.2617514075,4.4223852769,0.3404519745,-3.1447411304,-3.3141591044,1.9689074683,1.9986389169,2.6147429666,0.0095838798,-0.6955787557,-5.118903845,-1.0280412665,-6.0877893531,-5.0430819432,0.6581998308,1.9362164313,0.2261228976,-1.7774942043,-0.2052706679,-0.8240434173,2.0610790921,-1.3671059784,-6.9286252588,0.8360285404,0.6649118651,0.4220161249,-0.9368641021,-1.4774731083,-0.4039353464,-0.0624469776,0.7096132579,0.6482430478,0.133697068,0.2015082823,-0.7473880341,-0.680745976,0.1626412864,-0.1637811009,1.0049572906,0.2166047116,-0.0853714835,-0.5521653228,-0.5578372723,-1.8045205836,-0.1190134357,2.356493438,-4.8585439404,-1.249044959,0.3629196572,0.5253219951,-0.4534940641,-16.242716368,5.3232242891,0.3363040599,0.4401266056,-1.8991557154,-32.3691259285,1.0519495661,0.7274256655,0.8550455543,2.4387314395,0.3503528512,-0.475953425,-0.39478878,0.9202035443,-0.2987290888,-0.055809902,1.5389405296,-0.7285964699,0.5568605482,-0.1370341935,-0.876003359,0.508887357,-0.422174507,-0.8362468415,-0.4231265158,0.5509497764,-6.1383206831,-2.5215378926,-4.0988143552,0.6846582758,0.6278292734,4.2550594446,0.6649364077,6.3850715776,1.6486136514,-107.6369811675,0.7843244727,1.935968756,-7.6435346491,2.09136804,-3.6502090962,-0.6227865655,0.0254898378,-0.5514356122,1.7433196497,0.0030489328,0.3909772678,2.4712749727,3.4427992717,-14.6953125405,-9.0434930256,-0.5423223337,-0.9019139269,-0.6892353336,-6.3738354769,-11.1182807344,22.7100859952,-7.2514144896,-3.8423764267,-3.4342202926,-0.4740111792,-5.3602294582,-1.0255730206,-0.3251221262,-0.2788324644,3.0873585965,-6.3485016786,2.753890022,-2.1618411318,-6.2029262286,-10.7387452499,-0.3754775421,-4.9144177937,4.8187999495,-4.0136017767,-0.8231824189,-3.2962690263,-8.1954016937,-3.4184689547,0.6063910008,0.7455252734,-8.5630128181,-3.5671518754,-14.4447161107,13.6461485468,-0.5439697716,-7.6723497082,-5.3480992855,6.9318469101,-0.963206937,-0.7583695686,-2.0936077157,-3.9445489044,-0.5148697486,-0.8839271971,0.6427028442,0.853399144,-0.38736674,-0.7258535954,-0.4309838029,-0.3435154215,-0.2411909972,0.9020972482,0.6989523732,-0.5042999493,-0.9315567313,0.8092713244,0.035969907,0.8939647148,0.0051638319,0.9562293752,-0.1117063228,-2.1629330841,-0.216397331,-0.8535798601,-0.2528357794,0.5596307952,1.9889848443,4.9100344471,-0.8634496359,-0.3169311933,0.3638752979,-0.0094467245,-0.2041700182,0.4597616417,-0.1309352076,0.3975776514,-0.0190219584,0.6693057487,-0.725468912,0.0001432943,0.231723821,-0.6367859943,1.9367263108,0.7651154969,0.8340559615,-0.579634454,0.0414653778,-0.3334736422,-0.7625960766,-0.4459191124,1.5752443037,1.6747213696,-2.1872163876,-1.5725556588,0.4483397042,-6.3773800649,-1.1313742067,0.2377834442,1.0972351459,0.5840461675,-1.452714813,-15.458270654,0.644669867,0.6739625291,5.4545550736,-14.5839013961,3.6802500396,0.7103534377,3.6648379571,4.0168412946,-4.1484837662,-0.5115689032,-0.5575967792,-4.7353010819,-5.0949946424,0.9473822843,0.8917271809,0.9271309347,-0.0430840483,-0.5800059024,0.6717338087,0.303334798,0.4212559256,0.5648912019,0.4200954599,0.9059977401,0.9218815566,0.131632226,0.5937158807,0.4273150215,0.6922859888,1.7462118597,-0.146482853,0.7243272174,4.2693679374,1.3928036665,1.1547147513,-0.6196938083,-0.5107508241,-3.5429376406,-0.9029386319,-0.1754270946,-1.0081876401,-0.0881919425,-2.4618210608,4.5814704932,-0.5409864409,-0.0722601366,-2.3642467776,0.8863481172,-0.2456978809,0.0472309082,-1.9226373562,-0.0621935156,-16.4444790469,0.7508217873,0.9417196968,-1.0407315536,-0.1828015833,-2.2352895669,2.0615132864,0.9230423892,-0.0276152863,0.8872050747,-0.4222313278,1.5693843638,0.3283334981,0.2002414792,-2.7144173004,0.5958529266,-0.5482594155,15.7259804106,5.6190688607,-4.4633642018,-0.9169374535,-1.7094876971,0.6968555067,23.7249939368,-0.7748507879,0.5427711882,-0.1098983563,0.8875953488,-4.6957281383,5.774760283,-4.6401147256,-0.5798684999,-2.6769753431,-1.0213470819,-23.6786748943,0.5350676132,0.3027528214,-3.5465978541,8.0261864042,-0.5745180783,0.3078013137,-0.8017006935,-0.6351942196,-0.546931398,-0.6837904489,-0.1860503259,-0.7375632128,0.3374557209,0.2728445364,-0.4375402462,-0.5997609345,0.4332997005,1.0129000355,-0.9915457954,-3.3166123066,-0.2783006198,-0.766596327,0.8887064337,2.034327704,0.9879266403,4.6727697249,-0.2736231497,-1.995365419,5.7797127834,-0.6082704556,-0.0141485999,1.1114520827,-12.1398916708,-3.9379062808,8.2753670597,-0.8307958543,-0.534617956,0.8296265022,-2.6838074241,-0.5398761872,-0.6595072568,-6.0228895895,-1.1384359895,9.1517580207,0.6718538809,0.9663348719,-0.1436644829,-0.1605109405,-0.445230804,-0.1501410061,-1.0199395995,0.3502333589,-0.4848012069,-0.0709243528,-0.443817514,1.0036430013,-0.0957039845,-0.2542054121,-0.0331684092,-0.8477959571,0.3320056761,-0.9434313161,-5.4922692269,-0.8328558318,0.5498195688,0.8094683263,0.6998018997,0.850955893,-0.9952171103,0.9694991726,0.7724375418,0.8013125072,0.2401861545,3.7581477804,0.816125608,0.8408174906,-0.1757472716,-0.1998992911,0.1541130407,-0.9852983262,0.3236473952,0.0417196227,0.558250442,-0.5050078075,-0.8192279869,0.5936966873,-0.0953271338,-0.7184449358,-0.8433861898,0.1656607956,0.2844794347,0.132245484,-0.4581590654,0.9278271417,-0.089521137,0.2677177835,-0.4625215436,3.1547856181,-0.7931770384,-1.9080327668,-0.3642077688,0.3265417208,-0.360477154,-1.1300203211,-0.3126891219,-0.503165553,0.0623829348,-0.4548952372,0.2089875924,-0.5269006775,-0.25696991,-0.9998453677,2.8997270777,-0.7127433306,0.5417230628,-0.1693677761,-2.3606847103,0.4524249283,0.5625126444,0.692024488,2.4527320863,2.2498324353,-0.7124610355,0.6242276596,-0.1120637219,-0.8821865592,-0.9988808747,-0.0494560363,-0.5659420394,-0.1571575878,-0.4801264807,0.2004206422,-0.3966767603,-1.0193061299,0.055802543,-0.2496253049,2.1835705795,0.8083098046,1.0703728319,0.8608508515,-0.372603788,0.6743944773,0.4955049653,0.4890217556,-0.3695754895,-1.2629539238,1.1983899551,-0.9101866334,0.3505842693,-0.2589445776,2.3152625044,-4.3696493189,0.9868260827,0.0030493502,-1.7699445945,0.7855278428,0.8632476685,-0.4243551201,-1.3273146183,-0.5541904944,-0.0270183433,0.2455730379,0.999801755,0.4487804244,-0.3498547907,0.2736617637,0.75292528,0.4934466895,-0.6780817555,-0.3963503812,-0.7905286964,0.2064451295,0.2227243461,0.1196371026,-0.2130988652,0.5816480402,0.6666297619,0.574680957,-1.9909541687,-0.6351605595,0.8712347895,0.5946864705,0.1809646472,-0.8304667985,0.4216582453,0.6479086485,0.8425560369,-0.0518227505,0.0385282624,7.2382872519,4.9717180479,-0.0966509893,0.9180251353,-0.5864044537,0.019958123,-0.8389435002,0.7697347374,-0.7281283482,1.7385236011,0.5865502347,18.3664179171,0.0820516493,0.4179710649,-0.016923285,-0.0951542475,-0.1207454199,1.2366343611,-0.7572580498,-0.3913654682,-0.1822376255,1.3737444867,-0.2022885153,0.1054187004,-0.56416037,0.409058294,-1.0650616731,-1.055665233,1.0592525018,0.5501153135,-0.5453044007,1.0531770989,0.2470771196,-4.1330133711,1.4144436745,0.2509507866,0.2617568286,0.4199056766,1.6421591871,0.5226787069,-4.3741485858,-0.4726978119,-0.6498315459,0.9799527645,0.4976460507,-0.5742926659,-0.7320414585,-0.9723241646,0.2747252334,-1.0072084705,2.3379968992,0.9848011173,0.3002487991,-0.9825523564,-0.5952728879,-0.7578467367,-0.529007474,-0.1107563169,-0.382686417,-0.1118173752,-0.5114433944,0.60269163,0.2168485526,-1.2402672196,4.800079786,-0.9062802536,1.3643906369,-1.1622966476,-4.0682265844,-0.3813207325,-8.8792421592,-0.7877002255,1.7111916769,0.7592314777,0.4017663251,-0.9931619447,3.7665416807,-1.6539374452,2.765108141,3.8142126749,0.4247122265,-1.0902942698,3.72784582,1.8026546362,0.3549461025,0.3215602363,-1.069997989,-3.5886394164,10.4653214338,-0.7547566645,-0.9847558755,0.1309722372,-0.7567175033,-0.6612098998,0.3633545883,0.7533555936,-0.7852570482,0.9886425368,0.6340318707
   -0.7042684067,-0.4790214607,0.7248423021,-0.4570365183,1.2824869816,-0.4386350021,1.108521675,2.0468945102,-0.2578040992,-0.5701856111,0.1354637039,3.0055047781,-4.1331275021,-23.3376125792,0.7008353613,-0.2822033797,-0.7909568799,3.4539677531,-3.5615786547,-3.706469107,0.3561731984,0.1846309323,0.3424600153,-4.3282783489,0.4118576775,0.7159188733,-2.5027572109,-0.841448578,0.3471017356,0.783566691,0.4257044464,-1.1857593449,0.4219117068,-0.0669611693,4.9464692948,0.9847280948,-0.2152934162,0.5430483019,-0.0411368174,1.9403434206,2.7012970295,0.3374612656,-3.4638081362,-0.5844787114,0.0456611028,-3.2491602329,-1.1321371222,-8.5453780828,-3.2624160235,11.8616582161,2.4634097921,-2.0070965818,3.234776735,-2.4373518115,0.6335042359,-0.0470634636,29.1339039566,-34.4208942546,3.6777299582,-0.197129103,-5.5080394737,-6.5509855173,-17.8033577403,1.0191460194,-0.482321603,-0.3270817791,2.7797480954,-3.9030104226,12.0832858646,0.7618430116,-0.7820427592,0.3065225338,0.8184067608,-2.3109139184,0.9195543231,0.1578432959,0.491578302,-0.0610719383,0.5239381249,-0.4420334797,0.8727504058,0.8003401024,2.299640777,-1.6056429452,0.0899375372,-2.1537997277,-0.088279901,1.5364178804,13.8412051088,-0.0176246376,-5.2086505591,-5.12503061,-0.703327616,0.7520020584,3.4548550283,0.5907571172,30.2437014109,3.9645317669,0.6523862377,5.4672099935,4.5934871071,-3.0747431613,0.4418108915,-0.8211984987,1.1864153207,1.6963855727,-5.1151271035,0.1923542627,0.0063797296,-1.0885005287,-0.6693728529,-0.765303741,-0.9341412214,-0.802100269,0.1370466842,-0.9391169733,0.5212692584,0.6775059047,0.446725639,-0.4293340468,-0.8654401522,-3.0902749451,0.0382541583,-0.5213304306,7.0977926571,-12.6013862296,1.3416163924,-0.1610842226,-0.4061136366,-5.7193327991,-0.3787639468,1.7737037165,-0.4414915719,1.1635321149,1.3527245558,-8.1852142156,4.893099026,-0.8625588333,-0.5365255612,-17.7115247543,3.7293975601,-0.5519951414,0.5474105587,0.5364075219,1.7796491172,-3.2028756445,0.4354733667,0.5302932605,-1.0186325237,-0.5365741866,-1.7500124395,1.9635022791,-0.2643922397,0.4086619875,-0.3882794787,0.002191876,-0.7045988024,0.3674969112,3.6981240466,-4.0957432721,9.8302196934,-2.2181252928,-4.1616112117,-4.0929774942,39.9267357111,0.8094614699,1.4812517131,13.8347776637,-3.9623622383,-4.4881713618,-3.5242681997,-0.4227791305,9.1155296647,8.0996413374,5.7834646792,-3.8752640445,-0.1545400783,1.050197787,-5.2999965435,-8.347360429,0.7007502988,-0.2554710951,4.6003780155,-1.1585907957,4.0697274146,-8.2177043652,-0.7808391674,4.4893235116,0.2423010614,-0.7501729179,0.2838733576,0.2203481015,0.10474431,0.9837467513,-0.6167566962,-0.4672565423,0.1806903893,-0.3378221812,0.0104554559,4.1264200394,0.6845177707,0.6046656152,0.5499422874,-0.2580441994,-0.5029592001,3.365910489,0.8164875707,-1.1509879924,-1.1541458786,0.7978319331,0.6587883912,0.3501885428,0.8235602875,-0.8210713783,-4.9581470389,-0.9288861667,-0.7459082848,-0.9592408173,-0.1831785095,-1.0232575478,0.8137028133,0.7503580456,4.4914038299,3.1422945122,0.7523847752,0.6734853609,-0.2520321098,0.9466683717,-0.3855648513,-1.5282325525,0.4425567713,-0.9040184907,-0.0346072329,-0.6161837308,0.4071924821,-0.0157822044,-4.0857645868,0.8787463268,-1.2085198535,-0.8753545993,-0.7720320309,1.1326088145,22.1941334805,0.4123829341,-0.4529337046,-0.0640178444,0.5867832375,0.6956329523,-0.0255790148,0.5738525333,-0.1601453236,0.2322440999,3.601383197,-3.1624464433,-0.8581323232,1.0423070725,-3.0086421707,-2.4480314508,-0.3500945321,-0.0162668671,0.0012919796,0.8572195679,2.0940608564,0.9434749111,0.9822352836,-0.6202238249,-0.8251568027,0.064733497,0.1883536465,0.6898107646,0.8337785588,-0.2362050492,0.9657105821,-0.7608082879,-0.2221632643,-0.5113906619,-0.1435606119,1.4108572436,0.207734265,0.0711728313,-0.122514191,-0.0358128569,0.1145903826,-0.5946665555,-0.023127759,-0.5515960626,0.3792793956,0.0261163245,-0.6622291234,-1.8069341472,-0.9503832579,-8.9069297139,-3.7694616687,0.9978081724,-0.8300264215,-0.2341526004,0.3621116337,0.0158951382,-0.0958073554,-0.4217098337,-0.856111184,-0.5563419375,-0.6810859451,-0.4666587559,-0.4182758544,-0.2194537272,-0.5216145461,-0.1550636138,-0.2188673997,-0.7019563369,0.0486233895,0.1221945418,0.2769503454,0.7973751241,0.589194735,0.0504019178,2.4332766823,-0.287368931,0.5261526357,0.4373252783,0.9648510882,-1.2061531085,-1.1104147116,-2.8353354474,0.6440459476,17.7856525576,-0.5363728205,0.2643871742,7.0349434492,-2.9291282622,2.5954672213,-4.9830028371,-0.5889438221,0.0278793142,-0.4783993558,2.1173106845,-0.3580525848,-0.1542446553,0.6777640637,-3.2235592345,-2.3958089233,-0.8139905657,-0.016711175,-0.6266447359,0.152878966,-0.8766843302,0.1093226516,0.8020008344,-0.6543172881,0.8975361523,0.7195774678,-0.4533456894,-0.6981357035,-0.1562466087,-0.6648780388,-7.504009329,0.0454600869,2.974480299,-0.2939313069,-1.8114255761,0.2134821053,2.4795427362,-0.7469101964,-0.6661831667,-0.175705662,-0.7995704286,-0.9122062362,0.534546176,-2.2190172423,5.4958128722,4.5238840686,0.4421638648,0.1838904143,-0.0017245583,0.151143245,-0.1116606367,-0.5165609184,-0.812568847,-1.1642457152,-2.5515994964,-0.0226097928,-0.3248079109,0.1330204911,0.3617948179,0.4958901219,-1.154008821,0.5119907639,-0.604139214,0.5541581554,1.0179268656,0.381584683,0.2314241671,-0.8536887569,5.4171348359,1.9651944604,-1.1652650708,1.0159520146,0.042207115,-1.2938967103,-0.706065382,4.27003382,-0.3740119604,-6.9549810348,-4.3933489812,-1.496276341,-0.12225249,-2.024384249,-0.2026490062,-15.61954564,-4.6071507978,0.7899737366,-1.2937628572,-1.4781512185,-0.1804575882,0.4039355432,-0.0238366467,0.0823649851,-2.7858797437,-4.3681808188,-1.3504545177,0.6826761224,3.8077781811,0.0055749038,-0.5982770956,-0.5067207407,0.2850588211,-1.4315152163,-0.0758076703,1.0553318225,0.164321488,6.6426737535,-1.8513013811,0.3071006399,-0.6722193921,1.6860410974,2.0493742825,-0.3117375032,-4.1100692474,2.9046625316,-1.3393554089,-2.4178292369,5.5403752154,-4.0350007468,-0.2832581984,0.5250293471,-1.0678464183,6.0533987026,-6.5514467885,4.7450342878,0.2959273044,-1.491603185,-0.6822009315,5.6626077968,-0.8903490558,-0.6660752798,1.7643765911,3.9528437061,1.5410104415,-0.1329549146,-0.8490819092,-1.7325217657,0.648603519,0.5062491367,-0.2178088071,0.6161987247,-0.6997464488,-0.4533274935,-0.7788844962,-0.6996108617,0.7475407313,1.003530403,-2.526744945,1.3164509919,0.1556717879,-17.5141014963,1.5506940878,-2.9431183517,1.2608500167,11.4798936769,-4.3600785578,-2.1928827213,0.5882801723,0.7778481697,-0.3268412004,-1.1589199711,-0.7034774681,2.766376355,4.2067693213,0.5136098906,4.5043868374,-5.9404579158,-0.6195921809,-0.6293064421,0.6645199031,2.5766160444,38.8397845155,-0.8566827556,-0.6371724161,0.7368063469,0.8488416222,-0.1035416368,1.4442365659,-0.5021108988,-0.6809327348,0.4134574245,0.6007080327,-0.052589906,0.4450392681,0.22659225,-0.4175994933,-0.3480832233,1.6218464979,0.8784779708,0.6488240671,-1.6331085078,3.9676691981,2.0263723705,9.4303652291,-0.4093367686,-1.7779065572,-36.9575900581,-0.3504821141,0.585779893,-0.217332917,-0.2007108228,-4.9282698155,-4.316945174,0.9273565206,-4.8007883533,7.2321044507,-1.741178904,-0.7236047766,0.4775872228,0.2074698029,1.0638428226,2.9787044377,-0.1850154399,-0.0744602387,1.2606210858,-0.7640230967,0.7316261476,-4.9864790612,-0.8858148503,0.9792820418,0.2743531434,-0.2745428568,0.794510497,0.8139599508,-0.4965299226,2.6778588199,-4.4379149937,1.7294554482,0.5356250488,-0.1286303795,0.5863310423,4.5736663836,3.520635847,2.9194368592,5.4001962536,1.9000763652,0.7653680103,-0.114780638,0.6506807798,-3.2571925291,-0.0610229986,-7.6139774617,-0.5709162846,9.9847481564,-3.1126188534,1.832138813,-0.8414249306,0.4357681886,0.3755192311,-3.1690345995,-9.3323925671,-0.3686148277,0.6798150426,-0.1965613451,0.8014027745,0.478288747,0.2888154235,0.6459201976,0.2528178117,-0.955719269,-0.897556887,-0.8693656444,-0.014680024,0.1008479893,-0.1992541025,0.5042852641,-0.958059568,2.145705684,-0.2244622675,0.7066818286,-0.0090441315,5.1359447002,-1.0177684722,0.8300480934,2.7970792518,0.0001772564,0.9061070997,-2.1039895243,-2.3235021932,-10.0630334282,7.8673508143,-0.8395896926,1.5452160569,-0.3696609555,2.1704152387,0.7795088503,0.8515902571,-0.8775631768,4.0446589886,0.8827550748,1.0510500662,-0.1134985299,0.1018292715,-0.899867244,-0.566165536,-4.0036593584,0.5164829067,0.8956901395,-0.0316809519,0.904932956,-1.4888138231,2.8612543303,-0.3912482986,0.8800417977,10.1916770758,-1.776019817,-1.913821226,3.1383014907,-4.5059724583,1.9217095139,-4.4841465176,1.0850583886,-1.8969517802,2.3297278938,0.0399839507,0.4336002215,2.6528719111,2.6803953427,0.454709666,-4.5285412613,0.0544963195,-3.0280211255,0.6858213212,0.7181903415,0.6823458122,-0.0583331478,0.5315175719,-1.5750331654,-3.2423569386,-0.8871702026,-0.358081021,-0.3970267987,-0.4535538738,0.9433860007,-0.2260492978,0.3327098706,-0.850826826,-0.6361089792,-0.1431683239,-0.2267922403,1.017232933,0.6505428885,-0.6789242304,-1.5163633176,0.1956421734,-0.1868818466,-0.773118536,0.2417585408,-0.5225777199,1.1203467098,0.0242520167,1.1244368997,15.169092622,0.4112428672,-0.134932064,0.7945128335,-0.8923726447,-0.2730443152,4.4288646113,0.840049874,0.0496939067,-0.9763892762,-1.6057910823,0.9361759702,0.8183790249,4.0030814685,-0.0801934417,-0.7174756113,-0.0247288436,0.1342136008,0.3839072566,0.4040929627,0.0263257717,0.3452266349,0.3780346178,-0.1255394901,0.824225009,1.5427546919,-1.2953595334,-1.8566208223,-1.0502966022,0.1212744814,-2.7901866682,1.5524023823,-0.3528704316,-3.3800970746,-17.5573015909,-1.2801080892,-0.0295907153,2.3977499744,0.8931974197,1.894639854,-275.0936467914,0.8582690311,0.6187926008,-0.9946982097,1.4941684939,-3.3047941768,-0.3023669046,-1.0127425411,-3.3255420754,-5.5947216485,-0.0408441725,0.3157980504,-0.3168581207,-0.0620065386,0.0227556141,0.3617682508,-0.0332128653,-0.8696112448,-0.131168336,-0.83165283,-0.3664724565,0.5079168421,-0.1139792824,0.8249413535,-0.6973073444,-0.2116078661,0.9727920442,-0.2374899867,0.5169712666,1.1569211265,-0.093592746,0.3475519841,0.5740970126,-2.8700423761,-0.3005463863,-0.0983576429,-0.209867036,0.2973509417,-0.8886408792,-0.0853353078,-0.330376404,0.2502369152,0.6886291736,0.5725155585,4.1464603498,0.2079638146,-0.0135699254,-0.1761854671,0.4932477107,-0.7804661785,-0.2204778768,-0.4813823673,-0.8415381127,-0.4566284257,0.5812971917,0.1184727341,0.1819440526,-0.5911654591,0.8339598625,-5.8162439161,-0.4013427357,-0.5741727705,-0.2958515485,-0.0389958412,0.1001201609,1.2721467768,7.0949422613,7.0117152162,1.4537823976,0.200777719,-0.5147472518,0.830964952,0.1765450314,0.3039709012,7.7688844106,-4.662757333,-3.1416972566,-8.8043519748,-4.4601826944,0.5295142296,2.9394788833,11.5998366005,-0.8793095385,3.0960438872,-0.2564470578,-3.4017950322,3.1288027769,6.6414198095,-0.3130492771,-0.7524397204,-0.1587085667,6.185709148,11.3632368728,17.4719058897,-0.0142005128,3.3267712121,0.973059698,-0.7923877257,0.1155487593,0.4549635151,-0.1894399459,-0.0794061401,-0.498847118,0.3874283553,-0.7480299763,-0.1699254234,2.0213987933,1.009496174,-0.6509039226,0.0236356931,0.1715622055,-3.0900581801,0.6221698571,-1.2803305391,0.472788701,-0.8297698433,1.3249487244,-0.384885943,0.6080918795,-0.7897299355,-5.1874386514,0.5418454641,4.8256502339,-0.1602959731,-1.9381543843,0.9357852091,-0.0412173339,-0.408976579,-0.9550807373,0.1615208795,0.4115254949,0.6739833534,0.230156079,0.6333059536,0.7586253109,0.6578124247,0.9012651461,0.453115253,-0.5869828694,-0.6569633206,0.1797727299,-0.5508091205,0.9777254439,0.8373055786,-0.4954995268,-0.3608537702,-0.076730743,-0.6983326382,-2.6371012766,0.5652411348,0.9104243621,-0.3809665803,0.0002908169,0.322909243,-0.7363190193,-1.8936573451,-0.6931693664,0.2741333895,0.2478737199,-0.2781509073,22.9462326725,-5.8310977932,0.9286488881,-0.1208818776,-0.8343736872,0.9292014618,-0.6597620916,0.2303658841,-0.0239916599,0.8188365339,0.8635372224,0.1242975373,0.5846255587,-0.807539712,0.3357870704,0.8301481323,1.6786099317,-1.0279845299,-0.679400363,0.6251495051,-0.9861177739,-0.8423160739,0.2191320154,-2.4262712901,-0.7366831215,3.4554223573,1.0015885502,1.4610731627,6.1090565511,2.4618967699,1.3019982239,0.3430030606,-0.3311228011,-4.4106264035,3.4391381639,-0.4263627073,-0.0531509263,0.9401687629,-3.9739451807,-3.3745162601,10.2707714443,-0.9483531033,-1.4258586717,0.8082725401,8.1309071254,0.2970706583,0.5830184434,1.7936077029,-8.1553919951,-15.8269009355,0.879637248,0.9385055573,-0.4744067099,-0.6745700358,0.1147099191,0.2040387049,0.7263202578,-0.5164037054,-0.0067699282,-0.3546482299,0.5756213213,0.0414381226,-0.7274756871,-0.8368081222,1.7651184775,0.7169393835,-0.6949911962,0.596826281,2.4020890098,0.5164961473,-0.5952743752,0.0797920655,3.1948706345,-0.295852849,0.7575064823,0.5981139297,0.7966374919,1.5233582149,2.6381114014,3.4398039378,-0.641493311,0.6826518151,2.226654607,5.2988564156,-0.290482384,-0.7397739448,0.0278853766,-0.8399558734,0.0825933358,-0.1743506777,0.1176874876,0.8372024859,-0.3600366824,-0.7931845599,0.0773259581,-0.0118824149,0.5488736759,0.1665002014,0.2135786294,0.9941548081,-0.8790459114,-0.8852885077,0.2483780668,-0.4668413821,-0.3268556451,0.0569111447,0.4176227688,-0.6454191494,-0.4749695378,0.935090444,0.8594666837,0.1229602195,-0.8218752743,-0.5097934089,0.7556579307,0.0138981713,-0.023716879,-0.9148828714,4.876325573,0.7460639252,-0.736269694,0.5060537143,0.3806524534,-0.33467809,0.8267405284,0.6636046445,-0.0252799158,2.4059067692,-0.0318867128,0.1595340647,-0.0308825218,-0.1609589613,-0.0610836304,0.4852331457,-0.7479512541,0.2224960222,-0.8946562122,-0.2038906123,-0.4707861637,0.9519998525,-0.6734284325,0.8353669952,1.1277465245,0.3575990946,1.2130868653,0.3299057613,-0.4563520738,-0.3827237508,-0.7372895022,0.1276626146,-0.9514363443,-11.595746845,-0.1338663429,0.4278742845,-0.3595180144,-0.9911123623,0.9480774829,6.2781878597,-0.4856280421,0.3960564004,0.9262728817,0.073865085,0.7310962814,0.1270008595,0.2958062855,-0.3109068921,0.4023285338,0.2890785684,-0.4733496874,0.2507003718,-0.55425085,0.1388822287,-0.8198274713,-0.143046292,-0.1584702341,-0.6986697058,0.4127333534,-0.519684447,-0.120913395,-0.095390167,-0.1414299209,1.6076276439,-1.7114864905,-10.0894095477,-0.8158802903,2.9762246859,-0.2564429714,-8.5475874409,2.9851328771,0.3173290852,0.8207363464,-0.0069892012,-0.0747414283,0.7867028642,-3.0795754438,-3.8470897873,4.5391768044,0.2308904758,-3.9399337765,3.4712648112,-9.3415145397,0.791406118,-0.2857236654,0.1317313438,1.8088031187,-5.9218450695,-0.2478506553,-0.7916717137,0.4666139214,-0.091060808,0.246715435,-0.7846116449,0.6659605893,0.8036450419,-0.3049229371,0.774640401,0.1014542233,-0.0733318879,1.5357132736,-0.0897525964,-0.5643216708,-0.14949691,-1.6374868609,-0.2108809301,0.6590881197,0.1025804847,-0.4218287394,-0.3221823894,0.3803178116,-0.7585170777,-0.6309431979,0.5625676818,0.106718031,0.8451192057,0.222967702,-5.49552356,-0.8569239489,-0.4070320878,-2.9834043125,0.5020835187,-0.6815756696,0.7588493525,0.523724098,0.1591870859,0.7862432627,-0.8904686116,0.6223867031,0.1780800723,-0.6378954698,-0.4851884949,0.4871436349,-0.562296353,-0.2652442019,-0.5462438671,-0.4946050194,0.328374885,0.9652611373,-0.7998464911,0.5642720198,0.441960362,0.5408581018,-1.6212528369,0.3958095448,3.6070688917,0.1651828673,-0.345676895,0.8627565389,-0.745414083,-1.1714264909,-0.5711881177,-0.7987196789,-0.1365892157,-1.2457666517,-3.9168083214,-5.0353595114,0.2538300973,-0.5648104604,-0.8277090737,0.3788048909,0.5024274839,0.7578666731,-0.6526221526,0.7409651673,0.8362539065,-0.0213798833,0.2091513952,-0.4550552172,0.5822556148,0.577077536,0.9246972968,-1.3919557223,0.8303390855,-0.8026883752,0.9256941649,-0.8226555862,0.8063739999,-0.5794878541,0.9376082032,-0.8782703992,-4.8143497574,-0.7385594504,0.426230306,1.2821625613,-0.410255755,-4.811069502,2.8200813363,2.5758476853,-1.983834483,-0.1704193225,-0.1386161461,-2.2683235059,0.6476549094,2.0092227857,4.6012893738,-0.982590883,3.5883290424,0.3932118939,1.5671871829,0.1572727257,0.4959605054,-1.1230435927,-0.1801319101,-1.7525308306,-0.0609253585,0.5870760743,-1.4463501085,0.5080713588,-0.1967810433,-1.3250792614,0.4772129502,1.3697714604,-0.6737550404,-1.0457639711,-0.5821060268,-0.4081344731,-1.6529140612,-0.5712868363,-2.9144025481,0.5878517515,-11.1368822634,-0.5218378318,0.5360344225,-2.4515944171,1.784976895,0.5957849063,0.0309328932,1.7169485628,11.928120806,0.9311895677,-0.1899370612,-5.9725248649,-3.1369787919,-0.8390948927,-0.6757686099,0.523663154,0.9640353015,1.3965181637,0.4869920693,0.891080114,-0.2045728144,-5.1786565106,13.1252541755,3.3974814518,-0.9011581866,2.0830392434,-0.153622745,-0.077038849,0.593199899,-0.1863314842,-0.1840062628,0.1538997364,-0.2538122994,-0.7136915839,0.7218113876,-1.2126635493,0.7044764801,-4.5917556995,-0.2298695342,0.4250576496,-0.431214229,0.9884116417,0.2893962936,0.1395701892,-0.1528482746,-1.1935379047,0.6231933263,0.6086854052,-0.0400554561,0.3147920403,-0.736674818,-0.1456572428,-4.7191157249,0.3885246298,0.3632469414,4.9001906261,2.9129661806,0.9094081103,0.9841508791,0.2396850466,-0.2034661622,-0.6186230788,0.0155119948,-0.3105759329,-0.9803638326,0.9309737877,-0.2532002087,0.5228360873,-0.4115301973,0.5838379929,-0.6990298613,-0.3212896125,0.456598076,0.2296971944,-0.8498419388,0.2498255118,-1.7428532729,-0.7379267572,1.6720993492,-0.7250980493,3.0178380014,0.7782798172,-0.1584777352,-4.9851748721,2.4740402397,-2.7165637617,-0.4675958248,-0.8934691585,-3.7594253689,-4.1346326007,13.0219453465,-3.8672853923,-0.9536807136,0.140683773,3.2136876522,1.398680557,0.8910780969,-0.2683974976,1.7118638504,1.6712812924,-0.4185152447,0.678943707,0.55954889,-0.6459381183,-0.4795222045,0.310733867,4.2666174148,1.0054319077,0.9301827664,1.0041411538,0.2213848988,-0.3307047081,-1.1121424255,-0.9504855979,6.5085893596,4.2626518301,-0.2454299465,9.7729878861,-0.0800185151,11.8818368725,4.0193601617,1.1609424319,1.2606783017,-4.9369603643,1.5644487634,102.7769452721,-0.1119861953,0.8562634908,5.0925112534,-3.8511385309,3.562868129,-0.9919300564,-0.6326109293,4.9854372089,-16.4539954672,0.829975615,0.139721125,-8.2338070185,-1.0115644891,-6.7466500024,-0.2117714807,-0.0122131384,0.1746042002,0.8088056224,0.4819730086,0.5497666932,-0.5417493773,0.3312811371,0.2058161688,-0.8858111358,0.2363546335,-0.1546532082,-0.0422050204,-0.6337914122,-0.9435892708,0.4932765636,1.5271836317,-0.1549544534,0.4285504183,-0.4120282837,0.3636566041,-0.655998324,-0.6310764135,0.7535866552,0.7652280341,0.9601852633,0.267215693,-0.1169953995,-0.7106634584,-5.2020027185,0.6731674139,0.8222476597,-0.2292571556,0.4347745171,-0.8423299014,-0.0036020563,0.5898517195,-0.2658112719,-0.6581233948,0.3098761131,0.2138514776,0.1700892023,0.4356278204,0.7814916081,-2.98615682,-2.4757689807,0.7677900875,-0.6051693466,-0.063492962,0.6055695143,-0.6684067288,1.1661441518,0.8145990855,-4.9087540682,-0.8199628725,1.5097808401,-1.6088762112,-9.0500747932,-0.3022702251,3.0423164649,1.3632357023,4.1448395494,-0.0143715211,0.129102733,0.3510150739,-2.7875970626,-0.8445401686,0.8126634554,3.1816370726,-0.5099851152,-1.284634384,0.201553501,0.9499136012,-0.0400508733,-0.2377157394,2.3085507266,0.5071088884,-1.0791186991,0.615070383,-0.7747962725,-1.3082265377,0.845149503,-0.230031247,-0.5967218545,0.9000405407,0.2702609135,-0.108996314,-0.3971500666,0.2480309267,0.3051752043,-0.2257948031,-0.5523246759,-0.9971787752,0.8042956333,-6.7427457597,-1.4893925218,-51.684470143,-0.0273492402,-0.7631647639,1.0486139858,1.906327044,0.2102444128,0.7814886668,0.3741863348,0.2152454738,18.7896104868,-4.0102956655,2.9766485371,0.1476345105,0.1995051879,0.3192039993,1.3625386466,-0.0191090654,-0.3710644019,5.9210542381,-10.5844442801,-4.0607778063,8.7642084065,-0.1035577129,0.6196913988,-0.6360958715,0.4401708963,-0.4042944895,1.0556240315,-1.0372459756,-0.0780394129,0.3579498335,1.4695865092,0.1427725421,0.4212327893,4.000440158,5.0090625161,-0.2557866265,-2.1451695459,-1.7024068776,-4.6068462622,-3.6218224853,1.0168773498,0.8359881758,0.2704635875,11.311194637,-6.152082976,0.4696981076,-2.0926976333,-6.5201685407,72.5278110971,4.6179266479,0.7093257037,0.4623162496,-8.0423094976,-9.8867341919,-0.5393706979,0.6094015285,10.7195738421,-5.3311675462,-0.9529513252,0.5722974574,-0.5575632945,1.1174749669,0.4258199338,-1.1187983535,0.1287213,1.8696428049,-0.2506129812,-0.213637592,0.1442394726,0.5255725188,-0.943040626,-1.3420934327,0.1981622166,2.5751876532,-0.15468034,2.7236510564,1.2280397766,2.1314732566,-0.384531734,-0.6769682852,0.2065326715,-3.0508061421,-17.6237166626,0.1363790109,0.8023720373,-0.7163418995,2.7510145131,-0.6307697385,-1.3652518781,0.5530858615,-1.6342339726,1.003669055,1.1670540231,0.3313884201,-0.7240864643,-1.6123829019,-14.8827638744,5.7580048607,-6.5111669178,-0.7985810488,0.1999355981,0.1144990409,0.9832869566,0.8806651179,0.033190383,0.0869883321,-0.1888237741,-0.8605526083,-0.733470889,-0.1087661867,0.6627033905,-0.9104570233,11.3628531565,-0.4793173091,2.2628554355,0.1480611182,-0.6254210413,-0.3817895476,15.2657664839,0.5519207212,-0.5187834035,-1.2170773078,1.1673573922,-0.2694312889,0.3539246333,1.2535962315,-0.165571673,-6.8303609399,0.5163321539,0.9510345257,-0.9292434977,0.457747441,-0.9224306911,0.1922234498,-0.2319760774,0.4876871716,-0.6607322532,1.049421973,0.6826765815,-0.4590345451,0.8872952109,-0.0399270837,-0.0394337668,1.7336488977,0.2912196964,-0.7415301082,-0.3191921718,-0.2694145621,0.2060993071,-0.6936845212,2.6425355108,-0.3172818732,-7.9875706349,-9.4501871203,-2.9683185063,-13.3276714438,-2.1312807776,12.0119174426,-2.9412699081,-1.2197634185,-18.281415633,7.6780240342,0.0251487806,0.8556228046,9.6905665031,-12.3260784408,0.0001435578,0.3384958875,-3.867050587,2.3954567546,2.7101633945,-0.9278224107,-0.1767669791,0.2254458867,7.473135162,-3.7034340816,-3.5813300006,-0.9281300241,3.7456982747,0.3660752308,-0.5377674348,-0.1566788876,0.5753174206,0.2389562134,0.7998152346,-0.1338063136,-0.7662402166,0.0023724524,-0.2882521375,0.3257671609,-0.585241522,-0.752389208,-0.5694886162,0.2191126866,-0.5629629599,0.4550260731,0.2136675968,-0.2142870283,-0.4518072012,0.3199558541,-0.1726592862,-0.4800627015,0.7397441924,-0.75986408,-0.6483178954,-4.4768950911,0.9661572566,-0.3875064136,0.943100473,18.5271728393,-0.7061530376,-0.4547780768,0.5599422994,0.2811565761,-0.0776192812,-0.4598455202,0.4743888413,0.707553587,0.1463666269,0.2228053773,0.2137379996,-0.8958084149,0.9933118106,0.2359320189,0.680181816,-0.2894221643,-0.6759281328,-0.4138148318,0.5023048047,-0.2299324378,2.2709904218,-0.3905279135,-1.3263733313,-2.4821675392,-0.9530872528,0.1905570852,0.3370833709,-0.6577028499,3.9101748039,-0.767068806,-0.9109761826,-0.7953553779,0.4003034077,-0.7109729221,3.9970859402,-0.6966385914,0.2972261166,-0.8749043602,0.1763835353,1.0483610275,0.9725911468,-0.5905527283,-0.2397942953,-0.9552638927,-0.5913951486,0.5664383422,-0.4639990571,0.9202684526,-0.0212623254,0.5703591557,0.7850680751,0.4503869792,0.0605453954,-0.4656390653,0.1894674093,0.4848535602,-0.4757569478,1.0848154316,-1.2913894546,-0.5081688999,0.8147648159,-0.0711207975,-0.4054143038,0.2029573565,0.4014113932,0.660170483,-0.2682289236,23.1628754596,-0.3595419224,0.2686726299,-0.2642893875,-0.9655003,1.2211559087,3.4990868129,-0.6534233725,0.9161821715,-0.3380085946,-0.5114503113,0.3246398833,-0.5164017116,0.6139053616,-0.0194733108,35.2591509865,0.8338468015,-0.4081450344,0.0233897059,-0.7781424533,0.9577814082,-2.8389092457,-0.8800497394,0.4539046219,0.4489020982,0.6058292836,0.4402064782,-0.7124258208,-0.6126262193,2.8329164876,1.5320213821,-1.533621531,3.3341207484,0.7247520972,0.0690426097,-2.4956820755,2.1788525898,0.3275365551,1.7918850455,16.9767402934,-0.6358382741,-0.8803594801,-0.3824474637,2.5146020683,-2.2783885342,4.8099869519,-0.5855738668,3.5705889057,-2.183116494,-1.229211729,-0.6235552272,-0.8915214994,-6.5411307921,0.6001029467,-0.7953660472,7.3788968933,0.776212844,0.4871622347,-0.2212634661,-0.8607262136,-1.0070609772,0.6447570849,0.206832022,-0.5788616678,0.6521881526,-0.1566127528,0.2775324431,0.7854328192,0.2998330383,-1.6070452027,-0.056005001,-0.6729208828,0.4562297087,2.3329853621,-0.7807091534,0.3779389235,-0.482549605,-0.0459844424,-0.267127421,0.0115651238,-0.8485858943,-0.490403878,-0.8146365277,-0.2845165703,-5.6433972601,-0.0545963315,0.232430597,-0.5368325495,17.6835358053,-0.6836459941,0.3827110051,-0.9957642276,1.5626376738,0.6093651528,-0.0858969024,-0.7950866501,-0.0128152717,0.899084046,-0.7795340736,-0.1526266211,0.6913221556,0.5744127798,-0.722080101,0.624097924,-0.4941993838,-0.7888202461,0.46742071,0.699941198,-0.4503274787,0.9713327698,0.6906290509,1.0250099001,0.2507590168,0.432145542,0.9978857353,-0.0550525156,-0.053324175,-1.9411740622,-110.0395590666,0.3043217507,-0.1265339197,-0.9181611613,0.1839550585,-5.6246318236,-0.5072250206,0.9119072089,0.7536626836,0.149776176,0.1914178345,0.8251655986,0.3163440082,-0.8471093098,0.1418968095,-9.9529037112,0.2727595453,-0.5208335141,-0.7767805811,-0.3220011398,0.7054407009,0.1007977638,0.3090813469,-0.878843558,0.4008751961,-0.028121302,0.7569070338,-0.1621940161,-0.8278204201,0.0745729806,-0.2151717673,-1.7301539666,0.1036338969,-1.7417396931,-0.8560189417,-4.2617620779,0.2506014902,-0.4502503804,1.157505075,-0.3684715674,-0.899367962,0.9705997915,0.376600535,0.5984865482,3.7798387293,0.7401204304,-0.303110168,-0.9178765649,-12.7203757007,-0.7657058119,-0.0952754454,-0.8525324523,-0.6801779363,3.8238948999,0.5024433556,-0.7134801707,-0.9539885875,0.0225250678
##end
biasActivation=0,1,1
[BASIC:ACTIVATION]
"ActivationSigmoid"
"ActivationSigmoid"
"ActivationLinear"
