encog,BasicNetwork,java,3.3.0,1,63578885486502
[BASIC]
[BASIC:PARAMS]
[BASIC:NETWORK]
beginTraining=0
connectionLimit=0
contextTargetOffset=0,0,0
contextTargetSize=0,0,0
endTraining=2
hasContext=f
inputCount=37
layerCounts=1,151,38
layerFeedCounts=1,150,37
layerContextCount=0,0,0
layerIndex=0,1,152
output=0,0,0,0,0,0,0,0,0,0,0,0,0,0,0,0,0,0,0,0,0,0,0,0,0,0,0,0,0,0,0,0,0,0,0,0,0,0,0,0,0,0,0,0,0,0,0,0,0,0,0,0,0,0,0,0,0,0,0,0,0,0,0,0,0,0,0,0,0,0,0,0,0,0,0,0,0,0,0,0,0,0,0,0,0,0,0,0,0,0,0,0,0,0,0,0,0,0,0,0,0,0,0,0,0,0,0,0,0,0,0,0,0,0,0,0,0,0,0,0,0,0,0,0,0,0,0,0,0,0,0,0,0,0,0,0,0,0,0,0,0,0,0,0,0,0,0,0,0,0,0,1,0,0,0,0,0,0,0,0,0,0,0,0,0,0,0,0,0,0,0,0,0,0,0,0,0,0,0,0,0,0,0,0,0,0,0,0,0,1
outputCount=1
weightIndex=0,151,5851
weights=##0
##double#5851
   -0.4934747999,3.0347668698,2.585778734,-2.183668155,-2.6393331385,0.5604012784,3.5664754842,-0.4392316972,-1.379999276,0.3850229184,-1.9036068241,2.3393511827,6.8283420597,-0.9649510548,0.9748640072,-0.8973138098,14.709553172,6.8493887115,0.6328044315,-0.9646157038,0.5973165515,0.0736476487,-2.1237851087,-8845.8744919961,-5.0754831727,2.3518023582,2.9045126199,2.893511359,-3.3998712616,-0.698422338,4.7910221225,0.6946683472,-2.2040580524,-0.5433464117,-0.7818882461,4.2162968267,0.8243963291,-2.1111391583,-2.878810434,-0.888822529,1.2875564723,1.0170874623,0.5956109862,-3.0315172242,-1.9381490357,-19.3172679442,-0.9160418397,1.2584484272,-0.6757142582,-2.0947675328,2.7444392435,-0.2432628878,-0.9001233411,-0.4150625404,3.5530155072,0.4518941498,0.4380268491,-1.1455272568,-1.8476650974,1.1037903625,-0.4575749458,-0.8459485008,0.9516636674,-1.8557161928,0.8633808195,1.2636958611,-1.9143989726,-3.0318968514,0.8290513338,-0.9094541061,-0.7027560739,-2.5624888668,-1.4222800762,1.9161821687,-0.7604809127,1.5727877912,0.5079500775,1.428613059,-0.6816367765,3.201462088,1.2041174017,0.1370629542,1.5296875262,-0.6126239842,-4.4805684288,-1.1169436754,2.0422368535,2.9735787936,-2.485128144,-1.6015439909,-0.8379017232,5.2079208878,1.4542136674,-1.7130323114,-0.9023933645,0.6647740162,-6.5139323781,0.221428107,-2.6058493241,0.546698297,-0.9577339146,1.9612274528,-0.8914461661,-0.7990623802,1.6754011443,-1.2176928908,-0.7271328029,0.0429620458,-0.64392229,-0.9068887193,0.9801812844,0.910448651,2.7336747624,2.0424172754,-0.2868232562,0.4252674407,0.1526749533,0.5799186021,0.4505767724,-5.0966982387,0.6048428935,0.7317391455,-0.860465169,1.244317392,0.6422739565,-0.4211227036,0.5594740294,0.8416273655,1.9008471711,-0.4042535678,0.5499298586,-1.4134999884,0.4273742517,-1.4198088428,0.1402381059,0.9471044349,4.2306077814,-0.2088695852,-1.6851617271,-0.5233641846,-2.6996013877,-0.4288605647,0.5566703373,-0.2428832489,-1.6876293935,-0.0909524277,1.1185346842,1.8265131986,1.638338019,-1.1942155101,-0.4747062578,-0.9902778615,-0.7038628335,0.6672889174,0.7877370747,-0.9044429244,-0.0859079983,0.6100836578,-0.2411470418,-0.3531144605,-0.3595812708,-1.6127973337,0.8407003701,1.6304228499,0.0820727641,-0.119179149,0.0421312717,-0.7357795583,-0.2978789678,-2.2380800622,0.3448308503,0.8579982272,-0.6822998727,-0.5202601049,-2.7615180281,-1.1619698504,5.5504598806,0.519432347,-0.1138278608,-0.390345717,-0.6769600581,-0.3081639058,0.140092244,-0.1323239088,0.8498285074,1.9839662698,-0.2175338973,-0.5540379517,0.878886755,-0.0224233077,1.9618772972,0.5474538151,0.7461478465,-0.4514596276,0.6437568569,0.7941684338,-1.1225683463,-1.6079579486,-0.2627842196,1.9529818246,-2.0890396063,4.0867905379,-0.1462432568,-4.9204642722,1.336730907,-1.9401485733,-0.9441199912,2.1421378677,6.9332333021,-0.556766914,-0.4611070135,-1.8897514317,-0.4121385403,4.6874863608,-4.5727126298,-0.5957135128,0.5960923986,0.3064916802,-1.0102030595,0.9180346323,0.8678525099,-6.4166588785,-0.5684810193,3.0055025762,0.5900527865,-0.5626597728,0.3116960217,1.1416742219,0.5420218148,1.401844381,-0.8165035557,-0.5683128881,-0.8119344515,1.595061257,1.0530500051,-1.7766582404,1.5781479119,-0.3378973284,-3.9395638985,-3.130826291,-2.5562258331,-1.9209371563,-0.8592117859,-1.220978881,1.4230209407,-9.996250095,1.142549363,-0.6783338234,0.7044087954,1.9004627603,1.6520946361,2.6340455372,-5.492424157,-0.8960275137,0.835288505,-0.904317095,0.8367138875,-0.6085142998,-0.1292580157,-0.4716228688,0.5610211864,-3.0529137333,0.2509592414,0.1349629001,-0.5077302893,-1.0160397459,0.0645225847,-0.0481012423,-0.2523726552,0.8648487374,-1.0459471668,0.4634886727,-0.503216192,0.3191324874,0.8623267685,-1.9271368293,1.602940156,-1.8084365249,-0.1337797645,-5.3821769881,-0.1947677039,0.5067056578,-0.0672007533,0.1963255181,3.1137768972,-1.8793992368,0.6410220105,-2.6531739178,-1.2649005055,-0.0914471173,0.9772738797,0.1936664103,-18.9090600131,1.42446682,-4.7558417706,-0.6317328622,-0.1341627003,-0.1218761558,10.2018763695,-1.181731866,-4.2248267288,0.703005201,-0.1673934771,0.9377215531,0.0622262059,-0.0833191804,0.6598938958,0.3286731378,0.2177563355,0.6592126803,-2.8694050929,-0.0623350821,1.5296353755,-2.971667543,-1.3765204219,-1.0734336433,1.4181632696,6.7120188496,4.1993464857,-4.7890566006,-6.0108092913,-2.6858298054,6.4736026997,-0.9879849956,0.1605419773,-2.6113170597,-6.0437310811,3.8976919254,8.3917551787,-0.8433815138,-3.4558655982,-6.4999456273,-8.7109122864,0.0320117507,0.0286247018,5.3116956477,6.7483209758,0.4424633188,0.1504663095,0.226872048,-0.8870710238,-0.462603458,0.0951834067,0.0376631892,-0.4488635313,0.3999903837,0.7410635853,-0.1315792255,-0.2163930263,0.3545016754,-0.7073090439,-0.6481599299,0.0997429944,-0.2912617142,-0.9169666157,0.6302909848,0.2280969101,-0.2228936207,0.3312550363,2.4888265103,5.9453184245,0.9968153513,0.7717284783,-0.7946996942,-0.880621394,0.7864415718,-4.5945051366,-0.9352501547,0.4935739356,-0.1244758123,0.1216977914,0.9020209048,-0.3773121971,0.3522703767,0.695743299,-0.9959586745,-0.3978569076,0.3839352864,0.9796819318,-0.8444750544,0.6762179491,-0.7797594861,1.1435372508,-0.2398301438,0.3570761362,0.0964105532,-0.0377232825,1.1566054634,-0.0485313891,1.1200501866,0.3226035753,1.8557881076,-0.9868823465,-1.4416326182,0.6835140035,1.0741026956,-2.2995982288,0.2722199541,0.5268291753,-0.8237301703,0.9905168312,-0.4301884019,-0.8807508044,-0.345053621,-4.6014308079,0.2421754688,-2.6392036519,0.816172312,1.4973547678,-0.8371873882,-0.2501064331,-0.8473062698,0.8004585573,-11.6021129444,3.0790107146,0.4045546061,-0.8920213002,0.8835475062,0.5240595111,-0.9049684543,-0.4368710528,-0.7238953504,0.0063476659,-0.0418804085,-0.8556490759,-0.131155246,0.1127650147,-1.8215672069,0.8463805402,2.1830264666,0.3814404127,0.5757154657,0.2715433065,-1.1790703749,0.1902011378,1.1167661526,-0.5504864584,-0.1880306016,0.9346559783,0.5391882278,-0.8948503594,12.9314336293,5.6964542757,-0.4579111438,-0.988813114,0.9553199548,1.1401103405,-0.9247737328,-0.4376707158,-1.0738527613,0.3943909258,-1.6704004968,-0.3028100449,0.7642001211,0.3896779374,0.0098260739,-0.4476273014,-1.0194978204,-0.2932516247,-0.3125189556,-0.7453049971,1.0468758687,-0.2706842613,0.6705187343,0.0998418112,-3.2843262603,3.0901244069,6.6143099506,-2.6251510127,-3.036717026,-0.9706144516,5.551980353,-0.1281781156,9.8150380178,2.5022532121,-1.2908017658,0.6357187832,-1.262688401,-5.7861153075,-35.4370917933,5.4261585503,-0.1927764403,-0.0702088942,10.1404857278,4.95250997,-0.5382656589,-0.7835193508,-7.0487620983,0.757717275,3.3153094052,-0.4507233742,0.1453660676,0.3771677333,-0.5562591587,0.0155659297,-0.1040880348,0.7097043486,-0.2307133577,0.4488084849,-0.9192027626,0.4998659542,0.6929301449,-0.3868783693,-0.4774546816,0.2636777735,-0.227109284,0.0979535055,0.0877558275,-0.9224374272,0.2673536045,-0.5825797897,0.1676464108,-0.1696541345,0.6942603115,-0.1623891001,1.0699531543,0.3894519029,-0.8872354514,-5.3309617109,0.40828709,-0.4306136247,-0.3879154279,-1.8178380848,-0.2688656226,0.0801634002,0.9155544877,-0.9208926603,-1.0117427155,0.5750995797,-0.6312190041,0.3860351459,1.1418317288,-0.2979493423,-1.596178267,-0.7585556614,0.6994675776,-0.6778735049,-0.5049382263,0.5567593282,3.637662633,-1.8298722626,8.2461219049,0.5970687952,-0.1825204392,0.3439557634,0.1921217118,0.5523150593,6.2707774313,0.5546602048,-5.5948518797,6.895754501,1.2262055109,-0.9377000313,0.5559220783,3.3767905981,-7.4620688524,5.8350005485,0.2293667855,-1.0682210508,-16.5949062373,-26.9160880353,-0.671157557,-0.6623397459,-5.5997241191,-2.7539220406,9.1915887853,-1.9465636569,0.5031715732,0.0547339674,-0.0523178203,-5.9525107817,-0.5243886065,-0.0217014955,-1.0651450847,-0.3659456821,-0.2796885917,-0.8262770185,0.7559981653,0.1835734276,-0.0725752954,1.1719050727,0.3244395583,0.2257990141,5.6044255034,1.1424124694,6.4552257662,0.7366028487,-0.8903401928,-1.6736462636,-123.799469507,-0.1622641837,0.710851769,-5.3164461796,-2.1607270282,-5.4432537082,-0.6274462257,1.265948122,0.8554193871,0.8035400613,0.8253199677,-0.0308883148,1.9899783042,2.2123266828,-4.2261554659,2.5158106817,0.6939665208,0.3951530861,-0.5202594193,0.8303424347,0.3877246364,-0.9247314458,-0.632388341,-1.0102526672,-0.2366907289,-0.6927657338,0.3877971882,0.6723540009,-4.9275078971,-0.6175223515,-0.7158619142,-0.6464445716,-2.630786766,1.0038038058,0.095393733,1.0182024613,-3.3432168443,0.5055221827,0.1411513632,0.630277776,-0.6866409196,-1.7240863613,2.5334667491,-89.3078991591,0.8007607217,-0.5484346738,2.0976210119,-5.4393395708,0.4527016798,0.5712408552,-0.4177744565,0.0650501821,0.2352637282,-1.1732278612,-0.8982961773,-0.2292478321,-0.7598099327,0.3682388388,0.0348439202,-0.4861244308,0.032527024,-0.3764624021,-0.1746103041,0.1380274032,-0.6207413647,-0.5697103758,-1.8366601415,0.612423697,-0.7668163739,-1.3796094954,-1.106297776,0.8620441963,0.7556783094,-0.2251085244,-0.4933174447,0.121267375,1.2934767523,-0.9632928222,-0.0807889598,0.6488150704,0.6886464261,6.1528699049,-0.6101313539,0.3980599227,0.9591350491,0.9495886367,0.3049954288,-0.4403951696,-0.2376198875,2.2198780356,-6.1850302718,1.1279355718,0.8687911778,0.0281925307,-0.702429288,-0.7020915712,0.8688596177,0.2575036945,-0.6526920145,-0.151021928,0.4258044108,-0.9938675194,-0.6988395699,-0.7409594695,-0.322292781,0.3621614735,7.7795581903,0.4157176785,-1.0191179407,-0.7898573995,-0.5884366263,0.5650327418,2.6816742201,-21.4709065355,0.3353019939,-0.1085377043,-0.8483103491,1.8007749973,-0.2115758174,-5.1884322893,0.7287983399,0.0879899918,-0.0125788063,1.3130989236,0.8175737295,-0.1690117769,0.0191049777,0.5524300847,0.0319764737,0.6416926785,0.5261947725,0.4671075356,0.7031821739,-0.1425416089,-0.4252678954,0.9239708473,0.9619850907,0.8956354256,-0.6656920002,-0.9625412075,-0.4518982535,-0.0379214358,0.1207177272,0.0045547779,0.213224112,-0.7931763774,-2.0233139892,-0.7390259515,0.9267302032,0.119284774,0.2658485649,0.8303211308,80.2739709151,0.5929154417,-0.369720451,-0.4297774285,0.4209335686,6.1621067138,-0.0880477191,-0.0803651689,-0.8870480784,-0.8603146952,0.2196330596,0.881171192,-0.5731298849,0.5752355986,-0.4060009718,63.9467224884,-0.2134363964,-0.4335811465,-0.9966475894,-1.018745162,-0.1791519603,-0.0201968424,0.2524921168,-0.8763171674,-0.731313661,-1.2804843707,0.9702204102,-0.1900949832,-0.6856484886,-1.0256105615,-1.2866375311,-0.7870144518,-0.8738610827,-0.9204420527,-2.0366272427,-0.7936697062,-0.7043300282,-0.1906678832,-1.0144239604,-0.2293405175,-0.3897531558,-1.6324060616,0.2492443156,-3.4830169565,0.5289533574,-1.1881133928,0.9711183432,-0.0009948341,0.1675048531,0.9729820872,-0.7695723211,-0.4254363197,-1.2179494469,1.2054609723,0.0355130336,-0.7251526141,0.6135753993,-0.8961432943,-1.9220164578,-0.9821254634,-0.6994423451,-1.004674477,-0.8079994625,-1.193223564,-0.5569300289,-0.06897608,-0.6855107896,1.3748092011,-0.2147533937,-0.6809891426,-3.1424741804,0.1701814414,-0.9336612435,-0.0101434685,-1.07850586,-0.7536492197,0.4836887165,0.4451422856,-0.4613949325,-0.5350131892,-0.9754838265,1.0023114186,0.6544249298,-0.8653096775,1.3051139438,3.2282917254,0.3513807022,-0.1227684846,0.9036651811,0.6379280212,-1.093603855,1.0898645267,-0.9653567085,-0.9527933389,0.9847607171,-0.4360525497,-0.7673171014,-0.375420244,0.0552612121,0.3008868352,-0.4360182472,-0.1691688198,-0.4165998005,0.3905534005,-0.6175598541,0.028939951,-0.5434481837,0.597246605,0.7503495908,0.1195028629,1.2073133363,-0.1106774258,-0.3532557276,0.2164082162,-0.1559720321,-0.8278149943,-0.2367993471,0.9024199091,0.9536116723,-5.6216713779,-0.4634459333,0.2029798955,-0.3987073073,0.4384273645,-0.9176723997,-0.0033562123,0.9191875096,-0.4468683444,-0.4220891958,0.3814628429,0.7270027118,-0.5336563033,-0.28566357,0.8910883517,0.3672556897,-0.2850321067,0.4093050266,0.1090203371,-0.6557627871,-0.140252101,-0.612489379,-0.6356647814,-0.9572977717,0.5767057392,0.1146067435,-0.0290749799,-1.4950106448,-1.00863343,-0.2457227882,-0.6660603689,-0.6612974648,-4.5669468747,-0.8047708436,-0.7553420382,0.870868983,0.184812715,0.0291581738,5.1011387231,-0.3523418658,0.0906754084,0.0821574702,0.3211643163,0.1149682244,0.3097003937,-0.2457817878,-0.5144411293,-2.6908550055,0.2412816652,0.601211896,-0.095502424,-0.6848109158,-1.2268063806,0.9580950545,0.4073167922,0.6523109713,0.0869141867,0.165997167,-0.1384978859,-0.4282714271,-0.4047704168,0.3512437625,0.7687212317,0.9456765159,0.6089337345,-0.3957600242,-0.2449096928,-1.9691768698,0.7641889566,2.7438708623,24.8011056743,0.9740310058,-0.8441662499,-2.2145834551,33.1007058636,3.2254045924,-5.7409326074,-0.6399560923,0.2356755669,0.5164503743,0.0246269766,-0.7356663861,0.1439816799,0.3655031995,-0.7063965891,-1.0694225473,-0.3876848778,-0.674614814,-0.2705298068,0.3612917733,-0.0179812369,-0.2616965961,0.053493247,-0.2801626433,0.5983640113,0.1844320985,0.6671337626,-0.1593292596,0.0141075479,0.8563068259,0.4381935848,-0.2674742387,-0.8644996934,-0.4574161004,-0.4783117801,0.964592819,0.3299464686,0.7688792512,-0.0857659262,-0.3042862849,0.4675006138,0.6107389793,-0.0357839837,-0.3127762516,-4.4089566199,-0.0227715545,0.6787622683,0.2246015116,-6.8444728448,0.4756158352,0.9902517339,-0.9142819237,-0.0173725552,-0.4473627804,0.5030875572,0.4297127721,-0.5621076692,0.0977188189,0.3530273473,4.0121291942,0.9238409809,0.9065217637,-0.9001204303,-0.3596580589,-0.5491270831,-2.7319715482,-3.9929424253,15.2578143967,1.0778095079,3.3888517455,0.3812927981,-5.5550210872,-0.5265948954,0.815159442,-6.0121525614,-0.8596732113,4.7027568962,-0.5948732299,-0.6170336779,-2.1944761792,4.9095551766,19.0636867191,5.0620617279,0.7192646031,1.1087566237,-2.1910347767,0.854675228,-0.8788940344,0.5596871355,4.7794561165,-0.1648722127,-16.2370631277,-0.0695003429,-0.7303622252,-0.0850306997,-2.4770400103,-7.3764541452,-4.6340610984,-1.453501122,-1.6948379117,-2.803861425,-1.6997604708,-4.3885670276,-0.6263494723,-2.5973851697,-1.8725335794,0.0171220395,-1.5777121208,-0.2423055318,-3.4877498008,-2.06244568,-6.5139549534,-3.3373578691,-3.557988165,-3.3575439064,-3.6220001364,-0.0228369008,-6.4521844424,-4.9698885687,-1.1851817369,12.3536543276,-0.8390565914,-4.4800072991,0.1469058948,-0.6746824274,-0.9288183031,-0.2696910004,-1.742470456,-3.0527068284,-3.0011845233,0.9035215359,0.3684416522,-1.8590774162,-0.6999684668,-3.4401749288,0.1963234854,0.6643779943,-1.2537573746,-0.0408573727,-0.5676585357,0.630267229,0.1573901347,0.3552442956,-3.1356431205,-0.5063264582,-7.4448509414,0.1578988449,-7.7330249406,-0.8491809846,0.6711591822,0.6809803282,-3.956794661,-13.6654931281,0.7682597416,-0.4696888968,-0.9675660176,5.8995670146,7.9347891008,6.1098257205,0.5192421188,1.1253474322,-0.9720620743,4.9025545081,-0.380078059,0.478285413,0.2640228059,1.4131725479,-23.1438942068,-1.9319754636,0.7586321206,-0.3392461567,0.0937187384,0.6818419743,0.1801425627,0.194587424,-0.5877712038,-0.7774209608,-0.4842649337,-0.1447673129,-0.2786186656,3.7321870292,-3.6676604779,-2.2262087453,-5.5686967609,0.733552746,1.4005337199,0.5074046621,0.1860540038,-1.6320372249,2.2905539752,1.9368182122,158.4413611409,0.7165471687,5.5265362704,6.1807734403,-17.3383584795,-4.9344698699,0.9076836155,0.3592899981,-4.2278703651,1.6030751404,0.579173312,-0.8007840597,-7.1400108037,13.22312576,1.0867745206,-11.1477781901,-0.7626281072,-0.2516024312,-1.1865324761,1.6054967763,1.2528218801,1.7519465064,0.8350918187,-0.4224000921,0.945107107,-0.9152534578,-3.1141586988,-0.5178271515,-6.704313765,0.763132371,-1.3457623254,-11.0924145167,0.0203833613,-1.6818719793,32.3638591527,0.8293728772,16.8160212413,12.3894099362,-0.3742201259,0.2864764162,-1.0649798538,1.3138472246,-3.205476511,-3.7954398718,-0.1197042498,1.6047031917,-3.9071825869,18.6369789773,-0.4097991596,0.2788401373,-1.7893833709,-3.8585470711,-1.5855286057,0.4291846951,0.4341052172,0.8111469625,-0.0122808608,-4.2120729828,-0.231850431,1.4460977841,0.8241000201,-0.8967415937,0.4554444587,1.2571112844,-0.5585542237,-7.6838875297,-2.6049455585,1.8822409795,0.9490944608,-0.2105043729,7.4999514053,2.651793737,-9.4130961269,0.4786663088,4.1638655956,0.0373884851,-40.7792373497,0.9900166411,-1.659509417,0.6361195531,-25.5632136999,-4.1481198167,-0.794412475,-7.6540169417,-4.0029388238,-0.167078122,-0.0374147286,0.5555293539,1.91971239,1.548178637,6.6008163417,0.4318271332,0.7544346153,0.4233446625,-0.0742794334,-0.5067211178,0.8579497985,0.9420241142,0.3628016646,-0.4018414047,4.545334765,-0.118211757,-2.5266979949,-0.8063168011,1.8460041349,0.5718172197,-4.8592820597,11.2116038274,-6.4255332012,-3.6928684959,6.7575936056,0.8655199042,0.260792884,-6.6806421309,-0.8489501498,-0.1294721519,0.2536277319,-1.9280020377,3.8268612361,4.2958583937,-0.0406578561,3.5994944114,-6.6990486472,-2.4309657681,0.5928779637,-0.6822116048,-3.0884282404,-6.1549222872,-0.5770799933,0.0104754219,0.7437901328,-0.4500794709,0.1853677415,-0.4100941042,-0.2360100864,0.5683072673,-0.3702271399,-0.6914765047,-0.0266659914,0.2684990997,-0.5223936636,0.6948332468,-0.367366898,-0.838723708,0.8132856206,0.0080545613,0.0194049703,-0.268246717,-0.1523620294,0.1620007685,0.7733333366,-20.6685011538,0.1198650676,0.1536695385,-0.180382261,-0.5504236276,-0.5749161237,6.1866836273,-0.673717182,0.2001557233,-0.412569366,-0.591322086,0.7714197303,0.4172667095,-0.7159458994,-0.1170068075,-0.7668600695,-0.7884049377,0.5022733898,0.0355770652,-0.6204740815,-2.6034954627,0.5466340228,-0.1134845578,-0.6566977299,0.5305068718,0.4862252015,0.3977483712,-0.3402579816,0.4779924397,-7.7563477817,-0.1985187505,-4.6920837981,-0.215374447,-5.6709868903,-0.1331410419,6.1511584742,-2.6141423892,-3.3898350225,-1.0625049065,2.3402338419,-0.0345884762,4.0538992341,-0.9450796094,-3.4173911566,-4.801126168,0.4441499205,-3.7869033291,3.2560906787,0.0485175909,0.3476708395,-0.7157735637,0.9942709216,-0.8717929985,3.2825860497,3.3807224985,0.5197501972,-0.8341217648,-0.5972828013,-0.1040960362,-0.3134040831,0.8789240037,-0.0146511966,0.8693169502,-0.7555728054,-0.1261412904,0.2133645253,-0.6170232446,-0.82451461,0.923698466,-0.8756339104,-0.895531651,0.0606113027,-0.2935270942,0.9694131076,-0.2439671647,-0.1087165056,-0.2378626702,-0.3116611333,0.5899611747,0.1643306239,0.3674438165,0.5033071567,-5.6760364932,0.7104586175,0.6692970049,-0.1007590251,0.286167499,-0.7833832216,-0.7471651471,0.4442699821,0.1573625365,-0.6125825368,0.5727030114,-0.8378213792,-0.7706590622,-0.014154354,3.6844205316,-0.7636383244,-0.8588026774,0.7642025975,-0.782151633,-1.464506942,1.232360067,2.6406352593,1.1058323559,-9.4447115859,-1.0981781341,-0.3856985447,-0.4121120735,-4.0068195896,-2.1577688454,-0.7728477854,7.1395134767,10.6309903362,-3.2182486587,-0.5163161661,0.8167782518,1.9044241638,0.7341022527,-13.4357417875,5.2473549629,0.8683464527,-2.1490806701,-4.6069625183,11.0585749393,-0.0472244082,-0.1624168722,-0.8607808201,-4.2578679774,4.1495395686,-0.0363947701,-0.4466567465,0.8066771545,-0.7966874649,0.784344675,0.4294510614,-0.8600130221,-0.1095809938,-0.1464179288,-0.3167267593,0.3864702764,0.1903747096,-0.1738701847,-0.3741645417,-0.1680048747,0.7224257295,0.1340330279,-0.6135011721,0.9446345804,-0.367179468,-0.2939315807,0.9221572004,0.0314327314,-0.1108347811,-0.430720288,0.5286435305,0.0967954232,-0.3261426587,5.8053141742,-0.8246982283,0.2411382009,-0.3170839475,0.6816303778,-0.2117367957,-0.4468819832,-0.9774692036,0.6252542491,-1.5096948828,0.7944526577,-0.6346174477,0.2813258073,-0.9874332466,0.2573533181,-0.3068359134,0.2434720759,-0.3556223742,0.2708533218,0.2574360108,-0.1337107501,-0.2242289796,-0.5569314638,-1.6761431589,-0.0263699604,0.6388433242,0.2501816547,0.5725436695,-0.232898751,-0.8623549387,-1.0600747492,-0.5122680079,1.7346943335,-0.1475207083,0.039246676,-0.5228662419,0.3396772267,-1.058726501,7.5087176647,-0.9663550574,-0.137103947,-0.9112083318,-5.87814291,-0.1536646152,-0.9721262613,-0.7970678931,-0.9854177519,1.6575249497,1.5846261201,0.8725659837,-0.2332130265,-0.3879768705,-1.6643846421,-1.4532703276,-0.2238609802,-0.7104142083,0.8646625664,0.4587439743,-0.7070878395,-0.8520925262,-0.6148628549,0.1008209189,-3.83304145,-3.1155926255,0.7649056332,-0.4212619943,-0.737622484,1.4918172736,-1.6892837545,1.5224984751,4.8623087297,0.2886566918,0.3686988109,-1.5379912518,-2.8004956051,1.8645868614,-6.2186781015,0.9905759739,3.5552346,0.0552791974,3.0578752005,-0.4464528077,-0.3390305328,1.0826335186,0.4689726012,-3.2494715045,-6.7980006644,-0.7485466431,-0.358825644,0.6404070685,0.9606738369,0.426030423,-0.1779658461,-0.8385528274,0.2858893061,-0.5742944562,-0.1666386964,-0.871170261,0.261899168,-1.4430099667,0.57268218,-1.0628892814,2.3629217383,-1.4364571964,0.2548901381,-2.9528012361,-0.1829774964,-1.7623383286,1.6430132242,-0.7920325997,-0.673310614,0.8676153896,-0.5421171698,-0.7043981341,-6.3301264174,0.1375379931,0.7597101701,-0.6149413597,0.7901146514,0.8362616688,-0.601602814,-0.986128957,0.9421612637,-0.0424879217,-0.8120017828,0.3683842799,0.2683979521,0.8558765098,2.9709513378,-0.1412227807,0.836632919,-0.7042125828,-0.4195973044,1.0906936156,-0.1333442428,-3.3762189801,5.9136439514,-0.7179445067,0.7728579933,-0.6417045224,-4.323279149,3.6431186942,5.5193504461,3.1233927847,-2.970151805,1.8934625339,-4.807673949,21.2431023482,-0.4320510344,2.1614704085,-1.0525846505,-2.7460947804,5.6758401229,-0.6338777373,-2.2432573154,-2.3352377816,0.0157816634,0.9012351067,-0.2032939229,-5.0915318504,12.2813624901,3.780940629,15.5173993558,-0.7953386744,1.0083140252,0.2030101642,-1.5186969314,0.6823217996,-1.1322551949,0.5782012987,-0.7299124819,-0.6991763137,0.6559564142,-2.3428871429,0.1007552807,-4.5476525899,-0.0199953606,-2.8243974534,4.6481646591,1.2345530042,-1.7504970882,-4.1223415433,-1.6187897524,5.6782861369,3.8256914132,106.7020279546,-0.128527965,0.2168507535,-3.5056372029,1.9970523061,5.3739405695,0.7321917795,1.622431453,5.5072774491,6.6579374617,0.082517797,-0.1270858409,-2.4024937276,-3.4470048278,-22.1404654691,0.5301786078,-0.445584892,0.3652869956,1.288126906,4.2580509066,-0.2335293785,-2.6625301406,-0.4747687584,-0.9271376109,0.3433968786,0.6240273962,4.8704035312,3.1412986722,0.1902757888,-4.1151152983,1.4903676285,2.3407109821,-3.6740778403,2.3313043612,-0.2460905648,-2.5660282091,-9.7488368602,10.0796887756,0.1002923538,-0.8443081397,-5.2613477091,24.1674637219,-1.7453674402,4.8097412147,0.7607249924,0.0865518358,-1.3560687835,-0.9970043792,0.5849849807,0.3781210572,1.581513294,17.5258486907,4.6832481005,5.0169029191,0.1290025791,0.4833449932,-0.917065315,-0.2577776595,-2.0316449419,0.7997637148,0.7428163627,0.7384633296,0.1352257223,-0.715459905,0.0414073454,-0.0680701508,7.3763025891,0.5070575162,-1.9042900764,-0.5730578311,4.7015887828,-0.4500825172,-0.3642012928,0.5368649619,27.9447508169,3.1227587876,-0.6638316601,0.5728103535,0.7388515117,3.730923546,1.2882698483,-5.0172495469,-0.0585340937,-0.0909942204,3.4632318912,-4.4835239588,-0.4495990286,0.7584688672,3.6400937754,-1.5631951739,0.0613944319,-0.2631368547,0.2894704786,-0.5411309295,-0.4169145799,0.9144569559,0.8480113185,-0.3658095377,0.8635110871,-0.8613702738,0.757042618,-0.6027245665,0.2042724609,-0.8974956198,-0.2961972581,-2.0523403672,-3.9312198363,0.8183126254,-0.5077389561,-0.5395838138,0.0296751839,0.5113123768,-2.2815310011,-0.1501875073,-0.8350715206,-0.5632345255,-0.4375690583,1.2492580975,3.5686411481,-5.2724440092,0.1644872954,-0.3699948704,1.7821335966,-0.0001913053,0.1011920303,-0.1661092533,-0.2628955596,-0.116919398,1.5578837224,-0.2453405564,-0.7939553632,-0.0508052628,-0.7322353923,0.0422580657,-0.6807507293,-0.1808722409,-0.3386030721,-0.2972863142,0.7368956922,-0.9420240312,0.099198937,0.8460218713,-0.0636017033,-0.0327598413,0.2066679226,-0.4935722922,1.0440064466,0.1935969708,0.1660286754,0.9588936161,-0.7668483274,0.7776750355,0.0123128533,0.2057922926,-0.6759719864,-0.3037807579,0.4314445172,-4.8953496561,-0.7780608599,0.5328453884,-0.0109002156,0.3160570578,0.4406576979,-0.9811751163,0.4535559231,-0.1329557892,-0.5570198597,-0.094018448,-0.3101531832,0.9495251829,-0.1432985095,-0.6546196409,0.5982626101,-0.7612515194,-0.2392438909,0.1638732281,0.7993041378,-0.2518136792,0.7635258916,-3.8931040676,4.1774504704,-0.5306108844,-3.055739859,0.6965057748,-8.4298233163,-2.4549773206,4.8585254903,2.4838079574,2.1640401843,-9.4199144039,-0.4363096387,-0.9310654718,1.0890717601,-8.2063764442,2.5083528483,4.746090628,0.1748290645,-3.1363213496,6.2573210284,-1.1077788602,0.9287510033,-0.8733834391,-0.184701476,7.0471086585,2.4987302838,-1.3293763597,-0.9566876599,-0.4343457756,0.0225724377,2.3306460203,-0.2811026535,-0.3288033808,-0.8508696491,0.8112647957,0.0193580648,-0.234211039,-0.0724582901,0.5764330655,-1.7728332865,-0.0558882041,-8.4710675893,-0.5593586944,1.4578256906,-0.3193226553,-1.1664707727,-0.7085710708,-0.5569922249,-0.0160079774,0.1006099221,-0.1114689676,0.8966741494,-4.2208515289,-13.5222359691,4.9729497038,-0.1093635154,-0.8435258052,2.7725851816,-23.8504037782,0.3446963104,-0.1728922712,-0.8325777462,0.5596440118,2.9255815829,-1.0062055081,0.5379322411,-0.686003363,0.2530015319,-1.5684937038,-0.1231143823,-0.0290993135,-0.30219681,-1.0654621873,-1.2869230167,-1.3179460406,0.2141846244,-1.0563023857,-1.0348254841,0.5920728284,-7.7773857508,-1.1851044587,-0.1324284796,-0.8669862856,-2.0428162057,-1.2481811589,-0.5702726955,-0.2906855342,-0.8637802755,0.2202527184,-1.658518341,-1.6411292139,0.3167538473,10.0837429778,0.6707201235,-0.9361550093,0.9883289992,3.1178741088,0.544042548,0.2165771877,-0.0050043927,-0.1788936654,-1.5270533603,2.3504539367,0.7216059099,-1.5817775549,0.6983635093,0.3723436712,0.7391924,-0.7277054772,0.3932677974,0.6260940471,-0.7211092592,0.0473538357,0.2442232157,0.7774662124,0.2948740912,-0.4622463046,-0.1668367662,-0.6044901379,0.4529753903,-0.797278322,0.2697307333,0.1620935476,0.2002665421,-0.6104863349,-0.5560062827,-0.6530368066,-0.954477544,0.2883010425,0.3249268634,6.1069124308,-0.8834064174,0.3219085719,-0.0069312813,0.928467887,0.9063143761,-0.5511349717,0.0091451502,-0.7085413855,0.2686236366,0.236442529,-0.286851023,-0.54503536,-0.26671988,-0.2787169751,0.5870096625,-0.6238480884,-0.7739241638,0.7416175484,-0.4938595548,-0.6330959258,3.5223662125,0.4825916642,-1.4235543693,0.512238001,-0.7000060304,-0.3335491837,46.801526823,-0.8538104572,-0.6419867839,0.1793573671,2.6255492393,16.9797211896,-0.2773698872,0.7371904132,0.8912003895,2.2590862653,12.7578839167,-19.2278644996,0.3729499194,0.8521784491,5.702745207,0.8580702113,0.8185824869,-0.6110622378,0.6762376404,-1.5260119217,-3.6264078827,0.4660110943,-0.457458548,0.7728327472,-0.6775732225,0.8527731271,0.2378545955,-0.337561954,-0.2079912276,0.6893461668,-0.540377023,0.7315715217,-0.0755045668,-0.7236316253,-6.0374052971,0.5360835211,-0.1889234831,0.9967074246,-0.3996308337,-0.2252162284,-0.309758007,-0.5296350103,0.2343482564,-1.6667233108,0.8321735361,0.0120490189,0.8375478869,0.31018806,-2.1590365535,6.4911064158,-0.7920792176,0.7241918512,0.4191526287,-3.5895510079,-0.9811330425,-0.9409628827,-0.0678448427,-0.2386012662,0.0324647911,0.7494973782,0.8524788413,-1.0025738707,-0.0640352019,-0.6190702815,0.5836668254,-0.9131683803,2.6399306724,1.1153691041,-1.6529055678,0.5965374606,1.5370468093,-1.2970717192,8.0612266121,-5.8034241175,10.667775979,-0.8208851627,-3.2986511645,-0.0181552468,0.3416249242,0.5381403272,6.1614587306,-0.8109246307,0.2539239412,-0.1271411037,23.6738163859,14.1034600552,-0.3354366658,6.0576066612,-0.1462786128,3.7288104806,4.1492764931,-2.4545460614,0.8769967568,-0.3858905488,3.5688725213,0.283067208,7.0968955165
   1.2251782571,-0.3911820796,0.9927001189,0.536132318,-9.6956874328,0.3498018651,1.1589765083,0.0299023886,0.4508587247,1.8946065751,-0.0147191496,0.4372258197,2.6079262809,-5.2004995139,0.5444647034,2.7847723518,4.680723465,15.7046249638,2.6260571565,-0.6908410814,-0.8612154487,0.8676883785,4.6862973286,-4.9216575923,-0.1283830586,6.783097469,-3.1503681892,-2.6769793145,-5.811332105,-0.7213428755,0.0814459491,0.1477162735,0.8069087058,-0.0547696575,0.1326350948,-0.7489561189,-0.3821006994,7.3755448932,0.3826515906,-0.531858227,0.253251067,0.1006692724,0.1270655981,-0.8891955666,0.5135680508,-0.9740363275,0.0905153835,0.3594312203,-0.7410500236,0.4110186134,-0.3731544593,0.3702951632,0.2444921235,0.4370037536,-0.1713838825,0.9400221213,-0.6204494354,-2.7098006188,-0.7432585411,0.3053001031,0.4284951131,0.4330231971,-0.0674866797,0.9208673201,-0.0177401949,0.4065341964,5.9007311836,0.5782553337,0.6910490771,-0.1185489771,0.6313333112,0.6591333469,-0.7325201061,-0.0605285944,0.1196752878,4.1368906229,1.1617240298,-0.2189560641,0.3488164822,0.6749137654,9.7057401712,0.1953647126,0.0918639142,-0.7934575131,0.9680062016,0.9827063726,-1.2186640682,-0.2742276803,-1.460045197,-0.7833454329,-1.0143768136,-0.4660926421,-5.4909142318,5.3910746819,2.2574827864,1.1672566461,0.4996620586,-3.1520854599,-0.2863854704,-1.3599022613,-0.3833658609,0.3863492059,0.8338540173,0.6763796456,6.286957665,0.3621455046,0.1780658976,0.1294571875,1.1737858663,-0.6143835433,-0.9566692496,-1.0631828621,4.2210804688,-0.8559065415,19.5625155593,-0.2307528738,0.8898686703,0.8615018563,-0.0369852357,0.0207569819,-0.251016896,-0.46322838,0.1311051454,-0.7814771273,-0.8787437001,0.8642879062,0.562128992,0.3882999968,0.3809465432,0.1454554386,0.1052597316,0.1737870193,0.4124164115,-0.2154299287,-0.6783472478,-0.207632547,0.28456701,0.3429705431,-0.1723922487,0.2882547534,-0.2131149767,-0.3309126075,5.5415904617,-0.0241838186,0.7974271486,-0.7608954554,-0.6329035837,-0.7233378137,-0.5825948276,-0.7735196612,0.2529551521,-0.7507564045,1.0966481082,-0.9717349596,0.1659882929,0.4177255373,0.2404419425,2.9581372789,0.9013849053,-0.9165286161,-0.018264024,-0.8234944512,0.0867429916,-0.3365641725,0.9321980672,3.9465258635,1.565330645,-8.7759951905,-3.7652680002,-0.8503919311,-2.3789453066,-4.9947694555,-1.2316200556,1.6193461974,-4.9705752738,-0.0241307796,-0.851409899,-0.600387027,-3.089687461,-4.9777355589,-5.2945532371,-0.1769673755,6.8900468848,0.3942857377,-1.6941230578,-0.4925240959,-0.4264943541,-1.3287166467,-2.7000739367,-0.6783143534,-1.2129064987,0.5095603343,0.4124534851,-0.3195256049,0.5253349482,0.2664369131,-0.2153189575,0.4210470004,0.3603412304,-0.5189763635,0.2602722818,0.3860734802,0.6588975668,0.0751272427,-0.7201854483,-0.2661296326,-0.1557376669,-0.5219079763,-0.4877404167,-0.3950455473,0.4899079077,2.2735183483,-1.786713314,0.0455835862,-0.1498004865,0.0880996219,0.994012171,7.2891264013,-7.7497232115,-0.4577960984,0.4256963523,-1.9775792456,-0.7180390566,0.1697926197,0.1498405101,-0.2801983055,-0.1123092827,-0.7492064898,0.0886339841,0.0162492762,0.4806997267,0.974565977,0.69219753,0.5411589664,1.2754132613,-0.3689168691,0.5253379227,0.1126389683,0.8935826089,1.7179489853,-0.463547274,-3.7192235641,-0.8459787022,0.2027827645,2.1575043661,-2.6551541485,-1.2071185778,0.0323647393,0.9927773432,3.5697421242,2.6925979191,0.4630873582,-0.8440733356,0.6763221564,-2.191296753,-0.4608660088,-5.1150306137,-0.3149781159,0.6888519591,-2.2800092189,-0.9083422913,0.8124045465,-0.6918346256,-1.0727230181,-0.3555712038,10.4479090421,-0.5307517897,-0.8322975476,-0.6263013535,0.4619804129,0.9542739265,-0.6113947404,-2.0486973098,0.0351080909,0.9172810445,-0.7907689538,0.474386376,0.6417007884,0.826827063,-2.7012817458,-0.19670074,-8.9118559451,0.1178069677,0.7430550921,-0.1310743045,3.7086088316,-3.3320296179,7.3293430329,32.5547614829,-0.6783602026,-0.2727543038,3.1491792477,-3.0264301526,1.6492645319,5.9334456114,0.9430290777,-0.368819895,0.0150791473,-15.0150841203,0.9437316426,-0.8595670154,0.1785266175,10.7933576836,9.8075296893,9.895742135,0.7665212479,0.2094041588,0.3407632479,2.0650021681,0.5516857723,-0.8136014378,1.0396334569,0.1572153678,-1.2322448516,-0.7638554998,5.9006043275,3.3786546613,8.5909495435,-1.8979990737,2.2586630024,-3.2699324339,-1.7908056924,-0.9311241302,2.2289134389,2.5655073402,-2.8639341435,-1.1472919105,-0.5174214837,0.1107109073,-2.1457217367,-11.3535375504,1.4083305532,4.9851299511,0.6744242914,0.1618918241,0.6296657048,0.5150366627,0.8638079206,0.3875518867,1.3353795603,0.8020135078,-4.880704401,11.1081282181,0.9443730805,-0.6071324851,-1.3863028426,4.4427696869,1.0327679918,0.2270706015,0.175520696,0.1820472472,0.8119957612,1.1527772228,1.247442282,-2.658114332,-6.0812010056,-1.1773735372,19.9817974226,0.8354899643,-0.6837574987,-0.8883950407,-0.5877811782,-0.2061035834,-0.4526639173,-7.2735204039,-0.5629802244,0.4439948087,3.4665137723,-7.6949445679,-1.2357549506,-6.1203207434,-0.7510651293,-0.4831696257,-1.7363442603,13.3088803759,0.5063976435,-0.1705912385,-0.9593934684,0.1778832258,-0.4420746119,0.2799841311,-0.0104998448,0.5334247412,0.8559610635,-0.8951821066,-0.0314484383,-0.0241304702,0.5418499104,-0.065002375,-0.1496160008,-0.4254184641,0.2186177439,0.7948861732,0.8365340487,0.3348792177,-0.0579936655,0.3166463508,0.1405426614,-0.0500949188,-0.5672620348,0.7421448736,-1.2896246658,-0.8026324381,-0.8309555236,-0.5147479379,-0.1007031201,-0.3807001268,0.0890550189,5.5600446232,0.1844540952,0.5141559897,-0.5013930897,0.3288904473,0.3272959441,0.3438476656,0.2248022846,-0.4992467774,-0.8154190701,0.4184666598,0.9498300692,-0.8577351169,0.1691176955,0.8900294037,0.6494850541,0.5911006663,-0.7644260016,0.2197488986,0.6285145227,-0.7333714041,0.3797612241,1.6999757917,3.1461490029,-0.3086705877,-0.8615474294,0.8541453705,1.1892466229,-0.2338510689,-1.4496077719,-0.7715593378,0.2468450983,-1.2252627161,0.1404532074,-0.9994998099,0.9201392707,0.9040546009,3.7494861145,6.4964144488,0.0365879438,0.8787691844,-0.1670555648,5.8767070691,0.2157032201,0.194364213,-1.7994164295,0.5733394244,-0.5093145417,-0.5200313581,0.6501199909,-0.3309688168,-0.0129242834,-0.4118396308,-0.7622421181,-0.3598057459,0.5227164296,0.8053463663,0.0570915335,0.3683163885,-0.8397842053,-0.3349393776,2.6389530284,1.2813291808,-0.8853872793,1.199691559,-8.5768008088,-0.1454444905,1.0957155119,-0.9139713262,1.6462013996,25.0751562924,-0.5979165198,0.0641281302,-0.6407445392,0.8325114341,3.1393125438,-5.549129558,0.5827467123,-1.1515905672,0.0235515205,-1.5604984487,-0.5331275762,-0.7554591111,-0.7804109222,0.3092272196,-10.3036159796,1.6245905284,-0.9795900118,-0.1417905582,0.8043453038,2.1295886583,-0.0577176673,0.110195753,-3.5767510942,0.9323618287,-0.2134493912,0.6856488782,-3.4940119989,2.0907943522,-1.7959118331,2.0328560458,9.528636448,1.5188701099,-2.6452506018,0.3795986024,-3.1121855859,6.7665517061,1.2582048148,1.934021601,-6.5328884689,-0.5179507553,-1.6756337933,-3.1896185962,-4.3932244349,5.759218667,-0.5190592583,5.2369150754,0.5000793691,4.5538282214,-0.2942095094,-0.2007860603,2.2970956354,-0.5382701153,6.9746022531,0.8780994383,0.6430926778,-0.6744918906,-0.9215654294,-0.0282454303,0.5222966554,-0.0975210493,-0.5298231174,1.4823292296,-0.3702411422,-0.8950538742,0.6382195905,-0.7640132529,0.9677252654,-0.4729303449,0.6839003726,-0.8714292798,-3.4960203454,-0.4016634767,0.2231890505,-0.7358220995,-0.3312573454,0.6621190826,-0.5355916873,0.8721993761,0.2475386135,-0.3846257999,0.1068041474,-5.0495792869,0.9641371695,-0.6814683219,-0.8085872439,1.7701830308,0.3679876582,-0.2040630361,-0.3042512511,0.3614570429,-8.4037913244,-7.1243408237,-0.1509692013,0.2349772002,0.2528564859,-0.9311033402,0.477065527,-0.0281742599,-0.2401334443,-0.530170709,-0.6840156087,-0.194160776,-3.3920627332,-0.1106251705,-7.5235950912,-0.5092136316,1.6998260465,0.5727712423,0.704911051,-0.1179414594,-0.1188853554,0.5934184275,0.9294276797,-18.9814933061,-0.7631374339,-0.527661206,-0.0922052227,4.1958224553,-0.3071711129,-5.1882307983,0.518908168,0.5359434925,4.0867464893,-8.6615173988,-0.9342019747,-0.9151745988,-0.2401961145,1.3942667042,-0.506280212,-7.3365790608,0.3409929524,-0.1396439219,0.8526916881,-0.4871638755,-0.5136095919,-0.4485000906,-0.8260574641,-0.4818449163,-0.6929474572,-1.0634901277,0.8584791428,0.0451737196,0.5465560595,-0.9202647654,-0.1791581837,-0.6984101602,0.4063042044,2.6666932675,2.7302990795,-0.2891890504,-3.4956520981,-33.6369270673,1.1453798545,0.0209575645,4.2490636802,1.1393917267,-104.505563119,0.8407028169,-0.4957926783,-0.9397222697,-3.3195838823,1.445372049,-0.1810148288,-0.8684714427,-0.6789661213,-2.8673526399,26.3878684454,0.1378713918,0.1406232673,0.318690855,0.4513850968,0.2700194296,0.8258508289,0.6482037306,-0.1239804581,-0.2263224295,-2.5096212059,-1.7266826935,-9.1412566599,2.1462265492,-3.2038157626,3.5651226389,-5.8548241176,0.7961799792,6.6094976471,1.5914339476,-13.0901131693,0.9369941658,-5.1140633707,6.643510052,-3.9948776812,0.060998064,-3.1163734496,-3.2475874323,-3.3927132191,0.8935761707,0.62545895,0.9459909901,5.7799541729,-1.3734147792,-0.3891207293,0.0181228384,-2.0026394534,3.8116520018,-42.3121334604,-0.5730242936,0.7363212703,0.1943109195,-0.7692072635,-0.8302227096,-0.6733433245,0.2762539848,-0.6008322562,0.3613901526,0.6273388409,-0.7242430452,0.7316878832,0.9750587671,0.8259428528,-0.9818716521,-3.6419242833,0.7206527539,-1.6467492815,0.0403047012,-2.4465029705,-0.4587503877,-1.2439935995,1.3221627881,4.0264328047,-0.0025394983,-0.4549644321,0.7268390172,4.1193953978,-5.8755915038,-0.6437762965,0.9642758587,-0.0866652193,0.1845350772,-0.5568158358,-0.4682689083,-0.8675066038,-1.0647114658,-4.2959247063,4.0404638493,0.9962251941,-0.7274249852,1.2650009566,0.3659149212,0.6144258051,-0.5422114385,-0.9369797887,-0.0004420284,-0.4441245423,0.6302996323,-0.5646885858,0.5634612696,-0.8267501523,0.0678981286,-0.2876719431,-0.2792944046,-0.1386351444,0.5693944093,-0.1177285894,0.3667035496,-0.270787055,0.4934190377,0.3261270773,0.5227634849,-1.1139381044,0.233977242,0.834999927,5.5499895562,0.7382223661,-0.5679266357,-0.5750462041,0.6633223235,0.279502417,-0.8299812441,-0.1317771478,0.1544114836,-0.7252175992,50.8811540876,0.2747414155,-0.1872171019,-0.9145347125,-0.0173799944,0.2276990357,0.1097071547,0.8179707333,-0.3690915336,0.9290144723,0.4602895354,-0.700362159,0.7310880029,3.8961883842,0.3822236573,0.6570724111,0.551142403,0.4708956433,0.0725731995,1.2242428245,-0.827938302,-0.955361609,-0.3401013351,186.1007758166,0.2662260557,-1.0412967752,-0.4601351072,-0.8505217223,5.9724893872,0.7744142878,-0.0120786801,1.3729572311,-0.6773871911,0.367895511,0.482774006,-0.6289803449,-2.6042239223,-0.0641442473,0.1849514808,0.4181793236,0.3151475742,1.0057342231,-2.3928997967,-0.2016163671,0.7319834411,0.4251723179,-0.959917081,-0.9729876452,0.6826565138,-1.3885724423,3.2452653635,0.887617859,2.3638992527,0.0160584103,-2.4975770968,5.8994723221,1.7807110955,-0.5474670792,-7.8507324051,8.7542897983,0.9203624702,87.65423275,-0.7972894832,2.5518372693,1.6573180669,6.8671709325,5.5296670166,0.1628310947,-2.3416646511,-1.1388835898,-5.839149011,0.3457124569,0.1762760101,1.1289857161,1.9480888934,-3.9094507586,11.3216909477,-0.169148292,-0.0441850336,-0.3653690182,-0.7025636755,0.3573261196,0.1627167777,-0.0921528777,0.7723568205,-0.8995205955,-0.0168667281,-0.7076645814,0.4974074733,-4.2466920064,0.8249320104,-7.4606811009,0.5843848076,-1.7583220381,0.3574423966,-1.9417279871,-8.8180805129,-1.4905455395,4.3159249342,0.4294318419,-0.4263297494,-0.2967727536,8.7019567898,-1.4889130444,6.4663383371,0.9222331503,0.1351361568,-2.7117598221,0.9203625109,-0.8746670322,-0.9956826437,-0.75465021,0.8433838487,-6.5802947556,-0.7063595334,0.4802281835,-0.096196732,-1.1395892466,-0.2612536232,0.356207173,0.2336683802,0.2143607017,0.1954219018,0.1508595979,0.4998756623,0.0681851909,1.4774726399,-0.8539034697,1.0310374204,-7.7464663952,0.5660018914,5.0311461735,-0.564943981,1.2008852096,7.8256433731,3.2102405533,-6.2690855568,0.4380255168,-0.9835068546,5.3126576987,-13.3789913446,-2.1499381033,-5.0517054566,-0.2241709257,-2.974756078,4.2499492197,3.7000827128,-0.4871815006,0.6185227305,-7.3146313508,-0.1594637603,1.2771525545,-0.3972593212,-0.4019998672,-0.0281582176,-0.3621638312,0.2411827499,0.3882136625,-0.0737269034,0.6864403081,0.3877319822,0.2314085895,-0.4837772743,-0.7836062125,0.0476008642,-0.1934618488,1.0301488401,-5.1958510247,-0.2903196897,0.1080653501,-0.7244000685,0.0031028105,0.1867936646,-1.1150628783,0.181423917,1.0108216503,-0.3281523917,-0.5331671584,-2.7836893978,1.9668583885,5.598644526,0.7061922279,-0.2273414866,-3.6442422265,-1.8211332641,-0.4509086268,0.5512315266,-0.1681731508,-0.3802087573,0.8685486508,-0.7303486111,-0.6882585826,-0.5432509243,-0.1755755645,-0.3057555281,-1.1345771719,-0.2070123828,0.8028865752,-0.0425750654,0.1097426264,-0.4866997083,-1.4125341452,6.1676895834,-7.5302602967,0.5036815984,0.5358778437,0.5924979587,5.2663887664,-0.8704800874,-0.2446986103,-1.6215154074,-2.5870421603,0.572763342,-0.6097338298,0.7190682756,0.1943982484,-1.5146696533,1.7304955445,-5.4182140381,0.1955566123,-2.478785298,1.1849472186,0.637572067,0.1476657039,-0.6899090669,0.2045304694,-1.8063514194,1.4129907093,0.6304617097,-0.8806594507,0.7765676416,0.0981736657,-0.0791433428,-0.6426226428,-0.7588115138,-0.9420271474,-0.1174521242,0.4651651144,0.6417657391,1.731130453,0.1755533692,0.8335549653,-0.2571079115,-0.5319470736,0.986284053,-3.0800977203,0.1133750805,-0.4241648305,1.3914468678,0.4963198866,6.459484495,0.6815399807,-0.7382916788,1.2894964036,2.1117751897,-31.0139642233,-4.8933140998,-0.2447106946,-1.4884731076,-0.068237241,1.5389238211,-0.9805177426,0.9714268502,-0.4588300797,-2.2370658815,-8.1525067078,-1.0973868751,-0.2601340447,-0.5025973117,-0.4400255076,0.5817696535,-0.9462904403,0.7012504093,0.1349205018,-0.0766126951,-0.1110755925,-0.6314917628,-0.3147049267,0.8823898823,-1.185608655,0.0104102633,-0.4836027794,1.3303602465,-0.6158483331,-0.2582442035,-8.0967925367,0.5681335139,-4.6457512873,1.5772054383,-40.8799822287,-0.6859682061,-1.4169424192,0.5556479777,1.515132831,-6.2037726441,-0.4555644614,1.2619374694,1.0034594322,-0.0639261548,-0.8231209175,0.4330705746,0.1397800454,-1.0921360425,5.2843830117,-10.6243398026,-0.7736745653,-0.6181632017,0.2364147158,-0.002646205,0.8402904313,-0.1152745591,0.1649184875,-0.5935444976,-0.5828231539,0.5684933719,0.1134465875,-0.8459431308,0.1322024613,-0.7704034418,-0.0785968101,-0.7371073047,0.3441575757,-0.6855770034,-0.2430601723,0.5810307088,-0.2709079502,-0.3319713595,-0.1513685668,-0.9113679332,-0.1570631532,-0.042496295,-0.4659423431,6.3902104158,0.270306924,0.1465758305,0.8435440837,-0.7137283204,0.1649612663,0.9032012708,-0.9590162239,0.628111889,0.588575195,-0.7019514411,0.8305094111,-0.1329407625,-0.3280493445,3.5224889933,1.0416007601,-0.9304696249,-0.2265148871,-0.5743749414,-2.6343206072,0.4830353881,-3.054891674,0.0009655441,-2.6980537886,1.3235535728,1.1879513946,-0.8064384661,-0.9497735617,0.7958792454,0.6538782659,0.6221331226,-1.199067596,3.5432121787,-0.4074773438,0.3100583848,0.7724926042,0.049094869,-1.5115178408,-5.5564230493,0.8485219953,3.0157511334,2.6594251508,3.8832983213,-0.1645964868,-0.7382917748,0.488394797,3.1113366181,2.8312298664,0.4955617929,-0.9629737893,-0.3531985537,-0.3367020645,14.535639008,0.1205569445,-1.6107949891,-0.0939288687,-0.4493136723,0.809345437,0.6402182581,-3.0035972706,-1.3170843391,-0.4519434026,2.0993210566,0.209220852,-0.579077796,2.0234321224,1.1958132506,3.1965072266,-0.1892030741,-0.6324878896,-0.3420032753,0.2023162726,0.3695839752,0.1067370398,0.4381346521,-26.8167691817,-4.5216385567,0.7910900329,-0.8995252496,-3.0455296067,0.6986148745,0.6883348156,0.750350912,0.5287266128,2.7576225089,5.039830621,0.0631284534,0.5242229158,-0.993478139,0.9586039941,-0.6900279134,-0.5171349595,0.2292513919,0.3312400279,0.096819012,0.9171779952,-0.3662061453,-0.4759963821,-0.8734679599,2.9548674626,-0.7509061873,-0.8296783649,0.8194850947,-0.298137772,-1.0270811332,0.9881550364,-0.5421710887,0.699811829,0.2983367195,0.7265659753,0.549286003,0.605944846,0.5185680214,1.5234370347,-5.1160812282,0.5073458308,0.8793091928,0.2707259714,0.9141414037,-0.2438575262,-0.1100976249,-0.5061858967,-0.4742889467,-0.1603893468,-0.3163620732,-0.1084362348,-0.9449982301,-0.3576386678,0.0117305006,0.2224909967,0.5760087032,0.7019385912,-0.719514791,-0.0147619086,2.1004189077,0.5869692814,-1.1138158064,6.2576968058,0.2726787265,0.3898041325,1.5948650119,1.4693961427,-2.5937672321,3.2624823378,0.9922956244,1.5444876162,21.0263223673,0.318419919,-0.0220323778,-5.2786810657,-5.9966972562,36.8443908314,-2.7100980405,0.9976667427,0.4853487313,-5.8367592459,0.7001815899,-0.0408058063,0.4964922366,-0.9249648694,5.6379431197,-2.6546163391,-1.1600144551,0.901955774,0.422333696,0.9728457319,-0.8036096516,-0.7607062095,0.1640867687,-0.2274310206,0.2224682242,-0.2041478792,0.3767225328,-0.0763540848,-0.3236283014,-1.008988168,0.2920784303,-0.8794669566,0.2339902543,1.3264517557,0.4172178342,-1.4786969575,-0.6315568076,-2.1094542244,1.4133252632,-0.0141109196,0.9976689517,-0.4477973768,-1.084235948,0.0345355752,5.1879771725,-0.8943792432,-0.8255882724,-2.5243398893,0.5910442812,0.7313570867,0.703678944,-0.2542815867,0.6020774861,2.3423407066,0.2737547361,0.1349722124,-0.4514605117,-1.1124040453,-1.0601311339,0.550286572,0.4117030084,0.3725191461,-0.4286627308,-0.966973562,-0.9697342494,-2.3555357398,-4.2529236512,-0.8480289753,0.6588974234,1.9209029416,-3.5651061016,4.6032158864,1.7684879401,-7.9496656104,-0.3617345203,-2.3384701014,2.2242535214,0.0251990082,-0.7179474028,-0.1569702943,-0.2973547641,-10.3749680646,1.4503522444,-0.9523743065,-7.8958884667,7.7293195473,-5.6980496622,-0.2892733361,-0.7153683853,1.8053714269,0.4435132373,-1.6521716448,0.1049383934,0.0341316168,0.5667420991,0.2530342368,0.2940413106,0.1337728863,0.0545379825,-0.7157288742,-0.4585311265,-0.918120158,0.0363304905,-0.6506800639,-2.6486051616,0.8155011122,0.5211973302,-2.0972888711,-3.8090666817,-2.3409281152,0.037156971,-6.5054135133,3.1026452845,-5.4969349451,-5.576851058,1.6184956972,-0.9671017965,-0.3594079589,5.2063971368,2.902995731,5.5674287924,0.8658945867,0.6053899603,-13.3332844483,5.4783145094,0.7349651318,-0.9832534576,0.0987394535,4.4826033901,-8.8317300258,-2.7884904551,-0.2612937387,-0.2208528335,-0.3507931114,3.7264840832,0.894260732,-0.0901825352,-0.2501323061,0.8532512803,-0.7604833126,-0.8366426781,0.3897871803,-2.3032306708,6.2511017721,0.6401090934,-0.9914353895,-0.9146064029,-0.3651201457,-0.2787138547,0.7451401255,0.9397404658,3.2626840158,5.5446278812,-0.5410746701,-0.0266729645,-4.1599560397,-1.1314563634,1.425085358,-5.4432504141,-0.6516868871,-4.279002593,-0.1592115263,-3.0224409716,0.8464762015,-0.7904958975,0.753373748,3.202059621,-3.7958480867,1.4187136032,0.3929314946,-0.6725838087,0.0666193932,-4.2565674348,-1.3969447677,0.3983091318,0.2080171819,0.0829188126,1.0995820047,0.5738835417,3.1752597083,-0.7405996488,3.1143521204,-0.7620481344,1.8276063557,-2.8607469925,0.3433865529,1.9990683419,9.5008680646,0.712263311,1.5977347664,-19.4606588946,10.9880892365,-0.0108294995,-0.2880107799,0.0009477567,1.4048569727,-6.1039243308,-0.1074697287,3.126153664,2.4144343061,2.4876730567,-0.3393624742,-0.5798220446,-3.8720312822,-5.1775479391,-6.7684820951,-0.0079013464,-0.4749217869,-0.3614078533,-0.1958051961,-5.5468972599,1.3902553058,-0.6817197417,-0.1750391632,0.9040252843,-0.6380508282,0.7269092576,2.4559332705,0.0485291576,0.1933287569,2.4169271525,10.6581009034,-7.096444904,3.4865269289,3.692700368,14.9925188821,1.2755972302,-2.7541826831,-6.7954627412,5.1187194176,-0.579310389,1.3324243603,-1.1729242433,9.2165260402,4.1501419713,0.3522691472,3.7220271012,2.2348625282,-6.6772307784,-0.7346885796,0.9796123709,-0.4177411797,-5.9360630835,2.2356564801,9.4647367549,-0.144177782,0.8834201278,0.3897973376,-0.5145275074,-0.1146004349,1.6815809237,0.3797887201,1.8637636748,-1.5143082594,0.7352584378,0.3737534515,1.766195326,3.6548191208,-3.469043522,4.8735180034,-1.397039257,2.3239416453,8.1081211085,-5.2958351766,0.8364247286,-17.7201081547,8.6498315979,-0.3189006625,-0.8109528375,-0.7000788221,22.510821615,-7.6190389784,6.0088984762,0.491441041,2.9106781678,-1.1300389269,-0.6849286302,0.6610668853,-0.1219667714,-4.9901963731,25.5134247106,10.3601103694,-3.0137411623,-0.1436832925,0.3031689981,-0.0097980258,0.1966794982,-0.3213981611,-0.0449965563,0.032611222,-0.6994101471,0.6977858152,-0.6142992147,0.065742631,-0.3460834964,1.2276034512,-2.4302434556,-0.512169109,-0.2640396405,0.7700663199,-0.8785547066,-0.4806406516,-0.5104657648,-1.0219534617,-11.4914088915,-0.4284404196,0.2127721464,1.8304966208,-20.6475190637,-2.0303403789,5.4160962562,0.3055540897,1.0554417625,0.3553515451,1.6861850485,-0.2433814744,-0.6471959071,0.6883869187,5.0248983889,3.5938857442,0.7044404646,-0.9162490954,-0.739198733,-0.8347406527,-1.0038187977,-1.3556769276,-0.7503400492,0.1394828158,0.3625558352,-0.7914681497,0.3384480291,0.6247231642,0.4446936485,0.0504685601,-0.1448083449,-3.4409324618,0.1567047517,0.4860974731,0.639075969,-5.7493186324,0.1300364267,-0.3610792599,1.3625082095,8.5520088753,0.5994436897,0.1163863636,-1.228624828,1.4275901385,-5.7438282848,0.1945089154,0.9406017681,-2.2715043485,-0.8163745975,0.9080059059,-0.7420357986,-0.1771570044,6.323367785,-14.8351516283,-0.8870896359,0.601863032,-0.9563795505,0.0871578902,-0.6060737756,0.382453724,0.6680710977,-0.5236588845,0.3526803623,-0.5503825633,-0.9354133428,-1.4488288965,1.7100080351,0.4125582252,-1.6176126426,0.1005212569,1.3397635,-0.8894747072,-0.9335080941,-0.3159382215,0.1022233886,-6.6307500789,2.9781154122,-0.0907751861,0.4572380583,8.1116376273,1.6442375901,-0.1464786284,-6.2590152682,-0.3083020287,0.0240215894,2.5726842843,-3.3485759384,-0.9780486937,0.4091541904,-1.7415779831,-1.0181394154,-5.098110139,-20.1933897118,-0.7397117548,0.5474402911,-0.5531448803,-1.0310589516,0.8383936697,3.449169208,-0.5546895578,0.1545559066,-3.2833879355,0.04207474,-0.3320332706,-3.1141747884,-10.5937750577,-2.4894917323,3.5460766118,1.3688755678,-3.7897054969,3.4999802502,0.3434405008,-0.2280802907,10.2771392003,-6.977487377,-0.3778338751,0.4274772263,4.9399039734,-4.9365114255,-3.3499466156,4.5445358729,0.4832569088,2.6071537258,-9.5507898828,-1.4738020336,0.5606442738,-0.9564946024,5.1247619027,9.4831158065,3.6046684576,8.887873874,0.5649149528,1.1317939595,-0.9656920535,0.5432890953,0.7794983966,0.4853446304,-0.7245674086,0.1578501027,-0.4726237284,0.0010435737,-0.4295421552,0.8674797353,-1.6798398331,-0.054285686,1.3865192465,-0.3862126402,1.0000155294,-0.0546194838,-0.2956194005,0.407375533,-2.1142373517,1.5472485754,-0.4399768713,0.6704397982,0.9039552244,-3.0869388734,19.3202499033,5.7694403355,-0.4237291028,0.5159821977,-0.5934919951,-0.6610827265,-0.7268350837,-0.9657266084,-0.3154278354,0.2370245759,0.4168110394,-0.6201432587,0.1791725099,0.3193812629,-0.0822321933,-0.1736461173,-0.5876153332,-0.8137890172,0.4913603574,-0.5034251833,0.500622537,0.4763999884,-0.2317699868,0.4610809573,-0.6710814865,-0.1506279123,-1.9195535873,-0.6289858194,0.3779767876,0.0157580822,-0.6504178662,-0.3084809627,-0.7346412369,0.8634509924,-0.3334023079,0.5723101634,0.4848465102,0.9206756481,-0.2248950043,-4.9939202517,0.9048779625,0.4847309475,-0.1140068285,-0.8943259818,0.350173631,-0.4358953458,-0.1754343409,0.552420223,0.2924411589,0.4604553564,0.6393504877,0.7818732866,-0.1194321975,1.4174374769,0.1891027817,0.907926123,-0.6797878477,-0.6446516712,0.011057322,-0.4264244427,-0.4846599151,2.8432267979,-0.9219476909,-4.6851674843,-5.7214381977,-4.8226779233,2.1488389725,0.1092985095,-1.1872626141,0.5080819831,-8.756463322,2.5666254665,0.8097504782,0.3726373442,-0.1893213461,3.6296524631,4.6598015022,6.9463377728,0.5817405831,-2.924933411,-0.5110737763,1.9506821733,-0.3502045137,-0.4106501422,-12.1244072258,-1.1064452431,5.0545922334,-0.6759871105,-0.8143653515,-0.9461207818,-0.5410560548,0.1163487939,0.3592834018,0.6891223734,-0.3884083681,-0.2279816748,-0.2537476103,-0.6388521843,-0.1892944836,-1.4600207558,0.222089159,0.1577722963,0.4643642966,0.2273685461,0.4642863589,0.3064251287,-0.7294611548,-0.1606757988,-0.2304730113,-0.8440873518,0.6527609034,-0.2762569521,-0.8635919436,0.1368595372,0.5193749703,-5.7048428831,0.7409983984,-0.1996722472,0.0699601489,-0.3726626812,-0.2496569129,0.219610944,0.7673778201,-0.7395912256,0.4861227434,1.3318619534,0.046754139,0.6104247393,-0.6135260882,1.3608003963,-0.3832712784,0.2790876558,-0.716600466,0.2270403146,0.3256048571,-0.5850291006,-4.2508286544,-1.0022039121,-16.4206695014,-4.710430396,-9.5094364918,3.3364279798,-1.4994494333,0.5419097565,-0.13206435,0.2693767904,-16.3308709043,-2.4034289696,1.6555287061,-0.8032648479,-0.6653455988,0.9563893633,17.6395644666,5.2759261709,0.210691895,-0.3395406191,-7.1705207506,-15.8509541145,-0.4547125347,0.330679597,5.4723711263,2.9841499861,-0.9685972334,0.029773259,0.1942815414,0.3959790769,0.8101940753,1.047586531,1.5851861349,0.7713150497,0.4367042652,0.3713382527,-0.2352686471,-0.0977856717,0.4683507928,0.0017888368,3.2328726442,1.0548512789,-2.7743848438,0.6222073358,1.6576527688,-1.7598807709,1.5629783864,0.2260030299,-2.4951765487,6.9728484066,-0.3537152993,-0.5838077616,0.0276276997,-3.0324351078,1.4342567358,-7.1179775139,0.3717283166,0.3026322723,-5.3412460838,5.0472087569,0.2324706458,-0.2577176724,1.4913156943,-3.4059991439,4.7523580913,1.0759340178,-0.8030607113,0.4958394546,0.8093129823,0.5267714543,-0.1136273518,-0.2124740445,-0.096512807,-0.8332821228,0.6621706277,-0.8656937958,0.4036262364,-0.0631591158,-5.83086703,-0.5995634386,1.1665105087,1.0269867562,0.4886289962,0.6303427324,-0.4936115519,-0.0250884595,1.4380113629,-0.5371446213,-0.0741465021,-0.8007048461,-0.3128176301,-0.2047952606,0.0807890339,6.517552993,0.1665128019,0.1044166245,-9.485032061,24.9793914948,-0.1344535874,0.0850486304,-0.7852898332,0.5944750556,-0.3608119823,0.2020395825,-0.4190173575,-0.5234277215,0.8102673228,1.6641765517,1.6611886166,-0.551830643,0.9611249279,-0.5745420544,-0.9794608986,-1.0192096386,-1.0840169245,0.6196363142,3.3067423138,-1.3482707862,3.2025150242,0.1322917737,2.4528375745,-1.2484342522,0.5071411341,-2.5189093536,-1.8261643951,-17.041656127,-0.5897094786,0.2859651294,-1.1126833573,5.1007981821,-0.3205112714,-4.7052799318,-0.5088653674,-3.9809857936,-5.0368560724,-0.8233619618,0.1799723815,0.43074219,-0.2332740986,3.6568846693,6.7288394353,-52.9560344306,-0.0231722933,0.0280235292,-0.5082568245,-0.6889053749,0.1981006451,0.0452433516,-0.861698465,-0.6342987813,-0.0787542929,0.2501494248,-0.6246946866,0.4558884843,0.2058402549,0.0308410452,0.2823106364,1.0297349765,-1.5257499535,-0.0044269921,-0.491270925,-0.876185323,0.5224100615,0.5550614197,-0.8511272818,-0.2602700886,0.2013616453,0.1527797188,-0.9283326328,7.0767935002,0.0167262158,0.5792104558,0.6623852915,-0.6695280463,0.3908742024,0.8572066705,0.9168290272,-0.443829154,-0.5528798755,0.4298001085,-0.4536837421,0.4904469055,0.9802481261,-1.7892412046,2.1153911907,-0.8225373901,-0.3013211865,-0.3385126927,0.9014994339,-1.4405005053,-0.483877762,1.7026353327,5.7589461765,-0.4988674756,-0.0805223464,0.2599642253,1.8006136678,0.3426957485,-0.791849688,0.0542310491,-2.090868216,-2.5333666306,-0.6813946359,0.489285534,0.7502517638,-4.0562319384,-42.0815687116,10.1906592596,-0.5303015837,0.1377277843,2.5137979105,-0.7461484724,-0.2451595797
   0.8890183614,-2.174173416,-1.8144849714,-0.5606316709,-0.9564875898,-0.4222625743,0.1754641947,-0.2998358526,0.9553371327,-0.5997233384,0.6637077968,-0.8239861042,0.3471487048,0.176704085,-0.988511119,0.3163732666,-2.2891944092,0.7045610144,0.1926634049,-0.1064318872,0.4293936917,-2.5550489323,0.9270205939,-2.3925350181,0.1789518113,0.4890396697,-1.9865024797,-44.0497037241,0.6066328406,-1.6397935515,-1.8906851088,1.8617174234,-6.43462647,0.0793070994,0.9190147984,-0.4079182305,0.2870475732,-0.506374634,0.1313354453,-0.4686820864,-1.8258080298,-0.8755051385,-11.5756698965,0.1906385967,-0.3234050552,0.4092943117,1.0742616004,-0.3026973718,0.946391389,0.3607185529,0.3056280622,2.7994287822,0.3822425756,-0.219561041,7.3430611658,8.1379537806,4.1478610788,0.3965250582,-2.8792330303,0.5316040842,-3.1009393537,0.2548939192,5.1923112195,0.039533363,-13.3356023369,1.2080570082,-0.3310935755,-7.6649683216,2.7459961455,6.4529397503,5.3582687183,0.1158260299,-8.0120888187,-5.6692275466,13.5733197865,0.645945525,0.9563590847,1.7857289287,5.7690923462,0.1559698172,53.5237583982,0.637290065,-0.7367066753,-0.5440871475,-0.4997807246,-0.4266399434,0.890907007,0.1008597744,0.3141444233,0.2492935604,0.1212854742,0.2459934999,0.9950311587,-4.642917398,-0.1995590002,-0.2812300418,-0.7917458478,0.3509034691,0.140076064,3.5096182411,0.2588072792,0.6878150943,-4.4924245056,845.2873180534,-0.6411569303,0.78091185,0.9033295543,0.4337634502,6.3841182865,0.6560221834,-0.3892137689,1.9599284925,-2.0857107914,0.5492762589,-0.7368374624,-0.8568762784,-3.0366978072,0.3473600069,1.0518434701,0.3008157524,-0.5690376105,0.6380439716,-0.4508111006,0.5371831249,0.002895158,0.0261296525,-0.1902066704,-0.116282913,0.5898301311,-0.7998345572,-0.2448881014,-0.1912701174,0.3411065438,-0.10782635,0.2960375241,0.047767287,-0.3388936882,-0.2757809776,0.3686337983,-1.4311064924,0.6351020375,-0.4297401955,-0.3998590062,0.26754895,1.404864778,-0.2445908998,-4.5006413264,-0.4136835697,0.7343400127,-0.902625774,0.0440411598,0.826370318,-0.57519198,-0.8817177455,-0.1449407829,-0.7312108106,-0.8434186657,-0.8287530066,-0.0469433648,0.1995379683,1.2944873082,0.5610761904,0.8125542809,-0.1548991265,0.7397260241,-0.0266273627,0.49278016,0.5578495771,-0.5393044793,0.2040998787,0.5767630258,3.1658170703,-0.9555415836,-0.0412946282,0.2004968146,0.5289552467,-0.6126236543,0.7977788533,-1.7789983103,-2.1577558294,-0.844239857,-0.2489946766,-1.0120251708,-1.3180313242,6.4626896797,0.2696239535,-0.8650977834,-0.3773456007,-0.2517775133,0.7430466928,-0.1338263541,0.1402623926,1.1255140864,0.6195068899,-3.0829086346,0.716523623,-0.2962721944,-0.4207351071,0.0105108883,0.6623269872,0.0977222411,-0.7285991014,-0.9950192552,-0.2726788258,0.8121413876,-0.3329287209,-0.9026543797,1.2409912912,-0.8083999744,0.3832757061,0.5106183962,-0.4469603032,-0.8519828484,0.6345149634,-0.2949727615,-0.9188872024,0.9106057217,-0.4457275255,-0.5704781746,0.2928303168,-0.2464756825,0.6056783627,5.073386241,0.6274760122,-0.1270784241,-0.8348286917,-24.2775891439,0.37528608,-0.7365852873,0.5634017644,-0.4276944916,0.7342295436,-0.4660347787,0.390219785,0.6170795481,0.5955047906,0.6291661979,-0.019938906,-0.4449323502,0.370874722,-0.5196939838,0.0456844312,0.7190897844,0.7680388902,-0.4837617379,-0.378582556,0.6652516297,0.4308542382,0.2697100496,1.0211536205,0.0814802375,1.7154562965,-0.8760251916,-0.8644668341,4.6596445426,0.6838567145,-0.4115088076,0.8088423782,-1.7978396034,2.5987438504,-6.7962626798,0.7869145962,0.4014738109,0.3764497577,0.7494112277,0.1348344825,0.1784136599,-0.7739189238,-0.351235844,-3.3653627504,1.031019033,-0.7236166791,0.0008208988,0.4229385398,-1.1435493313,0.4548155886,-0.8753281902,0.5028382033,-0.4061642208,-0.7582794121,0.5030884782,-1.842583366,-1.207762452,-2.427824056,-0.178281257,7.1748717632,0.7845402956,-0.4645440637,5.2052922785,6.0830742668,0.1107646341,-7.8703586607,15.4288921996,0.1094027671,0.8418948706,0.286473507,0.5775211307,-0.9944484509,-5.4310017136,-0.8594136545,2.3156416939,-1.1053642991,41.7359256714,0.6200495841,-0.1249052003,-0.5373361131,-0.0686650145,-5.1979621065,-0.3464617629,0.9413770176,0.9998398847,-1.3578287685,-0.3804684426,-0.1510345417,1.874725193,1.2919177611,0.5141616749,1.0226811406,1.982205559,0.9233425113,2.3787914348,2.5359131453,-1.3787676539,-0.3722464531,-0.2176059168,-4.4182973586,-0.5021438393,-1.1170105102,-0.0285872253,-12.1320813117,2.4666794397,-1.1000407162,-0.3613863705,-1.366962559,-1.8214448332,4.0708284705,-5.8364719404,-0.3272778463,0.3510796397,-15.0812020538,5.3966795485,-0.2367055034,-0.7627682862,-0.5926718056,0.8706728479,24.8116590357,-0.0318341699,0.9360118368,-0.6475482224,0.296198451,-1.7126588805,0.6740340782,-0.0291096619,0.2934859062,-0.1786186343,0.6341932913,0.7852547789,0.2480032095,-0.8047922743,-11.6016982168,4.6808968221,15.4709318249,-0.3288821626,0.2392695237,-0.4648651808,0.5819208619,-0.0317488379,4.0679949269,51.8951409558,-0.8365442597,0.8006525225,-8.7693500895,9.007750808,45.5039436439,-8.7376050156,0.8259022961,2.3977458397,-4.650517081,4.3182550787,-0.0180232319,0.1258436614,0.7941903425,-1.8502822075,1.2260396221,-0.8121005377,0.9073468698,0.8053435767,0.4565219608,0.7196205964,-0.7410296103,0.8845361677,-0.8489416439,-0.456664234,0.9672792206,-0.6975680997,-0.2567831556,-0.3271904592,-0.6851889117,-0.7951258219,0.1752318878,0.7557012694,4.3388041635,0.7277033501,-0.7320231786,0.2256319091,0.4735347378,0.175663535,0.7629400404,-0.9255891665,-0.2884165527,0.6642601932,-1.0676946877,5.3510432533,-0.5421551622,-0.2988736115,0.1430160503,0.8996659007,0.8335387076,0.0790578495,0.6198680731,-0.0777621105,-0.2161014127,-0.5162210989,0.4652772394,0.2523522449,0.8246309514,0.2398430829,-0.3199102735,0.8028520078,-0.7441724213,0.8666636086,0.3954004081,-0.9312645251,-0.6356779029,-0.2076142401,0.9602811823,-0.1219640407,-0.2233603879,0.7376297872,-0.5427537071,-0.1693238758,-0.2008120751,0.3942477855,0.7254790188,-1.7180821963,-0.3637043059,-0.0640339409,0.6235951548,3.0759848777,-0.6705053235,-6.4531236847,0.6771082644,0.4395088214,-0.5063559338,0.4483934485,-0.475274169,-0.5460547095,-0.2761305021,0.4797514627,-0.7745367763,-1.0214637399,0.058266304,-0.87223998,-0.4580173145,0.0765274014,-0.3506426507,-0.9271935732,-0.4387183284,-0.1241031282,-0.3106175115,0.0489415664,-0.884048969,0.0350854702,-0.5642767673,0.356474409,0.0556870702,0.6912197263,-0.738735495,-0.2951418253,-2.7570792476,0.678212853,-0.0875270881,1.768443453,-0.7072531545,0.0225325679,0.3269989171,0.3955669485,0.7915539854,-6.0833709027,0.0389212012,0.1568278311,0.2855731796,0.5740298265,-0.7899186129,0.6978719764,-0.0004484636,-0.5480344578,3.0573712806,-18.3870840543,0.7481642169,0.2875749428,-0.0033313584,-0.7024245281,0.9279704117,0.4620226368,-0.2677226053,-0.4323803754,-0.7610184665,0.8777970776,0.3848616677,0.9629610354,2.2850572892,-0.3405133351,0.2762054958,-0.7580800316,-0.5617121014,0.4957675089,-0.1018471893,0.7039365791,0.0142350309,5.9574020632,0.3022941712,0.0664591785,-0.8669726807,0.0301037309,3.7510089232,-6.2173629865,0.4771259555,-0.1820899196,-0.6452208621,-0.2411769776,-0.2490087831,-0.4591380551,0.4894873963,-0.3845515903,0.2584914625,-0.4863913552,-0.1145622242,-0.7053328242,0.7123970517,0.5871579383,0.1873435818,0.2806154553,-0.5655592654,0.0723061516,-0.1749418714,0.362238404,0.2586070262,0.7372312674,-1.2087150535,-0.1843664152,0.3187023827,0.0764402576,0.1796782424,-0.373439967,-0.5044977087,-0.7000460095,-0.4681661693,0.8007024684,-0.5452287135,-0.8000033525,0.0217863076,0.6281238875,0.2120269596,-6.2387970654,-0.5666849518,0.931696568,0.4180599231,-0.866360439,0.8796011029,-0.485417675,-0.8900693192,0.5094082895,1.8206211775,-12.9757092279,-0.3910389391,-0.4645274467,-0.1486154954,-0.9993423332,-0.7984736901,0.467103188,-0.8499979048,0.5295023223,-0.3201897209,-0.0112023115,-1.8791738892,-2.8161612988,0.9098081544,-3.4306891417,-3.4588099315,-0.8197939397,-0.1207288851,0.1836722271,1.4037855446,0.8745167337,5.5315151178,5.8954167417,0.3817612822,0.8393011726,-0.5864177833,-7.1369089982,4.8466765672,5.6522780647,-0.9017574172,1.1411588679,5.0642216568,1.173029977,0.6794501657,-0.2208095785,-4.8084011435,-3.1983346836,-0.6460769907,-0.2745232858,-0.8896754626,-0.5571210955,-0.4533583534,-0.493617134,0.5619806538,-0.7994914406,1.002458847,-0.4011881794,-0.9137052093,-0.3516515692,-0.1923196093,0.5391698305,0.4054394894,-0.4230363365,0.4190576517,-0.7224765143,1.5167518364,0.8534432291,0.2814052986,-0.309271826,-0.8043090896,-0.7475724857,1.1095439562,0.4990117585,-0.1415172594,1.0498135176,3.5117258846,-4.6947058242,0.1705950551,0.1866997652,-0.593887494,-5.2279428196,-0.796154056,0.8753212988,0.5815802423,1.4081205524,-0.8737359329,-7.9106750915,0.9480614578,-0.4539475629,-0.0425099665,-0.4463926007,-0.5506592558,0.430743969,0.1599434449,0.3157784581,-0.4867004085,-0.2603909732,0.0658489422,0.7631728139,18.2512745699,0.7872075702,3.3399835302,13.2554805003,-9.1905851916,-0.0529198938,1.0684970612,-2.4102510398,-35.384818826,-8.7124029821,0.1126526847,-0.9682129361,-0.1481727732,1.3378884555,0.6274056598,-4.5150207244,0.6116770504,-0.0248969979,-3.4491276962,-61.175783877,-0.7880931499,0.711350602,-0.6127885393,-0.1344446633,-8.8026737344,0.6713096146,-0.3844549457,-0.0439405648,0.2913923585,0.5344474533,-0.9110282651,0.5340785873,-0.2516090769,0.5108201116,0.5369821903,0.7223685909,0.8723233139,0.5799196059,8.5821001549,0.3180053673,0.42148498,0.0079327771,-1.3423412126,-0.3014902088,-0.2007431597,-0.7202497782,-3.642569667,9.5258866517,16.1862454602,-0.3596915469,0.5016171675,5.4412588661,1.0991897264,4.6620503913,-0.7268101972,0.5997807081,-6.3361905898,6.2183467953,-0.5389694259,0.0385104674,0.065319518,-0.7325058472,-1.6207940026,22.0582000705,-0.1195009477,0.5528049868,-0.1093097442,0.6160193646,-0.2944878664,-0.2213391956,0.1444460332,0.4185800028,-0.2303787063,-0.6296830784,-0.7817186657,-4.9815576155,3.3133628086,1.4113454208,-1.6158199123,1.6346383698,-2.3144720366,-0.1199387549,1.5502256252,-0.7818127571,2.8621600846,-7.9527546192,-14.5002973311,-0.1915866608,-1.0105435924,11.9448321319,-5.2880812419,-4.433119228,-0.1352173375,0.0227915123,-0.334262206,0.2108133451,-0.2024068413,0.6536978631,-0.5251660054,-1.6690629719,-2.3664078176,-9.9326684252,0.1399084866,-0.0360618866,-0.6551471011,-0.6324948532,-0.0169798725,0.521018723,-0.5285143363,-0.27619616,-0.1388589399,0.375378966,-0.1298968071,-0.4727740195,-1.7775199035,-0.1242829747,-0.5470686417,0.8892342509,0.1305853457,0.4692636963,0.9314533747,-0.501064357,1.5532159567,0.1858013927,-0.19388506,-0.6900086616,0.7053381568,0.3953105151,0.232733316,-6.3858504441,-0.5673317237,-0.3138151139,0.6274848794,0.9398516089,-0.4925919884,0.8172146631,0.2461222561,0.1564959672,-0.6120380629,2.3470087481,0.190990511,-0.4373447365,0.9316104555,-0.1727980167,-0.3966159987,-0.1274029992,-0.2796506844,0.2800728113,0.7422505268,-0.8709777663,-0.2575954669,-0.7005826625,-4.3038498405,-0.4859298359,0.4281799174,-0.662369045,0.3779903151,0.0075316251,0.6810784877,-1.0388273544,-0.4087368066,-0.567531327,0.1934351141,0.666782366,-0.0922065149,-0.1696356952,-27.5743466044,5.196573928,-0.4200946276,0.1174631279,0.3668897965,-0.845166803,0.4444137254,0.2248098046,-0.0955158376,0.0941491591,-0.2010193518,-0.3357091715,0.8163162916,0.2865966894,-0.3944876089,0.64273847,0.6161378797,-0.7540668109,0.1340076572,-0.2305779105,-0.6891158968,0.5831725678,0.0693569174,-0.1390938055,0.4436994807,0.2940155201,-0.1553487707,-0.3746188136,0.6966921149,0.3534705188,-0.7299169944,0.4427639619,-0.86426904,0.6944438627,-0.5013968846,-0.2545275415,-0.5267634852,-0.0689275442,0.4721269072,-4.9105855551,-0.5288668766,0.6356108149,0.5182107082,0.2644927189,0.2773335113,0.7671218197,0.1974327254,0.0113006553,-0.9736181222,-0.5189639641,-0.4294365372,0.4356991285,-0.7597149461,-0.8051485375,0.7099559093,0.7686489765,-0.4919668896,-0.3779712699,0.028009027,-0.9554237687,0.4842159054,-0.8727778797,0.4580674444,0.932119552,0.3602922764,0.6617214187,0.598652024,0.3473748719,1.274483742,-0.4721674436,1.3317421495,-30.982509794,-0.0721261717,0.1461930243,0.3175918163,-0.1858596416,-0.7080399671,-5.0279229758,-0.5610237585,-0.7726340123,0.9813274182,-0.6537111568,-0.4507871858,0.9608119586,0.1799503135,0.6713500539,-0.9623353862,-9.6791106252,0.9153132308,0.0665519317,-0.9821652183,1.1270716047,0.492178331,-0.3282485865,-0.0789505301,-0.997216315,-0.4003901835,-1.2808210356,-0.6528223878,0.7004760745,5.8364046173,0.1577160148,1.6044553221,2.1842385848,1.7179986889,-1.7266358719,-6.2996520934,-3.3530549507,-8.2778979514,-10.6755368407,1.0386286821,-0.6539466528,3.9918457825,-1.133517928,5.7349928326,-3.0234008961,-0.8004418229,1.8634784173,14.5116430573,-3.0269542197,-0.7448705372,0.5842493389,-0.7229632128,4.2484587918,-33.2843913708,-8.7662390174,0.4188276229,0.6408512813,0.7268912042,-0.529563419,0.0336265001,-0.2381312685,-0.7912448708,-0.0876537259,0.7474294458,0.1608900367,0.3202151141,0.6298566002,-0.2105150136,0.1660399835,0.6349970741,-0.6474543651,0.7460723055,0.2257607729,-0.310927003,-0.4602269925,0.1595979421,0.2665957455,0.3233061895,0.0995374448,0.0471395041,0.6539633219,-0.2365319394,6.0728210336,0.8013142654,-0.2544695566,0.2165861803,1.2663722449,0.1834418624,-0.0128731276,1.0436871312,0.1176738131,-0.4335062394,-0.8428461925,-0.3276090703,-0.3145811172,-0.6593493792,0.3652939816,-0.4600932121,-0.1949790594,0.4565073039,-0.3771811221,-0.2481057966,0.4236518707,0.8468978063,0.6466099853,-0.5459979679,0.2031290742,0.4376344091,0.3182024386,-0.5425884264,-0.2600629046,-1.8782172831,-0.1838813724,-0.949017716,-0.8522914574,0.9494829625,-0.6535690686,0.1654058606,-0.1684461362,-0.7880941217,-6.1248812829,0.6138160292,0.5540067989,-1.827493905,-0.499271481,-0.4866539027,0.7207410753,-1.0017139921,-0.7170001544,-41.7049055427,-0.9449474157,0.9337059008,0.6961550456,-0.3747641289,0.1253360504,-0.1943327993,-0.4525609872,0.45455323,-0.8946430474,-0.0554968474,0.2171273677,-0.1413021637,1.9969864328,-2.130584375,0.55034898,-0.8884820735,-3.7533255116,-0.1521128095,-0.7632805792,-1.3252470774,-0.4662880376,6.9802529892,0.756815552,-1.0581117719,0.5379652733,2.2927583155,0.6156519214,-5.8538708196,6.1912359194,0.014290907,1.8223819282,2.2989091137,-77.0713050679,0.2846150501,-0.2481840939,-0.322313551,-5.5581202183,-8.7169745307,1.5347771423,0.6931118163,-0.1265736272,-0.8416316662,-0.6629186659,0.9948802816,-0.7355782211,-0.2033122603,0.6887968194,0.6775575238,-0.7128270702,-0.5788337627,0.8168708862,-0.6628702759,0.3541226073,0.2202269619,-0.4730773031,-5.5721492423,-0.8743793994,6.6098813701,-0.5225092082,9.2893251539,-0.1388317429,-0.728316164,-0.8827033583,0.1748422707,0.162569925,66.1754088485,-4.529973375,0.3337436436,1.0373319222,35.3012399958,-12.3628420539,0.647067497,-0.8976090224,0.3221849412,-0.8271996106,-14.6059129959,0.739149595,0.0320438934,0.037097902,0.4498489677,9.8877508673,-2.3185082777,0.1122588634,0.7489391783,-0.1461702055,2.8704602385,4.7552094184,-0.9322938053,-0.3272912239,-9.5370699328,1.3491311337,-6.1358026784,-5.9597912932,21.202501521,-1.8778303491,-1.1734346999,7.0826426788,5.3703287899,-6.0563050598,-0.7122305966,0.6724398284,-6.104067314,-7.626817915,-9.494110345,5.9785723138,0.8985786074,1.923129502,5.6332161459,2.210605192,0.9170147407,0.1609189432,2.398850041,8.1668860272,3.9396396345,3.7057001113,0.6335701224,0.39364727,-0.2361355374,0.9604802802,0.0668221804,0.2524073498,0.8575301229,-0.7423930418,-0.5763090643,0.0635960489,0.8302237124,0.8755359578,3.4433710783,0.1041243612,1.2690228677,-0.5921774389,0.1397958426,0.5505124553,-1.1705722289,-0.9369958914,-1.4772806362,0.5780620847,0.8901190234,0.1107632309,-0.2677045088,3.0107804405,-1.7857639945,-3.8343055143,-0.3179908066,0.7476332902,-0.4031535399,0.3797280004,-1.0146670196,0.1766595948,1.4229103949,2.5153112216,-1.3222442835,-12.791772049,0.4560435682,-0.8494921301,0.4947329649,-0.6560283713,0.6763081279,-0.51045399,0.0508302152,-0.7937225531,0.034299825,0.4020777087,-0.9048421945,-0.4114673673,0.0489304504,0.0119202079,-1.3518531696,0.3022324905,0.4781755674,-0.04568017,-0.6882848186,-0.1390554494,-0.0325256428,-0.0427878265,0.6105923187,-0.9163811542,0.6023546911,0.0691380393,2.0436672661,-6.3361023689,0.2999554003,0.7980071615,0.695263711,-0.2593732908,-0.5071134457,-0.680391278,0.0260017683,-0.1052081829,0.7867635129,-0.4838017618,-0.4526047909,0.2544012014,-0.06478547,0.9005887536,0.2254092193,-0.786260069,0.0523325356,-0.6780877387,-0.5908425755,0.1588705063,-4.1829136515,0.7338763501,0.36050331,0.2571846843,-0.6604213772,0.3140629815,2.8922239592,3.5213003593,-2.1913135452,-0.8590600665,-11.6981760842,5.8487111399,-0.5437896337,-0.1904439084,1.4361577692,-12.232737102,3.4650107526,-2.9738014484,-0.5093803851,-20.3423430328,-3.5439751089,7.5489338421,0.3807441511,0.0326957046,-0.1826007177,-1.4289922558,26.8442158235,1.1312761955,-0.6547524927,-0.4462172806,0.6400252319,-0.6072298705,0.4678017914,0.3283714822,-0.0350738049,0.6966076233,0.0587449969,0.8652427443,0.4045322035,0.6284748923,6.1732337317,-0.2006925216,-0.1366605374,0.0226717592,0.9053285863,-0.1493874901,-2.4998876914,-0.1807548473,-2.2639079299,-2.7676824317,95.8938202286,0.4886820882,-0.1667638711,4.1224959529,-2.2154604367,5.1189247478,0.5279683264,0.774804016,-1.1159491204,1.3441506166,-0.7492185873,0.6074738752,0.8528231685,0.4111254022,-3.9883547163,9.6971436994,0.3242183483,-0.7945882229,-0.7485801211,1.3699926496,0.913619684,-1.0261079961,-0.3829209825,1.1622967291,6.9731902124,-1.0575514414,2.2258199724,-3.7293335391,3.4939085314,-2.9901774749,-0.2623071108,0.6552130735,8.5093761518,-3.7247753372,1.8352245596,2.7011548154,0.3302935484,-1.0735613494,-0.4162315182,-0.6089638889,1.4400176278,6.1926072864,-13.3473125593,5.5328415945,0.0263136574,-0.4965499199,6.3470393714,7.6598478841,0.2222558409,-0.4276565013,0.2933942693,-0.5926595401,10.3019386774,9.5393119213,0.9443336157,0.8777785962,-0.3134904529,-0.3094943635,0.4596969635,0.8926197868,-0.8457796573,0.5652345642,-0.683449637,-0.0666368613,0.6693868519,-1.0264529513,0.5048391504,0.2278026841,-0.7926929786,0.7841029277,-0.9598361495,0.1905963662,-0.0719820345,-0.0576221977,-0.7898982653,0.8432872499,-0.0947577935,0.6131461727,0.5535860359,0.4581094833,-1.7253326859,4.639747014,-0.0682003363,0.0758762336,-0.8877815635,0.5760827061,0.1802438628,-0.67172747,-0.8604057077,0.2965010765,-0.633478661,0.3297653169,0.3968415518,0.528926513,-0.2207571752,-0.7514418661,-0.5123671146,0.4498905544,0.1580224701,-0.1372472348,-0.2220731014,2.9929658937,-0.3656167813,-4.3318056474,3.8117055778,-0.32496513,-0.7041041983,3.149891008,-4.4946966506,1.2937160756,0.9051222547,-2.3594637767,-0.8533978936,12.8503222342,0.4109947236,0.6740551338,-2.8350794171,1.899919843,2.3514959296,4.5630176419,-0.7901275967,3.0687017022,1.7048918743,0.5734802335,-0.7988352473,0.7535840048,-0.3119839435,-5.4845001052,4.5664849684,1.2549423096,0.4378905089,-0.6694951102,0.0723098769,-0.0283918522,-0.7009362482,0.771414997,0.7387898545,0.0695979793,0.3570666451,-0.5186624677,0.4223716463,-0.7095080159,-0.0739399605,-0.6874500423,0.0154852963,0.669935677,5.8802677956,-0.4582713239,-0.1479677335,-0.4631058372,1.020062337,-0.7253275053,1.1352991557,-0.6268139582,-0.1681080815,-3.0764686709,0.9632259946,6.4370980483,0.7619966826,-0.8944012613,-0.2615763469,0.3501603845,-0.9644182367,0.7846960825,-0.0368223014,-0.3268813921,0.5838888812,-0.0166089016,0.2216845011,0.3654484507,0.9752617908,-0.0667323458,0.6397625797,0.6585181544,-0.5984790892,0.38170946,-0.1503006451,0.1447993904,0.8629122809,0.6486693229,0.195854714,0.8169270301,0.7744857732,0.777264595,-3.0303424096,0.5600876089,-0.5981708592,-0.4255330162,5.090308426,2.2937735816,0.8070644884,-0.1665896425,0.7573796627,0.7250135614,-0.7906535785,-6.4768519625,0.6229063178,0.8660990756,0.7786396418,-0.5346564901,-0.0669332872,0.5540043095,1.667876705,0.6000072177,12.6088035367,1.2187093282,-0.1914454099,0.9412756992,-0.8205366392,0.0305027552,0.8668483166,0.1230214498,-0.4698258612,0.8693652508,0.7722920009,0.2036854465,-0.3961805185,-0.1348379866,-0.134713064,-0.0370689452,-0.9287277319,-2.186292578,0.0203978125,0.331026628,-1.4502043878,0.1983774544,-0.4694567069,0.2252017169,1.0544724625,0.9911677856,0.5774194397,-0.2524201466,-0.0763570587,6.0264811703,0.7247931351,-0.3312911974,1.052762607,0.7801737702,-0.0944987798,0.7161976582,-0.701388239,0.4141290433,0.6020726892,10.6518141029,0.4656024331,-0.7603433619,0.5348174706,-0.7969087875,-0.6359933582,0.9641599047,0.9231592901,0.5102614816,4.4064088576,-3.5799073291,1.6510072781,0.237663768,5.2491157086,0.6746128057,1.7889273267,0.0966862433,5.83444159,0.1227944937,1.2295706911,-1.2842427194,4.7530744919,0.0258922458,-0.5388641206,0.6005559701,1.3564612941,0.1711235863,-0.5439141352,5.855435716,0.7045264448,-1.8681064702,5.1694384796,-0.3422948359,-0.489243477,0.6996195687,-3.3824493397,0.5875390659,0.097157542,0.6864971957,-0.4200666134,-0.6845959483,0.5751236375,0.0156969764,0.2819623225,-0.154067993,-0.8773131638,0.7047046273,0.4921090147,-0.1475381094,0.4372433904,0.9748460185,0.2618369103,0.0977889121,0.4129033553,-0.0994089904,-0.623369162,-0.4468267179,-2.0224483266,0.2702341118,0.109640697,-0.3331295515,40.6931392308,0.3708772759,-0.0664360679,-1.1426987325,0.7730923087,4.9657455219,0.1649677442,-0.9307096501,0.3448111085,-0.580784138,0.1210930617,0.4777092931,-0.1589795098,-0.4569704983,0.6308129276,0.8678047105,-0.857626113,-0.7266577277,1.0507406447,0.8040684733,0.8836888669,-0.4294079197,0.2349608217,0.8467944713,-0.663850081,0.4135331851,9.1859225362,0.5965453442,0.7459808285,-3.9957701654,0.3326993134,4.8364173837,0.9072849326,1.1438166614,-2.2727002853,-2.1456131511,15.4337074347,4.4273765012,-0.5198021894,-0.0391699397,-2.3360213081,0.1583941207,7.0849830185,-14.3166790964,-0.4782132383,1.5324706392,-3.461441834,-2.4833827711,0.1292355295,-0.9792675124,-0.0128680831,1.0565958756,-2.0050378139,-0.4527478233,0.6658511952,0.7056452221,0.8079836233,4.0740168732,0.7603190785,0.2557132234,0.2793276654,-0.4455556639,0.6761899032,0.032128504,2.0055746237,-2.6456025288,3.4354556818,1.3243113775,3.4850955405,3.0036419871,-3.4628773558,1.0674565639,-0.5258820961,-1.3755691041,24.0985206397,26.952153556,-0.0576064556,0.6565855358,-1.0292577118,3.6897440727,12.2060476341,-16.2305499647,-0.1342043249,-8.3841190485,-2.8278969144,0.837242882,0.0244986584,-0.716689471,-0.8569428968,33.6244381756,1.124000244,-0.7433407189,-0.6470586246,0.7565693433,-0.0459924323,0.5554299915,0.553490092,0.9976322918,-0.7143129928,-0.3834623428,0.1375425715,-0.2614853826,0.784831143,0.58955347,-1.3882764178,-1.0135258233,-12.5164035771,0.1561327338,0.8958005111,-0.0769474066,1.259676483,-0.096183627,5.1630822708,15.6537094789,0.0033732592,0.3530663929,-3.7033640476,6.3790865292,-1.1750880278,-5.3262511244,0.025412071,-0.3977058751,0.6734345307,-0.2151945278,0.7116296864,-0.0355524519,8.468439832,-2.976613535,-1.0982409036,0.4431354258,-0.9003622867,-0.3892132121,-0.8791631149,0.6369085356,-0.2094092812,0.6996586415,-0.9719913606,0.3101253564,0.1447341698,-0.0593617855,1.5717649427,-1.5448364856,1.2013433425,5.7269597475,3.8057682325,-0.0808008244,0.7187124366,-1.8695534434,4.3364596869,0.4220735131,-6.4151468096,-3.3841369107,-0.7222323502,-0.2655262608,-0.8280141832,-7.6843097978,1.6433257206,5.7028202762,-0.1008373672,3.1804159583,-4.9019994042,-0.3593608291,0.7329632055,0.5803281011,-2.5971045479,3.9416283906,-22.5521384474,-0.9075846333,-0.8790937941,0.2036048787
##end
biasActivation=0,1,1
[BASIC:ACTIVATION]
"ActivationSigmoid"
"ActivationSigmoid"
"ActivationLinear"
