encog,BasicNetwork,java,3.3.0,1,63578465098156
[BASIC]
[BASIC:PARAMS]
[BASIC:NETWORK]
beginTraining=0
connectionLimit=0
contextTargetOffset=0,0,0
contextTargetSize=0,0,0
endTraining=2
hasContext=f
inputCount=40
layerCounts=1,151,41
layerFeedCounts=1,150,40
layerContextCount=0,0,0
layerIndex=0,1,152
output=0,0,0,0,0,0,0,0,0,0,0,0,0,0,0,0,0,0,0,0,0,0,0,0,0,0,0,0,0,0,0,0,0,0,0,0,0,0,0,0,0,0,0,0,0,0,0,0,0,0,0,0,0,0,0,0,0,0,0,0,0,0,0,0,0,0,0,0,0,0,0,0,0,0,0,0,0,0,0,0,0,0,0,0,0,0,0,0,0,0,0,0,0,0,0,0,0,0,0,0,0,0,0,0,0,0,0,0,0,0,0,0,0,0,0,0,0,0,0,0,0,0,0,0,0,0,0,0,0,0,0,0,0,0,0,0,0,0,0,0,0,0,0,0,0,0,0,0,0,0,0,1,0,0,0,0,0,0,0,0,0,0,0,0,0,0,0,0,0,0,0,0,0,0,0,0,0,0,0,0,0,0,0,0,0,0,0,0,0,0,0,0,1
outputCount=1
weightIndex=0,151,6301
weights=##0
##double#6301
   0.7644459988,1.2136195167,-0.8190936444,-2.5701405977,-2.5545639827,0.9698002389,-0.4456019909,-1.2727009301,1.5952700651,-2.2355774906,-1.9014833238,0.8337941035,-0.9846271518,1.77738925,1.3434659974,-3.123504011,4.2228495527,-0.6237009394,-2.2791832905,0.8749695918,19.249125283,0.977881335,0.7978773346,0.7728114264,-0.665914975,1.7363955441,-0.7964809259,-1.9045617286,-0.8977390297,2.672675268,0.1186085929,1.3208641089,4.144112907,1.3945317682,-0.9279363638,-1.7455626546,2.0950031864,0.1483575768,0.1957317712,0.512871823,-3.448041083,-2.8970647449,-0.3233700254,-1.5289770261,2.058966997,-0.7524574025,-1.8481400172,-0.9088708859,0.915638297,2.5706696831,-1.0228830551,-3.8614152325,3.6787589108,0.594930206,1.3696975126,1.5553339684,0.6821702929,2.55569554,1.4612693242,-0.5315353022,0.6976426177,-3.4893733451,0.928604877,-4.62741539,1.6502908827,-1.8643696332,-1.5831801888,-0.9001884414,0.2380833649,-1.6031596428,3.1205192776,-0.503679227,-1.111692033,-0.4871492899,0.4295297933,-1.389619674,1.6137764285,2.3129709106,0.8734441233,-0.8579832678,-0.1904473881,-0.8880695197,-1.3695440995,-1.777758798,-1.6852134699,2.9012133968,-0.7875429221,3.3804496565,-0.4645069447,-1.4381675244,-2.3181072436,1.3948879627,3.2382366002,-0.8632909661,1.1035048619,-0.6368229825,-1.5648421936,-0.583261183,-0.4778994971,-2.5772084636,1.5912332939,-0.4159170856,-0.1529058271,-10.7680202758,2.3252202865,-0.5872006703,-23.1876727153,-2.546480364,-0.8692857716,6.0841575204,-0.490107746,-0.5951494643,1.6371097274,0.6072426643,0.6410588306,2.3838375017,0.1577376317,1.0517683716,0.8603627401,-3.2512753385,-3.5875084296,-1.1247642407,4.1404763895,-2.1673215144,0.8520424936,-1.0021944566,2.30060012,-0.9896029909,-1.6442038556,1.3291913368,-2.0068173852,-3.0353577923,-0.2859870556,-0.1806991003,-0.6928183077,-0.7998848443,2.7188769223,0.8431191423,6.9804653226,0.9288735916,-3.7139161576,0.224057903,0.6557009176,0.7869091415,1.5815747492,-2.9359709865,0.9379354451,0.7200480436,0.2652491111,-1.4204373755,0.1839406917,0.8679706565,2.59112328,0.0902606382,0.1080453715,-0.2188581041,-0.928186603,0.1903410377,1.1036272065,0.1069870477,0.0675657141,-0.4573540074,-0.054249948,-0.9027874414,-0.0927735086,-0.5412160349,0.9079160764,-0.226528726,0.6948842948,1.1836372842,0.1430527852,-0.9860404385,-0.7722856054,-0.3356231754,0.8686248041,-4.9286661239,-0.860363651,-0.7531450204,-0.1599390287,-0.2873024104,0.4383945402,0.5933992097,-0.3284310435,1.8034175837,0.0678997153,0.6233074502,-0.3508234449,0.8795575086,0.5135371372,0.1174285312,0.3723974166,0.6671220562,-3.2043363566,2.7328284539,3.8386428721,-2.119860165,2.0056919741,1.9209838225,10.2505786311,14.1218380013,0.3983637427,0.3161278059,0.9972825423,1.5919279896,0.3143176856,1.0515440436,0.2118825779,2.1321095964,-2.6632617555,0.6902749684,5.3153142019,-0.3348896041,0.1056593317,-5.6626397686,-8.9482738789,-5.9201913869,-3.9738917069,0.5604276944,1.4396773181,-7.3256528564,1.8893338807,-0.6561319952,-0.3348426276,10.4067151536,3.35540435,2.8917844305,0.6341976092,0.2458366106,0.4303691307,8.2647771887,-0.3353179296,0.5193157014,0.4701462467,1.1121891237,2.3374778332,-0.5880674126,0.8080150326,-9.8275285898,-3.4882281315,0.5186291641,2.5863237655,0.3600118147,0.1413619111,-0.253927116,-0.2380728197,-0.1471532064,0.6514959568,0.9153934051,-0.9982547407,-0.8396834128,2.198091421,-3.1144107635,-0.8507455845,0.4031652666,-0.7237447515,-12.0236641438,-6.4376461466,3.6361000338,0.1974122008,-0.2042916294,0.1691192599,-17.254181205,-0.3715242811,-0.522488049,-0.1740841222,-2.1091088956,0.1198779616,0.8034763173,0.0989227021,-0.6090633279,7.7127934228,0.1129995014,-0.1109490193,-0.1512406472,0.0336581294,-3.8734901939,-1.1122309186,-7.2924244716,3.4235035003,2.1950039701,0.1794358559,3.7956157345,0.4246480566,0.725949912,0.9047426613,-1.0637035257,-1.0435563869,-1.25889017,-1.3032120339,-2.3076814044,0.9781515113,0.6612294567,-1.0313663931,2.7143605745,-0.5766749957,-2.1782938922,0.2595720866,-5.8684665908,7.3232705163,-0.7088797445,-0.8737803627,-0.0751779635,3.247495023,-0.4276712698,-0.4523206863,4.0661837936,2.5392904124,0.814287946,-0.552106959,-0.929981986,-0.4597234974,-12.3588230464,0.8614644448,-0.0143215325,0.7548551988,0.2236692251,2.0077324425,0.4171909515,0.4954059265,-2.2931644714,-6.7457389999,2.7242668979,-11.1217870118,-0.6241890298,1.5950655662,-0.5200379519,0.4687274494,-0.9224116359,0.2377497045,-0.9676266229,0.5685075296,2.8731537478,-3.2503514952,-0.029038539,-0.120057714,0.6065091331,0.1437997801,-0.7497726514,6.5906889059,4.6179722803,0.5266724161,3.8969005879,1.7741777401,-1.2250114782,0.1969951755,-0.514585858,-0.7723836362,-2.6125631652,0.4808182799,0.1248550423,0.7455273111,-0.5817966947,-3.5571276193,-0.4773446824,0.5414900839,-0.6830244486,-0.9386124435,-0.8779156652,-0.2088389151,0.4004788464,-1.4067173226,-1.2147656822,0.0246066827,0.5909213405,-0.1137868793,0.323286897,-0.205838225,-0.1685748406,0.1925429935,-0.0401579923,0.1889193814,0.9265239575,-0.7006875415,0.8588947669,0.5905074105,0.1372434295,0.4433096831,0.0251623552,-0.4775379336,0.876001115,-4.8910109024,-0.4073808721,0.1715234325,-0.8380188667,-0.6067571165,-0.6173823897,-0.907734489,-0.6363549297,0.3075652773,-1.6069866587,0.1149935747,0.9239297304,-0.4391202256,0.5153248657,-0.2465858644,0.2718037901,0.1357207971,-0.4502282126,-0.53505467,0.034340304,-0.1640132382,-0.4969976571,-0.0553414122,-0.1748451072,-0.9675782266,0.0681768011,-0.6202609963,0.2308482946,0.2830987822,-0.5949857454,0.557903856,0.0745547951,-0.5804628727,-0.8006795931,-0.3741495356,0.2982931118,-0.189281694,0.7771927164,-0.6978663707,-0.7737498659,0.8908878434,4.4279570029,-0.7425239579,0.4011999421,0.6018569095,-0.5444039117,0.2450840343,-0.3879600472,-0.6941301506,-0.4557144421,-0.2820735063,0.6526309895,0.2522744067,-0.9663620742,0.8021832653,0.0571507409,0.7705935972,0.3022708245,0.4248175484,0.9492595936,-1.6560511082,2.1612527996,-0.7481590122,1.8742568348,0.2116102453,-0.7107796936,-1.0352699161,0.5739387808,0.302384565,-0.3088331933,-0.2889845157,-0.2266296296,0.6507872933,0.226757299,1.4673668738,0.1063960221,-0.0593704338,0.5118554212,0.3825681775,-0.2221489862,0.039925159,1.3606356419,5.3512877682,0.6788960899,-0.2334955509,-4.1281752013,-0.4579157442,0.0777554577,0.6719013442,-0.6192363955,1.4715370618,1.3334596337,-3.9600806977,-0.3438173325,0.1945621393,-7.3094729733,-0.8352614399,-0.1243746586,-0.5551819606,0.6088897863,-5.5074778807,-0.7675775204,0.3915142819,0.2310827447,-0.2702922007,0.7362541377,-0.7661475948,0.6581976312,-0.9158951816,-0.0032401264,0.0101806524,-0.7726053335,-1.0427277341,0.8858055564,-0.2912072911,0.7668772861,0.2916432747,11.6601620248,-0.5821484974,-0.8017226485,-1.1671892286,-0.7585386219,-5.2653063505,-4.3028598603,-0.781312378,-0.8661105668,2.0575849082,0.9546701169,-1.0128385261,-0.6409765685,0.0967508575,-0.5271035714,-2.1535163882,3.1041068747,0.6655995816,-0.8514419515,-0.9047516052,0.0422403253,-0.7875311337,0.0248189433,-3.1248928877,12.0491991872,-1.5290507995,-1.5121882889,-3.7696218144,-0.9335171956,0.3177707028,3.0349071713,-0.6883373956,0.8939155604,-0.5608402014,0.4141922938,0.7663070836,2.3440926633,0.236606685,-3.1962419435,-0.7753793105,10.1409194166,1.4165749863,-0.9534130205,-0.8803540617,6.3355698497,-0.8442332156,8.2551356131,3.1456458137,0.0120919528,2.1042367275,-8.5138444038,15.7220891003,-0.4314313533,0.8008007145,3.8924221675,-1.7321120362,-13.2248737147,5.3834349194,-0.1012860141,0.2920324115,23.1463811341,0.0818291066,0.3373860384,-0.3667126411,-1.0625797983,-1.4878426621,0.6904824162,-0.5624442333,0.4962177573,-1.1567896205,-1.0256579647,-0.6185650498,-0.1424744637,-0.8275587914,0.9829027227,0.1796247709,-0.4004867149,0.5396710082,0.4515984876,-3.0781938942,0.6136648571,3.1291978241,4.8588182542,-4.2623027213,0.24670344,1.4381508593,1.1432096713,3.233447428,5.2024685079,0.6430145771,0.8945068213,-0.5721390521,0.2724656458,0.9146638731,-0.6320739741,-0.4992861585,-1.3075387139,5.9600560897,9.5017658984,0.599681448,0.7555382439,-13.6533141693,0.3406482671,-0.3544729421,-0.0508077259,0.6256333999,1.0011016017,0.1370221387,7.2808700865,-1.026583283,0.7338529435,-0.0868969349,1.637359028,-1.0563623941,-0.5148321814,-0.9204269307,-0.1896366088,0.7583429922,0.8753467919,-0.5286954332,0.4839365508,-0.6717599325,-0.3354575524,5.0812479059,-0.9900783728,-0.8469049827,0.8205918409,0.1391356232,-3.0962284161,-5.5762406465,-0.3213588909,-0.0921228634,-0.5419450953,0.3566477899,0.8810358471,-0.7240816577,0.7085251148,-0.9725597838,4.3506006277,0.4988507863,-0.7590835624,0.5972453065,-0.6212315434,0.7213858405,0.6663125053,-0.2368071411,0.5509932722,0.5976258354,0.416692262,0.4635661383,0.2995577107,-1.7507087269,0.8530842065,-0.9972233578,-0.969557666,0.744002695,0.1969154237,0.6264189659,-0.239770056,0.0293984401,-0.4435114368,-0.7057080908,0.8492969665,-0.8061384706,1.4494749126,0.8014495178,-0.7470879684,-0.7643956403,0.6915617991,-0.7138000666,5.8548287228,0.8421049918,0.573377887,0.1566843036,0.4127586083,-0.857996196,0.5102742973,0.8593180046,-0.4954465133,-0.1304958146,-0.8443720007,0.1758308668,-0.7709901387,0.8034945407,-0.1631752707,-0.5789466414,-0.8976107425,-0.1275363001,0.6143649958,-0.7292441976,-0.2200467048,5.1737834779,5.6307955542,-3.8301673762,1.5119588857,-0.4388478346,0.2096571797,0.5653958548,0.6694201874,0.8232863867,0.5576778329,-0.9925443524,0.0900189086,0.7018311473,-6.5286057527,-0.6230245479,1.1770356381,0.272976983,-0.5242197221,-0.4488414065,0.3098267284,-4.0796046879,-0.2645630274,0.7580248899,-1.3885305784,-3.2593377057,0.1392069693,0.7033626063,-0.2570457149,0.0518123952,-0.8223064039,-6.0772500411,0.7060611479,0.2301284867,-4.7690824898,-0.7719135722,-0.7697524666,-1.1572284127,-0.5205317426,-1.9704755882,2.5034283425,-2.1395269793,-1.7521825564,-12.7491596257,-0.4983411197,-0.6533395827,0.3657816305,0.697635274,0.5926687316,-0.960769502,0.5408027132,-0.7479277562,-0.7332582732,2.2156234247,-1.0369160174,0.1459104343,0.5928813828,-0.2804087183,-0.6729642365,-0.4244712115,-0.1116232605,-1.0503850662,-4.1590396192,0.1150159422,2.298357162,0.1800215222,1.2612394421,-0.2127850205,0.9931236794,-2.6145522763,-0.6448555748,0.9918427768,-38.982458598,0.9233712908,0.8788721832,-0.9343768997,0.0897943862,-0.1392764974,-0.44163191,-2.3990570547,0.3991485389,-0.2111776655,-3.8917391646,2.1115383059,3.7532164066,1.2816095194,0.1426825881,-0.9367345648,-1.9453736673,0.1958099169,0.4371797273,-0.3566757885,0.4394645001,-0.4691711832,-1.1526223486,1.3995549114,-4.266143371,-7.2277194673,-1.7913371748,0.5366533611,-0.9125574821,-0.8469069491,-4.7540236328,0.6213359603,0.9338413002,-0.7093183073,-6.9738914858,-11.4297371445,0.5164843943,-0.4632743147,0.2312413032,-0.6540245995,-1.2480243437,-0.9814547022,0.2990751319,0.4989870963,-11.6007367288,0.0679899979,-0.1055401828,0.3176247569,-0.6682115832,9.1939356554,-6.4138820188,-2.9822701213,-3.728525195,1.4451669189,1.3186834653,-3.4633564301,-0.9899903345,-0.9233698661,0.5005712733,-0.0723632763,0.7655641877,0.228351939,0.1447846771,-0.8240589056,1.8063081066,-0.9401470103,-3.533747464,-63.1225991577,0.7165920519,0.5971051859,5.6932876617,1.2650571941,-4.2776560177,0.3503755756,-2.3439410968,0.8557115125,0.9196452869,-0.4029680837,0.5173400582,4.6218038842,3.2284455571,0.4914191647,0.2611186471,0.5718493646,-0.6959034023,-10.0491556704,0.7302363055,-0.0879091855,-0.3929845387,-0.2894691443,0.5466518581,-0.8227716267,1.4077809837,0.2812666782,0.6789931741,0.4156545273,0.50456198,0.3289274726,0.4778415855,-0.7003413832,0.687717284,-0.6747567872,0.8287495371,-0.2741592009,0.5265606111,-1.3316187184,0.6690865068,-0.4635512885,0.1211913233,0.5174320822,-1.8476697063,-1.1120473478,1.1198809408,5.4457630551,0.5753915857,0.6969719808,0.3220957832,0.8411664847,0.9258362925,0.0535010812,0.5696465854,-1.0463562833,-1.0136212736,-0.4097706156,-0.9116168646,-0.3410705276,0.3785162071,-0.8808035966,-0.392326807,0.3448469806,2.111585674,3.6847484601,4.2214727338,-0.4856322456,1.4274293768,-0.144396588,-1.3896508505,0.097205015,0.6328542238,-0.5921528249,0.6373395253,-0.6582189798,0.5907773466,-0.4870203601,-0.1746606242,2.0004159511,1.5246761191,-10.1191724219,-0.094053578,0.3174960332,0.9307533027,-0.7105823019,-1.5335214439,10.3680886979,4.2848962566,0.6241445977,-0.0736693422,-2.1007594578,-5.0721445901,-0.3497049419,0.8864204864,2.3757190026,2.1525578869,-4.3902662587,-0.9266163417,-0.557980174,-0.7282921655,-8.4926289762,-1.1888301007,0.1918735814,-0.0623117023,0.6157858804,0.4418529645,0.9338410497,-0.7617784063,0.0402170106,-0.0487141928,0.4194752143,-0.5628219188,0.1332335466,0.7401125945,-0.2580167199,-0.1395071481,0.5387285397,-0.2181346257,-0.8083981603,0.9582344644,-0.4587201495,-1.3595296806,8.6526297618,-0.1277166249,-0.3026037464,0.8239541737,0.1341816383,-4.0239372506,-4.7772614979,0.3303896633,-0.8598884672,-0.2148872843,23.6253013856,0.6267256274,0.7121723405,-0.5346679024,-0.877260675,0.6373636283,-8.3696392135,0.3788970911,0.8651298511,0.3951393775,-0.142777583,0.2388332868,-0.5364494169,0.1743184912,0.4688095229,-1.1040139959,0.0630403191,-1.4923397881,-0.8433066655,-1.3391577386,0.3903581013,0.5253534156,-1.4901714686,-0.7715847374,-0.485081044,-0.4905399201,-0.0396332466,0.178700418,0.1814028699,-1.079558728,-0.4386749786,-1.3112953827,-2.3507715776,-0.1349337889,-0.0209849106,-0.7872192056,-0.8356962846,-5.9111674322,0.9129393203,-2.3110588963,-1.3406826322,-1.4875181604,2.501836725,-0.0040689656,-0.4438699803,-0.9290832844,-0.2727902761,-1.3719141609,-0.4897944049,-0.8685448128,-2.420066353,-0.5944625137,-0.6390228108,-0.7912799628,0.5798146945,-0.1803830797,-0.1075587803,0.1922468231,0.3055302159,0.5356635849,0.053815266,1.5054719218,0.0273847423,0.6434388923,0.6442915799,0.949713661,0.0032916991,-0.8706930649,0.9623198661,0.1802320049,0.712356909,-0.618507098,-4.8170334668,0.5944273733,0.6580881167,-0.9356843682,-0.9553978064,-0.2924719445,-4.1521217434,0.1149067605,-0.0647593466,-0.138711823,-0.0902017796,-0.6222091161,-0.9578547468,0.8558925949,0.9096522675,-0.7923464072,0.0601202873,-0.9362640902,-0.136098994,0.7066231196,0.7897816264,-0.8734579277,-0.9378503873,-1.0967372645,-4.442342755,0.1565842039,0.6389970088,3.1064007253,-1.5909368871,-0.8836524603,1.1778522927,-0.9513628564,-0.5714684913,-0.6636141165,0.0411866491,-0.3461227958,0.2656356235,0.2858360379,-1.4195018069,-0.1025123018,3.2338880748,-22.4379956082,-0.5400988414,0.1008202923,0.9210082024,5.0600743622,-4.3538550767,-3.4150822595,0.2987613265,0.1894824278,0.7990791232,2.8463976516,0.1058439632,0.9394667167,0.3212163383,-0.0797399661,0.3859098766,4.5550656404,0.9768542889,-0.9727835201,1.5131149143,0.3706559167,-0.4637885158,-0.7332356145,0.6719776139,-0.5212164863,1.5774926219,-2.9664354567,-0.5603705572,-0.9533816448,1.0721026078,4.3941014651,-1.1845840926,0.897040644,0.2181706049,0.2165524346,0.5766278313,0.3566181003,0.7823980448,-1.4834605592,1.0614732869,18.4591638694,5.3120842306,-0.802780376,0.5389808237,-0.2924849626,-1.0834336405,12.2476023494,-4.1032728417,-0.2507989133,1.4874250711,-0.1428291528,-0.4683354231,-0.8214483432,0.7881466242,-0.1286987353,0.3106772393,-4.605314852,-0.4242946139,0.5258073013,-0.9855142896,-14.8029058722,0.2185129767,-0.3284163071,0.2645533064,0.5644024031,-1.4222057051,-1.8480214523,0.356830296,-0.8477739383,7.5926009111,2.3129169677,-3.6088100123,-0.088718153,0.3751227053,0.0456888449,-0.7002657053,-1.1054738112,0.2065445752,-0.4606250593,0.8987608533,0.4478096239,-2.1657114834,10.0531686171,-0.5687456682,0.2357992368,0.4008079174,0.6673398366,9.8292753652,4.2341644194,-0.7099147168,0.6164976532,11.6283547873,-2.6571740788,0.4439500116,0.8740325579,-0.0147727038,-0.6304435544,8.1761994875,-0.263727632,0.1246505385,0.4829121163,-8.6771190405,1.0525144466,0.607140049,-0.2406597694,3.7676838751,1.4190000622,-3.5851033666,2.7722075825,0.680296232,41.8329926502,1.1230327494,-7.6440714069,0.7728830765,-0.0699373893,0.3675742598,-0.1621195826,0.98266983,-1.8697343341,-0.7850715153,0.6596734743,-2.1809664533,1.9658606015,-10.7426377053,0.5855679259,-0.7723327045,11.878865193,3.7434606704,-26.4312038509,-3.7751188396,-0.2226288194,-2.597662578,-4.1651325231,1.1512901684,-0.2128173113,0.4991724023,10.3922925385,39.7471373914,-0.4808065958,0.3306758788,0.4498186891,-0.372074182,-5.2238463711,0.7575833974,0.7276528885,0.1339821168,-0.9327650021,-0.7095506464,0.5001578471,0.915464779,-0.0050613292,0.6683201956,-0.8670141907,0.4119342322,0.3057590265,-0.7596752573,0.8135461408,0.4944190786,0.6726362946,-0.0274102199,-0.2875370899,0.8059416374,-0.0450243811,0.6153443854,7.5972439153,-0.6913018979,-0.2723947993,-0.4713280376,-0.2344810181,-0.3990187088,4.8286570269,0.0084560919,-0.1467035785,1.2557829418,-0.4965935033,-0.744020604,-0.9180810898,-0.2940914624,-0.5563676347,0.9340855912,-0.5302990848,0.5274443689,0.0901813211,0.9999401467,0.852215672,-0.4260679531,-0.5571940487,3.4920408762,-4.8418872065,-0.7421061476,0.5172190283,2.4115524029,-2.4565783396,4.4841049929,-0.5300040073,1.2191164644,0.018378066,-0.2745407986,-0.702328766,-0.9947938785,-0.3892553009,0.7103850523,2.0196826648,1.7541616727,-12.7340412117,181.1722445627,-0.7433984922,0.2715635576,1.5102237848,-6.3985105251,12.3156088245,3.5258365203,-0.0507225613,-1.1399373363,-13.784846821,-2.3179336371,-0.7823039996,-0.9901191611,0.0205174631,3.8418948249,-4.3028290929,0.1779123828,-0.3840000058,-0.7222716588,8.3091139437,-1.0122762374,0.1648631795,0.1923483574,-1.4002914888,2.8651913959,-1.2859041432,0.0122203313,-0.3178156603,-0.7483925616,1.6230708227,-3.7990527035,1.3093074772,-0.4231049744,0.6026263903,0.2751136575,0.6615625791,-0.038509241,1.2226250368,0.9779006187,0.894173407,-1.5571942882,-9.0722799493,0.2160475539,-0.0471221064,1.0857510023,8.7075211616,-1.2596541116,4.886622071,0.254702089,-5.5658591916,-1.3697693968,9.1740234758,-0.4224721494,-0.9001632547,0.4370994755,-2.623282271,-1.2754975573,-0.9369176956,-0.1006023256,-0.1713592203,9.3506557476,-0.9247680007,0.5876345994,0.9399637121,-0.0153608284,-9.2859458874,1.3891065981,1.5215622617,-0.1564881026,4.7215905228,-0.4210127458,-10.3205934726,1.0300644032,-0.6913961992,0.280752015,-0.7647571474,-0.9518932978,-1.5661110278,0.6568050227,0.0434021842,2.6039580828,4.0137987983,-14.2336916517,11.5223757434,0.9368634149,-4.3113139337,-6.7480245293,-1.3722480721,-4.5140209114,-0.6530590922,1.9206011328,-2.6653215034,2.6733006215,0.3710697333,0.1419444173,0.2043576603,-2.4053056329,-5.2959096516,0.6634176141,-0.035109336,0.2856814499,-2.7525896253,0.4860770352,0.844192211,-0.0039365646,-0.4990759785,0.6046521962,-0.3331225352,-0.9518829028,-0.574473327,-0.4169129342,-0.8610088077,3.259538034,-0.2416985782,0.0938245447,0.6354502384,0.7399154819,-0.649649717,0.9096509852,-0.2587218024,-0.35671356,-0.0736181732,0.8643309099,-0.9589726329,-0.1615550509,-0.0236189119,0.2889024269,0.1829002946,1.3095183301,-4.6242831191,0.6920167998,0.2566236555,5.3134276735,3.4899355327,0.6064017707,-0.1889584787,0.6121000812,-0.1977757954,-7.4871049505,-0.0813955124,-0.5720336882,-1.0099424907,0.1437460084,-0.4523176678,0.7351620521,0.1787695657,4.4164702088,-1.5993138158,-5.9767585016,-4.6506849002,-0.5142426228,-1.4902246669,4.3724637316,-0.2820662382,0.4114090856,0.3689553218,0.7093810831,0.7275330739,1.649936372,-0.0799066929,-0.2903187839,3.3726479164,0.1889720085,-4.7645003264,-2.8309513908,0.1608773173,-0.0850256016,1.2843255378,-3.1183328808,4.7935605899,-12.6752330929,-0.4856382308,3.1805709288,-14.7672998197,57.4059999136,-0.7541192279,0.6060829347,1.1594261998,2.5135171371,-0.0898039247,-0.1485121954,-0.14721226,0.5726778768,3.28909337,0.0849047263,0.3692821692,0.6002689647,-0.8676483836,1.1561995409,-1.0563562952,-0.1660500409,2.1703976935,5.2858964914,-0.6858170231,-1.0045220399,0.7508303246,-1.8161402892,-1.1392678278,0.4899903052,-0.473183967,-0.2682085557,-0.7893847658,-1.5460849196,-0.1896494849,-0.3754736327,0.7133241683,-44.6355539668,0.1450588336,-0.7677664577,-0.6271779467,3.4642442084,-4.4291187757,-0.363860157,2.4601072629,-2.3826790505,0.7012206259,-0.619817463,-0.9694648916,-1.2087743956,0.6196455692,3.6001512701,-5.1809525428,-0.067370594,-0.6173179625,-12.8302404703,-0.3803336033,0.540386166,0.3846069421,2.1969958412,0.3638933701,-0.6709709047,-0.9496059024,-3.0650726995,5.1382860645,-0.8000194411,-1.3272742297,0.4841653432,-1.4798647049,0.084810289,-0.4193387768,0.512445819,1.8554852855,-1.1087261494,1.0961417969,2.2795996973,-4.9878274833,2.0233271077,0.7345432962,-0.2366816268,0.5672391662,0.5967486081,-0.5098998556,-5.6000967127,-0.4367378268,-0.591965621,-1.1068129978,-1.5335870659,0.768834948,0.9703222196,-1.332612945,-1.4269731919,-29.2371946034,0.4871142785,0.1144854245,0.1051777398,0.9239027851,-0.5074383385,-0.3660904841,0.6571075389,1.7430641697,3.2600875413,-0.7116409691,1.3134921481,0.5443137477,-13.6519582877,-1.1288214434,-0.1721867888,-1.2228361038,-0.5184402954,0.7470594277,0.7088054024,-0.3295704257,-0.2778590502,-0.6691718839,-2.1516781132,-0.4313235469,-0.8432259001,-0.460983699,-0.3592723702,-0.0501673394,1.2242170485,-4.6673049622,-10.8152340881,6.3808388142,-0.1233132245,1.624272416,2.7699712618,-0.5280350734,0.2736946047,-0.1607323266,1.0553858076,4.1501475268,12.7668399832,-0.4658271462,0.0786970486,-0.7116991633,0.9193550015,-0.1713834236,0.0413781736,0.5275341234,-0.5725740568,6.2116415656,-1.3659432415,-0.8882202267,-0.0077088884,-6.4421704375,0.6880821745,-1.2670393393,-1.2715368889,-0.5530519355,-0.2892541094,-0.4501447496,0.7318911129,-1.1902247007,0.6539125059,0.8348789761,0.6255671802,1.9366551744,-1.7130224496,0.867739083,0.3361282057,0.0629944418,3.8982193975,5.3445423976,5.0365003387,0.1305703237,-0.6740632196,-1.1568383048,-7.8214820285,-0.6553747304,-0.8615997824,0.5393855314,-0.9582075761,3.1894583927,-0.4894286679,-0.6944523946,-0.9364504669,2.1751374372,0.1182598233,-0.8790026552,-0.0836722422,-8.856384561,9.8890088684,-1.6394086029,1.074141386,1.3115635634,-6.7613941571,1.3546191626,4.518497174,-1.6063520262,0.7570750741,0.5656914043,1.6191638789,-0.5859243532,0.4052848687,-0.9490753025,3.6476256889,0.1494368881,8.9554344215,27.4632813952,0.3190312244,-0.2357481165,7.5264745823,-4.940263224,5.1778794732,-3.8718255056,-0.9620350245,2.3514588474,-0.3967874228,2.6078048497,-0.3421196389,0.2516195584,-4.1533850105,-0.2864544184,-3.9831135945,0.4221625631,0.36782461,0.09461627,-0.0199393366,3.1572186543,0.1692136194,0.7124311856,0.1690359981,0.2331932063,0.5168144143,-2.7660075583,0.83706737,0.3111332552,0.0689157921,-0.1686501204,0.7822950605,-0.1177845274,0.859314743,-0.5095452237,-0.5684949612,0.0989685495,-0.1900489205,0.9798453038,0.0257514548,-0.6049225933,1.1641920921,0.2276403917,0.1363542597,-0.0717382739,-0.3895610769,-3.0074970888,-4.8946634709,-0.5409355534,-0.756578646,0.7027051236,0.7195520457,-0.616678986,-0.5471112912,0.0585252015,2.7494402513,1.1416574175,0.6140472805,0.3270519484,-0.0896660934,-0.1945631491,-0.7768035981,0.591464318,-0.8682580275,-0.6920481728,-1.9668088493,0.1093691836,-0.6318524164,-0.9226076507,0.9433087637,0.7587957092,1.7519515842,-0.4507775966,-0.5441821192,-0.2271154054,-0.7935244758,-0.1554739383,0.463978077,-0.2382595007,-0.411898047,-0.5556470457,1.9219402941,-0.5429414548,0.2254626365,-0.1166030509,-0.4186603597,0.7350297372,3.4575240705,-3.3199227567,-0.2075439902,-0.17657179,-1.4396931727,1.0090240441,-1.0884409375,0.3787330284,-0.4210192725,-0.4074098281,-31.0282815607,-0.1993311465,0.5437226349,-0.4258814591,0.7849445054,0.3291338698,-0.8187581598,0.7141801872,-0.1955748522,-3.0928009828,0.7233401754,6.413490834,0.8298089701,0.5713614358,0.5602014742,0.966200363,-0.6913416078,-0.0169702407,-0.2851583515,-0.3941291342,-0.5029863849,-0.2104147556,0.4605100147,0.2275074764,-0.5825945744,1.6499811078,-8.9573936674,-24.2718728025,0.950447334,-0.8456186252,0.1869326295,-37.6451902371,-3.6696987334,-0.5275342732,0.4324965824,0.788390358,0.8701039069,0.5943471252,-0.8791048331,0.821190694,0.6942156217,-1.1739440207,-1.248458988,-0.6961439074,0.2585422665,-0.4337234979,-0.0076157348,-0.8152466115,-0.3474114467,0.4896414919,-1.2488550155,-0.5044056601,-0.0165825668,-2.0406912002,-1.1919039556,0.3329948652,-0.4285320288,0.3788079045,-0.8004756606,0.4764210111,0.2365384008,-0.8790814238,-0.4936193615,0.2436324811,-0.7813077237,0.9258849972,1.3660312575,-12.2184356889,-0.7253395719,0.6988278021,-0.4779589378,2.1677519801,-0.6316227246,5.6889110021,-0.0834780834,0.0848289932,-9.5466178194,-0.3709123375,-0.7412832048,0.4848369022,-0.3436093015,-0.8311925003,6.6788123113,0.7522034164,-0.0732448832,-0.507049325,-0.555360476,0.7632975321,0.3865154333,-0.7294745065,-0.7939315033,-2.2825235712,-1.9948894779,-0.5482316669,1.1338022931,-0.5520431644,1.7000884944,1.2667099478,0.0724176724,-1.3387602874,-0.1633509922,0.5562471333,-0.1478428121,-0.5427565705,-0.536095414,0.5716700409,0.6667637802,-0.5000870266,-1.2556229164,-0.5026689004,0.9203024422,-0.3782238197,-0.9301641644,4.980751768,4.4810121715,-0.6781108592,-3.2889457484,0.0221342964,0.2592587505,-0.6151741355,0.1819597302,0.0107090064,1.5856588747,2.5035363104,-0.7846806529,0.392469281,0.1296466517,0.3279275252,0.6308239992,0.8558718326,-0.3591899481,-0.3375973158,-0.0348496092,0.3143523966,-0.2441987541,-0.0018698916,0.0174792708,0.3914859906,2.9373557412,-0.6707548833,0.4283444358,0.8101587708,-0.209483527,0.4337317649,-0.3073824042,0.2530788326,-0.8522255291,0.2220630573,-0.8095920508,-3.5370669166,0.2155968489,0.8453037403,0.7490967881,0.6877570926,0.4548374751,3.6148471297,0.2237977401,-0.4955149152,0.7717635545,-0.5193454407,0.7803689636,0.1380985962,0.0218329734,-0.8238748287,-0.0383141503,2.4468207609,-0.3603339965,0.3494315796,0.034445071,0.6828436567,-0.0131880171,0.9086468117,-1.4373196439,0.162029217,-0.8701889233,2.2121934546,0.5432316356,0.9030999386,-0.1456601033,1.9088126658,0.7538915301,0.614959149,-0.5552597048,-0.0219537275,-0.544847983,-0.0267323508,0.243909763,-0.5662989459,0.8636232937,0.5033288841,0.8130505738,3.1538896142,0.4039675907,-0.6459446305,1.9003061947,1.8281671689,4.6355117856,-0.9446965474,-1.3900773494,1.9530998471,0.4473849134,-0.4169474563,0.380511183,0.3628007858,0.4909576913,0.0108923397,-0.3653886246,-0.5032313743,-0.1054214881,-15.1557745448,0.6591123279,-0.8679285778,-0.8205511256,8.8004396203,6.0716669452,0.66409488,0.8717154765,-2.7938176655,-9.8636572204,-5.8708388818,3.7050022582,-5.462382074,0.5615139894,4.9682879275,0.6653615788,-0.1489234669,-0.9265511161,2.2474162005,6.1127316116,8.22617971,2.6767833397,-9.0439546924,-0.5449022601,0.9896473288,1.7895165058,0.5951440679,4.3760301226,-5.2735375454,-0.3440768259,1.0330956556,-1.8745058113,26.2725289407,-0.1563996123,-0.5679696489,4.4975620118,5.2278068325,-1.3749920029,-0.9587123885,0.6210397611,0.7767961062,-7.0177243001,-1.097445031,0.9104763139,0.5620515867,0.4716184345,-0.1787166293,0.9627341406,0.2114587009,0.1665216397,-0.0824679229,0.1305620578,-0.6763796131,-0.4916954156,0.9327733424,1.023699881,-0.8991376477,-1.9252487012,0.9149565097,0.8999491743,-0.0646768773,0.5081710832,-0.4518549983,-0.6403616055,0.3904335653,0.5234884105,-0.4405297786,-0.7623571961,0.6668544127,4.055859871,0.3305989249,0.6535791222,3.3217624259,-2.0662620688,-0.5848475428,0.0219177245,0.7626392428,-0.2263270575,-0.7480025977,4.6168247986,-0.7124795484,-0.5101418736,-0.5635696791,-0.1718736791,-0.0014599017,0.35897609,-3.7701580162,9.7956927514,-1.0776819491,5.7398665449,-0.3825536949,-3.4011015653,-2.2230542847,1.6791036588,-0.159759093,0.5894317528,0.7154794581
   0.6906334917,0.1067049729,0.4391880616,-0.0374898376,3.1240797339,20.079353452,-0.5740958139,0.488308569,-0.2265241234,0.4712034871,-9.5826348789,-4.4497799419,5.525788589,3.9003448306,-0.2950123108,10.4139959875,-10.1377148164,-8.4322785302,-0.4189315199,0.9759432571,-0.4514538386,-6.9054036665,11.5600278862,-0.109866991,0.5172878362,0.6245907991,-25.7887148759,2.0817130188,1.0006683991,0.1705166629,0.1635024542,0.9755390157,-0.7853087531,-0.8239264968,0.1662184191,-0.8949520946,0.65412196,-0.9699219924,0.883358348,0.3084058051,0.7409186204,-0.4401739969,-0.4986391531,-0.3502696309,-0.1995469003,-0.364503107,0.6576528827,0.3605433855,-5.9887059645,0.6091110125,-0.1793146642,-0.9032695207,0.0062508953,3.0761878889,4.2825254111,-0.2232924985,0.650092786,-0.7176802371,0.0551359025,0.7818087492,-0.0619101511,-0.1013758969,-1.693386309,2.7562851817,-0.8873709281,0.9357488174,0.9476541631,-0.0904099625,-0.6620848834,0.4745714882,0.2449270433,1.8263813996,8.7686244945,-0.5157680843,-7.1796680088,-2.5021420253,25.4588658206,-0.5618283983,-0.2911467175,1.1429889838,0.1204234433,0.8174521,0.3605488416,-0.3972627932,-0.0929614826,0.6062518035,-1.7551417647,-0.4622346947,4.3495980576,-13.7496431245,-1.4231073141,0.7099608368,1.8409994181,8.183323168,-2.9151291315,-5.4934799998,0.1450390281,5.1975452682,3.6437414513,-12.0952167399,-0.4677492941,0.6915174237,0.2123579505,-8.2577361991,0.7100886652,0.3634346195,-0.6320497243,0.3147774772,-0.7007081212,-0.5937011344,0.4521531627,0.2356318361,-1.1114873831,-5.0145610726,-0.2257580457,-2.8545339196,0.9231800776,-8.6055955909,-3.2394393657,-0.6010601321,2.2827370557,0.1226422174,0.0993094224,-0.3586135639,-0.5213862805,0.1447011532,-0.9210758665,-4.4955888784,0.708039955,2.3662724756,-19.1535976087,-42.1371680381,0.3944140912,0.8277512084,1.5319156987,-13.9704814265,-3.8864750542,0.6779069061,-2.6281388115,-15.742693964,-4.7558844752,0.0007543164,0.3118457977,0.6467902163,2.3607654265,-3.1051670281,0.6624552408,0.3403905944,0.6360858389,-16.6361959874,1.019639444,0.3110006999,-0.7997541705,6.0213241898,-6.9498671363,-3.5058025727,-1.9868456488,2.7586511339,-13.6413389738,-0.0372523354,0.5316406957,0.7244545524,1.0630710767,0.4983380364,-1.4261244493,0.659979494,0.4435533368,2.9404984315,-2.2125578089,0.5812262959,-2.9334222626,1.9842349253,16.8544452642,-0.0259364569,0.1789632406,0.763711906,-3.568654954,4.2809088754,-0.0137611074,-0.5121959271,-3.5889878244,-2.4439452117,0.5404055353,-0.0273091816,0.1316386764,-7.7519293087,6.7599259122,0.1145336316,0.8392976214,-0.0629977515,-2.6191065755,0.2561875239,0.3796806192,0.9902589023,0.67038126,-36.4120929261,-0.2319014431,1.2377761643,-0.6477570015,-0.7150795215,-0.5245848969,1.7001363957,-0.3978424624,-0.1644694894,-0.8640293412,0.250834701,-0.9465271758,0.0562141653,-0.7422910327,0.9310248221,-0.2928546464,-0.6440433722,-4.8383722897,-0.3108717206,0.60607333,-0.812372631,1.6151584423,-3.76924592,6.8308891373,-0.2483867785,0.6245502844,-1.1733728043,3.1166793063,-0.7892473977,-0.4672062218,0.4630641057,-0.1376819602,-1.0300154492,0.8210308568,0.4619387199,0.5144603641,2.9288505732,-0.6626454601,0.0346557279,-0.6558832935,-0.3582214842,-3.4622292616,-0.5543882356,-6.1829710724,0.4084280727,0.9409087712,-0.2033332005,2.0131130032,0.5825521735,-0.6551741054,2.0476040327,-0.1337767355,-0.942820029,0.4346470701,-0.9453069576,-0.8620307376,0.4436364854,-0.1708748258,1.4752119878,0.5410899449,-0.0432368494,-1.5142305502,-1.0429771853,1.7045287533,-4.931214384,0.0825635181,-0.8806973409,-0.4154537551,-0.9885035834,0.7598121692,0.3676029152,-0.7304743633,-0.3764643316,15.6684119107,-5.0629904273,-0.4174256676,-1.0347690645,4.0435037745,-0.0595212966,-0.5046693417,-0.4899117113,-2.0909697648,5.0762821156,2.0901330464,-2.953280057,0.4582025306,-1.9417871144,0.7825848431,5.9576491393,-0.6987108701,0.3012456291,-0.3755976358,0.5467266024,-0.9971459414,0.1061751508,0.6911688377,-0.3178412554,-0.6645476725,-1.5485424118,29.9273006423,-0.0652057913,0.6153334359,0.008459856,0.3663718993,1.2933724495,-4.0513414269,-0.1417590338,1.5321328363,-3.7889626666,-0.7392472623,0.6027005923,-0.7234881482,-2.8921924348,-0.0236528999,-5.8328159448,-0.8241500957,-0.9752756143,-0.0281403128,31.0541417241,0.9351673807,0.0858651896,0.9509275581,7.7609991148,5.1523125811,0.3336243787,-3.0717824576,-0.7715720654,-2.2983344597,0.644597046,3.7519056126,-0.1103756037,-0.8498100536,0.4783612325,0.7995363945,-0.7054745776,0.2662409661,0.4761490345,-3.6838004445,-1.4421277043,8.8708156332,-11.6427165688,-9.7446373529,-0.0181634626,2.0927698883,1.4832903023,-12.3848524526,-4.7345386353,0.2019162687,-1.1988720126,4.9110845558,-0.1046399187,0.2875125755,-0.476676503,1.1717468381,-7.9573136218,0.7619936766,0.4625918579,-0.5010071851,-0.4302447933,21.7525530634,1.0534603189,0.8577029962,0.2107265594,-0.697069403,2.8533862886,-2.7050190509,5.8318590925,1.0243204247,1.1617061878,0.0899009718,19.2841204915,1.5949314414,1.2496340896,-0.1763645048,-0.0579032843,0.0420108972,-0.2607688804,-0.5502325809,-0.9786460721,-0.6773281485,-0.2375003007,0.6641656473,-0.9674730253,-0.6441285553,-4.2062251329,4.6227144276,-5.2237556866,-4.5079883486,0.0247295885,0.0223586155,2.1436078134,0.3714224874,-0.0380586143,0.5512539565,-0.1850888609,-0.1003256839,0.4498918386,-40.1297026366,-0.4145593547,-0.0114264593,0.4803523128,0.2775750002,0.2187723824,0.5778894816,0.3684687088,1.0822806692,0.2880166868,0.3218359447,0.5830072261,0.1164464424,-0.8426081729,0.0761642085,0.251446635,-0.9685576041,0.5131105978,-0.4218362761,-0.3767829053,-0.3898047896,0.2242929219,0.8333427444,0.2462657183,-0.7134374356,-0.227126103,-28.2145661152,-0.9951609606,-0.3298390271,0.7891023696,-1.6150083054,-4.6485714954,-0.7383336321,1.0981178138,-0.8933102847,-0.1464995188,0.1393617709,-0.2743093443,-0.1104677561,-0.6516094173,-1.1114433973,-9.8282993008,0.2689823216,0.3654648839,-0.5744891031,0.2524237898,-0.0545835497,0.1656940942,1.0588807397,0.6583343805,-0.9550276596,0.9768875669,-1.1319621386,-2.6071973129,0.8762642296,-3.5905078387,1.4465639451,1.3972411678,0.1663656211,0.4289390084,0.1565873584,-0.7768733313,0.4573440752,-1.857044697,-0.8998665243,1.6546778169,17.9066160859,2.3088507056,0.8641844428,1.286010951,8.039062732,-6.7968699497,-5.0249773326,-0.5517888859,3.056962482,-0.7290029332,19.6688653394,-0.84606275,-0.3106346733,-6.5087186592,-4.8843292658,3.0115491159,-0.5738086613,0.5731154008,-0.7044307332,-0.104115464,0.7478182076,-0.8634144072,0.5033243515,-1.4565176264,-2.859888145,1.3147648885,-0.5597963399,-1.1530962175,0.2784890685,1.8821315658,8.6183806683,2.8899984661,-0.3550063847,-0.0647684585,0.6072786016,0.863630281,1.0101596991,0.7509830605,-4.576631017,0.710633861,9.8671476996,19.5059240394,0.7574466553,0.1875257675,-3.0352513398,-1.1115853091,27.9352967476,-5.2222280472,-0.9989650277,1.0932346371,6.158384047,-3.7574732881,0.029716448,-0.3263532442,-1.2978507775,-3.7964276081,3.7498062734,0.2887864498,-0.0546325245,0.0429642447,13.1974557174,-1.4088457843,0.3641382769,-0.0188851735,-0.919954476,-2.2207554117,-1.1039685531,-0.7489175641,-0.341112599,1.6642456048,-0.6328609557,-0.9425725478,0.1938769413,0.1401417013,0.3079833319,-0.0527490858,-0.8394415237,0.0308279656,0.8541306499,-1.0257718854,-0.1693662765,-0.1594119194,4.4523610285,-0.1579784221,0.3788418376,0.9014184485,0.8187988875,-1.4017530172,4.3033290718,-0.2506987645,0.4974466799,0.1309591822,2.4925787574,-0.6888497839,-0.0137582603,0.1792489942,-0.3283566774,2.6795582985,5.659062822,-0.704291378,0.7649458654,-0.167300055,-0.3059981268,0.7885055736,0.1576618128,1.034464871,-0.6397603127,0.3871869843,0.5649202119,-0.0431407077,-0.2604663804,-0.4552466168,0.181188557,0.6001100706,0.0522688464,0.0459905079,0.2960203944,0.5189316567,-1.0003777039,-0.5249016801,-0.4614313333,0.2744712968,-0.2569348887,-5.0183041606,-0.1287099208,-0.2842955176,-0.5586387677,0.6627924459,0.3670936579,-4.6982788733,0.584163036,-0.8123023847,0.8266573912,3.1669772289,-0.774699515,-0.9896533992,0.5847264222,-0.289253051,-0.6972822642,-0.2595270013,-0.6035146385,0.4902031147,0.5879974792,-0.0734382166,-0.2826235955,-0.2875804928,-0.2892301293,-0.0267201616,0.8325796459,-3.5350288704,-0.1719883507,-0.4018734747,-0.5026983862,-4.3052576052,0.222450017,0.0819778813,-0.3738830671,-0.6425370189,-0.6633562599,-0.0887561113,0.7725612962,-0.2511888346,-2.8115491961,-0.0593875576,3.0519270923,-0.4509990233,-0.4943708412,-0.6554516302,-2.1859372508,-4.1831030533,10.5099809626,0.3081986035,1.4654494843,0.5525560617,-0.4540352186,0.1260503046,-0.3978408861,-0.0658290624,-0.2937285429,-3.5079346047,2.2424648386,-0.3637255874,0.8194458393,-1.8778931234,0.0033393638,-0.3307333276,-0.8265412782,-0.7662569275,-0.7774068732,0.0578467591,-0.9950409183,-0.8898595365,0.130235431,0.0698106454,-0.6504816496,-0.0323483729,-0.022431399,0.7078209776,0.4197961879,0.0461374847,0.8109486534,0.781005149,0.4706627466,0.0876236898,-0.2128209785,-1.9579640169,-0.5788981454,-0.5703097161,0.0496961687,1.614735647,9.6618447957,-9.0649499188,-0.5758059991,0.7639985056,-1.0612520052,1.0624144581,-0.5984346636,0.5720645988,0.6567460651,0.8934905646,-0.5444322998,0.0948731832,0.7567849931,-0.6529521026,-0.1129271745,-0.9349647821,0.2691172797,-0.514019135,0.0295579518,-1.843097638,-1.1436392171,-1.713341276,-1.10161055,2.4646363731,-0.2961013264,2.4442007008,-1.6162440587,0.3478931053,0.5606100147,-0.1797372099,-0.8264045423,0.9180832006,-0.9109009166,0.1791603728,3.6738761535,0.0489037983,-0.8806487733,0.6785410342,-0.7385860634,-3.0229266176,0.2626492989,5.2850019246,4.300923099,0.8717467142,-0.5236115816,1.3123277503,0.2929895644,-0.2852459887,0.2170790142,-0.9900550872,1.2836199938,-5.957711021,-1.5615263889,-0.2992910823,-0.1454720658,-1.6665789739,-0.1028037164,-0.6400720091,-0.9795931565,1.9560566452,-1.9590424555,-4.9813352588,22.0250950075,2.3037364795,3.7493013231,6.4996985696,-2.9856413777,-0.5059272387,-0.3250082789,-0.0881991895,0.8470192748,0.4529878324,0.8010238984,-0.605838176,-2.182399008,-2.2120414208,5.2786253927,20.8961041926,-0.765630116,0.1432648502,2.3178519614,-3.248385828,-6.9193111889,-4.2777851152,0.3200751531,-3.1506719383,8.5377582195,-7.0030514719,-0.3338199361,-0.0102408067,3.0651346965,2.7844071259,3.3379747372,0.2935338469,-0.5292523259,0.2429076926,24.1177313507,-0.5534953304,0.5431567766,0.3954505836,0.2308253024,2.2579377951,-0.2692366032,3.4056953774,1.8327032269,-0.4137996852,-0.6487663957,-0.784694575,0.4793687151,0.175420793,-0.7734286169,0.7672666327,-0.3992836103,-0.0991705569,-0.5001519537,-3.4116494802,-0.0799233852,-3.5294974324,-5.9606022842,-0.6498504637,-0.6682709584,1.8349363839,1.9193737757,-4.0727719286,4.9082324167,0.1286528079,-0.6525412239,-2.2043648553,-2.5432322616,0.5701208303,-0.2381569088,5.1488817593,-0.7512559081,5.1239242832,-0.4323250844,-0.253106292,-0.8318327102,-0.7897846259,-0.7467009777,0.2615518114,0.3342302321,2.1555466027,3.8354856729,0.047745766,0.8264996743,-1.5260283628,-0.8814555301,-0.5348161988,0.0125606067,-0.6732130037,-0.9518689017,-0.8800920483,0.4189069078,0.2413415773,0.1737538318,-0.7430071957,-1.6167028092,0.3657698146,1.3363874419,-8.0166657516,-1.6139152385,0.0080361837,2.7913682183,0.9958874412,-17.8819662439,5.8742671851,-0.9574987339,2.7446270125,1.9808030715,1.0263679087,0.5995155808,-0.7546167661,0.0990050823,-2.7274473094,8.1338114084,0.2634973118,0.3082870316,0.2330361201,1.7176947338,-0.6337394283,-0.8556008096,0.3970587679,-0.9922365704,-0.0112332129,-0.4209367943,-0.8903966913,0.1681676757,0.3697890882,0.6655030151,-0.5291976902,-0.6763511505,0.7561873796,-0.8936851301,0.0609510356,0.2480709977,0.4704497815,-0.4486824914,-0.5981585334,-0.4304172749,0.4505502725,2.1046609482,-0.2167433536,0.4895936584,0.9238053395,-0.063662182,-0.4230268178,5.3651633875,0.2788428186,-0.1533644865,-0.2143550724,-0.4272271057,-0.7254934147,0.5399520777,0.4734130992,0.4607357662,-0.5426885553,-0.2737265753,-0.9386545578,0.1083723632,-0.9998530595,-0.6612472166,0.7716840844,-0.5701780397,0.2982112789,-0.6254142336,0.1378081088,4.5532493115,0.3703817911,0.4255529484,2.3051304424,-2.3374781051,-1.1879569221,-0.3023364264,0.8387646632,0.2577678262,-0.2360795592,-0.5577388902,0.6987392494,1.0136811431,-0.3356858274,0.1090760525,-0.0375228609,-0.5161919038,-0.6768556776,0.2644407944,0.5992634161,-2.8391571374,-3.510718062,0.858750197,0.052677156,-0.8623463145,0.1736237837,-1.0358253647,-0.135905067,0.7701491266,-0.0791188128,-0.9029660414,0.4129456567,-0.3726359007,0.1250096192,1.0038782764,0.4654583705,0.3720513291,-0.5015805669,2.1772514136,2.513447615,0.1269275976,2.8051407871,1.5373499242,4.4120485273,-0.2341353647,3.8845288703,0.0343414287,-1.4674003479,-0.0217477948,0.5312684456,0.87083981,-0.7644553973,-1.7828475797,-0.7739274644,-0.4387424923,2.8450870982,1.3180696892,-0.0017700263,-0.0090924422,0.9619349967,-1.374875869,11.240084934,4.2788651621,0.9844456185,0.4631774982,-4.1162676688,0.4473286275,-0.2614234781,0.8547234618,-1.5674326706,37.3931657959,4.85569374,-2.6864455352,0.6178236853,0.8733701973,0.5664297391,-1.0254624579,-0.202226295,0.7000878794,3.1075551562,-1.0066516068,-1.3931866971,-1.9399204487,-4.0795197887,-10.70611001,1.2847946335,0.2150983824,-1.3048684116,-0.4528998609,0.0339488831,-0.8550823201,-1.3394485266,-1.6665815131,0.3945822859,-2.1498671762,-0.4899349773,0.4108883672,7.2333846694,0.5242258327,-0.2275985224,-0.3515237364,0.7214756325,-3.1265612411,-4.9175886141,0.8958763247,-0.2572496351,2.8636444586,-0.1730863827,-0.1973827789,0.2851061268,0.8729640147,0.4908072831,-0.914975213,-0.0294342143,0.9312505219,-0.47697454,4.5757214386,-0.1058529126,0.8439008315,0.7238482051,0.4012818399,-0.3137281511,-0.2053650358,1.9009704601,-0.7530612385,0.5844691683,0.0047231425,0.9193653768,0.0742025835,0.171373494,0.75420847,-0.5123210671,0.3860575233,-0.8263344582,-0.6143275681,-0.3110072615,-0.737282626,-0.3581401179,-0.8751010783,-1.6473009265,-0.4197622079,0.9585469185,0.3105420109,-0.90837885,4.1334605733,-0.108688871,-0.4550963237,-0.1776535279,0.7945116425,-0.6876268269,0.0644513495,0.5191864447,-4.5204913768,-0.2380201023,0.6434180378,-0.7552025839,0.4289940004,0.8051475851,0.5381245727,0.3558578057,-0.489495202,-0.0377281948,-15.8080973726,-0.0840699003,-2.1346119652,-0.0622809678,-0.9082357891,0.1933195929,3.7486054872,-0.9678192649,0.0871410739,0.4589612781,0.4151985808,0.4351140688,-1.5377071602,0.6359679208,0.3554243568,3.378724743,-3.3668282659,7.4169727542,0.9050441029,-0.3659648669,12.5520635781,0.1375046807,1.6106912035,4.3176056838,-0.2170644241,1.2309421619,15.4705694566,3.6963852685,0.9156149592,0.6747680528,0.4197843163,-12.4110797302,45.7075880277,10.4629194706,-0.4553394995,-0.9437361486,0.6903872033,-0.2890235213,-0.6021157274,0.6021197133,-0.3699961796,1.0301387953,0.8686838757,1.6387175255,0.596053302,11.77695948,0.7526241535,-0.2229932847,0.2780429218,-0.6458833509,-0.1336642389,0.7768064933,0.1104913987,1.1506148764,0.3864622581,-0.3315566128,0.0597557319,-0.5570355719,-0.6627632505,-0.4100162028,0.9803059688,-1.3853266082,0.1843653096,-0.494510641,3.864832942,0.151678871,-1.9167344352,2.9875535116,-0.5459092834,-0.0427143379,0.7655253195,0.8225973617,-3.7660327605,0.3942039557,5.4655844912,-0.8618362666,-0.003998104,0.7712449131,0.3636793456,-0.010043479,-0.7320639275,0.8604422121,-0.3048146395,0.0870952548,0.2717862363,-0.1895994903,-0.4774603712,-0.9766361692,0.4276706372,0.7265269129,0.588329452,0.3958038825,0.5598462927,0.3230912724,-0.6520372949,0.8553431146,0.4218805442,-1.2877743394,1.043211886,-8.7427492545,-1.2923307383,-0.0014315485,1.4973274572,-0.9581929787,-2.4639144326,-3.803101524,-0.5861322533,0.0329464561,-0.8506327577,-2.405486553,0.4666711029,-0.7726645618,0.587377583,-1.4765850461,10.9616021275,2.0932754139,-0.5478580257,0.3979269625,0.7277756602,0.1326840624,0.8780656399,-0.781227124,1.350828118,1.2153391921,-3.6274366853,2.5089580775,-4.0271826151,0.615291268,-3.7776617771,-1.3593325823,-1.7831637205,0.6954283955,0.2925516657,0.2239804785,0.6166513244,-0.2436976531,0.7199124385,-1.4388683112,0.7739084876,3.7824133258,6.3015866358,848.1058526109,-0.0552362311,0.9567234499,3.892058497,-3.607410037,3.7757174844,0.5910501795,2.6077283631,0.8253878605,4.3265773734,-0.3118441526,0.8139713042,1.2985029121,1.8875358711,0.6076441935,-0.715196694,0.117736314,0.4292545909,25.8814200408,0.1714810118,-0.0674485879,0.9953560407,0.286056679,-5.819269,-1.5635345232,0.3744804254,-2.8487356334,-0.9730307582,0.6498562053,3.0497732048,-0.0760250234,-0.1341920321,0.9821021556,0.625947419,0.6324401367,1.2834774234,-0.20926045,0.0446579565,3.6119144867,-13.2037309125,1.3153951704,-0.669388763,0.8127843765,-0.9276250178,-3.4415169218,11.7292109597,-3.677206825,0.8911090204,-0.8116771036,-11.4747004082,110.1987462834,-0.303915809,-0.095953343,1.8580561126,1.5067736157,-0.1959681955,-0.859495873,0.4240699063,0.5411391419,0.8875671208,-0.8398459796,0.166399805,-0.8198274834,-0.6350071157,-5.2675716769,0.0730946122,-0.9421456946,-1.66096542,0.8736043829,0.5341552938,-1.4897850316,-0.8533512324,0.2047010303,-1.0386969842,-0.9677267755,-0.8145905447,-0.6245539787,1.3442457102,0.4214956868,0.6092047003,3.3702387223,0.9914875709,-29.6290602951,0.6968527016,1.2175097473,-2.0198830305,-7.6274910895,-3.8175047651,0.2434578739,0.4227106321,-1.1970771144,2.512121624,-0.3785463098,-0.4410444663,1.817587486,-2.6595495896,4.4797419837,0.0970001647,0.4800856633,0.1537071443,2.9701731178,0.7474074424,-0.5747907617,-0.8916153126,0.6413233015,102.5664037794,0.8873085934,-0.1061034562,-0.5065285359,-1.4844225763,0.1905121001,0.547628033,-1.0307621312,0.3125410332,0.6131489729,-0.7500203859,0.576236887,-0.3128427638,0.8545600905,-0.9777703319,0.9424113374,-0.8184431087,1.410245013,-3.4962775951,0.5493334949,0.9313022177,0.5724118355,-2.452517611,-5.3494790402,-0.9067220874,0.7570552634,-2.2491280112,33.772700504,0.2362889984,0.3561162731,-0.0009255338,-0.0646708387,0.0950144079,0.0422178081,0.9047675402,-0.7786766316,-0.1940704369,0.4023141543,-0.2552588567,0.686135484,1.5081600794,-0.8548855097,-0.3079922455,5.372990047,0.6819957536,0.0355795068,-0.3875489328,-0.9174050059,-0.8047515075,0.421520994,0.5964004463,-0.9115645913,0.4956667777,-0.363909915,-0.441655835,-0.0266150682,0.9721231176,0.5103200613,3.1543080989,29.1033707529,0.7123108263,-0.1734425697,-6.0515448721,2.9015778337,3.6947576685,-0.0405136417,1.3701118839,8.5498921197,-4.8275845046,0.127459825,-0.1478851666,0.4267835151,1.2906335639,28.6310569677,3.6265823758,-0.1628699131,0.0922313982,-0.2345512919,0.2417768545,-0.2922226409,0.499541549,-0.1711675725,0.747012433,0.0290903857,1.3924903811,-0.2660289745,-0.3108880957,0.157225099,-0.1129625905,-0.1941396764,0.7438250185,-0.8734278092,0.0873243151,0.3976557321,-0.4228091368,0.2537957284,0.6298111932,-0.6192746031,0.9009703874,-2.0542657831,-0.4826470373,-0.2435361916,-0.3177689945,1.120768459,-1.7125261473,3.7989414498,-0.9276165086,-0.7273455195,0.7228348229,-1.0187063085,-0.4978989794,0.5232291452,0.1387991128,0.2624261356,-0.5361687735,-0.5927094648,0.9325308529,0.0685972678,0.7067666003,-0.6583866841,0.7922467383,1.0287277027,0.0143169768,-0.8741833585,0.4212644538,0.7438496203,0.8585054888,0.4587462132,-0.5625548223,-1.0543830235,0.485560372,-0.1794984993,-0.8694241617,-0.0403870709,0.1407710526,-0.6735008058,0.9230613469,0.1788470059,0.241983108,0.4899522328,-0.7330126543,-0.4732600141,0.9069198649,-0.509210821,0.9136952541,-0.6783006995,4.6358936638,-0.7682514096,0.1563879526,7.4714394655,1.1182337912,-0.4271670824,0.1438290613,0.6952876839,-0.3640137675,0.8479207548,-0.7171915787,0.5916955516,0.1671829239,-0.2098319048,0.5377569159,0.1240163246,0.2225346739,-3.5664710575,14.6070883967,-0.8473120125,0.090721173,3.168990377,-2.7798213745,-0.3668559171,-6.9962532799,-1.1387240066,-0.5494488084,-0.4092327149,0.6615636193,0.5500836444,1.8991060783,0.8065940666,-0.0920019629,-3.0887553024,-8.9989384129,49.3120405853,-0.1306116813,0.5616027208,10.5404237472,10.1119018115,-16.9017647731,3.1445453201,0.8042384106,-0.6885597277,3.8716475442,0.8593376712,0.5867830238,-0.6816365848,0.9653463949,-0.7182152072,0.6552114537,4.4693269571,-0.7519502816,-0.1069652684,18.2909154914,0.6467121975,0.6427938845,0.8868003889,0.0996247484,0.2851209269,-1.5812909161,-6.7915488938,0.4226167609,-5.2354732403,0.6537181447,8.2466900589,0.0167540356,2.5325210104,-3.1209175241,-0.0814887093,0.5606716537,1.6499816891,0.8496717472,-0.993066024,1.7439972976,2.086321309,2.5258810497,0.6463069962,0.5584638024,2.6380415338,3.606903575,-8.3659093628,3.2566440053,0.5767951829,-3.1342729354,1.942691214,6.5320419782,0.4781112635,-0.2120090524,0.7933529981,-2.4844807436,24.908149018,5.2827496113,0.5590070801,0.2171824756,3.960153213,-0.5722038133,-0.6987385656,0.7643454176,-2.8869182591,-10.6446716774,-0.9083906202,0.0522992079,0.2827498382,0.334409562,4.62048126,1.8566511555,1.0749662488,-0.5525246818,-0.9179589189,0.6841238721,-0.449208398,-0.2804781253,0.6995831178,0.653342843,-0.9499863773,-4.3314010311,-12.7265576237,0.5921072149,-0.0372001282,-0.5054120624,-1.0420406423,-11.5399360363,4.6794753332,0.3607020152,2.9488019344,-1.3016160995,12.1350567559,-0.87334899,-0.830746401,0.8872949527,3.8956847738,-2.0890195484,-0.2179569918,0.1255930425,-0.5591580861,-10.1255828878,-0.6938881347,-0.4433256958,0.0979672457,0.0430873168,1.7188113347,-1.1885376754,2.6857814331,0.7680969467,0.1253238049,1.7162429164,4.2092484764,-3.3461292317,0.9654169576,0.5401261007,-0.476698178,-0.6603365511,-0.137065828,-1.5122690892,-0.4478443263,-2.1063670742,0.1781459362,-0.7652130731,0.4870388371,0.3703077582,1.1235973982,-0.2182859566,8.2650444056,-3.6454834245,-0.0595964217,3.5877729328,4.9133966991,-9.0999890046,0.4943114391,-0.721752257,0.2064074695,0.3012588206,-1.9120452407,0.0304290134,-0.0339724082,-0.4991029453,0.781384747,-0.7536854409,-0.2741937663,-0.1400472314,-0.838359902,-0.0885687128,0.7864207723,0.4310271519,0.1513105526,0.1333258064,-0.2949599724,0.1085163422,0.184002342,-0.314614175,-0.833286528,-0.4788289235,0.8051244209,0.1499645107,-0.1042226988,0.1368633654,0.2791283206,1.6498978551,-0.5926865172,-0.4308099264,0.9582112478,0.9679170586,0.4664383369,-0.6895998854,4.1570774831,0.4317982511,-0.2733534828,-0.1571775686,-0.6872374684,-0.4152691264,-0.7615199805,0.0322279474,0.1527186955,0.659312091,1.5446837467,-0.7297865924,0.5878924836,-1.0033372226,-0.8980263979,-0.1456029468,0.0706262183,-3.5420416425,-0.8050333985,1.3241831659,-2.3181736496,-0.6948047531,-2.4583297944,0.0398000805,-0.3493921254,0.626386099,-0.5596266629,0.0395082323,0.8432665676,-0.5345422695,0.8910209505,-0.4351566012,-0.7817400148,2.4516113169,4.5949247918,-1.7332621878,-0.7696443342,0.5297253977,2.7428101744,4.3767401718,-3.181289237,-4.2525485488,0.7778988768,-5.3305957923,-0.379471127,-0.5841672858,-0.321180326,0.7540232566,7.3129272542,-0.7373723448,2.313325906,-0.0510821778,-0.0920949798,0.3885362659,3.959611802,-0.3734094521,-0.567765108,0.4113932995,-1.6389780832,-2.7706641198,0.8788113304,1.4972666253,-0.6845432874,3.4928860934,0.2625399156,-2.4660299582,-0.3322721821,0.6967101896,0.5647015183,-0.2425850996,0.4360910767,-0.6906039455,-0.4619852925,0.3008974883,-0.8273474387,0.1494866755,2.4112298041,0.3249446749,0.7814818359,0.2922893582,2.6851719596,1.8338160896,3.5825220506,0.3613459046,0.0476571024,0.044279242,-0.0460872453,-0.4200153567,0.4469987226,-0.028640943,1.2262486963,0.2367348921,0.8360867673,-0.3845073904,-0.4291912801,-0.6854246921,-0.1116751323,-0.1884072933,-0.5182328335,1.7518538013,0.9416535405,-0.2435571096,2.8268703465,-0.236060007,5.6822966524,-5.4682205329,2.1800873669,-2.3093799112,-0.004394544,0.4320610465,0.325488789,0.6818144418,1.5476759015,0.9158984794,1.5053652022,4.4152083898,28.3736152547,-12.0999987353,-0.5257573069,-0.4060387841,-5.800121711,29.1163189803,-13.2610222196,3.9391017227,0.851957187,0.5270580501,1.4780128281,11.469753968,-0.7869090517,0.2880137168,0.9414931294,-1.2774735022,-6.3766767233,5.1038552457,-0.5067435966,0.4134535961,-10.6274586393,0.5888241126,0.9363320914,1.0633709419,-1.5788231209,-4.4419174262,-0.1444870265,0.5475195627,-3.479259187,1.2129219984,-3.7138540082,-0.7874570617,-0.4625764056,-0.6686723438,0.1397443376,0.9126260105,0.0896339356,0.5185160093,-0.5979287333,3.0381268859,-1.637227045,-2.5095386681,16.5806603446,149.5678640644,0.3312891663,-1.827384805,3.8039898137,4.7866800142,3.595309786,-0.1310960442,2.4810616653,-0.2825857503,-0.688349597,0.106601228,0.4127095618,3.4471115257,0.5152509503,-1.2372802219,-0.5087899097,0.0365652838,-0.3297301792,24.0270370935,0.8358532602,0.1477660659,0.7228188351,-0.7589760589,0.2536397464,1.1848056998,-1.6406535803,0.997289247,-3.76933256,1.7531279117,-3.704666581,-0.4602059599,-0.5297178791,-0.5660254041,0.6724575658,0.2362157182,-0.4110675336,1.4595512094,0.1765996937,1.56921344,1.3967854843,-17.15470228,-26.1593785123,-0.0999325593,2.2012194491,1.546593506,-68.9531924775,-4.9366102211,0.5897538613,-4.7126988384,1.8048993197,1.3884898419,-0.5947191596,-0.4377457683,-0.8569271672,0.1017199585,4.521981028,0.1978710849,0.7947092093,-0.2570227206,-0.3428004324,0.9170944705,-0.0234416972,-0.8469628898,-0.399056524,-2.5968126624,-0.2397096785,0.5347983999,3.3362320529,1.1849431224,1.413619494,-3.7987166718,-3.0280622637,-0.6696462996,-0.1859271606,-0.1220201468,-0.4999872703,-1.7031728309,-0.9860049947,-0.0861683587,-1.5482628152,-1.215667698,-5.8626627718,-8.6724252428,0.9488284923,1.5887577963,2.6132428981,1.5704838744,-3.7621974718,-0.5419705257,0.2007209896,-1.6302346805,-4.2785951155,0.2549422953,0.7792419529,-0.1977864383,0.9545843689,-0.3991805076,4.693025529,-0.618315527,0.8490241619,-4.0892550102,-0.6410630568,-0.7910194589,0.132281646,-2.8054155335,-1.4021915481,-0.2705978259,-0.6202670498,0.4622127387,2.5408630081,0.4647245001,-3.3759980357,3.5511510434,0.169393616,0.6671060774,0.3534344122,-0.2431520491,-0.6285200895,0.0607670243,-2.0035942012,-0.1051560939,0.2705733845,0.8856743862,-0.5115928557,0.5045551115,0.6564885539,-4.4703706956,0.0635604513,3.8511532914,-0.9568452257,-0.2796381196,-0.8525943976,-0.2964414451,0.8963956585,-0.6075087113,0.1946469768,1.193302602,-0.7547324124,0.0333952289,0.2480140129,-0.0917443149,-0.4909823879,-0.2392988718,-0.5081807237,-0.344398616,-1.2929872613,44.367606739,-3.9554127181,-0.1292120127,-0.7866256269,2.2296843163,-0.8820693161,1.0309687272,0.7862561449,2.967567757,3.6643513058,0.2897023782,-0.0510738512,-0.2366754555,1.6955098596,0.0294804137,3.1299148433,0.4819339857,4.5372163018,-0.9344422106,0.2347428516,0.8189475412,-14.0416471368,1.1816508921,-9.1460080201,-0.1116973092,-0.1561080712,-3.7129726822,2.9209274405,0.2703843696,-0.8894514339,-0.3967987891,3.8099257919,-0.407582799,-0.9076739586,0.9073707312,0.7460323611,-1.3920405989,-1.478674228,0.4450701931,0.9178622553,1.8677807572,2.7487407191,0.1134993419,0.662832732,-1.7467060265,0.3062231796,-0.9013680898,-4.2583141848,-0.7755425049,0.174085676,-0.0875232502,-0.0845720567,0.812674521,0.6168696336,0.5916441665,3.1802230775,0.9218420983,0.7727193874,7.6925024595,0.7327344075,0.1931986432,-0.7666467483,0.0282160792,0.1645467625,3.8551635115,0.6083233131,0.8011364826,0.5148871837,5.1053865236,0.2313287613,-0.1173222117,0.7070473304,-0.5224157225,-1.5394763812,0.1980285902,-0.7095192958,-0.301184803,0.8450032854,-0.2083943204,-0.2574408778,-0.877622867,0.3958604135,-2.4724001946,0.3138990127,-13.6169703076,-0.4329463944,-0.6463908812,-0.3681508843,-0.9125666523,-0.8426149618
   0.091542503,0.0932553317,-0.8182225481,0.8651085605,-0.3942328073,-0.2764166447,-1.2250568958,-0.294726669,-7.0618798032,-6.8214696554,0.5595489198,0.4906121583,0.5112486499,3.9957224362,1.5962538664,5.0847194663,0.8976951399,1.7116627074,0.47029612,-1.4975105402,0.8845982574,0.6098951314,-0.0700612851,1.6694273644,-9.669382298,-0.4307491721,0.6356842879,-0.2438061385,-7.4543291348,0.5370238404,-0.43965034,-0.8715757059,0.7356150012,4.4900847449,-0.5404240291,1.8281043014,0.1142915852,-0.9925250421,-0.3186190447,-1.9270680506,1.0156368496,0.548983771,-0.706191979,0.9917732224,0.2819799602,-0.2021926871,0.0443848313,-0.2848771297,0.7646969653,-1.0287537354,5.8246650375,-10.0808730603,0.5838898037,1.678123259,-1.1989634752,6.4560140347,3.4036860786,0.3520510259,1.4481381086,-1.7792539029,7.6951810356,0.164277223,0.921019582,-0.1709141026,8.1645981602,2.6787508007,1.5739541809,0.9389570858,-0.4478125039,0.6158814348,-0.8078820305,-0.3158321573,0.945523819,-0.1053095371,0.7934773457,-0.144208676,-0.4040586579,0.5457362257,0.1796315693,0.1832863819,-0.0323353056,0.7056066298,-0.2359616727,0.464950677,0.37353352,0.0839842498,0.2078853694,-0.0383148091,-0.5796502417,-0.126282263,-1.0472719422,-0.0504317807,0.2918585906,-0.7392972595,-0.2636546236,0.0851262851,-0.4761059105,3.7485806128,-0.2647717005,0.767191957,0.6302743933,-1.0231297359,0.8182102091,-0.6092480103,0.5294629247,0.1676006686,-0.9696021917,0.7957548025,-0.9739790484,0.6340056807,-0.8119322471,0.1963079006,-0.4287504931,-0.2336668479,-0.5287084078,2.8326301253,0.6971031038,-0.1156049456,-0.1687057757,-4.696716517,0.9292983745,4.2892124404,-0.2346023083,-0.2024876004,1.5551326318,0.7914895016,-0.3595534608,0.7032310334,0.2282451748,1.5113037491,-3.1215782766,-0.0251440825,-1.2967033215,-1.0002830249,0.6579182873,0.8565441533,3.2009481787,-2.5221335363,1.5661362778,0.5272703662,-3.7757464635,-21.406283875,4.184374212,2.0810721148,0.6701872599,-4.8735013759,2.3574756903,-12.8840990363,-0.3614103996,-0.125853947,0.6416062287,-3.5337613246,1.9698914236,-0.3180980852,-0.7392012332,-0.04041303,7.1337610964,-0.4822078203,1.3462567347,-0.7936150651,6.5180698997,4.6919419894,3.0466731387,-6.6026080436,0.9697316931,1.9687029589,0.0803727847,0.6609907876,-0.4623254007,2.7174146318,-0.6295605522,-0.7373640594,-5.6565062207,18.6240948476,-0.684541816,-0.4845477731,-0.4838160549,-2.6422357595,2.1721992585,-6.6964691382,0.2880976588,9.3824454036,6.2854386459,0.6298710304,-0.2830253943,-0.2234655094,0.9828994438,-2.2093890974,-9.4194143511,0.1153608252,-0.02076658,0.2008957475,1.0225735971,0.6714317535,-0.201785351,0.9059910632,-0.6410537969,0.8211864572,0.4824461144,0.5305109411,1.2174107653,0.4791715608,-0.5854019211,-2.7031727032,-0.2224885312,0.1963239828,0.6227801829,-0.3639328801,0.3637664885,-0.7616404479,-0.5720045504,0.3764048875,-0.0051476163,-0.5363009216,-4.4366278444,-0.0462748806,0.9816098288,-0.0818632736,0.0726831006,1.6317608089,4.6249434911,0.4261448707,-0.3214582373,3.4967699074,-0.3242409842,-0.5947758344,-0.5640088206,0.0738206295,0.0601282628,0.1192744292,-0.1557586595,0.455942394,-0.451321371,4.7063792556,0.2169475005,-0.7385554921,-0.2268451042,0.8513786715,0.596330342,-0.0611932509,2.0460542225,0.7701662272,-0.7226875334,0.8472392549,1.0037068865,0.5903722787,-0.2752934692,0.8458160398,0.327035565,0.922747665,-0.811148707,0.0959766867,0.4222570058,0.0914369433,-0.5696654724,-0.4113471132,0.2043761276,-0.5024589866,-0.1460716546,-0.0208681427,-0.8838849568,3.7034814251,-0.0820426955,-0.3563405673,1.2463251458,-2.6157030471,0.7189718432,-0.926005084,-0.0509936883,-0.2784381173,-0.2802520161,-0.7339436155,0.3083847181,-0.2056015544,0.1320072577,-0.1604131478,-0.9257259392,-0.2817384881,0.3423143122,-2.0377840238,-9.3861342679,0.4401875177,-2.0714063995,1.675475946,-0.8028254276,-4.8297333009,-0.8626704093,-0.7905940145,0.817214991,0.578778418,-0.3114440545,-0.5991810652,-0.3772697811,-1.4664724895,-0.3259834714,-9.1055029318,3.7013987675,-1.7688030204,-0.280946721,0.5025596257,0.0515878703,0.6233396728,1.6772429981,0.1605934096,-5.4950737779,4.0826126351,-0.8431525911,2.6012667415,0.8367939619,-4.3668460072,-0.4069774463,-2.3762338154,-1.7816290696,-0.2498734096,0.123677358,-1.345760418,-0.9137534368,-0.6633504642,0.2178140348,0.2815502397,-2.0620040298,1.2477667963,-3.4077145784,0.101105985,-5.064179613,1.4029574382,-4.9135246877,2.125246087,-0.2816502818,-1.06323139,-0.6011241856,-0.5635994384,-0.0721154027,-0.2964363611,-1.9257731116,-0.1760743132,-0.9361195327,4.1243196507,-157.6149400203,-0.3779873864,0.29307013,-1.0490891683,1.6528697439,-4.1270214801,0.7820305814,4.3928527562,0.1387856909,-0.7272571878,-0.9005251754,-0.9732603291,0.7885141465,-0.2423240611,1.8243385148,-4.226217565,0.4091400725,0.0844538248,-0.7487725163,-0.2420077282,0.4384933143,-0.5522089297,-0.7618161065,0.0904897077,0.7199548847,-0.1285748558,0.378686722,0.5325152189,-0.6427085191,0.4383566376,-0.2741514077,-0.2841723737,0.9142281814,-0.8081616671,-0.6840892772,0.30984094,0.5710432806,0.6461161643,-0.1406252358,0.8440827967,0.5216309656,0.0201624974,-0.606174249,-0.7425282714,-0.9100779685,-0.311115187,4.3805375821,-0.9050722364,-0.1071877528,-0.6041958489,-0.567507231,0.326694633,0.9082394689,0.6559695101,-0.1877331097,0.1775424495,0.6531357443,0.5945002053,0.5312013366,-2.6017089714,0.7524781079,-0.952984098,0.5029471927,-0.4461236153,-3.0055455006,-0.3450426872,-2.0840733523,-0.1203090391,-3.1422523652,-2.2095933813,0.219232054,0.1342455795,-1.5270097617,0.5677724114,0.5548853087,-0.497087682,-0.6956182258,-0.8048917429,-0.3517110589,-1.2385608324,-2.1920363264,0.0713314946,-0.9418568919,-0.0279618031,-1.0720042658,-1.0847614559,-1.8475528831,7.3784115815,0.9686776455,-1.9713030634,-0.7505352358,-0.9446629124,0.9054056591,-0.1419742746,-1.8531094251,-0.4343675131,-1.0770347956,-1.2067248486,-0.0827217806,0.4070088325,-10.9746229295,0.5340986535,-0.4144162249,-0.3091906869,-1.0027669159,1.1849944996,-2.521441306,-6.5377721065,5.7547180826,-2.1397991107,1.5193990847,2.4666057053,-2.6526139001,0.8622618138,-0.1694429576,0.1863593244,0.1012829991,0.6866229844,3.0708830428,2.382153414,-8.9395553128,-2.1333991592,6.3158779469,162.8356723956,-0.0235428182,-1.4795479642,-0.9367503647,0.372258604,3.961721634,0.9308846472,2.0795069287,8.0565883122,5.6356171728,0.0985133192,0.6020775957,-0.7564842829,-15.8514678516,7.0601675376,27.908856612,-0.555589401,0.0668906511,56.0520505483,0.6622999835,0.6030357489,-0.6601861721,0.6800252147,-0.3985405859,0.8388887366,1.380971716,-0.3395898962,0.5729898482,0.3951833827,-0.9647463944,-0.2367180458,0.8199992724,0.6488497921,-1.0667040796,-0.2711953653,-0.3208105983,-0.3119062621,-0.1201505323,-0.5168574962,0.1016342322,-0.9773859774,-0.8107147525,-0.3832350156,0.7132640711,-1.7351093724,6.3261470427,5.2682132171,-0.5556267805,-0.6886227164,-0.4000467906,0.7437447565,-0.7653082399,-0.9508235864,-0.1553611405,-0.4096354476,-0.5232940119,0.5043549026,0.5725824114,0.6019386964,-0.0203895558,-0.3487461997,0.2358055214,0.7601606538,-0.1984482666,-4.8234165269,0.0498936785,-3.3593981967,1.1618871795,2.8977211596,-0.3863497065,1.3822262394,-0.7808133506,-0.5893434046,0.6766441474,-0.3503760981,-0.7096505145,-0.5249822852,-1.9665115162,-0.6942761481,0.5611812424,-1.6451402339,-8.9194921301,-0.413577387,-0.9629272315,-1.5062909088,-6.3096702914,-0.850706629,3.5308766803,0.6108660892,-2.8816313623,-0.9322479213,4.581690551,0.2989525934,-0.2906478072,-1.026520534,-0.5519688445,3.8683655771,0.3243171842,0.3812565009,0.1821394004,4.6794568798,-0.8334818294,-0.0332096313,0.2570093032,0.7106880236,-2.7246738349,-0.5837574415,-5.5264464455,0.7861289177,6.5830175377,-0.4750166693,-0.6254678714,0.1106337522,0.0155908325,-0.8076233814,0.7822111896,0.4442459797,0.2911753508,0.7531547402,0.210862306,-0.0580559735,-2.6673300782,16.4474836793,7.5773666451,-0.4569129317,0.8675825673,-0.0463508017,-2.4943542487,4.3273535165,0.1336205681,0.1579508505,1.9192505938,-3.2891871435,-0.6354805346,-0.3527927005,-1.0389857713,10.9450615356,6.2901934983,5.7352128461,0.161370739,0.475045109,-3.346458836,0.1737201479,-0.9200167124,0.4253276753,0.1413913649,0.8284831256,-0.8388224929,-0.4294469745,0.408463833,-1.5792401942,-0.2433301866,-0.5401575078,-0.1557608827,0.3454904348,0.5805739467,-0.4632033679,-0.551339609,-0.6657588286,0.4550491733,0.3357998306,0.2344885856,-0.8226729645,-2.3303432124,-0.0588829422,-0.6920136622,-0.0518979707,-0.7909614029,1.18585126,4.1903223257,0.018208494,0.1190459696,-0.2654801307,0.5457689248,-0.3834296486,-0.8332648779,-0.9164604864,0.8191683327,0.4827108509,-0.008711281,0.7888966584,-0.7605406263,0.7753200402,0.5440138943,-0.4520911539,0.0850110409,-0.9541731022,13.3216561971,-1.0335564746,3.6224359045,0.9962309333,-3.8423466627,-3.0002783621,-0.3105894557,1.8359015462,-0.9741552447,0.5368004207,0.1857661005,-0.6145779048,2.260924703,0.9485098627,1.260783553,3.1117274303,3.6690133332,-8.0757116631,0.9273084732,-0.685149052,1.5160351036,-8.5090814782,2.0001326445,-4.6968873483,-0.6450667985,1.5962498442,1.3929775206,-6.4889241417,-0.1810140191,0.3332490536,-0.6723865846,-2.3724663752,-0.8665124696,0.4201957784,0.6683478605,-0.9496469817,-1.7334942082,-0.6784195405,0.3679515695,0.7932959875,0.1748580798,-0.6751927352,-0.209260068,0.0826808173,0.0275144735,0.4458754757,-0.0657857797,-0.1983321487,0.0732626659,0.1601317172,0.6927816831,0.2160074668,-0.5945591193,0.4249058394,0.0263390215,-0.9718970196,0.7238672001,-0.2966517219,0.2155146037,0.3378757559,0.4752149412,-0.7253890294,-0.2356706954,-0.2171032461,-4.4689055876,0.0415486139,0.3752281873,-0.2406391285,-0.1479014191,-0.9990811063,0.8215319225,0.0333910959,0.7139749916,0.4753728721,-0.4052880481,-0.8917626114,-0.9841652084,-0.7490903588,-0.3570653139,-0.2785371371,0.5466752227,0.4396724301,0.4087654201,0.6140478068,0.0429924534,0.9169280191,0.6873769619,0.226452639,0.4717964139,-0.6670074965,0.4245290712,0.1829195499,0.8340031034,-0.2331157238,-0.5300912887,-0.3848609018,-0.2649779051,-0.4573298152,0.7310899363,-11.5512456648,-0.7609101853,-0.3776219708,0.239545913,0.2397498108,0.0072981026,-4.653747418,-0.3230822558,0.4090765343,0.7371067316,0.4392340479,0.7103869248,0.4630125945,-0.8481116101,0.8584287926,-0.6748738976,0.4859625533,-0.6368222309,-0.3123427694,0.4222789336,-0.6537907278,-1.0124325317,0.1202427431,-2.9347170355,-9.8837704689,-0.3483176531,-1.405824058,0.3863147243,0.701122824,-2.3429818026,-3.1182003362,-0.8904441685,-1.0028335631,-0.0357311501,-0.5851130492,-0.5918824973,0.7042536825,-0.4379281986,-0.1137107994,1.7856557071,-1.3357441202,4.8763952123,-19.3757157482,-0.1912153825,-1.1709603737,-0.8369932663,-8.7867082997,-3.2444104891,0.3524144457,2.7986052394,-1.9676542806,-17.8331535505,0.7511298381,-0.1334824605,2.359139698,1.2333511472,1.220647749,0.6650469965,-0.1952101901,-0.6519802486,8.3175792045,0.4056674256,0.6183596405,0.5148843939,-0.2203816588,-0.4086330586,1.2194619984,0.1467387544,-0.335252453,-0.6996449834,0.8374447488,1.7488091993,0.1190574014,-0.3908158096,0.7821341004,-0.2721897986,-0.1889489931,0.0767125815,-1.0071962729,0.1141510751,-0.6158089883,-0.5003758404,-1.6440254498,0.7016443319,-0.055973562,0.9982396024,-4.0793303866,-0.7883413208,-4.6007429175,0.5039601929,0.1031323178,-0.080668632,-4.8731044631,0.4406050102,-0.7162043013,1.2231078979,0.7192034723,-0.9459751184,-8.4747783117,-0.6117753059,-0.0997271565,-2.9480463307,0.3295570997,0.0003345238,-0.7394799313,1.4577735943,-7.5853063341,6.037998285,-5.9696375224,125.5150962085,0.3879637634,-1.6136171756,-0.9527153131,3.8692041063,0.9375453811,0.3212138207,-0.1897514139,0.9130205394,-0.9440478253,1.7500257241,1.8050035964,-0.1075845602,-11.1271027129,-9.0123519183,0.6461724945,-0.1287735184,1.7462169712,5.645421643,15.5518019226,-4.7919783081,-0.1526011821,-3.7399370748,-11.2372328806,-14.9490973208,0.0221163435,-0.2159263488,3.1091303759,-9.7363757256,47.3161790237,0.3155949406,-0.802222087,0.2071670163,-0.3213441242,2.5550436834,0.0451574399,-0.201062958,-0.9480025822,0.7379876866,0.4253120195,-0.7921641241,-0.100103336,1.4590091299,-0.2285817265,-0.7647881017,-0.2620982876,0.1817249104,0.4527649594,0.1264927678,0.5952515235,0.1756685173,-0.5057170687,-0.5159796556,0.4637816518,-0.4216027584,-0.1617735435,-0.1782949926,0.2986140648,0.9295998633,-0.6939380741,0.1982488049,-5.0416232102,-0.488955301,-0.056240056,-0.6088310021,0.1669408114,-0.5105592694,0.0478254152,-0.6621809859,0.229968834,-0.6819253199,-0.3285314338,0.5751158751,-0.6058489138,-0.3444050084,0.2312918216,0.7837187526,-0.0970953363,0.5477766414,-1.9733084071,0.2691786845,1.1557861107,-0.563589001,0.6366457287,0.8303483155,-0.9131766577,0.585165135,-0.1472036444,0.381795018,0.1117464557,0.0613685104,-0.0992827413,-0.9664485373,0.5583435371,-4.141470452,4.1566859871,-15.5749590313,0.0071247817,0.772957092,-2.4977001726,-2.7775210725,-8.1647683371,3.8157784373,-0.6203284253,0.6158739312,-2.6533479525,0.7858262228,0.2705308954,-0.2884885498,5.0885825994,3.1921433478,0.3476119027,0.4582818104,0.5047200823,-0.2355833105,-0.4856709956,-0.7630039129,-0.1602434055,-0.4420961334,0.6904515171,-0.3973727829,-1.9170588967,-1.3271848928,-2.6044804567,3.9582338543,0.7193116916,1.9965976156,0.6415360333,-0.9873307489,-0.9370518856,0.2517957489,-0.0619967596,0.7596730883,0.5440377026,0.5271135123,0.5709119394,-0.1426590593,-12.834200538,0.9082524804,-0.6264822062,3.3021090839,-0.0740937404,-27.4321160722,4.8409169817,0.6968545568,1.5180586421,0.7579139384,-4.4178041663,0.0840522274,-0.4766369283,-1.0283498292,-6.6649768099,-6.6798919862,-0.7695897713,-0.5233196996,-0.3999776944,4.50833719,-2.1162232815,-0.5730977424,-0.7166484867,-1.0189546475,-0.3290580535,7.1539041544,-6.5148282401,2.1229581184,5.5954847668,-0.2140679632,-1.256586809,-0.0359233726,-0.6385424685,0.0562532093,0.4976559711,-0.2575011157,0.5627193812,1.7711495195,-4.2064603156,-3.939755451,8.1178685656,-4.392659158,-0.2235206177,0.4783107859,-1.95748481,2.2282384024,-2.7619836555,3.678735606,-0.7353976107,0.7023309106,-1.0582324076,3.669789534,-0.1779663639,-0.5086400227,1.861336094,9.3226272717,-1.3663395936,0.5934778672,-0.5996179886,0.8174711414,-0.078603187,-0.528012186,0.6851355856,0.9586367556,5.2560339159,-5.5000778203,-0.562349358,-1.7400071473,-1.5161785616,1.2210926222,-4.2325284396,2.0710523216,0.7786710654,-0.9538792739,-0.7313248078,-0.7817099606,0.7673415684,0.5924380584,-1.1178159362,0.1348881669,-2.021892895,-3.4844705018,2.1864827346,-2.4095086169,0.7081118225,-1.7596776531,-0.0182937157,1.8716687734,-3.9488026311,0.917496914,0.7044160631,3.1239341872,-0.3026969031,0.5958596713,-0.9070466449,0.7781081616,-4.5693335607,-6.2231372403,-7.1922216208,0.4458528326,-0.4912051955,-9.2536066528,0.5227946782,-0.0686774611,0.9192859551,0.2101915082,-12.2344943456,1.1684468603,0.0545196205,-6.5056369127,1.9511935984,4.8451131269,-0.9434406297,2.9937940794,0.7579318833,0.1887828956,-0.3882752759,0.1571072031,-0.2397204137,-1.0703231147,2.9239944215,-0.8300893005,9.661971589,-10.3266699769,0.8576765385,0.7291831066,0.7893161814,16.094427565,-8.1217061358,4.0245853353,-0.9932069899,-1.3377167664,2.7442602104,-4.4087278803,1.047070499,0.5760812161,-0.8545044613,18.3676408242,-1.9644988698,0.6607478634,-0.865892304,0.9378148226,27.1199439797,0.9979053283,0.6619780371,-0.3386927093,0.5345892696,1.3464482503,-1.4448663331,-0.3104092616,2.6963372168,2.0925059898,-0.4820786196,2.2173225139,-0.6088528677,-0.3598626107,0.7144192911,0.5366912827,-0.2617359986,-0.2417235918,-0.6393174103,-0.9264211584,-1.3307839933,-2.9319672522,25.949341739,-4.8972506019,0.6596183915,2.4825179473,-0.1942056535,-0.4740132261,-5.4062066719,0.1155416626,-0.7917766822,0.8057300564,-0.4412186543,0.5333130232,-0.5579861,-0.7285905839,0.9908616541,-9.769219089,-1.0851620106,-0.4187415985,0.1784187925,-0.4437792004,-0.8334955787,0.625326055,0.9525874602,-0.1122232538,4.4949891698,-0.4891527257,-0.4818793858,-0.2538929175,4.8054210163,-0.1023110162,0.2323516218,1.3822334239,-1.002409229,-0.3233066006,-0.2889637845,-0.2060988734,0.7095127987,-0.9555840782,0.9491156414,0.6036068105,-2.7370255991,21.091323835,-1.0584990748,0.8723340369,0.9998418815,0.5752463335,-4.2934608417,3.893792807,-0.6938775367,-0.0792624915,0.1530199781,5.1959313172,-0.5040013486,-0.2771481049,0.4509970113,-0.9073335201,-0.1051056716,9.8841155511,-0.8634586874,0.7714305986,-0.1473853343,0.3706747438,-0.1412750533,0.5621935129,1.9642882429,-4.0861698351,-4.4608035502,-3.0238045767,-0.6948629977,1.5006478575,-0.8521195832,7.9395930996,-4.6558038346,-0.3821913265,-0.6210936035,0.4725330262,-0.3476687198,0.8486898587,1.4938012312,1.7802072787,0.2146993653,-0.1333392036,-12.7768859201,2.4655365211,-0.3685907001,0.901938536,17.1922556756,19.1466290187,-3.9370651549,-0.5667183453,0.864798516,0.2125209297,-0.3393853305,-0.2385559343,0.2852093965,3.9865359954,-2.1200674516,36.0912029447,0.2973376087,0.8631129432,0.2814696534,7.2350239754,0.0686204706,-0.1516229205,0.0797229669,-0.6849706492,0.0546418601,-1.2580576179,-0.4702260369,0.7573948525,0.4137700783,-0.7193356973,0.418265085,0.3728866485,-0.4152825941,0.8886002809,-0.983414279,-0.3421416633,-0.895268883,0.0222594258,-0.2999974235,-0.6540049213,-0.1473745634,-21.2587489269,0.4255514872,0.1294800216,0.121408399,-0.5724456326,0.5698126126,4.9145325204,-0.2602191983,1.4695902937,0.375840295,8.7021044387,-0.8821184286,0.2822767642,0.7352187618,0.7869024926,0.9395608924,-1.1882021586,0.2966464876,0.1433701102,0.4971779223,0.968316748,0.9014269402,-0.0581197268,-0.8125972903,0.8584872939,0.6617123372,0.5860231828,-0.1592248042,0.3707487877,-0.0229199486,0.3321446157,-0.425185825,-0.3645934879,0.2448337712,-0.5469085371,-0.9040711122,0.1020411278,-0.627992442,0.8348760663,-1.0768745162,-13.2086216446,1.0492222969,-0.4026391868,-0.2544368828,-0.3345949271,-0.0827488693,2.1976573678,5.1945708822,-0.7366238198,-0.9681669439,0.9925783887,3.7784191115,0.5882390218,0.6549767534,0.5802931597,0.385952503,1.9749155232,0.4524480338,-0.7692069978,0.2294501248,0.2474416596,0.3330797359,0.5243669177,-0.670445593,-0.286554593,6.5382491734,-1.3518005411,-2.9021537104,0.1547291794,0.2459282897,0.5963619505,1.0642996279,0.246327856,-0.6883682501,-0.7267439747,-0.6060557424,0.259978577,-0.5310487005,0.22230315,0.7000826409,-0.80701489,-0.0801635267,-0.2816293563,-0.0090290803,0.8053698082,-0.3426983898,-7.4060848059,-1.464899356,-1.2266688755,-0.1944555664,2.4453550811,-1.9171144715,4.9695344771,-1.5175596784,0.3446576499,0.8177614471,7.3144621696,-14.6057545823,2.1509686291,-0.8383387299,-0.5349696536,0.883922808,-0.8803360821,-0.0985749013,-1.137685676,-0.317645869,-0.0039684537,-0.0286647487,-4.5039736655,-0.3858931933,-0.1919218995,0.6952366318,0.2076646309,-0.2595209423,-0.3956207531,-0.7306830844,0.0851655224,1.0223911941,-0.8759311361,-0.5848265392,-2.8902564642,-0.1681575596,0.3604239705,-0.2442304788,-0.5265421185,0.4541516106,1.7785655195,0.9190115852,0.9611077255,4.7807600661,0.6933550396,-0.5570015522,-0.4054352354,2.0742922516,-0.0977801393,-0.7959238271,-0.8694202239,-0.787483101,0.4488299925,0.5374203477,0.4820520261,-0.3019959178,0.4929370774,0.6507591059,-0.6028548952,0.8918750994,0.5602364547,-1.2981592657,-1.9079788006,-2.0332209171,0.3910076446,2.3849792682,-1.6960867023,-0.2344240706,-1.0112370396,-0.6651521491,0.8182790994,0.2972785566,-0.4842557127,-0.2523338024,0.7244143585,-0.6601868352,-0.9387700513,-0.7991565764,3.3778084399,-0.9171847777,-0.7711054272,0.0413072035,-3.4275731945,-2.6151814634,4.3935122163,-0.4609420055,-0.5878315514,2.645648732,-9.1359909602,0.8277937801,-0.0169729251,0.5424047916,-1.3257534751,3.7657632447,-0.1878662512,0.4851128205,0.0983119637,-0.3783419372,-0.9131681862,-0.4084077199,-0.6559909845,0.2180868043,-0.0103280713,-0.3154745866,-0.5194549869,-0.3757118503,-0.6334189953,-0.8841585054,0.8892471489,-0.2029825321,0.7797257091,-0.3898551146,-0.2638505032,0.1852883396,0.1550210362,-0.1671453691,-0.9489103889,-0.1870715337,0.5639966569,-0.333758895,60.65140355,0.4361499611,0.0377539376,-0.6080266071,0.5513364607,3.9083197421,-0.4917704256,-0.2738240251,-1.3495041784,-1.9470442395,0.0992302932,-0.8317964561,-0.1581873607,0.1795344023,2.677775781,0.9510290707,0.4540647117,0.5748786534,0.1170585572,-0.3987356931,0.9091369212,0.397228725,1.1539605335,-2.3266436409,-0.3185928879,-0.4540253998,0.9760815861,15.3802330608,0.1842094775,-0.1866956365,-0.5743223404,0.760798117,0.9922100071,-0.0550385103,-0.4007298999,-0.1492437889,-0.5848505253,0.4854790281,0.5512478151,-0.0232096942,0.6856375001,-0.5637127757,0.8914152076,-0.2537875044,1.428149118,2.4571882617,3.4772634659,-0.4339924536,-0.5902602782,-5.0228966688,-1.851126868,0.9628094411,0.6859290133,-1.8991213287,-0.6700641002,4.7657704085,0.3396902947,0.0306214872,-0.3879120998,1.3009950759,0.7889435919,-0.9047900111,0.4577074776,-0.1459251457,-3.6571416795,0.709216123,3.3391223651,0.4373816993,6.1667801757,0.8657557565,-3.3121928794,1.0148290549,0.5539061333,0.4736757704,0.6984391545,0.7994507367,-0.3268647758,0.1452068046,-0.7537358168,0.4961692854,-1.5923034661,0.9908729912,0.3395750524,0.1968585994,0.8168614136,-0.6244599687,-2.9884330842,4.2232198946,0.6713886995,0.6812177256,-1.5234786056,3.4118667674,-0.6881770514,-0.9244196573,-3.6637045021,-1.7331044922,2.8626782697,-0.9794688786,0.8578966669,0.82864957,0.664486038,0.5273841975,0.8468766294,0.5308644051,-0.5358088612,0.9536772639,0.6305395461,-0.0991584311,-0.035407598,-0.7966405662,-0.2263998162,-0.5684957136,-0.2861846187,-0.4795004683,-0.4958905777,-0.5339947695,1.0303796629,-0.6799500604,-0.1752790301,-0.8427961251,0.2896883002,-0.3150198372,0.1454036759,0.4197218307,-0.2251460204,0.8299103906,-0.7784816835,1.0721440322,5.2637600067,-0.3537613793,0.3580927824,0.9415792282,2.3831820833,-0.8044608742,0.0872379658,-1.0365235677,-0.7441606559,0.6368837977,-0.3455995847,-0.523411541,-0.4634792483,-0.428888002,0.1335751834,0.5474043433,0.2721749199,0.7036230363,-1.1316462955,0.141290581,-8.0556937027,-2.0198664935,-17.4873304279,2.6445808791,2.7986820298,-2.5725683816,-0.9470970307,-0.9410928438,0.580638903,0.1840451172,-0.5243285709,-0.2149081621,2.6522194996,-1.3642356828,2.4270827258,-5.2003818782,2.1104594569,0.4093788515,1.4464884315,-3.650044836,0.1780183342,-5.1573498093,0.3137912859,-0.6640651346,-3.7584947396,1.9687907065,-0.2448011963,0.0698341453,-1.4941213103,8.6401796928,-0.6661418514,-3.435832534,-0.7166891665,-0.6614228077,-0.8804594588,-0.3532474242,0.0155349778,-0.529934124,-0.9158155402,-0.8738106067,-0.3411839691,1.1199235824,0.7886109487,-2.1302188293,-1.1778100055,20.1734374584,0.4987681725,-0.1188020431,0.7892747573,0.6885470492,-0.33119365,0.1324678259,-0.0264881223,0.486854224,1.7664640839,-1.8985683,-2.2973804491,-1.3726010547,-0.1574505582,0.36873551,1.6377046632,-0.5763941064,-4.647276686,-0.3563549991,3.3094792439,-3.0764505853,0.1383617074,0.398459757,-0.5184305466,-0.902224168,-0.7306911801,-3.4491832645,-0.7459137528,0.4979231281,0.3751381585,0.0768021416,0.1710380091,-0.0880748663,-0.725232861,0.9607628808,-1.0868355255,0.4440438267,4.4251299477,-1.2065305321,-0.7418285433,0.3152476629,1.8203259809,0.3833195899,-0.2147100097,-0.7951952457,-0.9388509945,-0.4483031226,-0.3636493049,-0.0768055238,-0.6760226218,-0.9653466749,-0.3032474575,-0.2780096968,-0.1359772973,-0.0635488113,-0.6186852284,-2.2517051944,10.0490062701,0.1877954054,0.7947646015,0.2714804002,-3.1515926989,-4.4073221944,1.0201151842,-0.2387487233,-0.9350506934,0.7098932066,-1.1862357246,4.3747272405,-0.8501329924,-1.0360319085,-0.6968343164,-3.1996473844,-0.3059924392,0.147793788,-0.2792842792,1.1846819152,0.6076173795,0.7202969879,1.1925976573,-0.706545555,0.6346442931,0.8345183349,-0.1390235695,0.7275688691,-0.8159518766,0.4743133145,-0.7885864887,0.3976197538,-0.8413257682,0.3298067782,0.701939823,-0.7924746601,-3.1176306016,-0.1144210433,-0.4310258792,-0.5394600311,0.004368179,0.8267500498,-5.7908242969,0.2657742516,0.1310081847,0.4121844119,-8.0650837803,-0.2987058937,-0.7389858699,-0.7130627454,-0.9245004243,0.253618552,0.1915043844,0.5310928372,-0.1089117551,-0.0627978741,-0.4676598104,-0.5088939301,0.5764677206,0.8649648235,0.7435521932,-0.485962827,-6.4099896414,-0.7609794282,-3.2930301529,-0.0459471566,-3.0854017787,-0.5706141514,0.7783998158,-0.0795906265,-0.290659154,0.7821943906,-0.6736063229,-0.8118336578,0.9490085918,-0.8287436052,1.8359720673,1.0913209849,0.6935061805,-0.6017304387,-0.7631947586,0.7943342806,0.9478281871,4.099002082,-0.0282740672,0.2072309415,-0.3995614749,1.7158811171,0.3964983375,0.4202220176,1.5504814953,-2.6876446692,1.1410937153,0.0768476624,-0.9512506276,0.0540230964,-13.8161344762,-0.3509054583,-0.8996426672,-0.8707216703,-0.574339276,1.2002187975,-0.0240187424,-0.4009293774,0.6442960875,0.9769908324,0.6207429405,-0.6332379341,-0.2234955036,-0.1416634903,0.2729281116,0.3245355099,-0.3193438554,0.5035766615,-0.8434191612,0.6769623914,0.1376717894,-0.0094782529,-0.1299479377,0.7344057215,-0.0182459341,0.8684937867,0.4485156441,-0.5828833141,-4.6110423589,0.5009136039,0.7491207777,-0.7714262413,-0.3255289871,0.3875552837,-0.3635975762,-0.0490096464,-0.2914277766,0.0085587639,-0.4960101125,0.8258028085,-0.5040943321,-0.8955749371,-0.6284476329,0.2262651396,-0.2942837742,-0.1535157023,-2.8154528789,4.0201465177,18.9765563552,0.5502554482,-3.2877518438,0.9548642326,1.1634546403,-1.5334267963,0.3338496136,0.4421161043,1.6939199991,0.7580751,-0.1980138756,0.8542220709,0.178190454,0.7317279768,-2.8637007881,0.0674510096,-0.1310846463,-0.0870395867,1.5438475943,0.4075423629,-3.6782060002,-4.0043086459,0.3335256573,3.4089896181,0.8429700292,0.0480647895,-0.4572098154,0.704846843,-0.0297786923,-6.2754515454,46.0517626946,0.4946913731,0.3353226089,0.8124107772,-0.0745864055,0.8186144086,0.2222425783,0.6770458535,0.9112714248,-1.1670240036,-0.4021363786,0.3373497947,-0.4563463257,-0.0388377992,-0.1249784841,0.2551764983,-0.6938638296,0.4927592029,0.3359417097,-0.7938023709,0.1321899907,0.8291229453,-0.7956166579,-0.129998768,-0.3036957991,-0.8503254162,1.7499230657,-0.9256085383,0.7444090674,0.001816183,0.7893711999,-0.16980732,-5.8297070777,0.7504798154,0.4669122211,-1.3813262269,30.4581153006,0.5859788324,-0.2623534702,-0.1883020845,0.2060348022,-1.043159003,-0.7694715058,0.2342361087,0.3608547027,-0.2312342973,-0.669092551,0.8169877212,0.1969432464,-1.7562259239,-0.6521613692,2.0959524326,1.099660903,1.5835868182,15.3697816136,1.7732127745,2.5245060042,0.3069434721,1.0274309591,0.8386990096,-0.0553848848,-0.8430954492,-0.3517027413,-0.9024116008,-0.5430619613,-4.7273967398,0.729679348,51.6360091047,-0.0217801648,-0.9491258524,0.6871134433,10.9685022187,-7.5876376795,-4.4780138418,-0.2816633812,-1.390201457,1.3208525655,173.5865260158,0.7499092123,-0.3591935827,0.9465503687,0.3244153678,0.7483520942,-0.2493832526,0.3318856644,0.7761817238,1.8745167111,-0.6177120306,0.6941220405,-0.5241834966,1.1970143115,-4.0406882831,-0.3054919771,0.8188136229,1.022686636,-0.3902497536,-1.6043807763,5.6302213421,-0.8677076086,-0.429746421,0.590093882,0.4389330323,-0.3112019853,0.152216707,-0.0362530365,-0.4541426944,0.3454293213,5.6099393086,-13.0883850963,-55.6042597175,0.0233028284,1.0616799484,-8.5905026284,-11.4077566897,4.4263765163,0.8506954619,0.6545256582,3.8800722779,-2.1140175658,-0.4113068527,0.2459744398,-3.2029689717,-0.0378262985,-1.2735230151,0.2888653631,0.2476686254,-0.5431767579,0.771638759,-0.719672114,-0.3741299851,-0.3361794107,-0.9335220407,-0.3341940099,-1.579916555,1.5855007039,0.8744357471,-0.0005021811,0.2289707086
   0.8167014893,-0.3790729402,-0.6111726182,-0.2196170744,-0.7233427821,-0.1936968008,-0.0608397496,0.4333225055,0.0832984999,0.9846929002,-0.2567513794,1.290690841,-20.7968839718,-0.4147835073,-0.314224309,-0.7629330524,-2.8372726824,-5.1894483128,0.2348206598,-0.9683059158,-0.6645934092,1.6421713141,0.4876325888,0.2290051781,0.1415130825,-2.5433621674,-2.0644075907,3.0385278335,-0.8736386513,-0.2967516867,-0.724403083,0.573673268,0.6192307855,-0.6296348251,-0.0005631955,0.1026742677,0.1235536681,-0.523368442,-0.5742317125,-2.3528297887,-0.4373079738,0.9902112701,0.4276678926,0.2048465221,0.2099788258,0.6292286055,-0.8408897067,-0.1301063492,-0.1646741861,-0.0698039451,0.7433710091,-0.8437383668,-2.5429662779,-0.0518076443,-0.5263864489,0.5387750897,3.2469402399,-2.7037147008,-5.3830539321,0.4164808604,1.0042850283,0.3052589684,14.3305056944,0.155361131,0.9577100305,0.2442722797,-0.6157859396,-3.0232538089,0.0865274095,-0.7265529156,0.8096235627,0.4684479216,0.7016829468,0.4639518707,0.5620406157,-1.8419730289,-1.1199816958,-0.206742098,1.2491335066,0.5372710122,0.0979869948,-0.8113820099,0.583333072,-0.0352343435,0.8597778722,-0.707772544,0.4356808565,0.8855119771,0.8435699887,-0.7230321174,0.6030739335,0.1142308175,1.0215369807,-0.3492489961,-0.5565370198,-0.1178229177,0.4419288423,0.019989018,-0.3974337852,-4.9695044106,0.3662370301,0.9324333986,-0.5399829515,-1.8081996534,0.8900219216,-0.0705213058,0.3031646978,-0.4922601352,-0.491139922,0.3286550727,-0.1151637561,-0.8492414746,0.0351641367,-0.6697584106,-0.5655881211,0.4655187118,0.7590728413,1.1832832525,-2.7285634066,-0.2573087866,1.8503859096,0.1112169711,-0.767175314,0.988441105,-0.4243440971,0.5156615833,-0.3288356335,-0.0676929555,-0.4434045148,0.1008016119,-0.5940920361,-3.1716940918,0.1868696302,10.2702646254,1.8794239205,1.123993982,-0.5740417659,1.0972133137,0.0645683949,-0.3423578734,5.2046176369,0.5358882451,0.616503451,1.0079892705,-0.5818707037,0.6179168022,0.2440310266,-1.0931367473,-0.4802233742,-3.1161105499,0.0367576662,0.1025809213,0.4191763841,-0.6095943338,-0.3572976767,0.847874327,-0.5758583641
##end
biasActivation=0,1,1
[BASIC:ACTIVATION]
"ActivationSigmoid"
"ActivationSigmoid"
"ActivationLinear"
