encog,BasicNetwork,java,3.3.0,1,63578023858410
[BASIC]
[BASIC:PARAMS]
[BASIC:NETWORK]
beginTraining=0
connectionLimit=0
contextTargetOffset=0,0,0
contextTargetSize=0,0,0
endTraining=2
hasContext=f
inputCount=36
layerCounts=1,151,37
layerFeedCounts=1,150,36
layerContextCount=0,0,0
layerIndex=0,1,152
output=0,0,0,0,0,0,0,0,0,0,0,0,0,0,0,0,0,0,0,0,0,0,0,0,0,0,0,0,0,0,0,0,0,0,0,0,0,0,0,0,0,0,0,0,0,0,0,0,0,0,0,0,0,0,0,0,0,0,0,0,0,0,0,0,0,0,0,0,0,0,0,0,0,0,0,0,0,0,0,0,0,0,0,0,0,0,0,0,0,0,0,0,0,0,0,0,0,0,0,0,0,0,0,0,0,0,0,0,0,0,0,0,0,0,0,0,0,0,0,0,0,0,0,0,0,0,0,0,0,0,0,0,0,0,0,0,0,0,0,0,0,0,0,0,0,0,0,0,0,0,0,1,0,0,0,0,0,0,0,0,0,0,0,0,0,0,0,0,0,0,0,0,0,0,0,0,0,0,0,0,0,0,0,0,0,0,0,0,1
outputCount=1
weightIndex=0,151,5701
weights=##0
##double#5701
   3.9390477728,2.0694805299,2.242363389,0.5430189627,-0.4318682293,6.4954625845,3.9431737191,0.8874857124,-2.2307000666,0.811367149,-1.402732005,1.5071806228,-0.8542319113,-2.5893928846,-0.0640748791,-3.364669653,0.3905787604,-1.4758584045,2.491499556,-0.5502553443,-1.231364257,-2.998510711,-1.1538126667,0.454386857,-9.1493840078,0.5606232788,-0.8260366665,0.7616177923,1.3430277024,1.1515830087,0.3760136511,0.5816101719,-16.5173950911,-1.1280141272,0.5886715804,-2.4503072504,-0.674838178,4.2521235877,-0.5816513242,0.311495934,-3.2915220364,0.6415111124,0.6908283663,-0.8495700141,-0.0993998304,-0.2510792911,-0.5793411295,1.165038772,-2.7128743728,-0.586067837,3.0328764621,-3.2995808277,0.7912597177,0.1939035647,-1.9192477217,-0.9517040214,-0.6881840261,0.8867562353,-0.0594496684,-0.7127019793,1.1919152778,2.9471419395,-0.7262575156,-5.111155963,-0.5962492267,-2.4371736768,-1.3109643924,-0.214040104,0.080454386,-0.9933613408,-0.4732903287,0.6259644659,-0.6879276774,1.080609534,5.1723248653,-1.3751730344,-1.5011821852,1.7779759445,-1.8262161072,2.0240623602,0.8280405084,-3.5918138314,-3.887541844,1.8574096412,-0.7278928797,-2.1372685089,1.4031028466,0.7870876803,-0.1561901328,-0.5392476357,1.2991389342,-2.4767268174,-2.0309321119,2.1235395301,1.4532081603,-0.5362796517,0.3510505926,-0.6376536055,2.9892314233,-0.7089948472,-1.769339587,0.4483503118,-0.8726948898,-7.0974884377,0.8603974052,-1.1219413026,-0.6692320723,0.9773146843,3.8249254938,1.3281801565,1.4909041169,1.4605281146,0.3255719365,0.7194593262,7.7944422043,1.5285457833,1.5614530668,5.0724629319,-1.8874903454,0.6911633177,-1.8591969635,-2.8773655353,-1.6156032252,-3.6032124234,-0.756528349,-2.3751301016,-0.1929972797,-3.7085972052,-1.577560528,1.809752594,7.5125953252,-0.507413128,-0.9141584269,-1.7151759996,0.2174474487,2.645065746,3.0053475693,2.5190725955,0.3276941206,-0.7616025759,-2.0595449232,0.8848836422,-1.6033232509,-1.1604369205,-0.0034290016,-0.2864474438,3.6501371364,0.7291543722,1.8008855454,-2.5161501133,0.5558179635,-3.2103460856,-1.2910018496,1.6198134399,1.2523565796,0.3673948434,1.440085591,0.0300687293,0.192156608,-2.3731645987,0.1383178603,-0.9767239823,-0.1786895736,1.2865918518,-0.0883643775,0.5853414843,2.3131518669,0.0317981869,-0.4623701274,4.2376105113,-23.2011828543,-0.6634767976,0.610372168,0.3639943895,-34.0597806788,-2.4623585547,0.2433705839,-0.9663827732,-1.7586248379,2.3163423715,0.6903260015,-0.812033899,-0.7567377949,-3.5309827204,0.7623055174,1.3058553015,-0.9909808477,-0.9961352409,1.6845696618,-10.2770665648,0.490292597,0.6069232817,-0.7912166753,2.633347718,-3.8932110516,2.7497269986,0.9600856429,-0.4950897192,-0.2483529034,0.159731627,-0.9599113019,0.8009343264,1.2868475062,-0.6969929834,1.0143717959,2.5439101757,2.3334980696,2.7639305575,-0.8543501915,-5.6630337552,-2.8232738385,-8.620920614,-0.8217644896,-0.9426935259,-6.1198354097,-9.1892012994,8.1605258724,-1.0904729514,-0.0381999924,1.8174860864,2.6205509709,2.1596329133,-0.4343973431,0.7442157556,0.3984343514,0.3229934111,2.0419910617,-0.8452589011,-28.9867608694,0.3379266422,1.6301798835,2.183297534,-0.4736689731,-1.4346379073,-0.2110487031,0.9713051774,-0.1460197832,-0.1934475219,-0.2384561503,0.3816242815,-2.3231364049,-1.1652524802,7.599520584,-7.8200510881,841.362298418,-0.9647640837,-1.7956805442,6.3613885484,-6.7753674633,-4.5670808197,0.37412318,-0.6537660292,1.5920770847,0.1195985872,0.3911365863,0.0573179885,0.9952345959,0.1068111717,-1.137836115,-0.4338083994,0.9618634619,-0.6833414917,-0.942562245,-0.8619046623,0.3230113884,0.5782088314,0.6791868783,1.7539856068,-0.7972219003,-1.5027423643,0.6070669235,-0.9854310519,0.2067441122,0.7752573701,-0.1462226816,0.4149277289,-0.5608758909,0.7381478999,-0.2087050705,-1.4525508969,1.2987760946,0.9644438061,0.5802795764,-0.2451963773,0.7271998607,-0.2604225408,-7.3759008905,-0.4832898367,0.8169073743,-0.1109767848,-0.67385702,0.7237126369,-0.4434007115,1.0958016036,-2.5570711113,-0.1527278251,-26.2565944556,-0.8540019327,-0.2653362539,0.2879823396,-0.1283144897,-1.3022122065,-0.4724179742,-0.133757523,0.6315806729,0.6002829874,1.7159584709,0.57222221,-0.448363138,-0.1404715641,-0.6029401115,0.720984793,0.3336235666,-0.4806934896,0.7310306986,-1.2034743051,0.4668959626,0.7052025029,-0.3698715548,-0.8843983439,-0.7566372408,-2.8210477649,3.7482738481,6.8283314409,0.6955361607,-1.7350250562,3.6105328271,1.7498212679,-0.32145395,-0.1469653701,0.6902330516,1.3219162492,1.0000026305,0.4594762981,-0.4185411462,-0.5521989994,-0.248608622,-3.69600131,0.5352039943,2.9018689621,2.0888175731,3.3201281306,-2.8235905794,1.0021103304,-0.4500776855,0.7458240573,-1.008660171,-0.5793258648,-0.337121333,-0.1144503829,-0.3600639888,-1.8672664826,-0.2213711563,1.4709048317,-22.4022561444,-0.2414788458,-0.2918202892,0.7233225682,0.5313493336,3.0121309589,-15.37911004,-0.0410048203,1.8749926296,0.3038631741,-11.5174275174,-0.5910473325,0.0887295236,-0.2184150432,-1.7209173399,2.5024828381,-8.7820252095,-0.1489057081,-0.9836933424,0.9996961932,0.8081235127,-0.2771269075,-3.4354658691,1.3730346421,0.5173336726,1.320592261,3.3146044083,-1.1694948683,-0.6837052368,-0.0659359854,-0.3707792021,-0.8334565744,0.2103714566,0.7472820303,0.6837181529,-5.2799483094,0.5415404537,1.1024921796,-0.5059232051,-0.392223085,-0.6587610724,-3.2506850281,-3.6939537219,-5.9860823506,-0.7431145495,0.7710115346,-5.9655614192,2.9731539132,0.207271215,-0.4456941036,-1.7646990555,7.4231163647,-0.6152566124,-6.8540586911,-0.0079215807,-0.7762805053,0.0191442133,-5.8039146099,-0.3735162946,9.6094745806,0.2960230401,-0.1859280418,-0.2953738243,0.2221379451,0.7806131342,0.0802107561,0.0525227267,0.9221272352,-0.7623309877,-0.0335533399,0.1501004705,0.7396903071,-0.5372997871,1.1857514427,13.8443248456,-0.606054322,-0.6665623941,2.7857599073,-2.4515571925,0.9567128122,-20.0366455039,0.7767259757,-1.1861653099,-1.0548906909,4.9556001784,-0.7902006553,0.4039811499,-1.0504798943,4.8281039485,14.2116641766,-0.8355104602,-0.5569263769,0.6737949021,1.7117822736,-3.747338434,12.7462626546,1.2849682219,-2.1965048993,1.4141670857,-1.6184798726,-1.6880633315,2.3035563192,-0.2325164596,0.6027098319,0.0861542628,-0.4447485937,-0.2984915058,0.7821959294,-0.2999836069,0.9430786232,-23.5993458125,-15.98969317,621.6353449215,-0.9044919852,0.0002536435,0.526559377,2.2490563135,3.9051700352,-0.6524526065,-3.1136788058,-36.0612743146,-10.4665134908,-0.1863199887,-0.4723228819,-0.5242970116,-0.2349995429,-2.3972803587,1.1475258098,0.8013171758,-0.1163760262,0.0584477945,0.5463517368,-0.354385098,0.3330577096,0.5794354012,0.0513332306,0.7815776903,0.0516646277,-0.5550268834,0.0596194087,0.6891660406,0.5323999525,0.3035650579,-0.6226325971,-0.5747382511,0.4129401536,0.6984693718,0.0166605523,-0.3889687207,0.1764084335,0.5660899503,-0.1222056866,0.2350240276,-0.6194543414,-15.7306353888,0.2456174517,-0.6908764494,1.7865245523,1.0193111369,0.7664992872,-0.6425445199,-0.242768533,-1.0780928495,-4.0420939179,-0.5495576964,0.0416072109,-0.5221793997,-2.5082023651,-3.8810896252,1.4450116638,0.0582143298,-4.2470601309,6.1867908106,0.0361617396,-0.8261521959,-1.398680651,0.5377432135,0.2408084806,-0.8126587424,-0.3661844946,-0.0540763862,0.9276009132,3.3523412185,1.2734440411,-0.3175109271,-1.7293746672,-1.204818326,0.5908652784,-0.7647007844,1.8410076316,4.6728890007,14.3309139143,-0.6131702976,0.9606816677,-2.8905051737,-1.3647785528,0.9860412666,0.1817101469,0.8762612528,-5.6701443877,21.8158101392,8.323404119,-0.7181133077,0.8134978325,-7.6548574758,11.9909802777,2.3077218678,4.774413816,7.3166923549,-15.6008571945,10.1560963584,146.2704274756,0.7321687674,0.7891428594,0.0994060633,0.2111419948,0.2285667304,0.0623064757,-1.7125239791,2.9935705072,16.4864687027,6.2554193144,-26.8901525332,0.982136871,-0.5419072861,-4.7178812305,8.2116797592,14.0690118396,-4.4158453291,-0.0762801017,-6.2407696713,-4.9652022456,4.0418231679,0.8967814248,0.5384392699,0.075871823,11.39838664,0.8769696328,-7.2016767774,0.6893789357,0.7272708046,-0.7707648224,-0.3760026996,-0.5467136147,-0.5803575426,0.0695248335,-0.4102937537,-0.8472553894,-1.0223016665,0.3176050107,0.4469234172,0.9149305234,-0.4707142094,-0.0689683145,0.4727309069,-0.3450348093,-0.2990486389,0.6054874646,0.0943328894,1.1353505423,-2.1143999343,0.19801891,0.7202991216,-0.5346756267,3.884307394,16.1611867655,-0.3761191747,0.3880545348,-1.9943537367,8.3050106101,-0.852144067,0.546740759,-0.3654084656,-1.6208794245,0.0056301632,4.7241329081,-0.5843386816,0.6139361644,-4.1435393208,3.9775422101,0.2274258014,0.5173284192,0.0917561511,-1.2564121086,5.4006955345,-3.0274111657,-1.5919255101,-0.1760686121,-0.5754778443,-0.4344423519,0.8377484923,0.7716459691,2.2777091994,-0.6171381202,-1.1444485078,3.2380767501,1.4051061937,-2.6857044651,-0.4539053913,-6.3809405982,-3.2043163965,-2.6424699207,7.2311625217,0.5382860673,1.8341596248,-0.5464495185,8.8611538749,0.5157926435,0.2852624782,2.2640700754,0.1983801194,4.7517883053,0.1104953184,0.4519653932,-0.0188667404,-0.0053403013,0.2364933259,0.0157094297,-0.3941899305,-1.1598822635,-3.5610104415,-0.2410066075,-0.522444729,-0.4653523629,-0.8222335839,0.603916218,0.9069648544,0.6335641093,-0.7925965601,0.3270802958,-0.1342049134,0.9330562251,-0.4044669951,9.2566547129,-1.9481355485,0.6414512944,0.9859568729,-0.2417073728,-0.291693081,4.8208114269,-0.9089990547,-0.328116886,-0.7817054779,-0.7259718008,0.8723196891,0.6405430053,-0.5037519737,-0.1567029796,0.44183068,-0.5115430844,-0.0350848627,-0.4463679716,1.894300091,2.6641382443,-2.7610887191,0.8777883575,2.1999859092,-5.0015181317,-1.3820755046,1.7909371829,0.4919835755,-1.8285875631,0.2021359989,0.3983206697,-0.7272601944,-0.6576320747,0.1942106292,-1.564046795,-1.3118230791,3.3850468103,-5.6127180612,-0.6613926653,-0.7691358979,0.5213091708,0.4322818126,-26.4133476155,5.4535803084,0.8375086262,8.6459796906,1.6495516229,-2.8721116859,-0.1522278287,0.6563126583,-0.4403184384,0.1912031264,3.3480124747,0.9684198715,0.6435619461,-0.4503937737,0.476653809,-2.6192586131,-0.0448485843,-1.7542627169,0.7859102618,1.1525882404,0.2130421924,-1.0497885632,0.2849165886,-0.1263465675,0.70627441,-0.1313148005,-0.3176082582,0.7574809282,0.0038800304,0.4656217236,0.7034827836,-0.524241078,2.6022460586,-0.158461317,-0.9578242758,-1.6007601142,0.3907158401,11.0775611213,-10.7862878102,0.749729812,-1.1091524105,-1.2618108295,-1.5099633916,0.2952778894,-0.160715804,0.473814004,1.3879758578,0.8436727386,-1.6047904409,-0.0465616393,0.1046473743,-4.2927588932,-4.093560456,-3.9553219684,2.6638121041,0.7361997256,-2.0222755796,-5.5477283576,-2.2963538991,0.0707172322,2.1459932835,0.9864925995,0.645403067,0.5665002229,1.9298241496,0.3281351882,2.0821733473,-2.2207187219,5.6738344929,-3.9961192048,0.9324307869,-0.5740689158,0.2118605847,-0.0821302772,0.6974887708,5.6002113435,-0.9050369635,-1.3818606966,-1.7241085396,5.0889422741,0.9639993655,0.3445661726,0.3368961611,-3.4503067295,-2.2390704182,-0.0773814782,-0.9734947327,0.9992585599,1.280940715,1.8607387528,-1.6366635907,11.5075181483,2.7488464709,-13.9289801987,-3.4489453717,-0.0281623361,2.8407097874,-0.265915334,-0.0429438977,0.1358890877,0.8951779244,0.6942641339,1.5057663156,4.3282436525,8.5202470884,4.8861698173,2.7845469752,0.6060435822,0.075304762,0.3671482699,-18.9387875388,-2.2917316396,-4.2787242091,0.3567959524,-1.8571747531,2.4186765149,-7.7446929434,-0.0800326845,0.9431135654,-0.5973184648,1.6024602212,2.5549840413,-6.7655184475,0.134167221,-0.049908181,0.631987035,0.4421836521,1.0003807938,-1.7194164117,-0.9292014902,0.7268331384,0.5981380899,-0.9717478535,-0.7367846621,-0.2353903791,-0.2135778919,0.0589355298,0.2764276269,-0.803016573,-0.6548872736,0.9322146888,-0.8470587804,-0.7894134582,0.6917237729,-0.784586009,-0.1189539764,0.4357106636,0.6585019281,0.1080619493,6.4880091492,0.7157132922,-0.1740645343,-0.1410536506,-0.2455305159,-0.8712926468,0.5279566681,0.2700868786,-0.2957564138,0.3652358911,0.9987342431,-0.5480162471,0.4097183673,0.3723452253,0.1186735416,0.7875287633,-12.1667125618,0.6832376364,-0.1622317006,0.564605097,0.7317800056,-0.7446716723,0.3447028133,-0.6464949959,-0.1168757438,0.4258961669,-0.5695897162,-0.8395758051,0.0450440402,0.4464167268,2.476513214,1.2571646668,-0.4588690477,-0.304968218,-0.9434919042,0.1906737613,0.5657408382,21.6131013476,-0.2442123877,-0.2944018689,-0.1224308522,2.7418350148,0.3684612995,-0.9463604185,-0.9995398088,3.7494202779,-6.5169663572,0.716449917,-0.9986309018,-0.1730251945,1.0194759847,-45.0976083622,2.250297161,1.3654847295,-2.6252144541,1.6213482317,-1.2549149053,-2.9425903754,-2.648804972,-0.019969351,-0.821220493,0.8615569994,-0.4065448808,0.4135617052,-0.8549098795,-0.129250238,0.5479979896,-6.3094298445,-4.0789472696,-1.4192811067,-0.1351007098,0.8368678726,7.1327488487,0.1076271168,7.8963897753,0.3843673008,0.5487771057,1.4114073628,-42.941548688,-0.8429914143,0.2063728726,2.7600573832,-4.9635640918,3.236851088,1.8667150608,0.5050182731,-0.9754421577,0.8573509577,-14.0371108533,0.6286058705,21.6500806047,0.8210728849,1.4053563635,0.0356663291,11.5512949459,-0.7796314044,0.1730365048,0.1866353037,0.5910510429,-1.8556593424,-0.3672789694,0.674514713,-0.1078176206,-2.6856523537,3.526392299,9.7019928984,-0.1761549564,-0.1478014594,11.619038081,-3.6230117155,-0.5957563598,19.1422482872,-0.2945708219,-0.3262745298,-1.6593083361,12.5911780322,0.4924633325,-0.8134973644,3.7096624138,-0.2260167156,-1.4169034934,23.0611811584,-0.5721295996,0.6429157202,0.8132643612,-1.6709626653,-0.2690715693,2.6891541467,-0.2239382071,0.0924642287,0.5210144583,-1.2631959679,-0.4964419856,0.7627650591,0.4070915314,0.5500077914,0.2809266735,-0.7102500998,0.1178901974,-0.7582328991,0.1531269497,0.2004789346,13.0879723894,-0.3988666099,-0.5925998686,-0.5386242334,1.4637286359,-0.3477621426,-6.4495269153,0.9120801799,-0.2975567807,-0.072043916,-0.3529806949,-0.9494223214,-0.3044903564,-0.7425494188,-0.9869019833,-0.7507222678,0.5156695288,0.3887478688,-0.1482084548,0.994940812,-2.9345153463,-3.3627311401,-59.3102913019,0.475454122,-1.5542378942,-0.7257083056,-0.8096710926,0.1039078076,-0.3276433698,-0.3253401036,-1.0208179196,-0.9919917881,-0.6786830647,-0.276958666,-0.0857733177,0.4383740326,-0.7415723961,-0.5869345562,-0.8729422938,-0.7884801011,-0.060066176,-1.9383679145,-2.1090213118,8.880723453,0.186265213,0.4194886266,-3.1299947009,1.7652457347,0.148156935,0.3496722082,-0.9022924387,0.3976346689,-0.8505097714,-0.496683719,-0.780804769,-0.2898124481,-0.6773386817,0.6980172285,0.7403854805,2.3405399983,0.9060548308,-0.4741005962,0.0471859103,-0.1013666909,-0.428673579,-0.3922814544,0.5224595589,0.8985458432,-0.5569575073,0.0333315229,0.4243049897,-0.8327824115,0.374348796,-1.0560119683,-1.0167133468,-0.1789755887,-0.1426448241,-0.9109015544,0.9164073439,0.2086238752,-7.2126611546,0.7648356053,0.634472111,-0.8609935827,0.0234817589,0.8705849152,-0.1610794985,-0.5174295012,-0.1650741404,-8.5386101427,-0.6187878057,-0.851524393,0.0451368607,0.4696202333,-3.609651915,0.0573945964,0.8958374562,-0.232992538,0.1686962313,0.6310597435,1.9846213934,0.8360970803,0.4075329719,-0.9280546632,-0.702783985,-0.4616334859,0.5931174543,0.1245251097,0.605720754,-0.7219327654,0.4963335287,1.7483821403,-0.0863660977,0.9448985029,-0.4020683089,-2.7363624847,-0.1739915921,18.2452763163,-0.2343361719,-0.5696333709,-1.0985855345,0.4733576369,0.0620008611,-0.1987711877,-0.4742439248,2.7836350444,0.4381316853,0.1358268218,0.4274570539,-0.8988274448,-0.9269279524,2.2979129556,-0.4569306082,1.1111178385,0.3622575169,-2.0624360317,-0.5904320197,0.3104213203,-0.338970839,0.7181756867,0.9508663384,-0.3791861735,0.0267060689,0.0542572286,0.0022065575,0.5694280865,0.782360532,2.8112214063,0.8253191422,1.4146914065,-0.6039523965,-0.8380983874,0.252774286,-0.3595053287,-16.0392102483,-0.2508946002,0.4742700797,1.1497594034,-1.0853385018,-1.0024858798,0.7788866608,3.3321315022,-6.0406792271,-9.6014240253,-0.1949604888,0.7263472964,0.0865564164,0.8534343933,2.7435705561,0.5595920879,2.3507086146,3.4680610338,-1.8476332615,-1.7148461608,-1.8707432866,0.7800634899,-0.0179596509,-0.2610898865,-0.8726314461,-0.5153961155,0.9687906298,0.5839061133,-0.07478375,3.1810097226,0.1817000041,-2.0142349301,-0.6627914123,0.6656371763,0.3355768509,-0.3923315155,10.2457340984,-10.7474096788,-0.8647577939,-2.6543941075,-2.7530478466,-1.3956117445,-0.6449614958,0.8127779746,-3.2875523411,1.9999827458,4.3347349646,0.1011843946,-0.9575804444,0.0442201164,0.4224629167,0.2067634625,-0.898995602,0.5479246113,-0.4321639954,-0.6046146261,-1.3541172936,-3.2248909709,0.0984694271,-0.4614538672,-0.8267101702,0.0376594497,0.177945063,0.1332504909,0.418815225,-0.5052515339,0.347609647,-0.2570054684,2.8009479637,-0.255896542,0.7981597324,-1.0315742171,0.5526312271,0.599917149,-18.1918681757,-0.2490709206,0.8420557688,0.4473587398,-0.5105226625,-0.1429189003,0.2262653789,0.1853266622,-0.1597172065,-3.7022014688,-0.3248732467,0.4894273027,-0.6347431637,-1.0111216779,1.3613982303,-0.6099275804,-0.7526503166,0.6748907252,-1.3990932024,-0.7800660817,1.3336602948,0.5300179001,0.2845429342,0.2272672992,-0.8319847026,-0.2973850604,-0.2876243004,-0.3223978244,-0.3548329367,-0.3337685342,0.224699682,1.3919999409,0.821377694,-0.3458190622,-0.2540009635,0.0420152151,-0.4619492106,-3.8760399817,0.5981130924,0.0258817693,-0.065392592,5.2787321859,-0.4177889804,-0.0085894424,0.2700457915,-1.5046799676,-1.234091435,0.3515161008,-0.1297344142,-0.7783539357,0.6184830799,4.3398302152,-0.4991959411,-8.5139310647,0.1788864992,-2.9623126988,0.2256890182,3.3936602078,-1.6038727393,0.0253206267,1.9715354057,-0.2020001314,-0.1268413214,0.4370659054,0.8059494482,-0.9101643648,2.4363937491,-1.8052825454,-4.8671339155,3.9329720853,0.4664294931,-1.6682014166,5.0928783612,6.6364837437,-8.2129331249,0.829668343,0.2628188939,3.7524073844,3.3363970842,-0.4502679387,-0.9750836817,1.0816741994,4.9678872921,2.0486140131,-1.7687595969,-0.1980473163,0.3624155771,-1.7038727918,-0.1069352712,0.5844126596,-1.6644024799,-0.0949262617,-5.1793770148,-1.3059874858,0.963643329,-1.0452122073,-0.0569677331,-0.324679249,-0.4051335412,-1.025840439,-0.391825102,0.3682810945,0.2072669983,-1.2382653477,-0.9765309266,-1.6536855574,-0.2384154815,0.8405375154,-1.0093481354,-1.1836635275,-0.7332554427,6.1251893327,0.9376187976,-1.4278561865,-2.3277341763,-0.9397454268,-1.0248900473,-0.2535297821,0.2319778882,0.0515796818,-2.8750235762,-1.5317751957,-0.01530645,-0.4555551515,2.2744248941,1.9867774072,-0.348455794,-0.0858714271,-0.7966923397,2.6162814126,0.1729519086,2.259435391,0.0576235102,0.1293752547,-0.7869311624,-0.7058964088,0.7012042253,-0.703405415,0.5314250177,-1.050754902,-0.1511166001,1.5825718946,0.3017115164,-0.7836308564,0.9957719203,-0.4491399703,0.7198330693,-2.4245908947,-3.7427221492,-0.0997306942,-9.4844995248,-12.1941376166,0.4105952879,-1.2896187434,-0.1726184344,-0.9753239828,-6.4823219835,8.4874855985,0.6144888431,-0.2376917737,-0.1419596708,0.8158363537,-0.5100798535,-0.8258979191,0.5197650303,0.5444962605,2.2643472446,-1.7527314694,7.3793524468,0.8568339227,-0.7225272497,0.9296260973,0.2496970313,0.4169016694,0.7580712714,0.4778012038,4.9253752554,0.1173259823,-3.8579556456,-5.6925946194,-0.5142410329,-0.5028448708,0.5584430694,2.9655754933,-1.7847791869,-8.7506565999,-0.8104560784,0.3767552201,10.0755071409,1.0131092819,-1.0258584862,0.7386497211,0.7288522532,1.5535357583,-0.4834210977,0.3395598711,-0.052768799,-0.9155636678,-1.5172733467,4.7493274924,0.7689840953,-0.8525216992,-0.5347640168,0.074664565,-0.143180928,1.4003376568,-0.0310297581,0.1520550145,-0.9988710945,-0.9524405263,0.023950824,-0.7336619997,0.1873582969,-0.9686887923,1.3027428666,-0.392663399,-3.20250864,0.5667666913,-0.4047473275,0.6352659177,2.3392669673,9.5151492337,4.8427992997,-0.6918715256,-1.6184102548,-1.0157474099,-0.7260197429,-0.4096128359,0.5529032729,1.7243960423,-3.4814835267,1.9082483071,-0.492329728,-0.8715461576,0.8088692331,1.0532402752,0.8199475125,-0.2657113723,-0.9757933707,0.0342022588,-4.4359287213,0.6667003225,-0.1309120498,-0.5605398338,-1.0144737828,0.6728054509,-0.3382923439,0.8587170791,0.2527961085,-0.4737555121,-0.4753353103,0.8913908642,7.0396287084,-0.7421420181,-0.7469476292,-0.9762469139,-0.2716797897,-0.6797302294,1.0703201666,10.0019144333,0.6536677944,1.591822105,-1.6327752838,-1.5970497203,-0.2100398769,-0.7733556059,-0.4931608281,-0.2730537726,-3.2664655345,0.4430599625,-0.2366568498,-0.3843941432,0.8889419931,-9.4519022531,-1.9275874431,0.0667087326,-2.0421790379,-4.1218892256,0.1972672735,-2.0804553443,4.633708663,0.7259922179,0.5490160422,0.4510632571,0.1611514318,-0.3277804208,-0.9739005021,-3.3731745244,-0.7681937651,0.4313556122,-1.5596151102,-0.0733141639,0.1894678311,-0.7240854297,-6.2382994266,-3.52810833,-13.25842145,-0.249650166,2.7854289351,0.1071684739,-3.1797216264,0.6583147866,-0.4889783484,0.9529593685,-7.1373465965,8.8090088253,2.0239333399,0.5491397276,0.2944708549,0.9376484482,0.4079409058,-0.9552079234,0.2919682408,0.7405309478,-3.1105076315,1.7278729393,0.0493462542,0.9856213336,0.592206224,-0.9169384717,-0.2617211967,0.2854493158,-0.7870958595,0.0017980819,0.6504863856,0.2880519679,1.1003942877,-2.4010122537,0.4508201515,0.409109703,-0.9140971881,-1.1300759054,0.2039170227,7.7832742368,0.5809920875,-0.7642528173,-0.9401435047,-0.4056238313,0.9233016521,0.5776086001,0.1866987549,1.5392051644,-3.1963925457,-0.4261395482,-0.9510534704,0.3435845192,-0.8299845481,-1.7165367787,-0.8427015651,0.6404520699,-0.3344198507,0.5918112633,1.1081834958,-0.2637005148,-0.0691875504,0.6354862074,0.2286429751,-0.0469773608,-0.0687796972,-0.2481987427,0.9350414487,0.2229129031,-0.6358060204,-2.7524062141,-0.2362693261,-0.590197228,-0.526752006,-1.1120340856,0.4706583644,7.3453519468,-4.9244455024,0.6081676621,-0.2097655489,-2.3877527875,25.3090223688,0.0937803857,0.4644367581,0.0882763943,-2.3103184158,-7.0197936037,-0.4734730904,-0.5538227994,0.854975981,-1.0853649344,1.1040841292,-0.0895490384,0.8586534739,-2.2486111795,5.682089513,-3.1251744246,2.1319554749,3.1962378783,0.6507595549,-0.3153700562,-0.0385328257,-0.2236426948,0.7698500905,-0.9875068751,-1.1691070259,-0.3703721065,-0.7598521756,2.0037420171,0.0381037457,0.7635842784,0.3109749536,-0.8165540173,-18.5541299471,11.0289739907,-0.5626008732,-0.2575503068,-0.6156893355,-2.2524041362,0.7202221974,-0.0886174874,1.3777618224,-1.5520531614,-7.7796973237,-0.1599970517,-0.3014504375,-0.0363451131,-0.084202813,-0.9886800514,0.5862132559,-0.3764157678,-1.132591717,119.8468694094,-0.1729637569,0.2675192207,0.3652293957,0.2488839119,-0.3577380035,-0.4188732694,0.4402162825,0.4268945443,-0.7328141735,-0.5564014577,-0.252088442,-0.464017746,-0.3891121026,0.8828000692,0.0334631787,0.7985615498,0.1692841684,4.8345857858,-8.035134921,0.6509867244,0.0967590807,23.6088121357,0.0602114887,0.3113657763,-0.0199604747,1.4661674025,0.0293828534,-2.0171941382,-0.302083006,-0.5196572642,0.7303705011,-0.5649770095,-0.3441240894,-0.748697024,3.7278708307,-0.2827997118,0.1389665921,-4.3580085772,-1.215227693,-1.061205965,-0.4204758428,0.0653412757,0.7753269055,-0.9572366083,0.8642215856,0.9074696406,0.4628023931,-0.2131325279,-1.8111075878,1.1979351152,0.5484030619,-0.2225540752,-0.5092863339,0.4036680438,-4.7318586334,-6.5203795741,0.3506523349,0.7060766402,-0.5092119388,1.1815381881,0.343333135,-0.440146758,-0.4672531704,0.4183370362,-0.1727870247,0.6576202186,-0.556788815,-0.6316059976,0.9179831091,-2.8105899152,0.8314604924,13.9209443843,-0.2985220631,0.3090496771,0.0720745279,-1.7492842661,0.2846569661,-0.8786390355,0.3115095282,0.8390995497,-0.2460628542,-0.1061312012,-0.1691748239,-0.9665852955,-0.2308087463,-15.457755681,-13.0336112993,0.3637423021,0.1435000958,0.5652479303,0.772497641,-1.5735874959,19.2021603774,0.3157661042,1.2960799497,1.4279207623,9.7541880361,-0.1811367855,0.9794425815,-0.1359100296,-0.2677136113,-0.3479122866,-0.3305745762,-0.7236893418,-0.6833400779,0.7561317958,-0.4649684566,-0.1789273934,-0.0446705392,0.2228672265,0.4792202675,-0.0509372797,0.1500252471,0.087743806,0.6357997615,0.7140862146,-0.083814947,-0.2799900975,-0.8575890773,0.8534460412,-0.7891374545,0.3080632859,-1.5563368566,0.6722704237,121.0132967556,-0.8366166921,0.8885915887,-0.1588979027,1.5638213409,3.9356785298,0.6665859528,-0.2932147131,0.4758285722,-3.8915275257,-0.4575802885,-0.4620162488,0.0603920424,0.0256731426,0.5769755405,10.3449620778,-0.448493541,0.1523874727,0.9049872255,-0.2353182637,-0.6106889409,-0.4955263893,-0.8035627948,0.6143143101,0.4458480967,-0.0525805683,-0.526195582,0.6936479875,-0.126243259,-0.8204082087,-0.4210307371,0.6995181262,-0.262251409,-0.1613667035,0.2999100855,-0.0434772716,-14.2842148377,-0.3024130787,-0.9107178347,-0.9844131074,-0.0736164128,-4.2463241798,6.0020753587,-0.2436124502,0.9760626759,-0.2020098048,-0.6746873732,0.0116895424,-0.8387315887,0.577293578,-1.020169583,-0.0869979143,0.0943886285,0.5054242543,-0.0277801964,-0.0910099138,0.1185401167,2.4956154069,1.8011085904,1.6617249276,-3.7566024938,-3.1454822639,-0.887507915,-0.6324189175,-0.2704071493,-0.212183189,0.5667177179,-0.6832284309,0.0514517547,1.5346828551,2.0608940125,-0.2763486086,-2.7581603784,-20.0721028182,0.8631556368,0.6804040837,-0.8114842341,6.5991659398,-2.5004117671,7.1051543594,-0.2798077247,-1.1779993898,2.7272106476,-3.5449000355,-0.8293480666,0.8960103848,-3.0560505095,-3.9860062131,-1.9985198256,25.6790075251,-0.6969462129,0.9760637205,-0.3913952726,10.5922860946,-0.3926636149,-0.583314282,-0.2363845336,-0.9812356252,-0.216771277,-0.9008796907,8.8217451591,0.3093941947,0.1838601797,0.1460348989,0.2868537964,0.9563478522,0.2641873337,-0.0125552241,-1.8445130339,-0.3823936692,-2.5214971383,34.4200012999,0.0666820719,-0.536567439,-1.5300922731,3.8036522399,-21.193633815,-0.5313499987,-0.6757620445,-0.5749573992,-2.0977727987,-0.9616737646,-0.5919197032,-1.9799975323,3.2377197047,-0.3105726554,-0.9450341354,-0.7495839734,0.6875377301,0.7268954468,-19.4656729583,0.0620519914,1.0830587748,0.7312949103,-6.1838575243,-0.9368901006,2.4847711626,-0.8475343151,-1.2214240779,-0.9745190632,0.7358684659,-0.7066830818,-0.5816868554,0.3661183464,-0.2324128405,0.1177786703,-0.9774870328,-6.7809708408,-0.0620252714,0.7531939679,0.421256414,-4.0754789052,-1.7263753106,-0.7727116607,0.0803040811,1.0981007491,-3.6216120287,0.403238046,-0.3611057376,-0.6822994518,-0.3909322428,-0.9247338355,3.2772578829,-0.1623772686,0.6786980916,-0.5645058004,0.3884420436,-0.5711650584,0.893307763,0.7208833974,1.3765953611,-0.3664460557,-0.6704662323,3.5811766168,0.4017406168,0.0698588605,0.4413955911,0.3936290877,-0.1975014351,0.8299096386,-0.7381246582,0.1981800463,-0.9804331399,-2.4218833664,-34.6226742209,-0.0966333508,-0.0489961398,0.9276325875,0.1610730042,15.7413062127,7.4082728002,-0.5865404967,-0.056327335,0.7901584939,-2.2215061936,0.0808698988,0.7093906299,0.2095921233,-1.9752663449,-0.6078270291,0.2112260852,-0.9350228496,-0.4966343616,-3.5765517077,-2.3572690521,0.6684429771,11.3142912342,-1.1765681864,1.7373127422,-1.5847434174,0.6314093615,3.0604995875,-0.3554850334,0.5362966831,0.5367512014,0.7315400813,-0.8079392696,-0.4648635895,0.5103880172,-1.2239511669,-3.8002287134,-2.7535027936,0.6173805848,-0.1122588139,1.1367415187,3.0094304115,-4.0140289568,-8.9965384875,-0.4654241528,-0.8521048388,2.5762616169,15.8780815129,0.3728772677,0.2350968091,4.9559055806,-2.7897635557,0.2102038473,1.1109361695,-0.0211842149,-0.4856978338,0.2202692,0.6918153781,-1.0070846579,-2.3563877796,-1.9133952038,-0.6651070097,-0.1998280062,5.0936636382,-0.0700022563,-0.9736345929
   -0.9974885642,-0.4216176193,0.0807983034,0.6577768834,-0.6891205177,0.7208264643,1.5911257866,-2.9343962129,-14.1442639158,-0.0288808327,0.1839617925,1.5423073187,2.1684961822,1.6330356601,5.4149463904,0.8334533124,-0.022665217,1.3528672107,4.0310861772,-0.4955058206,-0.6989701286,-4.8180995679,-1.9138310769,-14.5617349823,-0.7504579127,-0.9237385057,-0.5082462702,1.4037383139,-3.5970704562,-0.4097738874,3.771103345,0.8359700988,2.3903466036,1.0016355763,-4.2812700912,0.528395083,-0.2816431927,-0.2146473724,-0.0225906863,-0.354774983,0.1303304333,1.0444676058,0.6185466679,-0.0469311012,0.2185666613,11.0884487974,-0.5198089644,0.1857486196,1.6386613153,7.3659470132,5.2712053562,-17.0383656661,0.497521363,-0.7141586522,-3.8545505683,113.1237000339,0.4522860391,-0.3852300967,-1.7515326274,-1.3866053387,2.8597935375,0.1399677434,0.9569285931,0.0944291781,-0.8850860886,-1.0133470566,0.2678618381,-0.3105775236,-0.4404928511,-1.2201636005,-0.2358036374,0.8960739599,0.5465842838,0.5621073241,-0.2507207787,0.015744587,-0.2155507852,-0.287152881,0.195061694,-0.3123037356,0.256370637,-0.8607609085,-1.1393539622,-634.3994023013,-0.0355042075,-0.3633914152,-0.1266657388,-0.4274777616,-5.1447185087,-0.1536308644,0.9376529866,0.7085016548,1.6870931431,0.5917676871,-0.3776654589,0.2260603192,-0.0332888478,-0.7354175888,0.2709185677,0.0355573506,0.6212449159,-0.2495348133,-5.3164080922,-0.9500981095,1.0609621907,1.0742062771,4.5019803134,-0.8569261109,19.2991322011,-0.4419812252,-0.9962507069,-0.2630935537,0.229866327,-1.2913035134,0.2093611088,1.3663985607,2.4018608454,3.2144376315,5.4678997971,11.1589961152,-0.3729728875,-0.0958157531,2.5038938951,2.6858033136,-8.3987633924,11.9754226265,-0.1181390067,-0.5512823558,-25.6482312051,7.6954512965,-0.81625396,0.2269329723,8.2097368078,-2.5434160635,-0.9841543453,11.9333800503,0.5045767899,0.990910354,0.2767143248,-2.5139563827,0.3921079584,0.5985961344,2.6244773889,-1.6924244295,0.785757409,1.3599665946,0.4715854972,-0.206906476,-1.2058494027,-0.1058463613,-0.0671421353,0.1149678276,0.652766489,-1.9351187355,-0.8618578556,-0.9250165083,-1.0158969812,0.6206327028,0.4716239122,-0.0346788193,0.6189304134,-0.3213137035,6.612416726,0.859003283,-0.0394320488,10.3196248322,-4.3488925903,0.7253547227,-0.0184067716,-4.6289558243,-1.2364236843,-0.1784031804,0.7776967495,-0.4959991209,-0.7860825964,-1.4651211311,-0.4367492613,-2.1544726942,-0.4742618652,-1.0856205756,-0.7466177377,-0.3452427096,0.3577582928,-0.4980704542,-1.0682166324,-0.9944685062,-1.0221934848,-1.2375940651,-1.2174834619,-0.8942428207,-4.589827742,-4.5089636537,-5.2050951208,1.9328292117,-0.722039421,0.2934512679,-0.797060731,0.374123331,-2.0068560565,-1.1330673689,0.351877296,-1.274493459,-1.3668584432,0.0118042955,2.0841557591,-0.224702628,-6.2690214929,-3.0548359555,-0.178873006,2.6510599838,0.3163453552,-2.0991990114,0.0907671938,-0.0170020262,0.8370602366,1.4910772703,-0.5282219849,-0.879199763,-0.723902844,0.7444740081,0.642046814,0.0480310876,-0.4346265547,0.3030113256,0.5330005636,-0.3065275156,-0.7313298977,1.0537558635,0.1445564617,0.5533839865,-0.0718223732,0.527378384,0.6278357849,-0.4670248404,0.6531382888,0.2583982427,-19.6866570084,0.4620430001,0.697280276,0.8886085628,0.780821173,0.3119631387,-0.6381916551,1.5002425935,-2.7156029475,13.756709092,2.1362373566,-0.4268844069,0.4502772949,-0.729502068,0.6810847228,-0.3285769774,0.0038350767,0.5237279401,-0.3127268431,0.5416276907,0.4002416787,-0.3902527691,0.2310966329,-0.4932368516,0.4256597736,-0.3442566604,-0.1595947943,0.7285879888,-0.4924260013,0.2897422049,0.776163506,1.0260898031,0.5915462799,0.3687596775,-0.3004454923,-0.14680148,0.0973328052,3.7391698325,0.3304449503,-0.6643634192,-0.0578022024,-0.3655635986,-0.3386569913,0.2069270803,0.2770626673,0.7866527663,-0.9234363649,-1.0920258012,0.9268028363,-0.9413208672,0.7912009758,6.1990621282,4.1221909576,-1.4839577197,0.6556655506,-2.0293326739,-0.3157273484,-3.3957227575,-0.438162197,0.972103767,0.3618771277,-0.5022463002,0.2875089716,-1.2243925778,0.1211763554,1.4057752632,-0.5335372807,9.1191802506,-5.9300071241,-10.442626847,0.2582464801,-1.0471745571,-8.3147904979,6.4170988203,3.3852263235,0.9307005554,2.9659358256,18.947587616,-2.0941064062,-0.2206346341,-0.9858858716,-3.0053171668,-5.8316396749,4.5476958485,-0.0389732502,-0.5670167532,0.391821572,0.3690586625,0.8414925431,-1.9438205637,5.6757447351,-0.1316266804,-0.1025016881,-2.2568915093,-17.376594884,0.2145675125,-0.8043577125,0.9491327834,-0.8821867057,-0.8768833224,0.2639453464,0.5293789939,0.4893339696,-0.7446020103,7.3335458738,-1.2162920267,-0.2447388138,-0.2367187921,-2.6334648903,-0.0893195974,-6.3094589429,-6.4655212043,-0.8066686484,0.5995554827,0.665434243,0.7097252906,0.3755475754,-0.7124992887,-0.9497279535,2.444360661,17.8664116344,-26.423576,0.4236372381,0.9438249003,-0.6634463328,3.483346158,0.4442037802,1.0325648544,-0.6835751643,2.8287876762,0.5653559069,3.2940890448,-2.0346519367,-0.4528019662,-0.311077474,0.9986295645,0.1338368161,-0.6348015313,-0.5893324674,2.1191672355,-0.2078884799,1.8828041911,-5.2004594877,-10.3069014942,-0.7882706885,-1.0504001272,-2.3138512972,-3.4837724516,-14.0958653824,0.5077800506,2.8446091827,-0.5822740126,-9.9329821146,0.1811613259,-0.2245807644,-1.6986911632,1.9106904714,-8.8046198461,0.2865791,0.2657311229,0.1209999451,0.282598486,-0.7903966429,0.3183249176,-1.1265485173,0.866738159,0.4849911204,-0.5137915931,-0.1779397719,-0.568575396,-0.9280680715,-0.7142260914,0.5149008223,0.5896318676,-0.0288460713,0.5076514252,-0.563139268,0.0038166957,0.2593107297,-11.7812166119,-1.0246616259,-0.3321995704,0.6169713491,-0.3150436155,0.2889625439,14.579684239,0.6414837696,0.5768939303,0.2818093737,0.263534,0.8833566094,0.5912031753,0.6890048227,1.4078733264,-0.7418544135,-0.0704381421,-0.5993459325,-0.3613995258,0.1222883334,-1.1337414239,0.3333650282,-4.1343031967,-2.0586441748,0.7685249354,0.6372837594,-0.5960745135,-1.4652670419,-1.4146416009,-0.0748421612,-1.2757890472,-0.1492942558,0.1386261676,-1.1480767249,-1.2739296653,0.5259582387,-0.6746843971,-0.1955061996,0.1826866874,-0.7026517176,-0.7366167639,-1.1460294481,0.3238930808,6.4355268509,0.5966183141,-0.9197300314,-1.4769930874,-0.3691260034,0.4650278531,0.3014117392,0.5602478185,1.725195407,0.2308780764,-0.895190385,-0.688110127,-1.2166987855,0.3029409186,0.5385569023,-0.6335998998,-0.8327460893,0.8517331283,-0.3913267156,0.4796145304,0.6429088076,-0.0456469862,0.7883515992,-0.5363577077,0.3602286553,-0.4110593404,0.606386974,0.7434979456,-0.708380724,-0.0946314719,0.290419547,0.3126438955,0.3886543013,-0.0880909875,-0.9543354169,4.7363655853,0.8041060322,7.779590065,0.6475043593,0.2106847892,0.2030442381,-0.0624482778,0.2128840366,0.3660449224,-0.1277678064,0.4058148176,-0.5746519037,-0.2375672912,-0.8286583749,-0.7274028769,-3.0184201176,-9.7926347994,-0.1306599343,2.5904885273,2.0575456378,0.477832804,-1.7555367388,6.2485928338,1.7603711142,-0.4414898931,0.2486039924,0.5092594506,0.8104312307,-1.0632425731,-0.9458366311,0.8946316065,-0.2579929827,-4.6510316945,12.3139808488,0.025809383,-0.8755642147,1.4416438422,-2.0490910204,0.9239999322,6.9944876792,-0.4428386406,0.2495629195,0.5947973085,-3.6349458089,0.4077134363,0.1567938287,-4.1457209433,0.3828778768,-0.2093881749,0.3635946854,0.4799340085,-0.5634709338,-0.9152327256,-0.7054621879,-5.5118570254,2.4160912857,2.325304211,6.3025923387,1.1119432896,5.3981880171,0.5851070511,0.9141432546,-0.5512728663,0.8234444991,-0.2648868448,1.5242769489,4.2798330119,4.553653093,2.5411746189,2.1721315243,3.8656104275,-12.1604135736,-0.3824448015,-1.8174309682,-1.3669901576,-8.3152549475,17.0200226822,-0.0138988993,-6.2490319401,9.7491157264,16.4214954296,0.4283884315,-0.208030948,0.6351084549,0.3616876477,19.9384468569,14.5499791438,-0.2953146143,-0.5621607092,-0.0298829026,1.0728802827,0.1649341602,-2.1897386074,-0.133881524,-1.3687241686,-0.030852784,-2.4397803976,-0.7338285061,-0.7153001443,0.6846443774,-0.7566828132,0.2082269026,0.1613647392,0.1532906441,-1.6676981399,-0.0790255346,2.1761762413,-3.8461247279,0.187350175,0.2022469897,-0.3455773694,0.650609786,-0.3344620806,5.0646044666,0.7236115195,-0.4938879496,-0.7586705051,-5.6217128852,0.8792158226,-0.2806408067,-0.2665265403,-0.4895779036,1.262890464,0.4771901524,0.6533530921,-0.271305668,-0.202603621,0.5889238523,-1.0611680665,3.8077987475,0.0465670369,-0.6634817576,-0.3114371792,0.5463739723,-0.5391434783,-0.1402653626,-0.3376701092,0.5146852971,-0.5708804565,0.7620173811,-0.6481783492,0.4820071185,0.1665014081,-0.5071116512,4.4712630319,-0.5622989522,-0.9510605205,-0.2561866825,-0.5214753238,0.5490919612,4.6606131057,0.3487421457,1.0515417047,-0.537713099,-0.014892428,0.9808006199,0.546612757,0.6015605129,-1.3800820378,-3.4011729884,0.7164889073,-0.4952658077,-0.1510047777,0.6977369877,8.4782236135,0.2597808072,1.2762431433,-0.2916122123,-1.7886161893,0.8351226793,6.767559807,0.7987850527,0.0428179453,0.612362124,0.8639429687,-0.3918703544,0.9539725096,-1.2950967724,-1.1188118906,-2.5064144839,-0.8383505341,0.1102770939,-0.6469550783,0.0461986219,0.2231428856,-1.9840716329,17.0229486564,20.3354150072,0.7828724709,1.3665242274,-7.6664624959,0.8792755621,0.310528294,-0.9123602677,-0.8689224738,-3.7400813708,2.394817225,-1.7650474737,-0.1635387052,-0.2280471427,-0.2922290545,-0.3337603266,0.809645779,0.7821513437,-0.7294155792,-0.0624534105,0.0552751191,-0.9052049328,-0.4431642307,-0.8319038576,0.5085344655,-0.2719095556,-0.6136312861,-0.0182655593,-0.4450576408,-1.8868617413,-0.4218176903,-0.2194026719,-2.2771180169,-0.0702939423,-0.792888984,0.3137610166,1.3887568992,-9.9116657184,7.0661076031,-0.8161591682,0.6281535782,0.0404898161,1.733307424,-0.9135921829,0.4296682642,0.4611135837,0.9458084133,-0.2864909366,0.7287441068,-0.1197812041,0.926092027,-0.2181157914,0.207138769,-0.3157114992,0.6913722188,-0.0353262991,0.6715204294,1.1163224349,-6.0828087187,0.3488659912,0.6918806002,-0.8595747553,0.4192313919,-0.9235695314,0.1684719046,-0.0686504892,0.2768286296,0.389912496,-0.9047138072,20.0695101552,2.9229672602,-0.1472921069,0.3609134767,0.1199677304,0.57581134,-9.3572989362,-0.000620022,-0.6821277456,-1.4459808264,1.9482843255,0.6083673338,-0.6717374556,0.3600421298,-0.6548188575,1.0134678355,0.1358591297,0.4042986331,0.7851315405,-2.2757625034,4.1232370445,-0.5314125936,-2.1671003302,0.6471352081,-0.032009678,0.1561229,0.168869506,0.0808928562,-0.6761516156,0.897296958,-0.1750295848,-0.8526995527,0.1989557304,-0.6223439094,1.8233215983,0.7275419387,2.1431342646,0.2078421278,0.2558880623,0.0168213812,1.7019236699,-0.4236716162,-2.4314418992,12.0112690107,-0.486029051,1.1070059306,0.1549363568,0.4102389256,-0.9307065176,0.7669575726,-0.8713625826,-1.9628226565,0.5515443844,-0.6654281371,0.9775587376,-0.3448122532,-1.0028977842,0.0080175494,0.7940475195,1.7521735101,-1.4788680744,2.7109252658,-0.2894312948,-0.1801067282,-0.1033058231,0.1270064066,0.7518163553,-0.5659824469,-0.0175815609,-0.1658431287,0.7353237932,-1.4244279056,2.540463521,-0.7456481315,-14.1461607335,0.3866281252,-0.3979432319,12.3435209306,-1.1351238952,-3.812455615,-17.3402010107,0.7486282903,0.4998486046,0.5493627873,9.5016604964,0.7975911608,-0.5213231926,-1.9037988044,-1.3876301571,0.4285343509,-0.5281813606,-0.3120099797,0.4177388435,0.4360718219,0.5560402451,-0.0640763778,-0.3006647177,0.2221770549,-1.0268708688,0.3163442579,0.8023663558,-0.1342307309,0.0447266166,-0.9158008586,-0.9253454666,-0.9595494567,-0.5957631507,-0.9589536105,0.6673579123,0.7112902367,-0.9335864848,0.48481566,0.0504099173,0.1174617452,0.5583938577,0.469233078,-0.6505476543,-30.2698482975,0.2783141654,-0.9416222111,-0.7112157282,-1.7335678544,-0.1367139901,-0.3834258445,0.5176189103,-1.2859610654,-0.9191123488,-0.0290645726,0.7534341904,-0.538726012,-0.2556615686,2.1280785943,-0.36717144,0.1232326301,-1.0447477557,-2.0790861066,0.4970535265,0.7845193536,-0.1394136437,-0.8953665995,0.7353969436,-0.6736852469,-0.9844161741,0.2082602602,0.8403970445,-0.1375322153,1.1182809516,-4.7253571031,-4.9143713706,0.038347114,0.6615686033,-0.927136914,2.4209201278,3.6942036111,7.9292246846,0.1048008879,0.4878457902,-22.7752585017,11.5022916183,1.0284997543,0.0736000561,-1.2551623969,-2.24027645,3.5953206371,-0.3748931663,0.5210263624,0.0833138755,4.2408607897,-0.6982729396,-1.2426754734,-86.4572253858,2.4508404023,-1.1104623126,-0.2896628137,-4.6677529095,1.9260726489,0.9523321671,0.1183085343,-1.918908232,-0.6878209583,-0.9539009424,-0.6918830699,2.5040564457,-1.7396284297,3.1952053704,-2.6015222551,-0.8466168374,-0.9125466346,-1.2089064924,-0.6460609949,-42.6664763013,4.2421811894,-0.9662850341,-1.9604956617,-7.4076846343,7.8351268826,-0.2149203182,-0.3534803695,0.9588216703,0.5513606504,-7.0301719213,0.7377871172,0.0618070881,0.6480672245,4.7595682098,0.5882013791,0.7107827069,-2.5955403118,-0.7879017928,-0.8389657372,-6.7303805907,27.7976103952,1.468412483,0.3117645026,3.2212165569,0.7949652857,0.9825305446,0.7082559905,-0.1086824395,-0.1499469699,0.3158759401,0.919032685,-1.993485763,0.1408626734,0.7086984449,-0.077186837,-0.1654438338,0.8443117724,-22.6388870662,0.3896630739,1.8586584307,0.2535032855,-2.5862277238,-0.354995651,-0.792939946,-0.3673447846,-1.1106319015,3.0877436734,0.2573042972,-0.8484402578,0.3047451293,-0.2611287953,-0.4975171725,3.0915760236,1.9801098031,-2.3151342366,4.0265624182,-1.8607905245,-1.823605864,-1.3883463813,-0.9408264412,0.7053753318,-1.5914256695,-0.8093209493,0.6484811543,0.3004844917,0.9990177207,0.2681953635,-1.9900735738,20.9579662051,0.5001171364,-0.7559831765,-2.632992048,2.9896386875,5.4323756016,5.0306985549,-0.754505773,-0.39504442,-3.770286299,7.5414758822,0.593945274,-0.8424741076,0.60157413,3.3095559559,-0.1329574674,-1.6865257531,-0.1627585903,0.747392127,0.6528989428,30.6888440697,-3.9050353073,-0.1655558075,0.5897739494,-0.7201102338,7.2373973146,18.6596729728,0.7098922634,0.0371223269,1.7014397901,0.9668747196,0.4593766704,-0.1551178487,1.5430446631,-0.9173004406,0.6434027363,-8.7653592967,5.3492638083,0.6904269569,-0.8777622664,-3.6644654584,-3.4305619154,5.6946874559,-16.5405465297,-0.5701223368,1.8154913565,-5.4144867839,40.7252450718,-0.8921283763,0.188403797,1.1587726031,-6.5920292653,0.1630729568,-1.9678803815,-0.2862290234,0.6917166116,-0.5218264418,-0.6656236142,-0.2882706222,5.2017743658,1.0496252913,0.292247993,0.2099575278,-3.0489741049,-0.5847557335,0.8530430677,-0.2880011334,-0.7019330265,-0.8995063586,0.9432805103,1.1916140295,0.8060278181,6.6828699048,-1.6329013275,2.5004388754,0.5670434943,0.1769510923,-2.2232892359,-1.0414963031,-57.8851219803,-5.003190746,0.0446433299,-0.5652913184,-8.9985099767,3.6321159742,0.7285287508,-0.0570898834,-3.9703185009,-1.0829360651,-24.3520485916,0.1776859979,0.8454218199,0.0699099145,-0.5188200478,-5.0002931645,-0.6244662728,0.8335820096,-0.7450999455,3.7439648411,0.3329005017,-1.8329700083,2.5150381099,-0.9055291054,-0.1897643963,0.1314787451,0.1663855274,0.6226826538,-0.6076888803,-0.9209306955,-0.8220817795,-3.0052753377,12.1098371821,-2.2276284034,-0.121783569,3.6135536963,-8.7137277451,-11.3965733314,19.0098436354,-0.7029861732,-1.8336869989,-2.1234028864,-9.9817272294,-0.0049211433,-0.6068514844,1.7204190604,-2.4729585209,1.6869600143,0.3259213619,0.1770410273,-0.600032517,-1.8636648332,1.5014093742,0.6178129816,1.2471719722,2.9153031504,-0.004619296,-1.624672525,-4.1896373831,-0.7159224322,0.727334636,0.6757264542,-0.3335585375,-0.4772408264,-0.9008081471,0.6591949693,-1.0030999913,-2.1413283581,0.2813835545,1.6493582418,0.1435165644,-0.3571463643,-1.5558620473,2.5877738255,1.6719632207,6.8906706924,0.6688013187,4.3541640272,1.9621865006,-2.3379991834,-0.0555503689,0.4611861126,-0.7415831008,-4.0185665489,6.449044011,0.7633664282,-0.9523507952,-0.5887351636,-0.1182604893,3.9171358071,0.6536208302,-1.108953627,1.9190312499,-16.4084814429,-0.6518889465,0.5449440647,-1.0568153642,0.8909374463,0.3078251561,-0.2697056732,0.6771526806,-0.9271775701,0.3135644078,-0.2528397275,0.728050378,12.1018591024,5.3508301652,-0.3361542765,-0.2853666839,0.497055233,-1.2557198455,0.9755340923,-5.974513071,0.7217827028,0.3984379624,-3.610862408,-11.0100199099,0.3027643743,-0.8966126553,2.0075802405,-2.6123639221,32.0657932349,0.3437316061,0.9774424052,-0.443736221,-0.4698276497,-0.1124982892,-1.4127806218,-2.2342951889,-2.0611003812,-1.3896718679,0.3670525342,-2.7701024294,0.4980279276,0.9266557885,-0.344077104,0.5433411389,0.4678257231,-0.1497671184,0.4189686007,0.0211919503,-0.1157811283,-0.6549648602,-2.9837270425,-1.7427751378,-0.0895814537,0.1908510432,-0.7919560359,-2.2638517602,13.3836452879,-0.7836467679,0.076633978,0.9826456441,2.5181312004,0.5127996009,0.9911685698,0.8092351896,-0.0859409246,2.229264009,-0.2301337956,-0.4893884824,0.8905773753,-1.1831222526,0.359069389,-3.3804748635,-4.1917456554,-0.4696343355,5.6883533475,-0.8035756669,2.5244370908,-2.0294005748,-0.3417999627,0.0371621361,0.5524796774,5.7325354906,0.3740681446,-0.7908026693,-1.2805468531,1.3907102432,8.4623807959,10.0934738516,-0.3769808905,0.4702191453,-4.4707516373,12.0535174885,-3.7042175922,4.9782997718,0.76465978,-3.2088183193,18.4525911942,2.8764473861,-0.8364958529,-0.3096193137,0.4897849703,-1.9165022782,0.9765857684,11.3533975467,-0.2059959086,0.7642232016,-1.1923763529,-1.4519346975,1.1675526857,-0.046139491,0.2899787914,0.8040455922,0.3707590214,1.9022857654,-0.2435391992,-0.6974392182,0.580372793,0.8437603936,-0.7639888786,-0.6125538378,1.0000700007,-0.4897243256,-0.5420011275,1.6692235581,-2.7610545049,1.2792524802,-0.7193191264,-1.4792162279,-0.0822246324,1.1127273617,-6.8738352987,-0.66785302,0.5734410231,0.9621041462,-0.2624434987,0.0688502532,0.410146415,-0.308728667,0.8121528309,-13.3707218473,0.5699455306,-0.1549759093,-0.7505525969,-0.9962271904,-0.0701980667,0.5931847333,1.1991349566,-0.7104491445,-1.4695585079,0.2685494905,0.4884680317,0.1519531035,-0.8733338328,-0.5914206215,-0.8917618286,0.7248855796,-0.5398433381,-0.4267454599,0.2028137166,0.1927574979,-0.2035711939,2.5679365131,-34.1134744479,-0.1239582771,-0.925086602,1.2248354695,-2.6112506003,-15.0012044146,0.091249662,-0.8287354755,0.1168207008,2.0931201703,-0.1233746937,-0.8758643232,-1.2584909473,1.0101913555,-2.2000352959,-4.0726406238,0.9491361994,0.6794255732,0.1093465097,0.0186980681,-0.1001617753,-0.8028720127,-0.6866116813,-0.0709777852,0.0199768446,0.7752865982,0.0767603063,-0.5427056004,0.1806113246,0.0578937311,0.2925477611,0.0180239068,0.758833165,-0.8431401318,-0.1653409158,0.1359145156,-12.0623054628,-0.506205267,0.0915876734,0.3183703321,0.3248786572,0.0057188117,5.5025121203,-0.9815916875,-0.9909475026,-1.779308057,-1.96804729,-0.8579143917,0.6004485933,0.0694665531,1.4510755758,-0.8232848646,0.4630082965,0.2577314364,-0.0570314379,0.2936960158,3.5982570421,1.6899799341,3.2642140456,0.3208574794,-0.6448371714,-2.0478227877,4.9508014144,1.7950685532,0.4776143752,0.7273393961,0.971074501,-0.5893506688,-0.4338763693,0.3948468754,-0.2428135253,-3.7194168262,-4.167420049,-15.6039143406,570.8240430114,0.025531217,-0.2057515546,-0.7763607338,3.312600886,4.9910389301,-0.6694593614,0.6414375212,5.1638478529,-1.220137673,-0.665425902,-0.2429435073,-3.2135568584,-6.2929806397,3.054931191,-1.5789272373,-0.5567696782,0.9207664993,-5.8080357084,-3.0492455348,-1.3383537093,3.8118916488,5.1425896694,-2.9077835383,1.0898029001,0.2773727277,-0.2708311675,3.3277444493,-0.755053831,-0.6428568485,0.5248584469,0.2220019179,-0.3033903202,0.5212314613,0.5123623377,-5.0397377436,-2.6205335517,-17.5004097952,0.3018014046,-0.4525961903,1.2726953427,0.2368483635,-17.2581357634,-0.0437488216,-1.1359353879,3.7547095581,6.403711308,0.9526903721,-0.2223940991,4.6303742102,7.7767842612,-0.7658106608,-0.3903606605,-0.1878915127,0.742647558,-0.5333567319,-0.0896022918,0.8993290892,2.4667323738,-3.9740560039,-0.0547979243,3.9733852279,-13.1252192401,-0.3951801487,0.1898266818,0.1180107386,0.3689727828,-0.6706402691,-0.4650905002,-1.4108430907,-0.8100212945,1.1213861308,-2.5193782148,2.0268856356,-0.5561896473,-0.6040826987,3.1145363555,1.1819154075,-0.6006045191,7.5395781617,-0.8083752058,-0.5973710238,4.3466279575,-3.8476865597,0.4494012155,0.8648360492,-0.5174284471,-7.5567415914,19.9204876413,0.0649584658,-0.8097724429,0.1547736758,-1.8510570387,7.0505520992,1.7812314543,-5.2969676731,15.8902117194,-8.8782986035,3.8978683991,0.6317190308,-1.1343036221,3.6077240969,-0.0470933405,-0.9942697235,0.9647383178,0.7801371485,-2.2506221237,0.5569754584,2.8051802115,0.6762154609,-6.1386232137,-0.8684801429,0.8207081537,-1.0821676206,0.6617254024,7.0961808528,4.6530473095,0.4199048837,-0.6279479081,-3.9977569379,8.2414702032,0.0827590848,0.3040945713,-4.796384527,-1.5419941652,5.7149395491,60.4431401409,0.6223368913,0.4453411257,1.1051025487,4.0489960243,-0.2753463827,-3.8438579211,-0.9923831553,4.2648783604,0.0927073317,-5.5689921034,0.2711989052,0.6850465124,-0.2671390119,-0.7007995151,-0.8859423753,1.017542283,0.9521969472,0.3677838799,-3.2088349354,-0.222661121,5.2140678461,-1.3340949089,-0.8491367772,-0.9600575581,-6.2883249664,-7.4376975117,-5.9776451427,0.6502915321,6.2448521238,-3.1561335982,1.1483964141,0.1153405173,0.5634944716,0.1515113019,-8.4748174417,0.8714095963,0.9551161411,0.6159632828,0.9327128005,-3.3258418397,-0.6731743444,1.736959571,-6.4863279663,0.8935391323,-0.1617703689,1.4978745343,2.1295200139,5.3745047321,0.4771143771,0.2739608366,-0.3052017139,-0.1969645218,1.7234013093,-0.6322336549,-3.1297362438,4.4183908352,9.9241726378,3.8272225703,0.7721327731,0.7099667861,5.6133930518,1.9327962002,-2.2637014871,-12.4382653541,0.4148363105,-0.1128093051,27.5466980878,-6.0237425926,0.6896370414,0.1769360468,1.5412224657,-6.2925400237,2.0773397292,-0.4390526621,0.0225399626,0.8857205259,0.0683649121,-3.949353637,0.2433960935,-9.816783867,12.3853744396,-1.3123630009,2.2267442094,2.0418730736,-0.8568811027,-0.2752664613,-1.0087415784,-0.014456235,0.6778432974,2.0037356488,0.8013190019,1.3005800287,7.2029800278,13.8082232444,-12.2247738507,-10.2479148027,0.5518549669,-0.1278549927,-7.4078348581,5.7499662035,4.8456813571,-0.0703809238,-0.381054087,-5.9630210375,1.5652028548,-0.4895348974,-0.864036723,0.6168324086,-9.7019268178,23.7215309313,9.5115751957,0.4328184395,0.8292019924,0.6420507955,-0.1503110431,0.663366845,-0.5843931614,-0.1928155595,-0.0324440052,0.3902531358,0.3477031061,-0.0151576779,0.1633626836,-0.6510081041,0.0634559933,0.8448293542,-0.5307756637,-0.1850147736,0.8929705486,-0.6435029358,0.144179824,-0.4586181059,0.786719646,-0.6343372509,0.1604601847,0.1484207186,-0.0120893648,-5.1956245359,-0.9904970452,0.5340302055,-0.2503103276,-0.1203800719,0.4566049358,0.38883635,0.7959542286,-2.4025720437,0.8522777232,0.7584402183,-0.9203113317,0.1107325352,-0.4697539782,0.7883545362,-0.3142511653,-0.5171282752,-0.8839502106,-6.1244046646,-0.1619513002,-10.3279754842,2.9874832316,-0.7039467294,1.2656947938,0.5176443602,-0.3496960721,-0.8659962915,0.5558721829,1.3051169956,3.4313443353,8.2085493163,4.6194038865,-1.6875799861,-0.5199023576,-4.0586758055,-2.5868070819,-2.6669491682,8.439252935,0.7540340208,0.2536234804,1.1581863124,3.0446348483,0.5011172992,0.2584415028,-0.5391792778,1.7001573299,1.7339208718,-0.9635762268,-0.868678688,0.9635493031,-0.9975658845,-0.9161005272,0.5601713898,-0.0748906122,0.851682538,0.7260199017,0.6231299429,0.4808207706,-0.9798134546,-0.6907160454,-0.3247024426,-0.515597718,-0.8357033183,0.2605761722,0.0990043023,0.9739485984,1.0910071514,-2.3002991764,5.2965523293,-28.5759525788,-0.7684089168,-0.0487176692,2.9464198689,0.2350497389,-13.7362948395,0.6682617449,-1.1042010754,-2.7556357191,1.211678061,0.577383409,-0.3866023409,-0.4124896468,1.5597742543,-2.1641674403,4.6928343426,-0.8950309669,-0.9583780735,0.157598879,-0.1381852075,0.9857943171,0.7647513095,0.6184275929,-0.4116840901,-0.1889989778,0.1234828876,0.3640866859,0.1081181268,-0.5448070325,0.4280618239,-0.0677603192,-0.8296565989,0.8148081502,0.3101947352,0.4192456765,-0.2153292142,-0.0051205155,0.7128914045,-0.9610524773,0.3566784435,-0.4876868798,0.8280422065,13.0638591386,0.1094245934,0.8149677253,0.1344911318,-0.8743831241,0.1633020441,0.3811899225,-0.0201497144,0.7693041023,-0.5192322643,0.4158210918,0.0715724505,-0.262147358,2.435538656,-5.8957949033,1.5185693145,-2.2956958785,12.7876959737,-2.1954354331,1.2478800185,3.5830990046,3.3620022926,0.7989784587,-0.5381494556,-0.8372424581,-0.2398555133,1.1930970271,-0.0399507895,0.4276446393,0.0885094535,0.5737133896,-12.9695765702,-24.5534794088,0.4717269668,-7.5433401163,4.2418781687,-4.6009508352,5.6063662765,0.7702864491,3.0299781996,5.9542871739,1.8142263303,0.6118968799,0.3692993593,-9.2960606661,17.183184877,33.6108478125,1.2177718808,-0.1992611313,-0.3835857203,0.7984615335,-0.5441505388,-0.3146453623,-0.4411413377,0.1027995232,-15.8773020281,-0.0957336678,-0.9817447344,-0.7929033832,-0.5006044559,0.1254296596,0.351178997,0.1218432244,0.9109673856,-0.5274617207,-0.4375687836,-0.5078666677,13.0793667281,-5.473212674,0.321732013,-0.521842906,0.3300875839,0.1591425408,-0.1287151188,-6.7724295633,-0.0034192442,-0.6751455767,0.4319874555,-0.8592616234,-0.7371596582,0.1766511915,0.762959521,-0.7466912417,-0.673639892,0.3588804539,-0.350299305,0.2450111755,0.9468643885,0.2027579519,-1.2851712116,1.0043315922,-14.7038524063,-2.2690578395,0.7583163475,-2.0348045771,0.6053364994,-0.5623790481,-0.3881749977,0.5601589957,0.0099334436,0.0726744221,-0.4338936178,-1.4103361183,0.4583985202,5.9055024774,-0.1711272827,0.0620210543,0.0177425924,-0.3284198007,3.9865189463,-10.2732641549,3.1419123113,0.1199078556,-2.2184970851,-2.764784588,-0.2552014927,-0.3889418185,-0.1385324603,-0.3178748339,0.6342483915,-13.6300967183,-0.3843255642,0.7456818343,-0.124728578,0.5884154292,5.7083961048,-0.1592646922,-16.2856765026,0.9028907852,-1.8057850961,-2.1389677495,-2.4043135412,-0.5082490432,-0.9559598958,-0.5482145045,-2.0422942669,-0.2423531453,-1.4799627533,-0.6680026547,-2.0550612929,-1.0366161389,-2.2550112113,0.7167208747,-0.2332759985,-0.293004654,1.0229453441,2.6743135669,3.6635114555,1.6077821321,0.2974316102,1.4426169012,3.0332079494,-31.9292882438,1.8709125234,-0.7699391841,-2.3339727038,-2.509689661,-5.6094948392,0.3251932472,-0.1577632032,0.5916969688,-0.3734795813,0.6611565035,-0.4872196909,2.1363892909,0.0100817706,0.238096183,0.5241526939,0.6509568451,-0.1770709772,-0.0839055485,0.9326840176,-0.3234330204,-0.576915337,-0.1503527171,0.7607401578,0.1694684503,0.4471733467,-1.3943221999,0.4096138206,0.926201899,-0.2561071558,-0.4782935227,1.04032225,-0.4729331408,-16.4971392509,-0.7703813285,0.3318753625,-0.3242859037,-0.0364001175,-0.0341336873,-0.7202776343,1.00197461,0.2586586631,0.20174304,-0.9216045316,0.1847583545,-0.4369995744,-1.7299969536,0.6469827295,0.9966944918,-6.0429807837,-0.0160699297,-0.1911128677,-0.5739686718,-0.543687477,-0.9823309776,-0.1650126738,0.3918537378,-0.9181010225,0.6301806966,0.9351116131,0.6165613912,1.4060927523,-0.2306040883,12.4717962086,-0.1343877653,-6.9284484949,-0.9649667069,-2.8441601384,-3.4468244146,1.0358799699,20.2099367687,0.5351958692,-1.5127626709,-1.1439049866,-58.8506814111,0.7931057028,-0.0931657353,1.8685189947,-2.6352405146,2.597990547,-1.0718414526,0.5745171521,-0.2516045757,-0.6740819665,-0.8180883258,1.6426745099,-1.3555679794,0.8611108904,11.1938555274,0.8520031612,-2.5195678262,0.6637733926,-0.8734217244,-0.8897294167,0.7483864406,-0.0631622968,-0.4681276401,1.2836873218,0.7260692219,3.73499223,4.0195254166,1.6773008754,-6.8449711326,-0.8328595887,-1.9171780218,-0.0712039341
   -4.5962764608,9.8130001317,0.3194823634,-0.2070676218,-2.5144770648,28.8513414271,-0.536203534,-0.4659277012,-0.6966280336,-6.8435136774,0.0924502335,-0.6383745882,-0.9012972433,0.8624856731,-0.3284149308,1.2693382625,-1.5241722939,0.0049017435,0.5544180757,2.1796073192,0.2591503634,0.1432194105,-0.3856737853,0.5961702958,0.0241932498,-0.4581925865,0.6625566937,-0.8885401656,-1.0000175978,0.2101400276,-1.2254313937,0.2396768454,24.8734481301,-0.1059034816,-0.4163081485,-1.0030283253,2.156918133,-0.1494253297,-19.9773226714,0.7488930727,-0.1479338845,4.7643430379,-0.6527542293,0.6260991094,-0.8639069041,-2.8791156117,0.2811281647,0.439057429,-0.2865965686,0.2689385727,0.6612683373,-1.2314107462,0.1037431507,-0.566132102,-1.9238398909,1.8157569793,0.8618145666,-0.0894194282,-0.2635078204,-0.6367303259,-0.7355504136,-0.6493589714,-0.2822537437,-1.1320113395,-1.2868137652,-0.063816213,-0.4494024911,0.5336033548,3.7804486021,2.9265097087,-31.653118963,0.8470340473,0.2201888567,-3.451700429,4.8143395781,-2.7647834272,0.5680549702,0.3162170362,-0.7532680681,-5.2515443491,0.0770325313,-0.9942396143,3.2545876014,1.0789038417,1.2583199922,-0.821767844,0.2821231602,-0.0773388386,-1.7394680979,-3.9885648878,1.2732927494,1.2407500428,1.4335201651,-2.4778320121,-0.2780230202,-0.4968617584,-1.2247088555,-0.4215319491,0.3024485461,-0.0790228098,-0.5930395694,-0.9229994022,0.9127499254,0.0263161206,-1.7169403599,-5.1950740197,-17.7287293109,-0.290036591,0.2426156435,0.920993705,1.509074704,-0.6022791396,-14.2329600741,0.7770601054,0.0353067882,0.5430785323,-13.8469889987,-0.8733494832,-0.8466670838,-0.5233853865,-0.1569629065,-10.4741103918,-0.6846441695,0.9835504275,-0.1536410232,-0.3784707153,-0.9519729648,-0.8302041569,-1.8881204584,0.8634749967,2.1434816025,0.7997850993,0.6625461602,-0.1061908481,-0.1729003793,-0.0866290814,-0.0841801839,-0.6946690687,0.0594199268,0.4008281333,-0.2559426773,-0.5688947959,-9.8676679198,-6.3647241528,-0.7272464352,0.3841705468,0.5555371844,-6.0777113891,2.8534556951,-14.2540780634,0.8252883171,-6.14546686,-2.3806865206,4.4594018344,-0.0883207281,-0.6649264021,0.0878327968,0.5186637615,-5.5794631657,-0.1260196987,0.442193791,-0.4526349838,-3.998074569,-0.4067011786,-1.8723843479,2.433242741,0.1959781311,4.1617891176,-0.3287564956,10.5459984416,-3.6402188538,-0.2439710116,3.364530143,1.0024935351,0.5387007273,0.524971268,0.020366825,0.9571736482,24.6283001695,-4.4122107474,-14.5087925052,0.0317938287,0.584752823,1.2061523546,11.2333419708,9.4493994309,-5.2162994707,0.9622142222,-6.9445640101,7.7014876578,2.3508230898,0.8783093671,-0.431762682,-0.2517041774,8.4978684524,-5.2123048034,-3.5571039439,0.1647856129,-0.490719272,0.3162448718,-0.3384522262,-0.0300852467,4.9422578441,0.1087345252,0.2756067061,0.4109361026,1.4286765634,-0.869012524,-0.0398432515,-0.1253557038,-0.2744847464,0.0208326073,-0.0841733881,-0.0176649602,0.9314535887,0.9492066482,-1.0489886547,-1.1586480636,1.274879513,0.3838189614,-0.4530546989,-0.6855507502,0.3033222426,-8.0864607153,0.2165487731,-0.2623986475,2.2690218836,4.5397959402,0.7466136336,-0.7957175476,-0.2729286413,-0.7016664906,-0.1655456616,-0.4095584281,0.7358741834,0.7278789621,-1.3759716247,1.6473291787,-0.7694845336,-0.0054610625,-0.4892396804,2.6303129179,-0.957968947,-1.7497010495,0.6107624369,-1.0221053254,-0.4879838238,0.2922671678,0.0427278449,-0.9219176231,0.5795768442,-0.5445686306,-0.0311508857,-0.8565316875,14.2223688892,-0.8508083399,0.2465219438,-0.860222216,-0.4749969118,-0.7838152202,-0.4434492058,-0.0994327129,-0.1505024898,0.2534588378,6.3753883331,-0.6385659218,-0.9814767167,-0.3699732401,-0.7700659151,-2.8160154588,-1.7059907874,0.2130318597,-0.9722368232,0.9465367824,0.9641143009,0.0396382168,-0.109629021,-11.6658076964,0.5618494202,0.4465115203,-0.5381513659,-0.5971151281,-0.807783645,-0.4005372368,-0.7699384699,0.1999233775,-0.6200521516,0.4258234611,-0.3566915773,-1.7258114887,-0.5361832679,-0.6075792152,0.4902229686,-0.9187046121,1.1147735036,0.0658197385,3.2281888861,-6.9697092665,-0.1139427745,0.010790186,-1.9646089501,2.8543433798,-0.0349506919,0.0712040118,0.0823418195,0.0190768053,-1.6608058752,-0.8502118638,-0.412438573,-0.746351479,-1.3821607737,4.3454458116,0.8620373542,-11.7819500876,1.3431886238,-5.7352196071,0.1619488703,5.8975491226,4.2315784776,-0.9414131182,0.1289247346,-0.0303798868,-0.0752359592,0.6321133044,0.1977530685,1.0879488139,-1.753553292,-2.3126592297,-10.0369418884,49.7078176079,0.8850647769,3.1383478062,-1.740533567,4.5285984763,-6.3362434316,0.8963175248,9.8145322442,0.8164399462,12.111763124,-0.5909355124,0.8943521957,-3.2145468394,-6.1716806636,-3.0353641417,0.3040746095,-0.7534037892,0.5594105768,-3.9360175276,-0.72824188,-2.1392231457,-1.9114751945,-2.101531789,2.6354261329,-0.0874697482,2.8306232335,0.6731955221,-0.3043192312,-0.2129612366,1.8653934102,-0.6111443381,0.6457041654,-0.3161354315,-0.289610956,2.0474443758,2.89717937,-1.2815608092,-595.2398392752,0.5688756758,-0.9011126481,-3.1462815184,2.5517587393,-1.4092569708,0.8389787319,0.7265968473,-4.4446707958,5.390553101,-0.8409425363,0.314233123,1.3137207717,1.0009980943,1.6114734792,-25.6402062093,0.2180819182,-0.5076593816,-0.6012834867,6.9419585418,1.0831842373,2.2579461588,-0.563616803,0.7000586189,-0.7421485188,1.1002393292,-0.9805161516,-1.0465070403,-0.2067815312,-0.4016791438,0.7235460071,-0.2281264054,-0.9152985297,-0.372211448,0.1179144178,-1.9135179461,2.1277924171,0.5668879615,0.9531671135,-1.4661318384,-0.1269717664,4.6536932228,-1.847091266,0.9197010668,-1.1504718589,-0.4881695306,-1.1489891007,-0.6114450718,0.4878158306,-0.4627352634,-0.7420152716,-2.0241610011,0.5677473461,-0.5767883377,-1.2141018665,2.6872489236,2.5130779052,3.5963140861,-0.5563286646,-3.6589769533,3.5816289895,-0.4434868601,0.448193001,-2.4638085247,-0.6580489196,-0.2074699248,-0.2890649237,0.7297564613,-0.3755876261,0.4699005851,0.3185677876,-0.0172223798,2.7351404563,3.424916362,-1.7935779349,0.3869297362,-0.1789671935,-0.7556099438,-4.7128498465,6.485239579,0.3802650819,0.7051196859,-2.1323168229,-2.9703345735,-0.5562006893,0.3102431695,1.4842658118,-1.0396384941,0.5413032846,-0.7458724755,0.8012783554,-0.4646995434,0.755088404,0.3578382777,-0.7467650726,-1.9213910071,-0.8549679801,-0.1663275427,-1.2152496007,0.4417498088,-0.9655706055,0.1416368042,0.2638121637,0.8237105776,0.0021208524,-0.1489537846,0.3785069267,-0.0255628641,0.7652880661,3.5314923742,-1.2358705981,-0.8406287302,0.4416898673,0.1186520596,0.9520863936,-0.3394389525,-14.2530050029,0.8828445794,0.1041837795,0.4942023533,1.3803449871,0.0207841205,-0.3243357638,0.0790426073,-0.1297011006,-1.2237826239,0.1054951048,0.3773375337,-0.5074416505,0.0251025429,-0.3711374951,0.3818083665,0.3171117573,-0.9864874377,0.2420010204,-0.4110957937,-4.9562674085,0.3298238624,-0.7542318111,-0.9615312626,0.6493913065,0.4284214355,0.3165868186,-0.9724746696,-0.5842359211,-1.0100006212,-1.0921738302,-0.0070441685,-0.8905422004,0.8437549117,-2.5320435498,-6.9779958602,-2.3936800812,5.3419979859,-0.7749856206,-1.8856729658,4.8331875289,-6.0101877219,-0.6897325858,0.7466474137,0.4477969411,5.2243846592,5.0656631606,0.1703576798,-0.3650900821,-0.8327102392,-0.5243109426,5.847326539,-0.7632767702,2.9002135634,0.6776598529,3.5276829558,-1.0475195077,-5.3584171741,3.0545435837,0.7750596923,-0.9664548704,0.7045470251,-0.1279429925,-0.2288929369,1.7689401723,-1.3069855613,-0.8696713791,0.5749477243,-2.1562675522,0.5505663993,0.7415134757,-1.9442616161,-15.3554714547,3.5298247689,15.1819226488,0.8948514387,-2.4994548607,-2.984122925,-10.4149884062,-0.4768326437,-0.3321666249,0.4115821872,-5.6764597001,-4.2705344476,0.0579900752,-0.2444508137,-0.2841772482,0.7579211949,10.9725874674,-1.7327109294,5.0356636918,-2.8444665874,3.0914122112,2.5324053029,5.7032445143,1.2573121577,0.7988582729,-0.5145212808,0.0472450497,0.7777949754,-0.9273458815,0.3477825107,-1.6574078141,-5.0744295634,4.4530769109,1.0957658812,243.3406668921,-0.8893406838,3.0803743436,-2.8332817022,3.3150553974,20.6295501383,0.7052032071,-1.2884307444,1.0802696488,0.6155863097,0.7657259833,0.1189106,0.7181118814,4.751946726,-11.8518463188,-0.9529295099,-0.6043783443,0.7821291349,0.2573805563,-0.7549795519,-0.2369600474,0.6397418913,1.0462557248,6.5155790497,-0.4244534535,7.2557872401,-0.7349257587,0.3949034727,-0.0642419572,0.5370074611,-0.9932074391,0.1049977326,-0.0247667581,-1.6986236242,0.20844265,2.5643262026,-4.7685718056,-1.4137004874,0.0234082625,-4.7019479879,-3.5172659891,-7.5872468155,19.5253317436,0.0182015072,-0.883621783,8.0910016508,-9.6852350071,0.2070770317,-0.2104437357,-0.1832888717,2.8273467653,-20.5148258081,-1.6377515478,-0.9384961296,-0.0149526511,-0.5803539533,-0.3788576402,-1.0081672078,-0.763947736,-0.230514743,-0.3582773169,-0.9221202996,2.7656675343,-0.9546225476,0.3724572121,0.3649092741,0.5269927699,0.0917297246,-0.1162465117,-0.2315271831,0.4175904017,-0.0829189576,0.6000942144,-4.0036013613,-0.6562709172,0.7443972173,-0.3436470318,0.2556313334,1.0171115233,13.7246307066,-0.1733787075,-0.6848949898,0.2156228707,0.452591846,0.3292421529,0.3100338314,0.1206423208,0.5078286308,-0.1246302016,0.3486429598,-0.9756471924,0.0089554207,-1.6078954911,-2.3632397393,-0.6833008484,0.8083614738,6.4369375016,1.6522671748,1.5146977805,3.1047617441,0.8388862441,0.2094572552,-0.6973311231,0.3523462534,-0.9558236608,-0.6210776805,-0.6346313997,-1.8895958375,1.0413980202,1.2333085392,-0.6552360008,0.942288989,0.8111937148,-1.2460559587,-1.3600550882,-2.0033342452,20.2356691534,0.9922160376,0.7087291117,-0.8219059167,20.3974021251,-0.3343976294,0.564832215,1.9930676276,-6.5370447057,0.321227276,0.1973764615,-0.3100087612,-0.3685603345,-1.0707480107,-39.2251242093,-0.8572507386,0.690421626,0.5385599829,0.0301479311,-0.5543347079,1.6743574713,-1.2213205553,0.7066115842,0.0883083681,0.382588969,-0.885872986,0.2419344478,-0.4023150384,0.9596725081,-0.0949247002,-2.2168529351,1.4903102789,0.2287901905,0.0319997394,0.472946339,2.7008580588,13.9854490858,4.5587568583,0.5794750944,-2.2943663568,0.819152949,2.55984673,-0.3886044441,0.0241679731,1.9539939946,5.0095803083,0.046625322,0.875795041,0.7819617418,-0.4739128782,-3.1616688611,2.3349091672,-3.0639185855,0.3105291971,3.0973655453,-15.5035365937,0.12024808,-4.6400125306,-1.4846881799,-0.6202027639,2.2747023054,-0.4635546115,-0.9760437682,0.7493466002,-0.5223760631,3.0276689632,-0.4849150271,0.0239709449,-24.4130760393,-3.694287758,-0.1340418417,0.6143810992,2.8190073694,-1.308452863,4.3744724254,-0.1363205831,-0.7696564594,-4.4213083024,0.5957751399,-0.0746428039,-0.7965368991,-1.0673089518,-0.989488483,3.1682664362,-0.6625620958,-0.6384045452,-0.2804850329,0.6919028257,4.8253540303,-0.7740005223,2.142514345,-0.4772660966,-2.8874561061,-0.519812752,7.4649583128,0.2351998169,0.6535720038,-0.784014001,0.5784787832,-0.8430372451,0.4203692766,0.2994763988,0.907963237,-1.3941438757,5.8530223152,-10.9051029112,106.0790442529,-0.107910018,2.7346910427,22.0905416369,-3.4995624943,15.8072040553,-0.6662080203,-4.6881034667,5.9450531727,19.5738985617,-0.8634501117,0.3017407606,-3.8764626985,5.0195918501,-0.6128888281,-0.7032892436,0.6654500578,0.5401108046,0.2394369486,0.7813758688,-0.4481494836,-2.0711547536,-0.501472037,0.4400348423,1.0941244979,-4.4665870114,0.5744892965,-0.9979645354,-0.9376680808,0.0778748008,-0.1913924266,-0.0967086011,-0.9917662228,-0.0436736785,-0.8817937016,3.5093468832,-0.7515052906,0.3433742418,0.5656067783,-0.2243260504,0.7006820602,1.3198610265,-10.1749459746,-0.6513049107,0.472242908,-0.8434217121,0.264778309,0.8980200531,-0.5193891216,-0.591573912,1.6733423863,3.3458810547,-2.5521422686,-0.6793842491,-0.3813742589,-0.1864689907,-7.4952918536,0.4207042697,-2.5624930661,0.2212301625,-1.6437816863,-0.9704869555,-0.5140143165,0.1096570438,-0.0554449247,-0.2847158256,-0.248883936,-1.4893274614,-0.9284359517,-0.5271136753,-0.4840905247,-0.0716240489,-0.3500871855,-1.5166305804,-1.4850993214,0.2959058542,-0.7574702874,-0.6192655721,-1.3990247085,-1.0711650515,0.0952979331,-1.0252735586,1.8588344398,-2.0938043612,-0.6078361132,0.6847637061,-0.1355872394,-1.8560533863,5.1275503927,-5.8137150962,0.4413376942,0.2010333029,-0.1656709663,0.0943056958,-0.7323519676,-3.2611271186,-0.5885104768,0.122909523,-0.7227378263,1.8533441318,-0.1743020966,0.6363306938,0.4941734824,-0.3546915228,-0.9910848234,0.8954614481,-0.319999555,-0.8160464199,0.2669847065,0.2428510249,-0.2029765405,-1.0628519223,0.607355723,-0.3295168088,-0.7858579771,-0.0482899956,6.4074981104,-0.7203190549,-0.7423153166,-3.3503576654,-1.5438937714,0.3125581516,0.3880781277,0.2698808875,-0.3717844478,-2.4907012774,-0.2707941797,-0.0695142239,0.6936052932,0.6146011138,0.528613973,-0.8190126391,0.3275950928,-0.9105863171,0.0977386296,-0.3490734679,0.1902562565,0.23953258,-0.2680907472,0.0260751843,0.2742624826,0.8014903998,-0.5298464498,0.7401506616,0.0453470361,0.295125144,-0.6581341595,-0.6115575611,-0.3069762587,0.4771073616,-0.8983348261,-0.1560309832,-0.0774506637,19.5462180133,0.721401329,0.133731297,-0.7948521702,0.2632831496,0.096216709,0.593662395,-0.7546050074,0.8162457849,-0.1869300189,11.0048905442,-0.9534092909,0.308366581,-1.4362753875,-4.7005585079,2.6122138706,4.3104192543,0.6634607446,24.0394567066,-0.5586181137,-2.44495537,-3.0559569027,-0.214890687,0.2311269522,0.129548902,0.7021490162,0.6981343908,2.2498955342,-0.3822441895,0.0173364961,8.2186052009,-1.3547450263,0.7743141406,-0.7949306992,0.5523620121,-8.473163335,-5.0927854711,13.1059608242,0.1360696336,0.188568153,-0.968302379,5.8277539771,-0.5407610011,-0.2236640301,0.6413452369,-5.5704383744,57.2519812682,9.9223802318,0.7656689592,0.0262482678,-0.7483604207,-0.39428818,-0.5719529791,-0.5891477443,0.3893218083,1.0173558006,-0.1189410274,0.6478736278,0.1551510686,0.2306695659,0.3510834912,0.5832208828,0.5720385826,-0.4082757847,-0.1580314508,-0.1144933415,-0.2762507605,-0.6871728533,-1.8052966547,0.2550001601,-0.3494892332,-0.4094386818,0.5820273188,-0.4151848984,-5.9525809022,-0.3404087859,0.8210062724,-0.0143381251,-2.4270878876,-0.4754294873,0.8191044376,0.5124562975,-1.324062074,1.0163599814,0.5505503881,0.9130321079,0.1516079435,3.0430900604,3.7869140322,-4.3685301592,-7.3643336899,0.3331127531,-1.9668242575,2.187729888,-5.9916515237,0.5829124596,0.8019893431,0.6014046399,0.5907996717,0.2545772011,-0.9365856495,0.3424000503,-2.3233289439,-2.7623332264,-1.681114665,3.8960662272,-2.4011372329,-0.3012060017,-1.3978554984,1.5266658094,0.0380740482,-11.4152212148,-0.9519374259,0.4587919949,3.7592095548,-4.9268649579,0.4370926401,0.7662589251,-2.8881788769,1.3864086768,18.204842392,1.5964334455,0.1957211249,0.8371543893,0.608788456,0.6653902342,11.5188282081,4.7300917401,0.5617895512,-6.7220029037,2.4337928868,2.0729188925,-1.1850894969,0.4309450244,-0.7755455114,0.5667504061,-1.1235803031,0.5131864662,0.8649777932,-3.9183233039,0.3558683629,8.657584924,-11.6427518074,3.5439924612,0.8604738386,4.6941192537,-0.492910828,-13.8772464181,-5.0920310439,0.1771059712,4.5023880348,12.5790950245,3.8541902827,-0.6445750938,0.5316809758,-2.6543470647,-5.8545435834,-0.5261813073,1.1116243967,0.431359193,0.508909127,-0.0357935678,1.6848012079,1.8739399247,-0.1595420854,0.4479041573,-1.0618992029,-1.7809703882,1.1819315936,2.2392367981,1.1415594476,0.056980123,-0.3464586714,-0.3460184448,0.6772224197,-0.8817884417,1.0280783207,-0.6799215003,-2.5829599167,-5.6132220268,-0.6197271952,0.9358582897,0.6025901681,5.4951870026,3.8857654099,-7.8314158876,-0.6286302915,-4.0508175131,0.2200259403,-0.3724810253,0.0589345912,0.2311252967,-2.807025912,-18.5491733625,4.2891523261,-8.2855848496,0.205412408,-0.6031453279,-1.030459905,-0.5792930299,0.601087737,-0.728581985,-0.2901347885,0.2602782767,-0.0750989567,0.5199850958,0.1269058369,0.0153149787,0.3838572942,-0.929276834,0.2693874758,0.2793373117,0.4398296188,-0.3424200511,-0.7517626804,-0.0916812732,-0.239202958,-0.2114118775,0.970740472,-0.168080118,-0.0794829028,3.3828946677,-5.9583601881,0.4921640314,-0.7605356117,-0.7870472547,-0.23827336,-0.6916977074,0.823664979,-0.0650206297,-0.9741063827,-0.1329567327,0.0776400835,-0.2073159494,0.9822809837,0.6281963857,10.2009560743,-0.8147039244,0.5709354531,-1.0386209557,-0.0450747036,-0.094948757,-4.7050760681,0.2003789548,-0.3448409976,0.2560254194,0.4572476457,4.5672352637,0.7406642579,1.1431749563,0.6603283392,0.80475659,-1.7593689637,-1.0578234373,0.4910544315,-0.1246147468,-1.8050131566,2.4643940573,-3.7974247094,12.3128299272,-0.318842637,-0.2813176956,-0.4415732706,6.0249882738,0.748289667,0.0843343051,1.8516179409,2.1075405801,-6.4901936236,1.0281092354,-0.0639056345,0.1472840009,-1.3236003132,-0.8181911818,-0.77842024,-0.5166148656,0.4609432137,-1.5442780174,2.0704364465,-0.5423768687,0.342102333,-0.584689187,0.1051617989,0.6372630908,-0.708729302,-0.9421717009,-0.6402214362,0.3206128726,-0.3472450091,6.9505214878,-1.1133930908,-1.548591032,0.303078734,-3.2435462534,-1.2585992079,7.2864633147,8.3497596721,-0.5548225835,-0.0902860537,-1.0095951465,-2.3362034843,0.7283034501,-0.8436916125,0.7357150314,4.5175971749,-0.0265132274,-0.0605018129,-0.3046986653,0.9194046167,1.8707503077,-1.2261522534,-0.9729392881,0.337869725,1.0090447577,0.3242655923,-1.4575380846,-3.1014668957,-0.8416683403,-0.2685439949,-0.8350317593,0.2873018386,-0.4280541072,-0.7179667632,0.9138916198,0.0903452131,-0.0420448918,1.3565949649,2.387922581,1.0973710101,0.6969890221,-0.8749321371,0.7438624812,2.1613712298,-14.2052862594,-0.4167460927,0.8333174239,1.0407624881,-0.3104797176,0.4141553748,0.274053319,-0.004700363,-0.1676244295,0.413430345,-0.1452239933,0.5760855179,-0.4308020241,0.3697264643,-0.583470228,4.0288764063,-15.3926101146,-0.3417081227,-1.9824587703,-0.159022518,17.8314875087,-0.5380674309,-0.3892240857,1.2713771648,0.1671738062,0.4187076082,-1.1306329146,-0.5109075991,-2.2355700974,0.08986624,-6.7879129202,31.8231970445,1229.1564739847,0.0290076756,-0.467669913,5.5282823336,18.2907495327,4.5266798126,0.5231946919,-0.8320130999,5.2488048907,0.1995381716,0.7219385439,-0.8816247088,-0.08950222,0.2182303449,-4.7596101243,26.1681915109,-0.3329869608,-0.4800254927,0.1925345191,-3.6518054895,0.2867591603,0.6886476422,-0.8761656019,-4.1448779905,0.0385924601,-6.573494908,-1.9563673563,0.8996416309,0.8602456877,-0.869138564,-0.1292412432,-0.0727461064,1.0124467301,0.1264616337,1.5000660306,4.120981858,-23.9361068922,151.58509609,0.8489720299,8.3637646581,-0.9282450184,-2.6170144773,2.9558874265,-0.7586517929,-4.794052688,-59.008822162,-0.0331183513,0.8727555615,0.4471156772,-0.3274752577,3.8359485729,27.5968909408,-0.3607591883,0.2741810089,-0.9534033429,-0.3547708275,-1.089040693,-0.2949453534,0.2760860657,-0.832396483,-0.0935737818,-0.6804106044,-0.7007643217,0.284781786,-0.3717816736,-0.1877932468,0.0616546131,-0.8812283824,0.5304337279,0.9818446068,-0.4850243802,0.5804493732,0.5736531013,-0.5351378905,0.1018801049,0.6413606702,0.578359581,-0.2056087097,0.206048508,3.0507850895,-0.4947476785,0.5086319305,0.0180995637,0.7257293761,0.3953034976,-0.5780171052,1.0190378206,-0.9603257574,-0.0188764079,9.6791512137,0.0010365308,0.3462014368,0.1828518076,-0.4183783439,-0.6084891666,0.7834095533,-0.3257089867,-1.441444533,-0.3281239271,-0.9702728387,0.5614599147,0.2234887024,-0.6580961439,-0.6363827436,0.9758786935,0.5257936717,-0.6867660134,-0.9141384874,0.4524793081,0.0298685866,-3.5193277763,-0.3143927543,0.7170485816,0.455923557,2.2192678085,0.0479610733,4.8040494033,-0.0059630438,-0.1525980922,-0.4969795831,-1.2806116345,-0.897023226,-0.7906314171,0.9165828841,-0.0534265614,1.6270624818,4.8560201574,0.6473228744,0.0833931845,-1.9345002071,-4.2266894084,4.9940377289,-9.8279917876,2.3723325401,11.9607628275,-1.2791591931,13.1149435212,0.4714764231,-1.0392712174,-0.7529347747,-0.3280951276,0.235691772,0.6722708031,0.2591533613,-4.4849925369,-1.7179196771,2.8585027723,-17.3325012356,0.6387915046,0.0120983399,-0.516109201,9.7060367738,-1.0754496491,-3.946354851,-0.0249239789,-1.4596421922,-4.34811149,-0.5731620614,0.617000275,0.6605535968,-0.2754972828,-3.2476471523,3.1122659608,-0.6787168144,-0.5456466263,0.3733194359,-0.2509383704,0.2724695479,0.1207832728,0.5214819006,0.9676556732,-0.7433429721,0.5097608583,0.5836292738,0.4054048228,0.7534810288,-0.6630090763,-0.4541575362,-0.2844296763,0.5279081636,-0.4656153007,-0.299737091,0.9573632948,-0.0446081004,0.4769612796,-0.657779871,-0.4258137901,0.4705627893,-1.3885404927,0.037091298,-14.2650603487,-0.4806624034,-0.2993588813,0.6746887129,-0.3811291215,-0.4707123002,0.285571288,0.4940596937,-0.0385866593,0.4825066066,0.0807863856,-0.5906949684,-0.0599587708,0.5893784008,2.9003319804,-0.3496776412,1.3378993293,0.0703696826,0.6947305076,0.1209947762,4.1956171105,-3.4858492389,0.5469950756,-0.9301110709,-0.9309660429,-0.0288243568,0.8227295062,-0.3799268805,2.5459824384,-1.5950852828,0.5238245862,-4.7279672969,1.3983903704,-0.930432165,-0.9716076705,0.5151149619,0.2568286624,-6.8176247082,-0.2357656934,-0.7432966213,-0.7438574106,3.058927779,-0.8783045598,-0.5077095402,0.1565189772,1.1935867984,-0.0441296608,0.6548232349,0.0284018559,0.6461201139,-2.8023035869,-1.7126708588,5.0483258659,3.1014867659,-0.1176212056,2.5864202445,-1.0842399091,2.4647692702,-4.2976247964,0.8499470943,0.6575091973,0.9227462212,1.7031837895,1.0020637521,0.4061949731,-1.6079455714,0.6018840073,3.7756211321,-2.8153477444,-0.7153293323,0.8249020091,3.2241260752,-0.8153342395,-4.9546645696,13.8970628776,0.5185187857,0.9205314403,-0.4912634339,5.8418140054,0.3091683227,0.282583851,-0.1082485283,-7.1407228407,36.9939179399,6.4731622781,-0.2240562482,-0.6222876371
##end
biasActivation=0,1,1
[BASIC:ACTIVATION]
"ActivationSigmoid"
"ActivationSigmoid"
"ActivationLinear"
